4		784		10		relu		softmax

184
-0.0945111		-0.344053		-0.0408213		-0.127242		0.2627		-0.158509		-0.369971		0.175542		0.292438		-0.0265155		0.400512		0.107358		0.0574751		0.311494		0.27283		0.134393		-0.136297		-0.0592182		-0.316982		0.0142983		0.131181		0.430826		-0.0663061		0.409434		-0.477703		-0.0810932		0.152368		-0.222861		0.0114667		0.303349		0.116599		-0.00633144		0.37583		-0.459062		0.0419514		-0.288911		-0.424877		-0.367916		0.433745		-0.165417		-0.172794		-0.364538		-0.455359		0.442803		-0.209359		-0.340962		-0.0831647		-0.241587		0.352689		-0.281645		0.238447		-0.139891		0.411972		-0.389775		0.241705		-0.236774		0.0990735		0.177538		0.375784		0.223604		-0.293936		-0.262122		0.261171		-0.227686		-0.234806		0.306982		-0.454109		-0.410397		-0.0920274		0.0970709		-0.298593		-0.239873		0.342882		0.18214		0.232717		0.351174		0.445945		-0.203194		0.0283596		0.017748		0.386159		0.155925		-0.282144		0.111703		-0.467233		-0.351378		-0.171931		-0.499872		0.0612333		0.410676		-0.0714741		0.111678		-0.466295		-0.310545		0.361096		-0.295023		0.315362		-0.0400498		0.347575		0.235719		0.200932		-0.130943		-0.34456		-0.424696		-0.175029		0.203212		-0.426523		-0.488633		0.107078		0.206933		-0.43868		0.466116		-0.280056		-0.107335		-0.348415		-0.180703		0.0318874		0.10911		-0.0939344		0.218428		0.19739		-0.382462		-0.419402		-0.320707		0.0838315		0.387085		-0.000637008		0.364165		-0.0489584		-0.215447		-0.31642		0.100167		0.186176		-0.0739807		-0.473829		0.209045		-0.0515695		-0.0475953		-0.414128		-0.22804		-0.0114356		0.0382769		0.1025		-0.0438175		0.183391		-0.338477		-0.164986		-0.361836		-0.210348		-0.149669		-0.373573		0.296443		0.387415		-0.0779488		-0.411661		-0.322164		0.308215		-0.395158		0.0634457		-0.500558		-0.434217		0.128682		-0.0216909		-0.0104401		0.0722179		-0.370753		0.0190785		0.0905318		-0.0950285		-0.283022		-0.0867455		0.45989		-0.176416		-0.0860514		-0.437889		0.102559		0.332428		-0.0376705		-0.405106		-0.0586541		0.215608		-0.248462		-0.232502		0.418691		0.219503		0.0753843		-0.391938		-0.0202053		0.305059		0.107463		0.179179		-0.511799		0.33695		-0.487407		-0.49118		-0.0025531		-0.251841		-0.327108		0.272436		-0.17814		0.390864		-0.464426		0.268587		0.339606		0.317557		0.0421326		-0.251875		0.0621261		0.253363		-0.293117		0.314102		-0.246673		0.348796		-0.144079		0.323674		0.110985		0.346638		-0.199612		0.41397		0.216413		0.336876		-0.169673		0.451216		-0.424128		0.321282		0.220344		-0.0218035		0.424033		-0.378738		-0.132583		0.217824		-0.226885		0.464126		0.501297		0.0791228		0.362106		0.283512		0.415648		0.322451		-0.284208		-0.1614		0.220358		0.401131		0.387471		0.152952		-0.246027		-0.335276		0.166466		0.265392		-0.0525906		-0.256289		0.019201		-0.265335		0.138454		0.0963836		-0.0255457		-0.110705		0.165985		-0.189569		-0.404746		-0.353796		-0.331248		-0.208848		-0.282633		-0.0967614		0.247068		-0.12942		0.411847		0.0913102		0.532258		0.231302		-0.421439		-0.234797		0.296606		0.101408		-0.115289		0.460674		0.172075		0.484443		0.486406		-0.462611		0.215964		-0.0397677		-0.401421		0.0167388		0.0736669		0.00821791		-0.121304		-0.246337		-0.377481		-0.120308		0.275799		-0.492903		0.152825		0.103822		-0.0489854		0.161284		0.456746		0.085347		-0.341639		0.0623384		0.0662649		0.300583		-0.245877		0.0224567		-0.502987		0.296688		-0.309575		-0.197903		0.184768		0.450693		0.129883		-0.475174		0.133613		-0.488527		0.0288239		-0.237187		0.125479		-0.385957		-0.171353		-0.230104		-0.372647		0.362823		-0.210223		0.133499		-0.393471		0.227496		0.487123		0.554636		0.487535		-0.436599		-0.0531214		0.367326		-0.0264318		0.279766		0.472044		-0.204977		-0.109683		-0.285611		-0.408141		0.486142		-0.192445		0.00712494		0.283456		-0.372014		0.240687		0.127865		0.37866		0.0979322		0.0747429		-0.503726		-0.103946		0.32585		-0.232266		-0.0264852		0.420283		0.205929		-0.0081239		-0.381566		-0.110369		-0.506039		-0.233764		-0.119869		-0.00522845		-0.0600807		0.28575		0.138997		0.277921		0.301509		0.311936		0.213635		0.342244		-0.0182583		0.299029		0.194408		-0.26563		-0.375749		-0.429008		-0.363241		0.150201		0.360159		-0.208402		-0.0465929		0.509118		0.29944		-0.256576		-0.148195		-0.277214		-0.0346009		0.071361		-0.242444		0.367996		0.434031		-0.480226		-0.150349		0.296841		0.115132		0.409711		-0.267192		0.147372		0.31025		0.172094		-0.215599		0.106384		-0.156907		-0.108966		-0.354627		0.27526		0.403153		-0.397612		0.5485		0.310763		0.3514		0.351572		0.386713		0.337406		0.470019		-0.199325		-0.136196		-0.428633		-0.271861		-0.457597		-0.224876		-0.0829518		0.156351		-0.261674		-0.482756		0.238115		0.0452193		-0.249954		-0.508868		0.278748		-0.201011		0.316561		-0.187943		-0.358355		-0.138425		0.032951		-0.111049		0.0621505		0.335025		-0.0455061		0.441068		0.157163		-0.198106		0.484019		0.447374		0.066634		0.222247		0.303704		0.481679		0.150364		-0.343908		0.262386		-0.190112		-0.292798		-0.285567		-0.218004		0.427022		0.337081		0.437821		-0.276301		-0.246915		0.118311		0.481215		-0.170988		0.446992		0.325613		-0.168779		0.201388		-0.422189		0.0694928		-0.278146		0.4879		0.0478395		0.440459		0.00888467		0.18406		-0.16995		-0.199518		-0.138955		-0.465413		-0.144869		-0.204602		0.448522		0.118516		0.181974		-0.299401		-0.410119		-0.229374		-0.487406		0.382551		-0.335762		0.408073		0.450508		-0.0573693		0.282385		-0.0290752		-0.405643		0.0213156		0.278009		-0.0855962		-0.00782862		0.186223		0.119618		-0.336757		0.0805425		0.293877		0.478095		-0.355301		0.0961724		-0.333658		0.186014		-0.459465		-0.120009		-0.498569		-0.0231817		-0.244196		-0.317969		-0.113843		-0.383572		0.199565		0.46797		-0.355135		0.238537		-0.0406938		-0.037155		-0.178952		-0.458686		0.0461793		-0.0914407		-0.103351		0.419245		0.148878		-0.0692128		-0.407478		-0.000565737		0.0461096		-0.447916		0.249051		0.363686		0.0468435		-0.0441631		-0.307902		-0.127779		-0.268645		-0.118273		0.331814		-0.425037		0.418814		-0.0086554		-0.0378057		-0.196167		-0.314875		0.338409		0.0834578		-0.285696		-0.48341		-0.295321		0.297213		-0.220646		-0.496973		0.307323		-0.290924		-0.361878		-0.060723		-0.529242		0.208051		-0.517456		-0.519719		-0.139954		-0.414834		0.410267		0.324107		-0.3192		-0.113522		0.035818		-0.0742592		0.28477		0.11406		-0.105651		0.0162182		-0.307661		0.175428		-0.207189		-0.500288		0.318386		-0.0083433		-0.472277		-0.327253		-0.0523214		-0.130491		-0.430058		0.0279485		0.289814		-0.309546		-0.166341		0.253619		0.268961		-0.0859316		-0.235416		0.113012		0.0345332		0.393554		0.00195094		0.00732961		-0.121985		0.156477		-0.454678		-0.394572		-0.0648598		0.223293		-0.100575		0.3968		0.165406		0.0551746		-0.0438346		0.392581		-0.493782		0.181068		0.495718		0.447342		-0.0856915		0.206668		-0.147809		0.281367		0.206273		-0.452545		-0.0130625		0.0184687		0.329456		0.245714		-0.267317		-0.203317		-0.48235		0.207022		-0.233107		0.453784		0.207801		0.261911		0.443447		0.00372763		0.41634		-0.281819		0.0763524		0.0900273		0.146197		-0.158968		-0.331315		0.497748		-0.185064		-0.174629		0.149582		-0.0411331		0.304276		-0.169906		0.439097		-0.285421		0.303148		0.127807		-0.0538877		-0.0414447		-0.143654		-0.128941		-0.331304		0.119008		0.162979		-0.140005		0.324327		0.2227		0.165467		-0.488441		0.423432		0.483873		0.2139		-0.136882		-0.400203		-0.0610754		0.467686		-0.18294		0.0981829		0.115829		-0.356114		0.4524		0.251281		-0.258416		0.0461441		0.145591		-0.484587		0.350334		-0.241211		-0.269493		0.292697		0.329314		0.497937		-0.225336		-0.265184		-0.19273		0.171332		-0.114517		-0.180008		0.14954		0.109931		0.391238		-0.0800024		0.319067		-0.353499		-0.480314		0.42311		-0.395547		-0.0225309		-0.226214		0.407903		-0.401483		-0.184537		-0.380759		0.344239		0.264613		-0.107316		0.285487		0.170805		0.315628		-0.155212		-0.387027		-0.269569		0.0409864		0.41877		0.121934		-0.297166		-0.151598		0.398952		0.402908		0.430683		0.234338		0.181466		0.215995		-0.428982		-0.428031		0.487572		-0.0649178		-0.110118		0.172053		0.166485		-0.440341		0.0198658		-0.174538		0.132397		-0.112062		0.0519477		0.0782555		0.0844793		0.264975		0.401307		-0.11072		0.480518		0.144169		-0.43975		-0.236614		0.357494		0.383134		-0.334598		0.154783		-0.456255		-0.212449		0.185903		-0.379655		-0.00638692		-0.360077		0.380351		-0.152194		-0.245578		-0.125438		0.01159		-0.363156		0.118029		0.00837056		-0.496552		0.126902		0.312757		-0.0109338		0.306688		0.136264		0.314575		-0.478348		-0.0429381		
0.478223		0.302472		0.283921		0.186306		0.0985238		0.0774819		-0.0663081		0.0526881		-0.245419		-0.280376		-0.0291827		-0.28416		0.258536		0.445648		0.0661271		0.327157		0.204407		-0.198367		-0.44653		0.158997		-0.0234172		0.049281		-0.481337		0.13531		-0.429896		0.087004		-0.353237		0.354067		0.437442		-0.420435		-0.25864		0.087008		0.158275		0.455196		-0.175403		-0.481352		-0.0854812		0.12794		-0.356997		-0.053414		0.453083		0.00286659		0.0102186		-0.0539387		0.495842		0.111974		-0.0779187		0.188075		-0.469717		-0.205214		-0.274577		0.405325		0.440558		-0.214146		-0.0615792		0.449213		-0.336533		0.480022		0.0688991		0.207247		0.454221		-0.260438		-0.12764		0.360075		0.144213		-0.241593		-0.172832		-0.132579		0.464204		-0.382738		-0.238997		0.226401		0.410184		0.429313		-0.42974		-0.0533805		0.372265		-0.0640245		0.0732254		-0.0162282		-0.433061		-0.000283152		-0.302339		0.102547		0.260547		-0.0568403		0.0333158		-0.121975		-0.0828419		-0.00510679		-0.489925		-0.408843		-0.404276		0.260169		-0.436916		0.497337		0.500587		-0.417211		-0.413199		-0.215758		0.377028		-0.338024		-0.460185		-0.111847		-0.493305		-0.0936764		0.259058		-0.441225		-0.440975		0.0109067		-0.246512		0.453558		-0.196133		-0.479042		-0.242639		-0.14333		-0.0961451		-0.201548		-0.0199156		0.224188		0.251053		0.308323		0.11098		-0.142775		0.261447		0.124161		0.215833		-0.110644		0.294914		-0.208365		0.161995		-0.153066		0.0891619		-0.427282		-0.497751		0.338157		0.116997		0.371647		0.249161		-0.15243		0.262105		0.277164		0.00189638		0.197328		-0.317674		0.0662905		-0.486008		0.411469		-0.0357945		0.039742		0.488534		0.181073		-0.510045		-0.446054		0.0442304		0.156418		0.166985		-0.21302		0.116671		0.389556		-0.319066		0.47279		-0.128693		0.34049		-0.0943006		-0.33661		-0.363306		0.226483		0.212947		0.140258		0.453071		0.246374		0.366105		-0.0848152		0.428786		-0.474902		0.147236		-0.124201		0.487823		-0.48354		0.397743		-0.131465		-0.52066		-0.209534		0.361095		0.457801		0.0539513		0.261812		0.361448		-0.18395		0.15165		0.23347		0.431828		0.270159		-0.423967		-0.395799		0.415101		0.140295		0.0523717		-0.047164		0.485788		0.381006		0.430364		0.434028		-0.0766664		-0.432885		-0.242537		0.16176		0.215648		-0.0987748		0.316614		-0.214526		0.3342		0.0609246		0.085427		-0.362133		0.457348		-0.319923		0.220439		0.0527828		-0.467981		0.0451928		0.486439		0.141078		-0.475117		0.130994		0.0859768		0.0408849		0.14505		-0.187166		0.223795		-0.00420014		-0.0135037		-0.346262		0.191623		0.397204		0.0725906		-0.278356		-0.419532		0.0738259		0.243544		-0.262362		0.270728		-0.10283		0.331074		-0.19941		-0.028821		0.287362		-0.37064		-0.221884		0.0992812		0.472947		-0.452205		0.315071		-0.0163594		-0.343841		0.271453		0.478592		0.332436		0.415095		0.17433		0.106729		-0.0519264		0.452239		0.173173		-0.409968		-0.0794155		-0.0333256		0.261317		0.312741		-0.245596		-0.141979		0.365702		-0.175467		0.112894		0.0749427		0.106501		-0.254117		0.118557		0.38961		-0.205988		-0.450704		0.399323		-0.463947		0.417152		0.155932		0.301284		-0.128046		-0.357442		0.0758201		-0.0555094		0.223223		0.394124		0.422039		0.365933		-0.387805		-0.0759424		0.334215		-0.0739779		0.0670229		0.383631		-0.348868		0.348447		-0.340115		-0.345646		-0.212804		0.236321		0.331726		0.362206		-0.0187131		0.0537561		-0.233503		0.29108		-0.340031		-0.0322801		0.438524		-0.161549		-0.149746		0.318932		0.318901		-0.494886		-0.439479		-0.402243		0.451179		-0.451185		-0.430155		-0.34335		0.297013		0.223803		-0.415286		0.216874		-0.376737		-0.380767		-0.00177067		-0.285495		-0.243041		-0.210794		0.146008		0.0343511		0.0475046		0.359139		-0.0739987		0.0526287		0.383885		0.426486		-0.371667		-0.378403		-0.381185		0.0619489		-0.0449092		-0.00491927		0.417796		0.154482		0.346337		-0.218368		-0.0939106		-0.315315		0.423044		0.311418		-0.133234		-0.0652812		0.344957		-0.270069		-0.209701		0.429053		0.456699		-0.254938		-0.346077		-0.495178		0.479445		0.251982		-0.119979		0.226963		0.0587879		0.470504		-0.007642		-0.109674		-0.234651		0.353223		-0.525956		-0.0358862		0.0129437		-0.325761		0.193898		0.00290857		-0.398968		-0.335223		-0.2026		-0.022092		-0.465101		-0.25266		-0.187654		0.261034		-0.086346		0.371409		-0.475362		0.0880874		0.0193593		-0.206162		-0.313605		0.165907		0.3325		0.209851		0.0374686		-0.23454		-0.360876		-0.411215		0.456213		0.231346		-0.00100014		0.449076		-0.305574		0.0119983		0.432764		-0.119923		0.332853		-0.137232		-0.19671		-0.280474		0.318879		0.0108429		-0.318019		-0.0579283		0.198859		-0.379414		0.103443		-0.0504905		-0.267283		0.274626		0.360018		0.261597		0.185311		-0.114587		-0.405099		-0.175249		-0.105879		0.204732		0.00992508		0.33406		-0.277613		0.201454		-0.185292		0.0405063		-0.201293		0.0541209		-0.0123387		-0.340924		0.30773		0.164397		-0.432827		0.167529		0.268428		0.418207		-0.437073		-0.298916		0.00140134		-0.15551		-0.292616		-0.429607		-0.272308		-0.397719		0.229297		0.195566		-0.243496		-0.371802		0.261591		-0.317082		0.393026		-0.019416		-0.434752		-0.107706		-0.484833		0.18587		0.0377769		-0.324394		0.467337		0.35914		-0.0239014		0.287515		0.359368		-0.350602		-0.16128		-0.0486709		0.232841		-0.520793		-0.423327		0.236871		-0.430592		-0.0691556		0.121532		0.0973884		0.279417		-0.277696		0.0622979		0.0462885		0.0818638		-0.0766992		-0.380081		0.468614		-0.224364		-0.154197		-0.502817		0.0255188		-0.437266		0.0651522		-0.201478		-0.346979		0.088632		0.184826		-0.248951		0.413587		0.0974458		-0.343587		0.361677		-0.393155		-0.37697		0.264843		-0.447367		-0.214397		0.435758		-0.435796		0.514331		0.404687		-0.417209		0.218165		0.260004		-0.284253		-0.341065		0.166856		-0.179755		-0.269234		0.466192		0.244351		-0.479477		-0.146127		-0.0766838		0.0725848		-0.361313		-0.314578		-0.297638		0.270264		-0.257431		0.344313		-0.136127		-0.0162834		0.0465412		0.045687		-0.143571		0.460292		-0.042724		0.16274		-0.243871		-0.396087		0.438639		-0.0996015		-0.240634		0.000279097		-0.01269		0.450339		0.10404		-0.417179		-0.160128		0.13312		0.333557		0.114443		0.141984		-0.00705981		0.351634		0.0109746		0.254975		0.33406		-0.0391643		-0.0756864		-0.489605		-0.478416		0.0875366		0.411117		0.0686217		0.385913		0.0996086		0.423657		0.251014		0.0299902		0.453829		0.0831894		0.0162191		0.213498		0.266797		0.386003		0.416062		-0.363846		-0.0169972		-0.00618738		0.437371		-0.0437091		0.224146		-0.479348		-0.471146		-0.134284		-0.519191		-0.339983		-0.480004		0.295197		-0.0103544		0.0611067		-0.376401		0.0632972		-0.396756		0.239896		-0.420096		-0.0352449		0.203678		0.424887		0.147966		0.000845669		-0.176045		-0.130427		0.487905		-0.0670036		0.355603		0.0379943		0.145799		0.164289		-0.127733		-0.440229		-0.294462		-0.272228		-0.309805		-0.157584		0.39259		-0.252008		-0.317452		-0.0403429		-0.239221		-0.0850435		0.125669		-0.00583387		-0.416104		0.275403		-0.379819		0.0939785		-0.372097		0.0808394		-0.179395		-0.46369		-0.296656		-0.218439		0.138232		0.242515		0.0800588		0.344324		-0.265493		0.320631		-0.0507995		0.393287		-0.124861		0.278499		0.149338		-0.0371655		-0.269		0.263086		-0.335642		0.398622		-0.337406		0.0772272		0.269249		0.30263		-0.310594		0.484799		0.0289406		-0.123665		0.210269		0.0492141		0.260586		0.129263		0.385646		0.473607		-0.0384013		0.495015		-0.0160012		-0.342756		0.091319		0.322946		-0.170259		-0.179355		-0.403143		-0.0878248		0.436275		0.313189		-0.276639		-0.382378		0.478272		0.362098		0.00946256		0.146071		0.215996		0.0308445		-0.171988		0.497837		-0.422299		0.319435		-0.00476155		-0.239995		-0.289912		0.117071		-0.323671		-0.298184		0.0237516		0.195345		-0.25212		0.359788		-0.435301		0.0607447		0.440526		-0.215628		0.295863		-0.10982		0.475014		0.317159		-0.0935492		0.0422032		0.19766		0.137039		-0.146687		-0.113693		-0.192432		0.053094		-0.487746		0.4281		0.174886		-0.104051		0.172764		-0.256909		0.338097		0.249454		-0.494547		-0.321638		-0.00249707		0.201843		-0.225106		0.399304		-0.439984		-0.318019		-0.467307		0.177081		0.0378448		0.0852421		-0.0702691		0.0538508		0.188901		-0.426086		0.212077		0.488362		0.293872		-0.269259		0.1401		-0.00329313		-0.154076		-0.368606		-0.402393		0.115387		0.442247		0.45924		-0.25295		0.225254		-0.0385824		-0.219268		0.306762		-0.121163		0.0175987		0.196281		0.309409		-0.188761		-0.269212		0.334292		-0.344611		0.34797		-0.280008		-0.0653761		0.348526		-0.0238684		-0.292294		-0.0186892		0.429454		0.00797904		
0.499957		0.487558		-0.363141		-0.357759		-0.406402		-0.451706		0.317316		-0.189658		-0.396602		-0.282305		0.201794		0.18897		-0.463538		-0.00301564		0.377584		-0.285793		-0.34647		-0.120479		-0.0648548		-0.013919		-0.0258391		-0.216968		-0.403199		-0.1732		0.216392		0.189799		-0.156154		-0.092544		0.116606		0.313058		-0.210772		0.429087		-0.213665		-0.466932		-0.403147		-0.0432621		0.0150341		0.392282		0.439255		0.0382209		0.447425		0.272308		-0.453583		-0.197828		0.2324		-0.138052		-0.203351		0.199345		0.345785		0.25686		0.26326		-0.0758171		0.394834		-0.19041		-0.258207		0.185554		0.107165		0.258303		0.187015		-0.284689		-0.0205181		0.000916719		0.490231		0.437114		0.121038		0.42002		0.083461		-0.0274229		-0.0648383		0.0472382		-0.463419		-0.210188		-0.483735		-0.0486288		0.44841		-0.271307		0.33495		0.0998991		-0.222528		-0.421655		-0.31785		0.174636		-0.189842		0.445439		0.296701		-0.157716		-0.031335		0.131047		0.0799579		0.440079		0.238598		-0.222498		-0.0996412		0.321795		0.0735763		0.340262		-0.119501		-0.375099		-0.0858874		0.393797		0.234468		0.201768		-0.23752		0.0125747		0.476076		0.106167		-0.395611		0.019442		-0.0343237		0.475983		0.385481		0.193172		0.38143		-0.123443		0.139454		-0.475927		0.385607		-0.0594051		-0.000305928		-0.291374		-0.306871		-0.44418		-0.105953		0.373789		-0.177905		0.223353		0.0350235		-0.317306		-0.348611		0.106615		-0.404714		0.36098		-0.403441		-0.26202		0.470443		0.170766		0.134467		-0.41738		-0.215108		-0.493626		-0.467603		-0.209103		-0.306517		-0.283506		-0.335727		-0.321585		0.143117		-0.0700992		-0.178728		-0.0536666		-0.114094		-0.0209877		-0.246032		-0.32999		0.485862		-0.345187		0.190491		0.189934		0.0698638		-0.117239		-0.111844		-0.128839		-0.107158		0.0933794		-0.149532		-0.00292128		-0.0178786		-0.388551		0.117999		0.0622098		-0.173834		0.424791		-0.429753		-0.0375208		0.358217		-0.319269		0.0774655		-0.317145		0.198782		0.128302		-0.418766		0.17829		0.397023		-0.474642		0.127223		-0.213371		-0.280539		-0.326564		-0.0379105		0.466662		0.0830596		-0.370659		0.0351096		0.156761		0.0762504		-0.135588		-0.294156		-0.331152		0.112024		0.0855747		-0.315393		-0.185029		0.444135		-0.0560023		-0.136933		0.0369264		0.20013		0.153954		0.0772402		-0.107477		-0.493901		-0.240415		0.2418		-0.0870814		0.239108		0.226957		0.406379		0.236211		-0.0196101		-0.389591		0.173367		0.488021		0.488254		-0.393952		0.0559542		-0.432819		0.0215623		0.492329		0.0893457		0.178889		-0.191796		0.424294		0.0470351		-0.0658029		-0.364461		-0.216902		-0.109939		-0.0181225		-0.403808		0.189319		0.426204		-0.217806		0.108261		-0.501302		-0.192564		0.053893		0.177066		-0.474476		-0.165235		-0.463451		0.0145686		0.457937		0.0952524		-0.138362		0.449284		-0.0245322		-0.442207		-0.391067		0.345593		0.222584		0.15499		-0.484918		-0.242979		0.243415		-0.298522		0.193214		0.184744		-0.498005		0.270457		-0.0614998		0.471728		0.419087		-0.102306		-0.395967		-0.324257		-0.0614512		0.346884		0.104446		-0.368732		-0.450734		0.478839		-0.335756		0.292306		0.387755		-0.282839		-0.351631		-0.410672		0.421718		0.375894		-0.228637		0.144628		0.132083		-0.163068		0.411053		-0.472336		0.0328106		-0.109283		-0.19631		-0.499989		-0.350975		-0.227401		0.463761		-0.139075		0.224187		-0.00918391		-0.344731		0.174292		-0.0487863		-0.208261		-0.104936		-0.446719		-0.401311		0.449882		-0.310794		-0.166651		-0.168662		0.0679318		0.274485		-0.327426		-0.216031		-0.186507		0.21372		-0.153943		0.47862		-0.455903		-0.286855		0.457059		-0.000194248		-0.184457		0.0523095		0.494135		-0.365686		-0.373325		0.402623		-0.139208		-0.405958		-0.301678		-0.484474		-0.432719		0.488167		-0.108737		-0.0457331		-0.0875717		-0.0730311		-0.373552		0.0612648		-0.224882		0.412032		-0.414653		0.246341		0.271106		-0.0572237		0.146593		-0.090278		-0.0769741		-0.462428		0.331611		-0.204657		0.426426		-0.285516		-0.454494		0.156136		-0.24535		0.0971509		-0.103896		0.383646		-0.261514		0.402406		0.170326		0.435998		-0.195139		-0.191655		-0.239437		-0.40355		-0.0919811		-0.191845		0.467045		0.0650838		-0.164146		-0.382703		-0.0733753		0.387436		-0.290325		-0.20979		0.382225		0.307426		-0.0447747		0.248899		-0.118544		0.450928		0.404674		-0.1128		-0.288587		0.254266		0.00505418		0.481704		0.363888		-0.132832		0.25551		0.0693985		-0.439346		0.350969		-0.00628597		0.0764835		0.409563		0.41241		-0.510472		-0.422478		-0.25967		-0.320289		-0.434232		-0.414466		-0.475658		-0.108144		0.212809		0.159943		-0.0943674		-0.3065		0.393721		-0.157653		0.22213		0.25902		0.180507		-0.177706		0.0204817		-0.12214		-0.280258		-0.289883		0.188015		0.208091		0.0760725		-0.077717		0.300968		-0.360518		0.00742089		-0.0963206		-0.396485		0.471138		-0.121861		0.383359		-0.0796027		0.153063		0.422727		0.0275728		-0.283733		-0.200982		0.263518		-0.478871		-0.0127613		0.163646		-0.426014		0.198425		0.373116		0.182754		-0.459845		0.277829		-0.0040985		-0.169907		0.443167		-0.332752		-0.36576		0.0582443		-0.332419		0.0631419		0.205253		0.336749		-0.356459		-0.477762		0.0909917		-0.0932592		0.0184153		0.0403102		-0.435409		0.0775844		0.249367		-0.45459		-0.0345677		0.190619		0.328346		-0.0792412		0.221159		-0.40732		0.338809		-0.228574		0.0373001		-0.0315709		-0.312251		0.221811		0.0924539		-0.27612		0.233012		0.188851		-0.0377297		0.413352		-0.227464		-0.295263		-0.198743		-0.321742		-0.502829		0.101132		0.349218		-0.277929		-0.391343		-0.445327		0.467442		-0.0828551		-0.339269		0.249158		-0.470847		-0.0961589		-0.189757		-0.125045		0.361959		-0.3183		-0.0625445		-0.00395197		-0.491682		-0.482679		0.225929		0.480278		-0.0774622		-0.419996		-0.242982		-0.0528543		0.12031		0.200259		-0.369099		0.3908		-0.497161		0.17083		0.091821		0.498516		-0.282063		0.32119		0.498721		0.0210644		-0.270264		0.409213		-0.193152		-0.462558		0.0595338		0.00792649		0.430888		0.0750449		-0.01241		0.285393		-0.491903		-0.0535476		-0.0815327		-0.15788		0.326443		0.331621		0.118623		-0.363197		0.0311784		-0.113226		-0.0719562		0.155072		-0.309114		-0.475642		-0.157021		0.427767		-0.126837		0.204537		-0.322571		0.152276		0.130876		0.0790596		-0.246693		-0.276318		0.446249		-0.369326		-0.151019		-0.464406		-0.292451		0.0883456		-0.399072		-0.0367015		-0.35405		-0.243972		-0.0889058		-0.283917		-0.445286		-0.142318		0.154093		0.496378		0.00234567		-0.425267		0.0554689		0.435323		0.168461		-0.0847986		-0.251431		0.27228		0.344765		-0.0283904		-0.34466		0.26738		0.319142		0.407429		-0.224995		0.0532596		0.264141		0.42719		-0.194415		0.064115		0.356135		-0.196062		-0.499801		-0.309795		0.342217		0.39256		-0.403921		-0.49246		-0.150123		-0.093008		0.423269		-0.147009		0.0822227		0.452067		-0.0493131		-0.0968227		0.453228		0.29094		-0.407048		-0.079478		-0.368215		-0.199229		0.307821		0.334087		0.378933		-0.266994		-0.332304		-0.258968		-0.350766		0.138763		0.473338		-0.190576		0.416173		0.0411526		0.302737		-0.252584		0.133989		-0.0778439		0.114237		-0.199523		-0.399784		-0.379411		-0.0322038		0.235458		0.487598		-0.207977		0.223903		-0.412092		-0.351954		0.188876		-0.123256		-0.376277		-0.105162		0.359478		-0.279161		0.185742		-0.232372		0.121431		-0.477666		0.183617		-0.430072		-0.223602		0.102443		-0.135701		0.169137		-0.360288		-0.468696		0.352142		-0.112672		0.295601		0.371676		0.334489		0.448996		0.243559		0.084673		0.45551		0.320201		-0.14167		0.224518		-0.381617		-0.200222		-0.0540653		0.359471		0.321571		0.326754		0.139233		-0.137922		0.127458		-0.468707		-0.172838		-0.295486		0.167031		0.314603		0.363069		0.344483		0.0477188		0.212143		-0.214764		0.475754		-0.425284		0.0471078		-0.276429		0.338049		0.012084		-0.327358		-0.346259		-0.170849		0.24368		0.498955		0.0593186		-0.195707		0.0154994		-0.194333		-0.263686		-0.408602		0.112485		-0.120936		0.24727		0.277344		0.302778		0.412366		-0.0642447		0.333193		-0.278579		-0.205098		-0.273261		0.412793		0.444026		-0.0124422		-0.470172		-0.258244		-0.440691		-0.0368835		-0.328382		0.311963		-0.0546443		0.151939		-0.205868		0.0977635		-0.406312		-0.446191		-0.216245		0.0501236		-0.496045		0.0969507		0.172768		-0.16272		0.145121		0.355891		-0.432852		0.493189		-0.429427		-0.0366694		-0.473104		0.273414		-0.396443		0.401944		0.465435		0.32791		-0.428968		0.465037		-0.0258462		-0.243		0.0514214		-0.370531		0.479785		0.14739		-0.362734		-0.130975		0.101644		-0.184981		-0.45417		0.449403		-0.0766727		-0.437132		0.289504		-0.323543		0.239905		-0.0310646		
0.392287		0.476927		-0.031878		-0.132497		0.303376		-0.0114381		-0.126562		0.358665		0.488015		-0.409017		-0.226752		0.023945		0.386752		0.130755		0.0815608		-0.391456		0.417045		-0.118792		-0.191023		0.180376		0.0579855		-0.303552		0.257606		-0.433609		-0.314855		0.454389		0.0108196		0.20889		-0.148537		-0.426691		0.477023		0.120139		0.339784		0.137938		-0.461203		-0.145408		-0.174736		0.294173		-0.0167793		0.397323		0.343037		-0.479999		0.37581		-0.321658		-0.00778275		-0.412693		0.359779		0.391887		-0.226		0.399983		0.020491		-0.387622		0.27921		0.352567		-0.270517		-0.394807		0.31063		0.396143		0.0627702		0.00656328		-0.124027		0.0841452		-0.021614		-0.385608		-0.247855		-0.470157		0.142515		0.29223		-0.323789		0.314145		0.170644		-0.232788		-0.345155		0.419352		-0.309431		-0.496159		-0.196986		0.342529		-0.00716331		-0.107072		0.0073209		-0.124612		0.317153		-0.452157		0.302179		0.151979		-0.271545		0.015582		-0.104801		-0.34878		0.386886		0.20359		0.30549		-0.198762		0.132878		-0.172993		-0.0434378		0.517522		-0.291619		-0.245103		0.392538		0.447555		-0.175495		-0.222576		-0.252804		0.129113		-0.295545		-0.482814		-0.206711		0.445892		0.226958		0.366151		0.117112		-0.314333		-0.257232		-0.229299		0.164791		-0.0716087		-0.00224898		0.485549		-0.456848		-0.478061		0.394954		-0.389198		-0.259045		-0.196132		-0.0639784		0.288792		0.340839		0.170944		0.354781		-0.010967		0.163812		0.301997		-0.158804		-0.146683		0.341276		0.243785		0.000607069		0.46678		0.175892		-0.284195		0.164124		0.393514		0.486742		0.00988245		-0.397747		0.283634		-0.227333		-0.125644		0.242449		-0.213788		0.427668		-0.460862		-0.128634		0.0714168		0.339776		0.111076		0.348218		-0.226666		0.209322		0.396107		0.0212945		0.00630036		-0.505908		0.252986		-0.223848		0.47272		0.105003		0.382457		0.275285		-0.303062		0.458023		-0.0850918		-0.250169		-0.31921		-0.338228		0.115526		0.316267		0.218722		-0.474244		0.429129		-0.37984		-0.172258		-0.175808		-0.389582		-0.396238		0.0288734		-0.485687		0.334556		0.313096		0.24352		0.455879		-0.341824		0.113714		-0.15033		0.186055		0.39624		-0.321563		0.422401		0.00946076		0.277445		0.34226		-0.0046512		0.0960648		0.0831117		-0.276646		-0.0609791		-0.200524		-0.305434		0.130891		-0.469286		0.166249		-0.376621		0.299337		0.218125		0.290581		-0.274855		0.347122		0.231808		-0.299673		0.0178944		0.340774		-0.00841892		0.213674		-0.288061		0.405681		-0.396383		-0.24343		-0.0166341		-0.00966305		-0.11317		-0.0865839		-0.00482331		0.433265		0.186279		-0.192389		0.418669		-0.245941		0.313464		0.225901		0.0913905		-0.0914149		-0.391427		-0.47069		-0.0458785		0.138858		-0.101828		0.203813		0.466004		-0.233871		-0.119588		-0.299111		-0.323819		-0.0605431		-0.233863		-0.159509		0.266405		-0.514033		-0.447374		-0.240239		0.0277468		0.391801		0.349024		-0.352423		-0.433808		-0.16319		-0.0572672		-0.27887		-0.0785928		0.374591		-0.0258871		-0.177684		0.065978		0.265698		0.0221714		-0.369611		-0.108074		-0.362615		0.121662		0.194497		-0.310254		0.00225385		-0.25478		-0.128932		-0.0842038		0.392623		-0.0524062		0.230964		-0.477605		-0.0991637		-0.386304		-0.0130157		-0.0881733		-0.40355		0.341479		-0.421182		-0.422502		-0.476425		-0.497865		-0.0802933		0.0699269		-0.481205		0.363513		0.377702		0.254039		-0.161365		0.266075		-0.208599		0.0904389		0.238613		-0.313541		0.287755		0.200295		-0.103024		0.430797		0.0758234		0.330476		-0.371892		-0.076641		-0.1395		0.0769676		0.446613		-0.494089		0.234868		0.19201		0.170481		-0.171764		-0.283437		-0.202057		0.0991738		0.231991		-0.317318		-0.168549		0.319444		0.485364		-0.119269		-0.400239		-0.279264		-0.371936		0.360229		-0.153797		-0.254177		-0.373078		-0.0420983		-0.0438589		0.248231		0.254181		0.144054		-0.0365034		-0.130112		0.277844		0.0822001		-0.125342		-0.35934		0.0507069		0.0948932		-0.292627		-0.153157		-0.181901		0.243234		0.394269		0.135501		-0.362728		-0.154515		-0.189277		0.323639		0.310233		-0.172647		0.280793		-0.305164		-0.303316		0.272867		0.0193067		-0.0427137		-0.0839935		-0.464207		-0.238385		0.458936		-0.0393301		-0.489469		0.10487		-0.0320145		-0.143139		-0.485791		-0.306351		-0.356651		-0.200727		-0.269933		0.086949		-0.233807		0.0371678		0.0782446		-0.344408		0.141232		-0.324034		-0.336559		-0.396648		0.189683		-0.412111		-0.49056		0.305033		0.274985		0.31747		0.193295		-0.287577		-0.348999		-0.156269		0.280393		-0.349186		0.00274459		0.457522		0.231743		0.169869		0.27274		0.160269		0.187604		-0.0892085		0.464975		-0.00426436		-0.289619		0.402864		-0.197798		-0.413726		0.485301		0.0473849		-0.12055		-0.437986		-0.383465		0.105845		-0.206434		-0.196678		0.0963699		-0.340405		-0.0717339		0.101548		0.0184351		0.399441		0.286164		-0.448203		0.249787		0.288056		0.332614		0.0906207		0.198898		0.449532		-0.221834		-0.143992		0.306004		-0.282524		0.180597		0.0191191		-0.256326		-0.14775		0.316049		0.200645		-0.303817		0.0509606		-0.266516		0.118292		-0.31379		-0.0153016		-0.309341		-0.00626335		0.240053		0.14267		0.0587389		-0.304643		-0.0899074		-0.115177		0.272671		-0.0906716		-0.201121		0.0903726		0.261114		-0.351622		0.121697		-0.353975		0.448379		0.361562		0.397766		0.439701		0.398889		-0.172305		0.469928		-0.455927		0.426162		0.0287142		0.0675977		0.294186		0.0934633		-0.437927		-0.170828		-0.490918		-0.125618		-0.258933		0.0132878		0.266558		0.432764		0.00295067		-0.356804		0.181047		-0.385521		0.361867		0.177716		0.489433		-0.336121		0.320291		-0.217249		-0.305396		-0.0412592		0.104553		0.210896		0.243927		0.301164		0.439571		0.0181332		0.531081		-0.247847		-0.493163		0.210177		0.280457		-0.162771		0.200281		-0.176697		0.162627		0.314873		0.260752		-0.346881		0.249045		-0.337696		0.250923		0.249819		0.128697		0.319534		0.237522		-0.442969		-0.216532		-0.443902		-0.454292		0.152454		0.146398		-0.422783		0.371048		-0.342321		0.340048		0.000691401		0.256275		0.101978		0.172034		0.371809		-0.21363		-0.370547		0.379033		0.381091		-0.245932		-0.450401		0.486013		0.0410877		-0.142662		-0.181944		-0.210049		-0.245163		0.220038		0.333911		0.111208		-0.164775		-0.0291305		0.276549		0.42575		-0.43308		0.49203		0.000366097		-0.28293		0.106075		0.480635		-0.328027		0.054195		-0.0428605		0.287843		0.301691		0.258102		0.254945		-0.243353		-0.402157		0.111737		-0.0722909		0.190173		0.386724		-0.217265		0.0837543		0.157708		-0.332092		-0.268382		0.421213		-0.082071		0.177579		-0.0268917		-0.455661		-0.473929		-0.109477		-0.178078		0.418586		0.36019		-0.243483		0.0875463		0.239262		0.316947		0.24098		-0.173988		-0.336694		0.358316		-0.194033		0.223261		-0.41177		-0.0400702		-0.267349		-0.353524		-0.338383		-0.126544		-0.428937		-0.151073		0.243653		-0.0543909		0.321101		0.037928		0.212493		-0.0788275		0.156295		-0.277897		-0.393928		-0.333477		-0.166465		-0.39994		0.0819535		-0.326098		0.471279		0.102786		0.340577		-0.0227821		-0.184978		0.24389		-0.155328		0.220466		-0.28072		0.0695547		-0.25553		0.325623		0.406099		-0.0135195		-0.334629		-0.119965		-0.473067		0.141231		0.318819		0.327183		0.339781		-0.278348		0.41168		0.198741		0.0482853		-0.379096		0.372159		-0.353233		0.258534		-0.223989		0.474406		-0.158484		-0.0675069		-0.0271122		-0.129946		0.0613059		0.171535		-0.3159		0.0379671		-0.216962		0.426419		0.457468		0.044649		0.257855		0.465264		-0.353637		-0.267591		-0.456079		0.27778		-0.228626		-0.0850473		-0.398085		-0.38761		0.104323		0.393378		0.187288		0.388133		-0.313913		0.477388		0.0355327		-0.0200597		0.105824		-0.466721		0.120931		-0.198505		-0.18649		-0.0518427		0.146737		0.119252		0.0531635		0.481647		-0.365435		-0.155859		-0.447613		-0.473449		-0.320055		0.108862		-0.0730591		-0.1584		0.256176		-0.29814		-0.299979		0.447651		0.128138		-0.0871645		-0.485184		0.157045		-0.269797		0.0287463		-0.273912		0.439928		0.0450524		0.374175		0.387746		0.00235969		0.368542		-0.357255		-0.389399		-0.000153402		0.356952		-0.272214		0.123813		-0.21668		0.300598		0.0547733		0.376818		0.413687		-0.138243		0.319069		0.0789196		0.0796824		0.0536735		0.223792		0.0451375		-0.494518		0.0226829		0.00234189		0.147586		0.437113		0.208395		0.0565151		0.149476		0.410098		0.152921		0.1538		0.228343		0.113766		-0.083807		-0.0331089		-0.332773		-0.317082		0.112247		-0.434233		-0.496152		-0.0591752		-0.346577		0.276213		0.351688		-0.277991		0.00808276		-0.485222		-0.448869		-0.00535979		-0.0802084		-0.221993		-0.380849		-0.344628		-0.225536		-0.0489266		
0.436608		-0.0784774		0.496693		0.464535		-0.200597		-0.0501875		0.264746		-0.0747766		0.397269		0.460027		0.0299777		0.174132		-0.214521		-0.371542		0.302334		0.43176		-0.174993		0.489985		0.216229		0.257554		0.226346		0.0941692		-0.388653		-0.0704341		-0.193286		-0.246155		-0.392875		-0.122798		0.189308		-0.20411		-0.496928		-0.435396		-0.00422918		0.441407		-0.0359538		-0.374204		-0.301618		0.439204		-0.138048		0.352546		-0.311715		0.310924		0.0169509		-0.360243		0.145537		-0.306849		0.188285		-0.0338226		-0.125842		0.101196		-0.467187		-0.150195		0.192478		0.258756		-0.117689		0.266495		0.176075		-0.0937308		0.211883		-0.468202		0.114787		-0.10821		-0.212533		0.464578		-0.376241		-0.0724761		0.328138		-0.239854		0.163823		-0.14526		-0.307105		0.435414		-0.20364		-0.0859477		-0.0397185		0.0607408		0.212172		-0.164313		0.244748		-0.191081		-0.234301		0.194639		-0.268829		-0.347373		0.12629		-0.164848		0.407159		0.468072		0.459374		-0.270012		-0.198801		-0.0943311		0.0258211		-0.139561		0.24642		0.386245		0.307711		0.298716		-0.0418941		-0.271624		-0.354569		0.266526		-0.362913		-0.0196279		0.306607		-0.129486		-0.0876153		0.0739376		0.444635		-0.255757		-0.172007		0.271087		-0.108715		0.152236		0.255236		-0.234284		-0.403747		-0.157901		0.0666204		0.358376		0.486315		0.0873486		-0.364036		-0.324803		0.186149		-0.0172598		-0.22967		0.296063		0.116119		-0.240627		0.263923		-0.0728792		0.374572		0.224328		0.233236		0.302318		0.0263646		-0.0746554		-0.1152		0.498044		0.303593		-0.434955		0.0439025		0.0737188		-0.0355218		0.273314		0.315066		-0.290196		0.126111		-0.414787		0.053144		-0.110392		0.0184855		0.292875		0.0108299		0.0318682		-0.497246		0.0691334		-0.212631		0.0901049		-0.414232		-0.144996		0.297068		-0.109094		0.0912148		-0.159482		-0.439474		-0.242345		-0.207396		-0.270918		-0.436774		0.116483		0.0882762		-0.266092		0.404382		0.109514		0.221768		-0.105652		-0.34186		0.347898		-0.171789		-0.248253		-0.427187		0.2946		0.358535		0.415403		0.0107971		-0.0165745		0.481969		0.295459		-0.369664		0.377686		-0.0160728		0.271379		-0.197661		0.123311		-0.393242		0.122499		0.0427141		-0.420989		0.156675		0.31776		-0.251915		-0.138786		-0.11327		-0.341014		0.200637		-0.504162		-0.0914545		0.379231		0.067334		-0.120329		-0.152827		-0.0936442		-0.370201		-0.013849		-0.326568		-0.450481		-0.346642		-0.440559		0.0132609		-0.170935		-0.151151		-0.355226		-0.0316683		0.215963		-0.0595206		0.34094		-0.368226		0.0804825		-0.303829		-0.174135		-0.249137		-0.0286513		0.0570954		0.326142		-0.0496408		0.483566		-0.18751		-0.295647		0.430281		-0.488694		0.473412		0.198379		-0.320623		0.0985252		-0.271691		0.0607131		-0.171915		-0.183604		-0.332197		0.415029		0.468694		-0.391338		-0.373923		0.321177		0.128807		-0.162932		-0.350314		-0.465003		-0.0258512		0.27969		0.48671		-0.0966127		0.165826		-0.498735		-0.279935		0.175246		0.223188		-0.0264002		0.0547201		-0.109523		0.396286		-0.333174		0.163668		-0.278908		-0.347544		0.123357		0.185967		0.278275		0.0177531		0.494709		0.0948843		0.106819		-0.219788		-0.192106		0.478301		0.274575		0.224249		-0.0562888		0.47329		-0.311343		0.153964		0.30807		-0.315115		-0.418633		0.209721		0.166033		0.423886		-0.215242		0.193812		0.00313147		0.270511		0.188474		0.00696649		-0.00736185		0.140324		-0.282155		-0.447736		-0.227342		0.184864		0.462335		-0.177618		-0.185123		-0.148617		-0.178809		0.271805		-0.083991		0.0288442		-0.376637		-0.271349		-0.194898		-0.402054		-0.464547		-0.355718		0.414547		-0.248537		-0.278201		0.059342		0.184552		0.0299205		-0.0157934		0.292105		-0.26603		0.441968		-0.298385		-0.36749		0.162583		0.21009		-0.269353		-0.167161		0.417904		0.365087		0.311763		-0.236203		0.209346		-0.476196		0.213467		-0.464332		-0.502591		0.215164		0.251324		-0.139614		0.142096		-0.0771248		-0.455802		0.169948		0.0952575		-0.316296		0.286796		-0.214846		0.260919		-0.354785		-0.0491606		0.249562		-0.213422		0.0463033		-0.442494		0.490038		-0.465541		0.140254		0.104206		-0.0969317		-0.21764		-0.388082		-0.501206		0.290673		0.163603		-0.0671429		-0.263981		-0.433811		0.431529		0.0481558		-0.386505		0.234789		-0.281968		0.423617		-0.372484		-0.181209		-0.47884		-0.12743		-0.19235		0.363399		0.0405747		-0.346087		-0.269476		0.182174		0.479784		0.398136		0.444068		-0.206512		-0.510425		-0.0665041		-0.368399		0.0420469		0.118683		0.349524		0.371625		0.229046		-0.068318		-0.223049		0.24391		0.177352		-0.0327086		-0.444086		0.0297988		0.0650929		0.203467		-0.0429068		0.331393		0.305238		-0.325268		0.101491		0.448429		-0.142024		-0.264857		0.398871		0.107546		-0.211489		0.0910671		-0.480497		-0.452882		-0.41457		-0.0895774		0.221916		-0.381732		0.413061		-0.461832		0.043799		0.333		-0.149779		-0.192378		-0.244349		0.0103846		0.149338		-0.188116		-0.242577		-0.15423		-0.00495583		-0.358699		0.231342		-0.20922		-0.304195		-0.0806763		0.0829182		-0.189018		-0.00974809		-0.474569		0.458251		-0.489305		-0.224998		-0.461544		-0.416653		0.0509642		-0.154494		0.460246		0.456105		-0.0960532		0.420107		0.219443		-0.00837162		0.270104		-0.119006		0.203515		0.160589		-0.226158		0.402162		0.455417		0.0641759		-0.258469		-0.138531		-0.219169		0.402522		-0.18297		-0.265141		-0.146098		-0.242855		0.20834		-0.321062		-0.0766287		0.215029		0.101823		0.222872		0.0523146		0.0570062		-0.230005		0.30438		-0.180738		-0.480228		-0.09109		0.431967		0.202759		-0.024941		0.118148		0.429913		-0.111432		-0.433029		0.151923		0.280582		-0.366367		0.15504		-0.212666		0.452734		0.364357		0.0578756		-0.0517856		0.267954		0.433814		-0.444677		-0.168885		-0.376584		0.00155074		0.296752		0.414731		-0.320341		0.045764		-0.0542598		0.426616		0.0587292		-0.381556		-0.247799		0.348524		0.230306		0.131411		-0.146395		-0.460816		-0.0285112		0.287651		0.19049		-0.247719		-0.125604		-0.437951		0.433744		0.382495		0.30175		-0.295807		-0.205546		-0.00405074		-0.373181		-0.0508843		0.217719		-0.311173		-0.313983		0.21539		-0.292951		0.360182		-0.0238932		0.126506		-0.0854667		0.416031		-0.279461		-0.417275		0.484196		0.201903		-0.177069		-0.320487		0.127695		-0.346162		0.187788		0.0830528		-0.234483		0.276919		-0.382059		0.161439		0.437447		0.301244		0.0265019		-0.142921		0.303909		-0.155741		-0.0111708		-0.443712		0.13065		-0.285085		0.4025		0.439049		-0.139665		-0.45156		0.25226		-0.285775		-0.304296		-0.0554051		-0.366379		-0.0563722		0.0333438		-0.115374		-0.467003		0.101333		-0.353961		-0.44696		-0.0586825		0.297445		-0.0761117		-0.352096		0.216279		-0.413879		0.50321		-0.127181		0.434669		-0.227646		-0.221945		-0.130772		0.000111844		-0.201535		-0.483394		0.16768		-0.347654		0.369679		0.11448		0.216248		0.431014		-0.368434		-0.280841		-0.461782		-0.379519		-0.173199		0.318927		-0.229154		0.457382		-0.488317		-0.15122		0.475931		-0.511843		0.129752		-0.467389		-0.396376		-0.179809		0.293264		0.480531		0.33968		-0.357889		0.46487		-0.313158		-0.0376014		-0.277901		0.455632		0.340297		0.401073		-0.35985		-0.0693303		-0.0187733		-0.0265652		0.376853		-0.352546		0.180673		-0.352627		0.383276		0.0827655		0.401049		-0.343635		0.166059		0.380591		-0.0402145		0.346518		-0.210266		-0.135649		0.094523		0.017405		-0.260769		-0.0620772		0.246541		0.408365		0.124297		0.113773		-0.183347		0.432761		0.0401949		-0.458464		-0.436406		-0.256756		-0.131654		-0.0119469		0.323303		-0.102912		-0.349651		0.374678		-0.463234		0.285787		0.294031		0.4113		-0.277277		0.505139		-0.206026		0.490171		0.360532		0.342257		-0.349002		-0.0162432		-0.0514649		-0.103897		0.44163		-0.355854		0.256661		-0.0422824		0.366401		-0.174297		-0.0384705		-0.471116		-0.0690021		-0.0878723		-0.395934		-0.464409		0.438841		0.212364		-0.410674		-0.140464		-0.336504		-0.480289		-0.187106		0.347174		-0.267962		0.191082		-0.248757		-0.198469		-0.28617		-0.248286		0.322133		-0.204668		0.0319411		-0.273744		-0.432415		0.162775		-0.490938		0.19712		-0.486488		-0.450264		-0.0855944		-0.0707037		0.154682		-0.29932		-0.362149		-0.26944		-0.156547		-0.165908		-0.050046		-0.0763356		0.217423		0.197353		-0.126622		0.124756		0.316766		-0.421584		0.014842		0.21339		-0.234602		0.467388		0.0166593		0.408816		0.482492		0.0620522		-0.437435		0.127817		0.489893		-0.330801		0.336452		-0.106013		-0.484885		0.367958		0.102912		-0.31074		0.357527		-0.13221		0.0806045		0.476199		-0.0463716		0.307247		0.447469		0.247431		-0.455791		0.444357		-0.283948		-0.250023		0.112324		-0.19612		-0.0348913		
-0.25896		-0.140377		0.390599		-0.282541		0.125018		-0.299897		-0.489243		-0.27205		0.487227		0.180174		-0.411622		-0.151537		-0.457928		0.475786		-0.353826		0.431534		0.49867		0.465475		-0.121334		-0.421499		0.0484381		0.402612		-0.379268		-0.322658		0.342308		-0.384209		0.0588943		0.35154		-0.264268		-0.424183		0.0529733		0.483778		-0.424403		0.237548		0.222742		0.151787		0.255554		-0.202102		0.2403		-0.339205		-0.160417		0.37939		-0.076604		-0.0257618		0.347855		-0.0364325		0.411179		0.105859		-0.392322		0.377712		0.432979		0.143907		0.474005		0.316979		-0.049489		0.248882		-0.304168		-0.083477		-0.302193		-0.484773		-0.116836		-0.349034		-0.269985		-0.396269		0.440114		-0.0372125		-0.369586		-0.41057		-0.225781		0.164597		-0.0481514		-0.354082		0.495497		-0.393852		0.046699		0.451458		-0.231798		-0.0183804		-0.369532		0.284528		-0.369717		0.187258		-0.295592		0.0225824		-0.287494		-0.193365		0.376624		-0.491945		-0.339747		0.144564		-0.293671		-0.331996		-0.0562495		-0.237556		-0.209733		0.248916		-0.0244614		0.309471		0.181116		-0.423734		-0.230583		-0.176884		-0.430253		0.307205		0.148041		0.335607		-0.0325086		0.220642		-0.0300101		-0.200113		0.110606		0.135805		-0.189834		-0.0350116		-0.29355		0.0653974		-0.271351		0.312079		0.405643		-0.49735		-0.003272		0.39527		-0.271645		-0.238741		-0.433771		-0.385092		0.136209		-0.156441		-0.371946		0.405931		0.0203705		-0.179853		-0.462315		-0.388437		-0.122684		0.310935		-0.153594		-0.298918		0.317378		-0.469651		-0.306363		0.195666		-0.22623		-0.40986		0.0713712		0.219252		-0.0494869		0.134947		-0.387062		-0.438064		0.383609		-0.369799		0.442418		0.308816		-0.113105		0.179772		-0.369813		-0.469657		-0.506669		-0.1071		0.0429418		-0.0417604		-0.359848		-0.16105		3.92434e-05		-0.424582		-0.445771		0.296371		0.325327		0.200881		-0.426851		0.181214		0.297706		0.323323		-0.286495		0.42934		0.286229		-0.191971		0.00481127		0.0106674		-0.0736322		0.494824		-0.475817		0.0107614		-0.3945		-0.229871		-0.0605489		0.512621		-0.180678		-0.0123643		0.492328		0.21236		0.0770546		0.214091		0.224112		0.291075		-0.0804189		-0.263881		0.132753		-0.388659		0.0296856		-0.165567		-0.0706698		-0.495139		0.25151		-0.376657		0.281623		0.18283		0.17885		-0.0677657		-0.297141		0.0817431		0.429674		-0.346128		0.445556		-0.296499		0.206132		-0.248972		-0.415821		0.210141		-0.138164		0.360877		0.162715		0.170949		0.4268		-0.154802		-0.00535016		0.442853		-0.459645		-0.254112		0.401989		0.455509		-0.477047		0.259416		-0.0744088		0.426675		0.171866		-0.436824		-0.276896		-0.136509		0.0819287		-0.218769		0.463301		0.503726		-0.449278		-0.487558		0.310776		0.410463		0.0431776		0.14007		0.348684		-0.443753		0.182453		-0.481277		0.3974		-0.136166		0.308567		0.0276051		-0.0421674		-0.240855		0.380141		-0.237092		0.304639		0.155596		-0.257502		0.27888		-0.408849		0.335954		0.36416		-0.0450381		-0.308236		0.0929983		0.277645		-0.372328		-0.142555		-0.215607		0.375934		0.194319		-0.146254		-0.342146		0.0739442		0.223289		-0.250693		-0.127515		0.0171364		-0.372863		-0.379406		-0.404431		-0.136731		-0.248241		-0.0447154		0.0265246		0.325553		-0.389661		-0.512049		0.149366		0.466754		0.327569		0.209558		-0.459012		0.191561		0.433861		-0.159842		-0.390838		-0.187924		-0.0591556		-0.406179		0.279567		-0.0106892		0.318681		-0.246818		0.383788		0.160453		0.297757		0.326958		-0.14264		-0.256161		-0.0924119		0.402516		-0.123015		0.324269		0.137156		0.149103		-0.286847		-0.247344		0.26938		-0.424608		0.0889515		0.143158		0.210521		0.320985		-0.457701		-0.132956		0.203704		0.1895		0.389967		0.322408		-0.245108		0.0637899		-0.356508		0.46402		-0.413291		0.165347		-0.170678		0.39495		0.234282		0.534861		-0.404709		0.314323		-0.356874		0.419719		-0.184119		0.303817		-0.00999428		-0.297943		0.238504		-0.226975		-0.428378		0.114314		0.390187		0.24183		-0.439314		-0.397211		0.454013		0.379752		-0.341012		0.186807		0.325603		0.319554		0.0412076		-0.23112		0.314491		0.113902		0.179484		0.254308		0.29629		-0.319346		0.242738		-0.304614		0.0547584		0.162333		0.319986		0.546489		-0.289994		-0.10769		-0.262352		-0.257039		-0.156508		0.147295		0.310564		0.355006		-0.463551		0.0443561		-0.146627		0.0651911		-0.440816		0.284259		-0.285675		-0.446113		0.318359		0.280331		0.320479		-0.34154		-0.199728		-0.17789		-0.408536		-0.437181		0.381674		0.451594		0.107302		0.277558		0.0844181		-0.303497		0.186055		0.154072		0.282122		-0.11915		-0.409986		-0.33008		0.347826		0.461587		-0.4516		-0.453693		0.322004		-0.0961153		0.179457		0.420518		-0.0133539		0.427129		0.217831		0.0792091		0.274776		0.371497		0.342181		-0.285057		0.272989		0.247185		0.30246		0.225862		-0.230834		-0.144287		-0.264207		-0.404671		-0.149925		-0.207428		0.425609		0.239732		-0.271351		-0.013871		-0.266177		0.136235		-0.0996426		0.402096		-0.294905		0.401579		-0.146193		0.410076		-0.0640673		-0.503741		0.317799		0.350434		0.355593		0.183227		0.361542		0.238975		-0.093638		0.14591		0.394068		-0.205729		-0.208949		-0.199998		0.0205054		0.444295		0.261666		-0.228144		0.393788		-0.346958		0.207264		0.272418		-0.295058		-0.4032		-0.370106		-0.284613		0.0678484		0.00901416		0.385983		-0.1434		0.184979		0.108829		-0.20047		-0.00744522		-0.0318708		-0.286933		-0.279839		0.423314		0.0225737		-0.0732673		-0.288878		-0.0669875		-0.310019		0.0257451		0.175603		0.446115		-0.465358		0.0594588		-0.307877		-0.353659		-0.220108		-0.178505		0.124388		-0.317425		-0.00687337		0.236094		-0.150582		0.207558		0.506749		0.167948		-0.161121		-0.268417		-0.195777		-0.229374		0.384401		-0.375113		-0.464616		-0.0884344		-0.143618		0.388028		-0.0841907		0.0312749		-0.20603		-0.39024		-0.32729		0.158877		0.0803441		-0.432764		0.0119322		-0.368452		0.41263		0.337472		0.27188		-0.124466		0.04233		-0.248483		0.0117294		0.391512		-0.350062		-0.0392975		0.291533		0.162265		-0.11988		-0.474879		0.0867667		-0.0302978		-0.191566		0.0328063		-0.0932188		0.313447		-0.296097		-0.42234		0.223095		0.0768542		0.167591		-0.274822		-0.415595		-0.523533		-0.31122		0.119333		0.330273		0.0496026		0.444427		-0.139916		0.510658		-0.282315		-0.0855409		-0.419577		-0.338		0.309017		-0.420282		-0.24781		0.259907		-0.450842		-0.398754		0.186886		-0.117506		-0.203332		-0.261586		0.0697379		-0.482508		-0.205631		0.215936		0.0832727		0.400425		-0.486405		0.456825		0.464312		-0.182366		-0.267603		0.440948		-0.388506		0.107022		0.170485		0.37959		-0.345582		-0.246483		-0.500783		-0.0768772		-0.449791		0.157905		0.49071		-0.450903		0.446524		0.293991		-0.0123733		-0.0500533		0.17858		-0.199914		-0.0798346		0.468756		-0.316664		-0.443549		0.158664		0.146269		0.320384		0.23243		-0.0753525		-0.0910547		-0.0392595		0.227396		-0.422063		0.0234544		0.437859		0.352562		0.36292		-0.184511		0.201269		0.146816		0.188948		-0.149871		-0.363087		0.288773		0.16555		-0.0277613		0.463649		-0.052353		0.220574		-0.134445		0.286158		0.357672		-0.261391		0.325125		0.264461		-0.190622		-0.00952381		0.500398		0.0181333		-0.327311		0.487225		0.0265909		0.0483403		0.00897791		-0.318777		0.484066		-0.0229806		0.0456061		0.182012		-0.456004		0.0193844		0.48026		0.204391		-0.29084		-0.177261		-0.221237		0.415195		0.486774		-0.403522		-0.149257		0.11847		0.243815		0.393971		0.111141		0.122495		-0.373665		0.0848013		0.221213		0.284845		-0.392516		-0.493596		0.111578		-0.454336		-0.00746591		-0.0212847		-0.233245		-0.226847		-0.000257985		-0.41612		0.329362		-0.0297876		-0.258155		0.0983869		0.437335		-0.241913		-0.306284		0.161025		-0.0231492		0.24239		-0.466839		-0.172558		0.154405		0.192742		-0.33476		-0.187764		-0.0484428		-0.0761906		-0.477952		0.125419		0.40277		-0.244141		-0.0976576		-0.438635		-0.300378		0.4576		0.0448119		-0.00854396		-0.149865		-0.447049		0.277571		-0.144427		-0.0390172		0.139222		-0.0454534		0.274623		0.375386		-0.0729823		0.413531		-0.481045		0.116984		0.317648		-0.0170329		-0.339698		0.493304		0.162987		-0.100214		-0.395692		-0.291092		0.39068		-0.293472		0.0033832		-0.314575		0.0207304		-0.0147367		0.0299149		-0.0117282		0.371687		-0.200595		-0.340439		-0.448611		0.0848133		0.1682		-0.29604		-0.432175		-0.397413		-0.308816		0.265997		0.313268		-0.112611		0.469958		0.327767		0.345444		-0.411365		0.424509		-0.212926		0.305625		0.234479		-0.422469		0.396979		0.0391572		0.436829		0.290937		0.151739		0.256416		-0.371538		0.134591		-0.386695		-0.286502		-0.0151474		
-0.322913		0.181457		-0.171768		-0.264641		-0.13531		0.382541		-0.029557		0.0016349		-0.367222		-0.317206		0.393794		-0.0437519		0.409168		0.251938		-0.0646336		-0.470636		0.321756		-0.194888		-0.406165		-0.293582		0.406273		-0.320848		-0.338029		0.112503		0.244128		-0.161708		-0.0961468		-0.205259		-0.222557		0.276624		-0.276053		-0.482353		0.351605		0.438457		-0.0690961		-0.156267		-0.355918		0.215851		-0.0898834		0.354135		-0.470913		-0.116702		-0.315136		0.286644		0.1651		-0.132801		0.190096		0.100412		-0.337196		-0.384616		-0.112113		-0.0612041		0.0116197		0.229978		-0.20223		-0.235045		0.439378		0.137758		-0.15423		0.373501		0.143761		0.0740308		-0.46197		-0.421519		-0.147614		0.286145		0.410408		-0.203242		-0.0155717		0.199608		-0.40987		0.475294		-0.399093		0.418893		-0.170925		-0.251795		0.0489905		0.115721		0.268678		0.246909		0.353267		-0.0921677		-0.303671		0.466756		-0.0617468		-0.431052		0.28026		0.448123		0.171535		-0.178988		0.47218		0.271488		-0.361985		-0.00122721		0.343802		-0.304499		-0.0321774		-0.296439		0.389922		-0.472413		-0.446267		-0.179597		0.13151		0.314995		-0.241177		0.144489		0.228201		0.318135		0.107007		-0.228804		-0.379864		0.120526		0.28572		0.306571		-0.421588		0.400062		-0.015105		-0.286841		0.280717		0.113241		0.443652		-0.0202203		-0.413222		-0.23349		-0.334302		0.245331		0.389624		0.382113		-0.134732		-0.495631		0.0279092		0.119349		-0.304861		0.39512		-0.00537397		0.0928167		-0.292428		0.255328		-0.241393		0.0573991		-0.237709		-0.3083		0.323645		-0.25582		-0.086866		-0.228735		-0.385301		-0.0556851		0.0636218		0.447074		-0.483661		-0.361009		0.390144		0.0479184		-0.0799022		-0.0722703		0.378453		-0.289905		0.21953		-0.00935847		0.410196		0.452261		-0.193866		-0.221668		0.0802561		0.204496		-0.310053		-0.207161		-0.245941		0.474435		0.397691		-0.288072		-0.160649		-0.0222904		0.255613		0.298698		0.109837		0.493573		-0.0965338		-0.205888		0.477833		-0.279508		-0.0654484		-0.273373		-0.0618524		-0.463934		0.31445		-0.0196137		0.0300614		0.352271		0.100818		-0.21285		-0.00236794		0.445511		-0.492642		0.185846		0.488131		-0.349999		-0.438842		-0.477814		0.140652		0.385289		-0.350928		0.0138324		0.526426		-0.116624		0.0393201		0.122516		0.117372		-0.280231		-0.441671		-0.420553		-0.245051		0.258148		-0.307577		0.0126537		0.392119		0.195882		-0.058225		0.455344		-0.277783		0.413636		0.284987		0.0932854		-0.256814		0.24051		-0.0271467		0.313544		-0.152092		0.522842		0.224006		0.361364		-0.374335		0.384312		0.195486		-0.476356		-0.302317		0.20618		0.344681		-0.0755867		0.111192		0.376493		0.458783		-0.0921744		0.196242		-0.448995		0.111872		0.162806		-0.437605		0.429662		-0.0725551		-0.306534		-0.329941		-0.0402547		0.228248		0.12079		0.175175		0.246565		-0.0222326		0.441905		-0.0269205		0.220315		0.403388		0.0832106		0.125134		0.106572		-0.419972		0.111417		0.0767817		0.43328		0.0754739		0.337477		-0.287464		0.404179		-0.218569		0.304171		-0.323032		0.0789968		0.295792		-0.265586		0.419315		-0.155258		-0.406041		0.287627		-0.312543		-0.417528		0.501724		-0.0896069		0.314613		0.140401		0.493671		-0.147831		0.0441641		-0.063758		0.240112		0.324706		0.419508		0.15172		-0.205404		-0.269818		0.389243		0.331727		-0.15333		-0.282471		0.194302		-0.0100081		0.493287		0.0303237		0.302525		0.15063		0.0085444		0.484009		-0.111913		0.507821		0.352192		0.0570217		0.0585968		-0.370221		0.529174		-0.467991		-0.076233		0.0324115		-0.126578		-0.156919		0.155747		0.417768		0.322157		-0.0349461		0.141365		0.0180496		0.0399684		0.101307		-0.303811		-0.360189		-0.062533		-0.283547		-0.157146		0.429083		0.188301		0.16067		-0.32936		0.381743		0.325845		0.513462		-0.434835		-0.0530886		0.138205		0.427567		0.00643477		0.308644		0.197385		-0.479378		-0.24014		-0.480981		0.138374		0.166043		-0.201857		0.106085		0.0941469		-0.237978		0.47252		0.0820169		0.121584		0.273941		-0.216909		0.263041		-0.467026		0.0482534		0.0184689		-0.203236		0.316355		0.116242		0.314887		-0.123431		-0.0601835		0.375541		0.0453119		-0.253616		-0.492333		-0.0940932		0.264837		-0.344685		0.345073		0.0329218		-0.47273		0.0803654		0.0700521		-0.279104		0.257267		-0.316231		0.144691		0.216567		-0.118225		0.191981		-0.451033		-0.197894		-0.124357		0.286536		-0.0458554		-0.437942		0.350047		-0.3209		-0.211649		-0.0661226		0.327638		-0.0472115		0.329759		0.309889		0.381121		0.0610568		-0.367804		0.0870411		0.0528558		-0.176998		-0.163252		-0.3232		0.257187		0.297578		-0.279734		-0.0778322		-0.472432		-0.0868001		0.222978		0.420453		0.184644		-0.190099		0.197084		-0.406673		-0.0176111		0.12213		-0.0154897		-0.0451735		0.251248		-0.477091		0.299701		-0.334972		0.0625157		0.171448		-0.133289		-0.0116525		-0.384873		-0.28253		-0.22961		-0.160077		-0.398539		-0.282653		-0.158281		0.100301		-0.36923		0.359122		-0.0866827		0.484726		-0.0575203		0.419157		0.101171		-0.241644		-0.216807		0.445702		-0.367049		-0.374167		0.213084		-0.273888		0.294641		0.23457		-0.463316		0.127426		0.100735		-0.362677		-0.232699		-0.284422		0.317589		-0.460177		0.335303		0.384803		0.215535		0.472242		0.415479		0.320371		-0.157679		0.0199103		0.286944		-0.0591573		0.132101		-0.0422239		-0.215693		0.304722		0.441908		0.386434		-0.14351		-0.138331		0.470918		0.0962175		-0.336134		0.3663		-0.189222		-0.0738581		0.205118		-0.151342		-0.343213		-0.177453		-0.351858		-0.472239		0.475174		-0.454797		-0.438327		-0.322073		0.0821951		-0.443337		-0.427116		0.136475		0.424169		-0.061645		-0.416777		-0.0993191		0.153915		0.184796		-0.285316		-0.411095		0.023813		-0.317263		-0.363872		-0.141849		-0.135307		0.00504032		-0.313342		0.0983972		-0.497528		0.0412193		0.0981554		-0.0365531		0.0751711		0.283276		0.270995		0.342259		-0.0521223		-0.0503888		0.273569		-0.282919		-0.315433		0.349272		-0.469524		0.388557		0.241683		0.118597		0.502523		0.385815		0.168181		0.186411		0.161575		0.000539585		0.0775139		-0.0722955		0.197882		0.130237		0.32047		-0.366316		-0.302487		-0.0581071		-0.319056		0.301582		0.0822732		-0.0473791		0.338084		-0.334626		0.149032		-0.504411		-0.331885		-0.330427		0.426949		-0.212396		0.0857909		-0.165699		-0.426967		0.339393		-0.129544		0.155083		-0.353223		-0.325047		0.416862		-0.0369757		0.443209		0.371504		-0.171923		-0.222536		0.397251		0.322677		-0.0930348		-0.220994		0.157428		-0.048306		-0.428522		-0.451901		0.36554		-0.395458		-0.322258		-0.163788		-0.0277327		-0.191425		0.119173		0.42381		-0.28613		0.13957		-0.0983017		0.163769		0.477676		0.363227		-0.0323441		0.217439		0.240381		-0.340959		0.422988		0.178146		0.0274146		-0.218016		-0.0392845		-0.332244		-0.206587		-0.341533		0.0306021		-0.24754		-0.427912		-0.389614		0.316572		-0.199059		-0.442476		-0.131344		-0.460827		-0.395602		-0.191235		-0.102342		0.0536724		0.31243		0.164689		0.131787		0.0862256		0.284339		-0.313125		0.36418		0.114649		0.0617967		0.297099		-0.0941783		-0.407569		0.249408		-0.119262		0.319688		-0.283989		0.334312		0.432253		0.113496		-0.342156		0.207224		0.420518		0.44563		0.0198962		0.230827		-0.464888		-0.0432091		0.49617		0.142982		0.0643447		0.0679785		-0.0698501		-0.358916		0.117144		0.0175319		-0.282297		-0.138744		-0.46447		0.316708		0.00249668		0.181234		0.121892		0.194085		-0.0981348		-0.0194892		-0.278456		0.0715242		-0.0419383		0.211094		-0.483907		-0.296868		0.159491		-0.25413		0.097095		-0.00674539		0.0719632		0.412993		0.335224		0.0362406		0.403398		0.380163		0.51709		0.0875268		0.249718		-0.229166		0.438058		0.323903		-0.432467		-0.123211		-0.0897501		-0.32667		0.478627		0.038887		-0.198946		-0.352977		0.465588		-0.0618513		0.286186		-0.496327		0.241194		0.450921		-0.371443		-0.0442063		-0.313715		0.372966		0.0639432		-0.443979		-0.27252		0.423552		0.351875		0.332462		0.111058		-0.432347		-0.150138		-0.190148		0.289629		0.155111		-0.0173439		0.371395		0.0593196		0.254798		-0.323683		0.135047		0.406291		0.109495		0.0341171		-0.243355		0.405212		0.430812		0.184192		0.191485		-0.160227		0.135654		-0.474983		0.0630096		-0.322815		0.450795		0.394771		0.221052		-0.0550358		0.298818		-0.308379		-0.152061		0.0735273		0.170626		0.108383		0.298		-0.178679		-0.42425		-0.451714		-0.201684		-0.427631		-0.169992		-0.334785		-0.245648		0.0290568		0.32546		-0.364453		-0.0744939		-0.0175667		-0.263514		0.239074		-0.342143		-0.158126		-0.287085		0.0747028		-0.311728		0.0300239		0.436566		0.426336		-0.402862		-0.451923		-0.283481		-0.0775306		
0.224251		-0.194118		-0.248249		-0.254679		0.499454		0.358199		0.257461		-0.488163		-0.144247		0.256729		-0.149785		-0.403013		0.201261		0.165573		0.464854		-0.27109		-0.174107		-0.45743		-0.302751		-0.391353		-0.369407		0.36372		-0.0894877		0.456369		-0.00543571		-0.272372		-0.144991		-0.0855277		-0.429966		0.005808		0.210408		0.188735		0.243154		-0.186381		0.355772		0.198619		0.421467		0.218318		0.243145		0.215522		0.269011		-0.440431		0.0170446		-0.492901		0.18215		0.38038		-0.265764		0.325168		-0.029314		0.327332		-0.360391		0.32071		0.303181		0.258676		0.308616		0.094336		0.322787		-0.0368782		0.0831785		-0.00829661		0.490208		0.351154		-0.0833086		0.00227535		-0.458958		0.420503		0.0798271		0.0758239		0.171422		-0.0497176		0.118759		-0.376094		-0.156989		0.473419		0.275347		-0.444849		0.351234		-0.262081		-0.454417		-0.00192142		-0.199361		0.11826		0.0799961		0.259707		0.127765		0.378468		-0.19408		-0.483137		0.207469		-0.332338		0.314747		-0.357494		-0.348262		-0.0628542		0.0404538		0.366752		0.227829		-0.0821233		-0.354085		0.0605746		0.417978		-0.405775		-0.394534		0.455109		-0.247263		-0.373309		-0.0207178		0.0909662		0.383435		0.0305521		-0.222915		0.318438		0.0995594		-0.121158		-0.147455		0.126162		0.272611		-0.374009		-0.203147		-0.175061		0.115814		-0.142555		0.347412		0.210977		-0.241106		-0.333392		0.176235		-0.140702		-0.172064		-0.135997		-0.28534		-0.0441535		0.108424		-0.214306		-0.168969		0.191237		0.0331157		-0.0412836		0.255326		-0.495367		-0.350187		-0.140278		0.44384		-0.0368402		-0.318405		0.353708		-0.368353		-0.171879		-0.327424		0.144907		0.4381		-0.221591		-0.231266		0.45901		-0.389692		-0.270875		-0.415566		-0.391198		0.186883		0.236474		0.484549		0.230674		0.123516		-0.298075		0.428988		0.410932		0.300031		0.494994		-0.308574		0.398728		-0.258245		-0.2811		0.34222		-0.359244		-0.00735821		0.0508784		-0.3994		-0.0160316		0.205774		0.344898		-0.196292		-0.358369		-0.285903		-0.44138		-0.193261		0.0646653		0.028016		-0.0213025		0.15197		-0.129336		0.0256896		-0.0512355		-0.227268		-0.20938		0.439384		0.364597		0.153082		-0.302931		-0.237895		0.240465		0.245705		-0.344833		0.322711		-0.197052		-0.0592879		-0.0288371		0.0222948		0.391977		0.173703		-0.481655		-0.344734		-0.269208		0.133612		0.232546		0.168251		0.193002		0.388192		-0.0343783		0.244498		-0.195791		-0.467794		0.00614368		0.293738		-0.206007		-0.191194		-0.183182		0.415585		-0.431681		0.260329		0.269814		-0.226627		-0.310621		0.313562		0.101084		0.328959		-0.0639072		0.134519		-0.159937		-0.180762		0.451258		0.227		0.0565621		0.107549		-0.129879		-0.216082		-0.437131		-0.186488		-0.247052		0.226239		-0.138238		0.00270669		-0.342042		0.299667		-0.204421		-0.321018		0.0113818		-0.0360026		0.30105		-0.237344		-0.176285		-0.208625		-0.190807		0.266481		0.351952		-0.344141		0.179688		0.11554		-0.312216		-0.10625		0.175424		-0.167885		-0.0851924		0.0503015		-0.387508		-0.244058		0.298012		0.00235352		0.356131		-0.128965		0.127538		-0.435598		0.126051		0.0734552		-0.048786		0.021356		-0.38976		-0.32008		0.213479		-0.080743		0.106715		0.0291265		-0.0714073		-0.414691		-0.034961		0.465092		0.401731		0.350814		-0.164038		-0.193499		0.0885586		0.00426995		0.351685		0.176625		0.346747		0.268745		0.298829		-0.347625		-0.208526		-0.00268841		-0.201162		0.14643		0.140169		-0.468901		0.379779		-0.246473		0.463928		-0.0306052		-0.0911398		-0.263011		-0.0144661		0.243671		0.00497381		-0.0459133		-0.229797		0.19783		0.344106		-0.196855		0.42183		0.426301		-0.437365		-0.170729		0.359235		-0.127254		0.160311		-0.18921		-0.379675		0.467898		-0.468254		0.147065		0.133309		0.336966		0.25736		0.401351		-0.390786		0.11891		-0.468543		-0.232958		0.161659		0.0881455		0.342024		-0.402381		0.00351751		-0.0183692		-0.498044		-0.225141		-0.279723		0.169671		-0.406496		-0.209278		-0.0339473		0.209745		0.309766		0.380912		-0.379148		0.139434		-0.166814		0.0723019		0.271092		-0.193231		-0.3838		0.264599		-0.233105		-0.0771912		-0.408431		0.169866		-0.360037		-0.220671		-0.0576455		-0.375355		0.132322		0.472642		0.0921254		-0.217806		0.185284		0.480991		0.406104		-0.337806		0.350966		-0.495765		-0.109748		0.237654		0.182244		-0.371188		0.0321993		0.225467		0.0849061		-0.316483		0.0057284		-0.182608		0.131117		0.280407		-0.432159		0.0278937		0.056528		0.240062		-0.489772		-0.352535		0.394529		-0.387946		0.364955		0.0158841		-0.391229		0.484355		-0.286688		-0.0929611		0.215763		0.0717647		-0.162938		0.151166		0.214568		0.0186114		0.304476		-0.127627		0.172297		0.433424		0.0692458		-0.328865		-0.320982		-0.495781		0.0610737		-0.331092		0.268886		-0.100019		-0.347099		0.387683		-0.29645		0.147651		-0.471953		-0.0490953		-0.281834		0.323149		-0.0549299		-0.339294		0.330106		0.274398		0.283519		-0.343327		-0.291945		0.223102		0.24571		0.456694		0.180262		-0.149576		0.314497		0.286659		-0.348267		-0.194285		-0.113834		0.0269		0.36378		0.0487204		-0.352771		-0.262355		-0.361555		0.0752645		-0.488562		-0.178994		-0.0603035		-0.359693		0.0350999		-0.182011		-0.309026		0.124211		-0.323025		-0.327231		-0.156026		0.0529911		0.183772		-0.00125628		0.331511		-0.285284		-0.0508314		-0.0111012		0.202486		0.138172		-0.362929		-0.189069		-0.258438		-0.0782671		0.0352736		-0.275471		0.103916		-0.441432		0.392239		-0.173012		-0.0926618		-0.434881		0.30897		-0.461392		-0.00025369		0.247433		0.0245777		-0.0806389		-0.458511		-0.0188974		-0.39513		0.190115		0.230105		-0.0995616		0.371792		0.425858		0.179746		-0.444591		0.032476		-0.219495		0.469714		-0.342634		-0.468279		-0.117936		-0.340144		-0.435906		0.408592		0.256974		0.259131		-0.0541864		0.167786		0.150887		-0.335973		0.403823		0.068726		0.260601		0.045828		-0.320352		-0.416066		-0.45296		-0.0397836		0.401829		-0.347586		-0.0854601		0.0107801		-0.32532		0.482558		-0.0386965		0.275097		-0.016369		-0.0212701		0.466489		-0.319451		-0.476134		-0.48858		-0.235979		-0.263728		-0.444897		-0.0747131		0.15145		0.0984002		0.311065		0.108382		-0.0793355		0.0917293		-0.141415		0.21853		-0.296071		-0.310988		-0.0716287		-0.432522		-0.124687		-0.357718		0.206914		0.474551		-0.286535		-0.468098		-0.448895		-0.106298		-0.225912		0.326335		-0.474301		0.14094		-0.141968		0.230295		0.390456		-0.222343		0.42472		-0.222727		0.399366		-0.445706		0.222713		-0.397972		-0.38952		-0.416214		0.314301		0.126727		0.148591		0.199957		0.203564		0.320867		-0.0712863		0.464929		-0.0648073		-0.46595		-0.453388		-0.294017		-0.297458		-0.0805501		0.463327		-0.327246		-0.209478		-0.391565		0.097216		-0.221457		-0.395186		0.317778		-0.377019		-0.430042		-0.4677		0.217926		0.265216		0.412525		0.477367		-0.304861		-0.0493749		-0.0724094		0.283755		-0.37718		-0.164809		0.0118032		-0.0484202		-0.263689		0.237247		-0.490398		0.254266		0.419503		-0.4938		0.185531		-0.000866707		-0.250191		-0.151964		-0.3923		0.195421		-0.43959		0.475837		-0.0978435		0.493734		0.342188		-0.387167		0.170462		-0.143884		0.192427		0.0201295		0.103092		-0.486437		0.381606		-0.0237085		0.000714656		0.117615		-0.2775		0.118442		-0.401154		0.00550002		0.165856		-0.0112382		-0.264477		-0.0247053		-0.0593178		0.101189		-0.496002		-0.117965		-0.470197		-0.380808		-0.35922		0.0921444		-0.316811		0.120062		0.121519		-0.49949		-0.0957847		-0.371156		-0.484241		0.0549603		0.113206		-0.109509		-0.368607		0.365945		0.248541		0.0560315		0.300079		-0.239899		0.167242		-0.137046		-0.481144		-0.484426		0.121963		0.260814		-0.311379		0.416966		-0.179806		0.203285		-0.380938		0.139828		-0.391818		0.391963		0.0377849		0.0777684		-0.292955		-0.388452		-0.17715		0.0757304		0.492489		-0.387008		-0.385572		0.492109		0.31936		-0.313071		-0.223498		0.129704		-0.208754		0.286078		0.0661998		-0.483114		0.489201		-0.228341		-0.314676		0.200384		-0.470745		0.379469		0.146507		0.414114		0.315645		-0.157643		-0.0465398		0.402034		-0.0802574		0.245173		-0.281173		-0.0107569		-0.187975		-0.100888		0.317485		0.123216		-0.456916		-0.0153112		0.0224425		-0.0272055		0.486952		0.474573		0.361232		0.390509		0.427295		0.0320662		0.059151		0.192993		-0.196794		0.176898		0.00219667		0.260055		0.153986		0.330485		-0.208104		-0.473313		0.08313		0.385269		-0.4082		-0.0815786		-0.331473		0.380244		-0.439934		0.459296		0.0740364		-0.487087		0.0841262		-0.470848		0.468236		0.247378		0.100543		0.384627		0.074298		-0.220022		-0.20497		-0.393359		0.254419		-0.198474		0.0952015		-0.41923		0.154511		0.00384462		
0.294185		0.0809717		-0.361988		-0.348061		0.420414		0.355693		-0.27638		-0.0244474		0.408669		-0.312393		0.245653		0.406361		-0.155557		0.372312		0.326578		0.212229		-0.155836		-0.427318		0.203851		0.499989		0.499127		0.333209		-0.282705		-0.141774		-0.299133		-0.337639		0.322545		0.43285		-0.371206		-0.148843		0.444467		0.367531		-0.0396305		-0.297393		-0.390881		0.45172		0.0931439		-0.0614551		0.0210575		-0.253647		0.492304		-0.238047		-0.261787		0.0700463		0.483475		0.0252786		-0.0741909		-0.0651149		0.186083		0.255021		0.190568		0.254104		0.305762		0.108472		0.236226		0.449981		0.178888		-0.102049		-0.111763		0.483849		-0.4611		-0.43388		-0.33295		0.449834		0.0317873		-0.317837		0.00190941		-0.139008		-0.458925		0.0369713		-0.0503321		-0.386376		-0.0646085		-0.470479		-0.334563		-0.289556		0.141667		0.0549215		0.0550189		-0.0850746		0.277153		0.485774		0.302389		-0.236288		0.0673037		-0.187978		0.388489		0.224999		0.476192		-0.459462		0.0802207		-0.0747599		-0.288229		0.457745		0.327868		0.0691843		-0.318545		-0.453127		-0.49201		0.13145		-0.129627		-0.348938		0.0314627		0.250782		0.0360346		0.0923129		-0.363557		-0.0220232		0.444846		0.0505913		-0.494675		0.0924588		-0.0778855		-0.344059		0.00348419		0.156589		0.227975		0.0839325		-0.143288		-0.237289		-0.0530457		-0.433507		0.149389		0.245811		-0.244768		-0.458967		0.276096		-0.191498		-0.430091		0.222501		0.416316		-0.325737		0.446799		0.195784		0.473612		-0.469504		-0.224445		0.0226231		-0.209417		0.384906		0.125914		0.324773		-0.0796628		0.349456		0.240764		-0.398128		0.431262		-0.125432		-0.161056		0.317089		-0.354478		0.425586		-0.00262393		-0.240905		0.381012		-0.36837		-0.42293		0.140512		0.304663		-0.318369		-0.333977		0.405379		-0.215485		-0.00343568		0.329933		0.311404		0.315945		-0.245337		0.39284		0.0847619		-0.142377		-0.364916		0.336074		0.350306		0.183945		-0.238121		0.105108		0.340738		0.343497		-0.285251		0.492477		0.42277		-0.0415212		0.335701		0.336966		0.00012671		0.0784867		-0.200438		-0.271957		0.103671		-0.338724		0.078942		-0.00851189		-0.216453		-0.179442		0.499428		-0.182113		0.208876		0.0623575		-0.287398		-0.219734		0.483557		0.233432		-0.327498		0.139134		0.341404		-0.365803		-0.316251		0.208784		-0.0685395		-0.144461		0.382107		-0.458179		-0.0300909		-0.12779		-0.0769182		0.431783		-0.459986		-0.41206		0.396204		-0.0825018		0.293797		0.163956		0.284395		0.157046		-0.0662833		-0.360812		-0.304999		0.449468		0.475875		0.321169		0.283599		-0.0635407		-0.133987		-0.282167		-0.416298		-0.416762		0.194725		-0.396275		0.0226689		0.235238		0.155355		-0.329538		-0.398911		0.0873521		-0.181905		0.270512		-0.410306		0.327519		0.325486		0.382048		0.173324		0.347911		0.061844		0.428557		0.110144		0.317473		-0.323159		0.422201		-0.160322		-0.125711		0.270175		-0.22129		0.439647		0.325461		-0.249533		0.46688		0.0170932		0.275052		0.399298		-0.0396096		0.339796		-0.257525		-0.259169		0.416822		-0.42029		-0.3325		-0.474119		0.353796		-0.441948		0.268612		-0.446839		0.171541		0.145874		-0.000773321		-0.286096		-0.229819		0.24529		0.260932		-0.265389		-0.0953955		-0.0289277		-0.0285077		-0.12737		0.251274		0.0929322		-0.364197		-0.185953		-0.167221		0.417457		-0.306148		0.103298		0.066694		0.288747		0.123423		0.0592672		0.470447		-0.114647		0.334984		-0.32765		0.490249		-0.00206516		-0.0685573		-0.420348		-0.37382		-0.198697		-0.0367321		-0.395782		-0.150662		-0.13571		-0.0725706		0.27931		0.200619		0.380364		-0.405116		-0.39013		0.0111891		-0.445821		-0.451587		-0.353384		-0.33607		0.189263		-0.427913		-0.238329		0.481381		-0.299595		0.475894		0.392079		-0.0291725		0.432988		0.0988707		-0.095333		0.278976		0.129105		-0.334391		0.411339		-0.152807		0.275609		-0.185884		0.10803		0.0698755		-0.325336		-0.14886		-0.336444		-0.0661479		0.200525		0.475087		-0.172975		0.209495		0.424509		0.245161		-0.268881		0.08183		-0.452663		0.409343		-0.00351881		0.00358171		0.413587		-0.217797		-0.468219		-0.181499		-0.0130011		0.214116		-0.45503		-0.333209		0.494708		0.494007		-0.241594		-0.153649		0.10992		0.306875		-0.105279		0.31227		-0.502443		-0.171064		0.251892		0.328584		0.467118		0.0240072		-0.491771		-0.293614		-0.0365068		-0.475691		0.322384		-0.0169214		0.368779		-0.122863		-0.19342		0.217541		0.246936		-0.458026		-0.489711		0.242036		0.414928		0.385712		0.204608		-0.177533		0.130425		0.186862		-0.195502		0.433769		-0.347499		-0.334106		-0.44109		0.357743		0.00796314		0.398145		-0.382198		-0.285053		0.293166		-0.397133		-0.439598		-0.245726		-0.0559782		-0.484736		-0.150554		-0.45011		0.474866		-0.367407		-0.13881		-0.396535		0.370973		-0.26117		-0.131034		-0.437739		-0.0492644		-0.260285		-0.241688		-0.398064		-0.231825		-0.42722		-0.354562		-0.230191		0.318088		0.341421		-0.020408		0.444893		-0.309962		-0.0485624		-0.342831		-0.415874		-0.474779		-0.386962		0.294419		0.301574		0.280622		-0.486713		0.281428		0.355958		-0.439739		-0.00798937		0.0206653		0.350098		-0.226298		0.116587		0.14312		-0.247664		0.45103		0.0331912		0.453614		-0.182986		-0.483459		0.052634		-0.392011		0.497694		0.231981		0.239198		-0.30631		0.41414		0.20437		-0.183286		0.0483394		0.483063		0.226613		0.403622		0.30791		-0.0925146		-0.211343		0.333777		0.407048		-0.0592248		0.446796		0.305783		0.0228148		0.344312		0.109241		0.0102746		0.0831181		-0.048894		0.402454		0.220341		0.395691		-0.333663		0.357956		0.404446		0.161855		0.181935		-0.098103		0.194788		-0.165414		0.041197		0.100863		0.447413		-0.213476		0.497881		-0.18323		-0.0800367		-0.194619		-0.448159		0.468426		-0.354748		-0.294208		-0.386508		-0.337506		0.0409121		-0.444914		-0.040174		0.158023		-0.394737		0.253614		0.368349		0.243486		0.119131		-0.187111		-0.0929552		-4.11899e-05		0.189503		0.161518		-0.183915		-0.426475		-0.299608		0.390319		0.254264		0.0401072		0.169577		-0.37898		-0.272176		0.410374		0.289309		0.228201		-0.389016		-0.130087		-0.229851		-0.43985		-0.267951		-0.0940162		0.141636		-0.269909		0.0872294		0.48653		-0.460846		-0.0357444		0.0812932		0.301896		-0.321359		-0.483832		-0.19731		0.254296		-0.257461		0.0643395		0.388783		-0.171988		0.12499		0.117024		-0.47313		0.0065822		-0.240165		-0.438687		0.463531		-0.316635		0.133617		-0.397817		0.466747		-0.484209		0.178271		0.141542		0.281791		-0.14618		-0.274197		0.491451		0.223389		-0.44397		-0.31035		0.217871		0.05475		0.141382		-0.444211		0.167125		-0.294299		0.218615		-0.395954		0.189609		-0.387553		-0.170949		0.254043		-0.403086		-0.394607		0.298501		0.436895		0.227741		0.482354		0.346258		-0.113521		0.338091		-0.157698		-0.134854		-0.0777891		0.138917		-0.254989		0.313214		-0.286412		-0.206579		-0.0966321		0.381113		0.339295		-0.47376		-0.0107235		0.158183		-0.378853		-0.436151		0.281077		0.353502		0.428919		0.342836		-0.254351		-0.126069		-0.505933		0.434668		-0.383798		-0.504609		0.276656		-0.338796		-0.314296		0.209232		0.224565		0.455052		-0.20935		-0.115271		0.255743		0.440108		0.148007		-0.461844		0.399564		-0.357712		-0.164885		-0.387372		-0.0859811		-0.433215		0.0882242		-0.456897		0.231139		0.214865		0.158614		0.34502		-0.206985		0.211978		-0.10072		-0.408171		0.271291		0.0585613		0.0199672		-0.0242392		-0.388737		-0.332838		-0.0700121		0.146787		-0.340652		0.453787		-0.0977495		0.028431		0.0904882		-0.380482		0.43423		0.171907		0.527857		0.393029		0.112764		0.475309		0.337972		-0.432253		0.238618		-0.411333		-0.25995		0.072287		-0.235352		0.298064		0.105907		-0.438017		-0.0684838		0.0566943		0.270263		0.015323		-0.485383		-0.209414		0.0883965		0.301101		-0.227788		0.468365		0.11213		0.297451		-0.234527		0.0291912		0.430858		-0.117608		0.0994236		0.223025		-0.346531		0.160163		0.228286		0.263058		-0.113021		-0.347233		0.0482095		-0.287028		0.182247		-0.174469		0.301924		-0.393258		-0.492868		0.388019		-0.252245		0.0892316		-0.27266		-0.49851		-0.0416315		0.0767009		-0.3011		-0.292971		0.241924		-0.404016		-0.0432455		-0.304623		-0.0735095		0.0150205		0.282836		-0.358714		0.00867992		0.0499142		0.147352		0.249469		-0.116411		-0.339953		-0.282354		-0.255569		-0.191903		-0.132159		-0.240063		-0.479039		-0.11737		-0.208572		-0.310935		-0.0839615		0.0112644		0.388614		0.175071		-0.277827		-0.451554		0.283236		0.410256		-0.020962		-0.0135884		-0.224718		-0.115779		0.491588		0.40733		0.348126		0.342682		-0.182855		0.289735		0.339521		0.0566468		-0.162794		-0.0715178		-0.185567		0.0249045		
-0.191642		0.469388		-0.450681		-0.103331		0.373587		-0.0421574		-0.245961		-0.0476614		0.240739		-0.352344		0.0112469		-0.291565		0.144454		-0.480026		-0.000241029		0.213078		-0.433771		0.239368		-0.188231		-0.089334		-0.350909		0.142016		0.438733		0.319779		0.112345		0.0411229		0.25059		-0.153585		0.473184		0.050373		0.0992043		-0.300977		0.175123		-0.206374		-0.264687		-0.0171775		0.072916		0.337884		-0.0495723		0.017089		-0.369222		-0.262301		-0.346109		0.49457		0.426445		0.465561		0.107218		0.35785		0.39371		-0.104218		-0.05452		0.392826		-0.373655		-0.350596		0.482053		-0.0296059		0.228019		0.0147154		0.0691215		-0.263404		0.0981415		0.308837		0.258866		-0.332408		0.409518		0.0665082		0.495773		0.19761		0.153405		-0.010129		0.225844		0.00792051		0.175695		0.00662651		-0.0821548		0.434581		-0.180106		0.379658		-0.386685		0.0956346		0.488376		-0.184454		-0.00677979		0.098939		-0.0790583		0.317401		0.224771		0.0943142		0.182739		-0.252664		0.410691		-0.483343		-0.00616288		-0.157983		0.305788		0.0963702		0.230589		0.456815		0.333295		0.492564		0.0770851		-0.10573		0.181034		-0.141119		0.209797		0.0309126		0.439411		0.38519		0.046092		0.397719		0.36124		0.100816		-0.230258		-0.161996		0.189777		0.125669		-0.247908		0.279984		0.236676		0.364449		0.381818		-0.151159		-0.232539		0.121123		0.199698		0.380339		-0.0849102		-0.365534		-0.367997		0.0335275		0.0981615		-0.311759		0.0209303		-0.0700555		0.0893793		0.0858241		0.194876		-0.407616		-0.283355		-0.172312		0.239405		0.450492		0.0665371		-0.0339772		-0.00672373		-0.453188		-0.411406		-0.314211		0.0119469		-0.421519		0.422389		-0.00666257		-0.295219		-0.375789		0.459343		0.431187		-0.400872		0.233842		0.303871		-0.391618		0.202302		-0.227878		0.134789		-0.479407		0.107008		-0.108082		0.0235528		0.0410232		0.314268		0.0248646		-0.318075		-0.0602667		-0.0614067		0.285946		0.0840881		0.20253		-0.106431		0.293265		0.378394		0.262771		0.35746		-0.45895		0.370349		0.181404		0.308714		0.262122		0.388567		-0.0852211		0.0885886		0.20401		0.385177		0.180687		0.0674239		0.425926		-0.32792		-0.410832		-0.0596652		0.0548212		0.459719		-0.306053		-0.102963		-0.327217		-0.192102		-0.405692		-0.507468		-0.477412		0.398334		0.269437		-0.324972		0.407258		0.155307		-0.172704		0.484862		0.00844517		-0.318392		-0.38299		-0.00647854		0.00498068		0.294598		-0.381596		0.413741		-0.167739		0.463489		-0.0461522		-0.394814		-0.424325		0.145078		-0.376521		-0.0760178		0.40208		-0.0606788		-0.50279		-0.341198		0.106954		-0.426119		0.458636		0.15117		0.224795		0.468224		-0.110131		0.329419		-0.0523562		0.258428		0.229006		0.438884		0.0520833		0.387107		0.212396		0.0962566		0.172177		-0.274154		-0.496271		0.0822021		0.434995		-0.421932		0.226286		-0.480414		0.372736		0.435772		-0.393359		0.216845		0.0323088		-0.277061		0.0573911		0.447414		-0.032818		-0.508422		-0.03878		-0.29022		0.0159332		0.41356		0.173951		0.11043		0.0185597		0.0706608		0.316902		-0.0438611		0.15162		-0.064709		0.43992		-0.320001		-0.160807		-0.320456		-0.363923		0.485259		0.0922178		-0.434252		0.0194164		0.0978818		0.406468		-0.134486		0.103165		-0.366451		-0.0433123		0.030761		0.269597		-0.536371		-0.101067		0.513992		0.109262		0.0945102		0.213207		-0.0118634		0.0614975		0.0436179		-0.0480654		-0.247062		-0.446615		-0.154873		-0.00724942		0.221804		-0.0983445		0.16475		0.345804		-0.435228		-0.00757716		0.478355		-0.207455		-0.112336		0.216134		0.133608		-0.340726		-0.0214267		-0.134599		-0.497109		-0.353419		0.467056		-0.0173375		0.106509		0.516213		-0.0418798		-0.114785		-0.366211		0.147908		0.223779		0.468212		0.0400738		-0.189366		0.159029		0.187096		-0.34849		0.254204		-0.272868		0.00772828		-0.434914		-0.217722		0.0812253		-0.171765		0.409671		0.0346813		-0.121651		-0.405765		-0.473938		-0.434623		-0.503165		0.309079		0.327344		0.186421		0.138409		0.517515		-0.151537		-0.433135		0.466704		0.44112		0.0944108		-0.238781		-0.37143		-0.424299		-0.279885		-0.331742		-0.197215		0.188368		-0.33182		-0.419249		0.190132		-0.0745369		0.267688		-0.0187126		0.0907046		0.121972		0.0753948		0.299168		0.0578741		-0.0834426		0.115048		-0.0424292		-0.12253		-0.0284293		0.165988		-0.429346		0.325154		-0.462072		0.181516		-0.450271		-0.17504		-0.467125		0.35703		0.335647		-0.0169403		-0.12979		0.371729		0.289259		-0.0797372		-0.326339		-0.018577		0.37306		0.342994		0.0852434		0.454991		-0.299399		0.315544		0.272419		0.238757		-0.438172		0.0569173		-0.00954278		0.494118		0.4315		0.218615		0.347726		-0.440309		-0.318258		0.317099		-0.228934		0.385862		0.0230178		-0.22913		-0.123337		0.492834		0.432038		-0.0705426		-0.0945022		-0.325056		-0.132773		-0.470068		-0.231031		-0.038103		0.381901		0.362744		-0.47159		-0.120572		-0.21743		-0.141384		-0.0532091		-0.347328		-0.173048		0.2592		0.266459		0.181437		0.102885		0.408508		0.255609		-0.255779		0.102171		0.420044		0.086305		0.183026		-0.408142		-0.306174		0.268865		-0.312022		0.0902833		-0.1865		0.300328		-0.359108		-0.453675		0.236822		-0.438216		-0.231205		-0.0543798		0.344088		0.452848		-0.19455		-0.276074		0.223745		0.378512		-0.426039		0.221566		-0.274542		0.15784		0.17916		-0.255754		0.297209		-0.286087		0.0567226		0.568864		-0.372155		-0.389903		0.185075		-0.35064		-0.445535		0.354707		0.257552		-0.336614		-0.216762		-0.0417472		0.226095		-0.395127		0.0106904		0.277483		0.114847		0.493167		0.0872868		-0.365738		-0.401086		0.303863		0.445433		-0.351999		-0.40892		-0.296893		-0.386963		-0.0328229		0.445376		0.0804186		-0.147902		0.13436		0.215563		-0.152805		0.429391		-0.26898		-0.127744		0.163405		-0.38508		-0.494859		0.253618		-0.17558		-0.435083		0.0930125		0.0427275		0.0876516		0.42499		0.318035		-0.212009		-0.0770198		0.46841		-0.289219		0.38045		0.127723		0.503968		0.0830233		-0.217098		0.420882		-0.390697		0.289252		0.188609		-0.348588		-0.124989		0.513726		0.197115		-0.0587805		-0.144239		0.27723		-0.0835436		0.374512		0.350855		0.0935122		-0.448578		0.397788		0.0636952		0.198105		-0.0709076		0.183205		0.149516		-0.38058		-0.153708		-0.441298		0.396372		-0.430047		-0.0129273		-0.145924		0.46968		-0.22903		0.299746		0.42001		-0.0544146		-0.0824527		0.405563		-0.156585		0.391651		0.219082		0.141591		-0.462355		-0.348478		0.312295		0.185745		-0.251293		-0.375172		-0.0148072		0.479707		0.413524		0.060516		0.214226		0.157148		0.458444		0.314456		-0.0811389		0.264557		0.21399		-0.0650443		0.306292		-0.0761191		-0.282792		-0.0901327		0.285273		0.173131		-0.0618149		-0.392381		-0.131359		-0.198828		-0.131941		-0.471218		-0.470608		-0.497367		-0.134715		-0.393223		0.287997		-0.406632		-0.223928		0.132734		0.131157		-0.222079		-0.342426		0.113375		0.275143		0.00254623		0.0760505		0.461206		-0.109221		-0.24979		0.401933		0.0783203		-0.129871		-0.272437		-0.0714265		-0.46082		0.0232467		-0.484788		-0.433303		0.265309		-0.316766		0.374272		0.442619		0.00897126		0.336392		0.286661		0.0137504		0.258736		-0.187155		-0.17324		-0.306971		0.130992		-0.0536229		0.265433		0.347443		-0.1237		0.23634		0.292038		-0.381742		-0.407807		-0.0862777		0.144351		0.45975		-0.369723		-0.490725		-0.267124		0.426596		0.248427		0.418657		-0.326089		-0.289303		0.267051		-0.0604421		-0.0144428		-0.180585		-0.438898		-0.163964		-0.0928656		-0.0269718		-0.423217		-0.0326414		0.319978		0.121107		-0.487842		0.315248		0.412827		0.0909094		-0.0571899		-0.135183		-0.162407		0.242994		0.105485		0.309608		0.15782		-0.185725		-0.39221		-0.469208		-0.29554		-0.467809		-0.23667		0.0139899		0.0667891		0.129629		-0.284491		0.211666		-0.15602		0.170155		0.354719		0.259736		-0.331418		-0.373647		0.0207836		0.483076		-0.388736		-0.0296935		-0.437232		-0.15453		-0.0338668		-0.276107		0.42213		-0.490696		0.214281		-0.436182		0.130367		0.461606		-0.265034		-0.0118666		0.398029		0.117833		-0.181771		-0.36355		-0.420215		-0.175146		-0.0157749		0.135155		-0.222987		-0.0705415		-0.375507		0.40991		0.0222757		0.0613007		0.416235		-0.402307		-0.272145		0.445202		0.184632		0.161814		-0.268602		0.0772583		0.300211		0.236451		0.450721		-0.0750432		-0.473565		-0.0303594		0.354701		0.423804		0.275865		0.215548		-0.257913		-0.128854		-0.466112		0.298098		0.251248		0.183437		-0.37967		-0.328345		0.40771		-0.17826		-0.174482		0.388057		0.00949721		0.0983815		0.469318		0.411669		-0.462409		-0.466783		-0.0333311		0.0478786		-0.293043		0.135012		0.251406		-0.427066		0.489467		-0.13298		0.0213801		
-0.287829		-0.0178375		-0.425186		0.0703696		-0.347205		-0.353478		0.0278764		0.290548		0.248329		-0.396148		0.111067		0.297951		0.314549		-0.168945		0.399574		-0.0065169		0.456026		-0.113079		-0.380969		-0.422745		0.13577		0.0736102		0.305487		0.0527613		0.380432		0.118987		0.24082		-0.262271		-0.202156		-0.34599		-0.266752		0.379016		-0.418793		-0.168276		0.475776		-0.267174		-0.00497928		0.482595		0.44308		0.0232974		-0.0970046		0.235687		-0.392046		-0.252248		-0.366397		0.217793		-0.40758		0.128821		0.439168		-0.364083		0.25378		-0.499338		0.195722		-0.479429		-0.430878		-0.412651		0.488776		-0.415887		0.257923		-0.400705		0.100307		-0.463451		0.218559		-0.105544		0.111185		-0.372213		-0.093588		-0.0930204		-0.075391		0.411742		0.193536		-0.142841		-0.189478		0.103973		0.464165		-0.247755		-0.379594		-0.367087		-0.444187		-0.383557		0.192774		0.208847		-0.168833		0.12389		0.445093		0.454222		0.207558		-0.232677		0.193738		0.374707		-0.286477		0.13335		-0.491383		-0.463416		-0.0547621		-0.391816		-0.340877		-0.422478		-0.219367		-0.208116		-0.464872		0.0343625		0.0967675		0.140192		0.308534		0.0677763		0.457171		0.301542		0.119341		0.260838		0.0219342		0.265096		0.356141		0.0733612		0.316619		0.077525		0.0744043		0.408455		0.0507063		-0.00595478		0.153854		0.232977		0.105335		-0.0184746		0.216816		0.32845		-0.316693		0.439837		-0.207429		-0.473715		-0.042187		0.157112		0.473526		0.193385		-0.44343		0.426612		-0.447165		-0.193259		-0.0240842		-0.0954391		0.0364201		-0.0379313		-0.0597532		-0.0552875		-0.0542431		0.0149776		0.47561		-0.423915		0.495537		-0.455582		-0.221377		0.067705		-0.156806		0.39396		-0.332967		-0.162586		-0.397496		0.179689		-0.191898		0.334519		-0.497541		-0.0947649		0.40127		0.253534		-0.220919		-0.325465		0.148151		-0.287488		-0.247443		0.0927767		-0.285889		-0.0321268		0.440479		-0.0742886		-0.390251		0.23931		-0.127325		-0.475613		0.00145613		-0.0694271		0.380424		-0.151677		-0.453221		0.062405		0.161383		-0.280679		0.286257		0.416253		-0.235694		0.0116305		0.0923329		-0.457931		-0.16919		0.0510615		0.431924		0.00599857		0.125169		0.0291902		-0.0158893		-0.300525		-0.351966		0.143642		-0.016148		-0.0808915		0.465865		0.199206		0.367014		0.228292		0.405589		-0.0903911		-0.209904		0.350132		0.367851		-0.0830855		0.21702		-0.185433		-0.194608		0.262838		-0.331372		-0.236989		-0.238558		-0.0817138		-0.313119		-0.0473451		-0.39045		0.301222		0.0985958		0.237078		-0.0528717		0.238881		0.424074		-0.0499222		-0.119521		-0.219176		-0.125768		0.453392		0.124643		-0.326868		-0.478683		0.0986912		0.0825748		-0.475756		0.0239321		-0.136697		-0.24008		-0.321037		0.136933		0.0448847		-0.286487		-0.0719117		-0.0302137		-0.451463		0.350561		0.234343		0.0504838		-0.224898		0.154824		0.351393		0.0779675		0.360019		-0.338593		0.243488		-0.354674		-0.128017		-0.231608		0.455729		0.14453		-0.0243329		0.346396		-0.433887		0.0737541		-0.474033		-0.348035		-0.490422		-0.0923961		-0.305472		-0.337913		0.055038		0.460176		-0.0289913		-0.242786		-0.297338		0.0583567		-0.454576		0.260178		-0.116227		-0.291819		0.489857		0.062956		0.175277		-0.0620833		0.152942		-0.220341		-0.283965		-0.121814		-0.345282		-0.203969		-0.245516		-0.316856		-0.450461		-0.359992		-0.183996		0.337921		-0.136327		-0.457028		0.466783		-0.304286		0.18233		-0.442835		0.352753		-0.400513		-0.470338		0.0455971		-0.31431		0.246469		-0.422698		0.321976		-0.0757235		0.260461		0.393791		0.213523		-0.472927		0.208914		-0.49245		0.125697		0.204804		0.117452		-0.402311		-0.457624		-0.155671		0.496572		0.147927		0.0610869		0.134188		0.297746		-0.0794879		-0.239269		0.137829		-0.308646		-0.365238		0.238846		0.223094		0.202798		0.474888		-0.23887		-0.251268		0.142987		-0.343257		-0.187937		-0.297793		-0.227056		-0.153016		-0.481715		-0.438569		0.360694		-0.0573175		-0.126524		-0.00676609		-0.116131		-0.162296		0.470629		0.0417239		0.285307		-0.355256		-0.300787		-0.444945		0.116389		0.101787		0.359852		-0.162763		0.133248		0.444446		-0.056329		-0.0119099		0.374963		0.094083		-0.361661		0.462766		0.429726		-0.364464		-0.278759		-0.142586		-0.284976		-0.104282		-0.406341		-0.422651		0.113204		-0.272398		0.179087		-0.160771		-0.480892		0.46066		0.0309666		0.437668		-0.275381		-0.21648		-0.24734		0.114708		-0.163777		0.16653		-0.157752		-0.333743		-0.411007		-0.0565554		-0.0740414		0.168746		-0.488709		-0.398394		0.382031		-0.160193		-0.472108		-0.432281		0.0918816		0.207598		-0.385505		0.166542		-0.380184		0.126969		0.193877		0.453378		0.214634		-0.464532		-0.476759		0.032564		0.296602		-0.0396189		0.142932		-0.435305		0.358156		0.0586431		-0.357936		-0.464441		0.414175		-0.254128		-0.165322		0.49428		-0.0646666		0.185457		-0.227141		-0.380555		0.465533		0.0361988		0.0464553		0.233231		-0.487236		0.351448		-0.495506		0.193263		0.0921805		0.209605		-0.3182		-0.270231		0.126788		0.35488		0.462177		0.163003		-0.229134		-0.227318		-0.27763		0.262315		0.180497		-0.369897		-0.0836116		-0.148256		-0.0372614		-0.2629		-0.41362		0.010264		-0.118107		0.376762		-0.286499		0.207901		0.173542		0.0554124		-0.428638		0.168615		0.239422		0.275513		-0.139054		0.0834769		0.248818		0.0296124		0.446899		-0.408742		0.244717		0.441721		-0.331527		0.236197		-0.019244		0.0352772		0.0787312		-0.00142971		-0.501853		-0.0905929		0.0354997		0.163373		0.198454		-0.477249		-0.167253		0.214399		-0.284131		-0.0473699		-0.385365		-0.221974		0.220339		0.0340241		0.0694304		-0.462579		0.17287		0.396639		0.456958		0.433754		0.379581		0.0784575		-0.498318		-0.0471668		-0.246894		-0.486115		0.063729		0.445651		-0.343592		0.0722766		-0.177936		-0.476671		0.126509		-0.0558823		0.0183889		0.408376		0.266575		0.0414947		0.313708		-0.0513642		0.125236		-0.0629964		-0.427672		-0.0157516		0.0209394		-0.287112		0.282243		-0.44661		-0.294904		-0.115375		0.241345		-0.225781		0.444883		0.0779348		-0.061087		0.0959508		-0.172558		0.418135		-0.426105		0.0628557		-0.44064		-0.158144		-0.447317		0.226113		0.322789		-0.161432		-0.164423		-0.246838		0.396958		0.171986		0.0450741		-0.114205		-0.489372		-0.0932031		0.0181262		0.214773		-0.478778		0.109112		0.1759		0.194461		-0.0705975		-0.304808		-0.247674		-0.145325		0.0267015		0.230561		0.154185		0.0290652		0.249		0.129898		0.142738		-0.100048		-0.254868		0.415007		-0.32616		0.49		-0.178294		-0.229352		-0.00614715		0.249283		0.478312		0.46121		0.367122		-0.203081		-0.171813		-0.171517		-0.274631		-0.181976		-0.309107		-0.10666		0.157958		0.0618946		0.417356		0.200858		-0.180611		-0.364249		0.304367		-0.431426		-0.0766519		-0.0613066		-0.0752315		-0.20009		-0.186229		-0.304202		-0.253694		-0.412064		0.124334		0.364758		0.251532		-0.0782457		0.101883		-0.456462		0.193321		-0.408755		-0.430959		-0.329759		-0.461972		-0.0681751		0.0203605		-0.224819		0.366104		0.0209566		0.324008		0.127117		-0.0825873		-0.50053		0.130812		-0.0708679		0.433928		-0.351236		-0.23123		0.0644119		0.191805		0.301864		-0.435358		-0.476879		-0.424231		0.355751		0.00623178		-0.206992		0.116346		0.19699		0.274043		0.06308		0.217941		0.407682		-0.400426		-0.428125		0.370819		0.122525		0.1427		0.048264		0.255038		0.319237		0.323825		-0.0138766		0.406462		0.478791		-0.455455		-0.434395		0.37232		0.232535		0.0437637		0.467462		-0.366533		0.196224		0.0917977		-0.304071		0.176139		0.376271		0.352497		-0.264501		0.0643574		-0.0670909		0.206577		0.16383		0.0845049		-0.427313		0.224834		0.00887345		0.109987		0.055002		-0.0427207		-0.477473		0.103653		0.267365		0.356367		-0.353172		0.0700875		0.361825		-0.0324267		0.304832		-0.0405519		0.19086		-0.205002		-0.217817		0.473468		-0.0925704		-0.448294		-0.209119		-0.00854895		-0.245329		0.142691		0.143354		-0.0708392		0.314932		-0.205061		0.175216		-0.063		-0.214642		-0.318503		0.161883		-0.339807		-0.203342		-0.419741		0.323074		-0.0666422		-0.223109		-0.48904		0.173095		-0.479954		-0.0606034		0.000597835		-0.0751102		0.151018		-0.426105		0.341779		-0.190309		-0.429665		0.223469		-0.119947		0.0318613		-0.0249557		0.0887255		-0.129984		0.0942383		0.451192		-0.162145		0.370643		-0.273612		-0.386583		0.360077		-0.21414		0.48283		-0.376301		-0.492224		0.264327		-0.289043		-0.146751		-0.00693855		-0.315591		-0.0412402		-0.227708		-0.103736		0.198908		-0.363159		-0.241805		0.38868		-0.360548		0.0550364		-0.084112		-0.436317		-0.256831		-0.0393377		0.298225		-0.283566		0.297557		-0.054949		0.0214271		0.132995		0.356445		0.184981		-0.013005		
