3		784		10		relu		softmax

89
0.617831		0.647375		-0.00508684		0.782766		-0.389468		-0.912512		-0.0970933		0.563087		0.686588		-0.563709		-0.854743		-0.158893		0.373844		0.647635		-0.86545		-0.560865		-0.894725		-0.550978		0.690362		-0.916161		0.963317		0.20474		0.451456		-0.835941		-0.994983		-0.0663173		0.592721		-0.616433		0.660924		0.167751		0.636371		0.69678		-0.790751		-0.467302		0.470711		-0.690208		0.636315		-0.475912		-0.112187		0.745692		0.308161		0.709329		0.105537		0.0505326		0.909937		0.261721		0.98923		-0.0391816		-0.11784		0.960406		0.859708		-0.72996		-0.548908		0.0243883		-0.558372		0.232944		-0.725447		-0.42972		-0.357578		0.557239		-0.618221		-0.256067		0.432538		0.592815		-0.975082		0.614856		0.393657		-0.0240811		-0.245413		-0.0875566		-0.497628		0.150681		-0.460774		0.459272		0.266548		-0.177569		0.825667		-0.478141		0.645902		0.435385		0.0767509		-0.252869		-0.824006		-0.540875		-0.727171		-0.836681		0.655268		0.682568		-0.109518		0.196008		0.298892		0.142506		-0.846475		0.176687		-0.00783801		-0.880759		-0.547919		-0.343798		-0.619309		-0.815631		-0.362565		0.753147		0.389296		0.242718		-0.905056		-0.876048		-0.809802		-0.441633		-0.0405589		-0.867227		0.0784272		-0.729875		0.452684		-0.694056		-0.91969		0.362561		-0.422335		0.606352		0.130197		0.50092		-0.133858		-0.891248		0.663197		-0.00345725		-0.32093		0.58714		0.509538		-0.628619		0.894585		-0.138785		-0.868508		-0.816		-0.747571		-0.602872		-0.0533869		-0.241064		0.37709		0.976257		0.65845		0.107401		-0.961639		-0.26985		0.515698		-0.345014		0.0150493		0.637816		-0.157032		0.840165		-0.0803926		0.7494		0.703778		-0.90409		-0.328583		-0.099445		-0.462872		0.583498		0.546851		-0.0757487		-0.48356		-0.87147		-0.153098		0.539846		-0.746004		0.556755		-0.673459		-0.72		0.344549		0.147791		0.575734		-0.0431345		-0.594677		0.53395		-0.21662		-0.732237		0.344084		-0.0526109		-0.847646		0.461645		-0.653831		-0.759285		0.516949		0.783179		-0.500791		0.123411		0.928992		-0.851733		0.545551		-0.988868		0.344685		-0.937149		-0.840509		0.77887		0.565945		-0.320989		-0.0194477		-0.870574		-0.0551593		-0.778601		0.229679		-0.0846497		-0.693771		-0.562075		0.616616		0.883847		0.642137		0.728718		0.203112		-0.794291		0.838818		0.30883		-0.948321		0.315373		-0.926155		-0.362135		0.82293		0.909161		0.726828		0.118464		-0.371481		-0.310833		0.78636		0.345165		0.889479		0.509472		0.378126		-0.0161254		-0.172863		0.207953		-0.936132		0.524922		0.28057		-0.798389		0.18931		-0.179493		-0.395888		-0.782956		-0.916435		0.498862		0.52228		-0.14211		-0.470951		0.274136		0.575869		-0.999254		-0.538696		0.848782		0.550785		-0.125347		0.57825		0.997764		0.224168		-0.349323		0.484437		-0.475341		-0.606977		0.773469		-0.551804		0.304525		-0.792035		-0.582724		0.343614		-0.344356		-0.581257		-0.575699		0.70774		0.775604		0.697368		0.0715375		-0.903564		0.779581		0.449397		0.673449		-0.830061		-0.483364		-0.537866		0.257919		0.0296167		-0.517684		0.638704		-0.932236		0.896047		0.499333		0.135427		0.0191946		-0.0513038		-0.0249794		0.483931		-0.835299		-0.980409		0.382634		0.693523		-0.841376		0.930272		-0.530338		0.727572		0.382234		-0.0838943		-0.359153		0.450397		-0.0330504		0.216779		-0.240267		-0.0780578		0.90521		-0.105603		-0.621663		0.138851		0.164437		-0.364442		-0.505733		0.832663		-0.538185		-0.143952		0.633891		0.709363		-0.95213		-0.783927		-0.916142		-0.936379		0.62306		-0.673189		0.736324		0.0204521		-0.800299		-0.231701		0.875106		-0.209544		0.485088		-0.758222		-0.176703		-0.506336		0.349096		-0.1059		-0.378691		0.734583		-0.633101		0.191963		0.528194		0.144288		0.845727		-0.775909		0.878947		0.01057		0.544047		0.505419		-0.581138		0.994772		-0.994852		0.475782		-0.750987		0.527371		0.850386		-0.413962		-0.389991		-0.558454		0.768369		0.0332828		0.494122		0.729718		0.153826		0.702146		-0.598145		0.813478		0.198433		-0.173051		0.0749116		-0.408982		0.072524		-0.688794		0.604147		-0.722141		-0.211504		0.847308		-0.840012		-0.166584		-0.521088		-0.187467		-0.938076		0.833008		-0.425841		-0.850509		-0.948783		-0.56733		0.174528		-0.335051		0.599903		0.0225174		-0.453417		0.443869		0.101312		0.631422		-0.911095		0.651582		0.0576698		0.513777		-0.260121		-0.277		-0.588354		-0.643388		0.647991		0.135798		-0.740068		-0.986469		0.975827		-0.147344		0.372996		0.100746		0.729603		-0.445762		0.61921		0.12555		0.349706		0.291183		0.295103		-0.526859		-0.0528507		0.810965		0.115522		0.262744		0.614206		-0.1278		0.0154363		-0.554588		-0.223887		0.982659		0.912196		0.0632919		-0.253823		-0.00740057		0.406079		0.227125		0.440867		-0.93371		0.556972		0.0670931		-0.0113974		-0.253937		-0.887766		-0.610612		0.390574		0.621468		-0.312921		-0.0323604		0.329969		0.682377		0.55622		-0.542553		0.917127		0.323316		0.414804		-0.320768		0.29438		0.552847		-0.469894		0.291178		-0.501046		0.970868		0.0323803		-0.589828		-0.410278		-0.939164		0.131327		-0.294363		0.470445		0.348853		0.03689		-0.201552		0.355893		0.177792		-0.667293		0.071304		-0.0604338		-0.475505		0.569059		-0.893321		-0.267724		-0.8436		-0.23122		-0.11835		0.459837		-0.333753		-0.104041		0.480309		0.0611169		-0.86481		0.947348		-0.219398		-0.898804		0.193979		0.703129		0.0311362		0.976931		0.592334		0.0377494		-0.226547		-0.776285		-0.356296		0.752436		0.968098		-0.658328		-0.139099		-0.153609		0.844778		-0.181897		0.753902		-0.424321		-0.856482		0.694688		-0.151025		-0.596183		0.476457		0.390972		0.904573		0.811677		-0.301758		0.627955		0.935318		-0.531647		0.293927		0.9799		0.180493		0.452204		-0.766473		0.206637		0.429023		-0.784877		0.70663		0.890129		-0.303995		-0.0213436		-0.426961		-0.271575		0.769892		0.460824		-0.149897		0.742966		0.219363		-0.747348		-0.655741		-0.219532		0.241209		-0.687583		0.288582		0.924838		0.95396		0.786774		-0.791328		-0.289275		0.438232		0.12482		-0.312702		0.885777		-0.866304		0.326528		0.103791		0.859254		-0.0444077		0.928416		0.31342		-0.488013		-0.756682		-0.70408		0.139378		-0.279114		-0.892647		0.356144		0.520281		-0.382361		-0.847558		-0.243435		-0.0349359		-0.850654		-0.695036		0.128217		-0.152998		-0.714039		-0.451377		0.241275		0.976823		-0.989489		-0.780134		-0.971347		0.619485		0.634736		0.481936		0.578346		0.480035		0.710792		-0.829833		0.74711		0.394736		-0.904842		-0.548114		0.175176		0.882328		-0.879835		0.503662		0.81747		0.840513		-0.1624		-0.256007		-0.00347984		-0.355147		0.55623		-0.283259		-0.379839		0.66925		-0.83133		0.675824		-0.449407		0.174994		0.413575		0.287589		-0.0513985		0.748363		0.705336		0.380792		-0.23693		-0.194574		0.268595		0.362253		-0.0421346		0.860628		0.0598953		0.517484		0.422542		0.269332		0.0128123		0.650846		-0.25148		-0.0406887		0.293306		-0.432416		-0.574826		0.738296		0.713645		-0.171502		-0.506425		0.522247		0.622611		0.50615		0.748477		-0.654048		0.223623		0.0516558		-0.705975		0.345686		0.273286		0.985361		0.193577		0.335395		0.31016		0.26501		-0.0813585		0.933932		-0.131777		0.852528		0.78054		0.546745		-0.056283		-0.17603		0.874962		-0.514124		0.325531		-0.406597		-0.355652		0.563919		0.109854		-0.0686361		0.463884		-0.880895		0.332717		0.390182		-0.0518379		0.301302		0.902641		0.262003		-0.590433		0.818017		-0.346345		0.000910521		0.590258		-0.537037		-0.195304		-0.243667		-0.612831		0.04634		0.819668		0.0322371		0.445658		0.854895		0.951293		-0.0182593		0.368362		0.654475		-0.219479		0.976737		-0.197372		-0.225459		-0.739857		-0.570529		-0.418603		0.561994		-0.664033		0.908521		0.121472		0.276157		-0.633965		-0.645745		-0.142147		-0.721472		-0.406094		0.486852		-0.723808		0.663119		0.553979		-0.525067		-0.91633		-0.185747		0.131648		-0.331846		-0.0737749		0.139124		-0.185662		-0.94978		-0.908436		-0.210011		-0.11205		-0.490648		0.991078		-0.307919		-0.262486		-0.16919		-0.565826		-0.513996		0.631011		0.661793		-0.951088		-0.30431		-0.731898		-0.528243		-0.341412		-0.068758		0.0555679		0.908427		0.794101		-0.704475		-0.10163		0.264732		-0.264572		-0.0618205		0.846827		-0.780319		0.0331393		0.374261		0.824867		0.115436		0.864072		0.565228		0.235685		0.98563		-0.600128		0.0931195		0.0311167		-0.590979		-0.609739		-0.276718		-0.11271		-0.213446		0.31822		0.339455		-0.0386286		0.30875		0.975754		0.829057		0.940263		-0.908727		0.76543		0.013042		-0.83486		-0.551238		-0.0722942		-0.324663		0.868847		0		
0.963261		0.613865		-0.663871		-0.153668		-0.215093		-0.0355452		-0.0928535		-0.497232		-0.133747		-0.657316		-0.997096		-0.991258		-0.756882		0.556054		-0.370067		-0.057617		-0.857492		-0.260331		-0.309231		0.0190265		-0.01289		0.254867		0.659459		-0.413596		0.604785		0.151514		0.885121		-0.395941		-0.612846		-0.20383		-0.274976		0.608925		-0.225183		-0.916803		0.0321183		0.418153		0.761357		0.997405		-0.297213		-0.148903		-0.801507		-0.501869		-0.260643		-0.580092		-0.266022		-0.422471		-0.337618		0.591009		-0.49532		0.211026		-0.0224419		-0.937813		-0.355121		0.226955		0.958052		-0.767861		0.336965		0.959836		-0.596935		-0.510017		-0.504087		0.318818		-0.572203		0.707298		-0.828157		0.161293		0.900995		0.58053		-0.493105		-0.563144		-0.989709		0.255937		-0.336726		-0.632964		-0.516406		0.281168		0.449667		0.570225		-0.79891		0.964146		0.582795		-0.691736		0.631703		-0.734951		-0.131565		0.688038		-0.439587		-0.146017		0.291278		0.349428		0.998784		0.358318		0.441143		-0.764889		-0.182743		0.778067		-0.824423		-0.78697		-0.448615		0.424597		0.331722		-0.97589		-0.289944		0.39742		0.767591		-0.674854		-0.365086		0.14316		0.627966		-0.628183		-0.535329		-0.176644		0.287073		0.335797		-0.722101		-0.104903		-0.62944		-0.328521		0.448012		-0.432323		-0.660408		-0.945946		-0.658335		-0.406622		0.0159926		0.108128		0.800727		-0.0667373		0.233885		0.981491		0.631204		0.468785		0.772578		0.476575		-0.421298		-0.799849		-0.100538		0.100178		-0.694805		0.371049		0.295916		0.91938		-0.170167		0.222957		-0.697367		-0.881854		-0.449951		0.258281		0.213032		-0.232205		0.138595		0.38126		-0.883395		0.78907		0.411859		-0.0637174		0.381596		-0.122188		-0.12866		0.871041		0.838813		0.0314871		0.17089		0.146385		0.998869		0.895743		0.457893		0.925644		0.150562		-0.965953		0.760379		0.143475		-0.774022		-0.747767		0.924854		-0.354146		-0.758381		0.55668		-0.0421258		0.709916		0.120934		-0.229998		-0.4695		-0.0127785		-0.313395		0.258162		-0.931975		-0.850712		-0.653921		0.803201		0.956971		0.106838		0.666269		0.221144		-0.387711		0.590229		0.860414		0.754153		-0.276201		0.754		0.127254		0.0485314		-0.229164		-0.0055362		0.288577		-0.597544		0.560706		0.533292		-0.531369		-0.80625		-0.227146		-0.505327		-0.966314		-0.768942		0.381258		-0.931367		-0.870258		-0.701021		0.231052		-0.810198		0.972944		0.725716		-0.216584		0.479783		0.543248		0.219913		0.987585		0.175439		0.551172		-0.829574		0.812544		-0.89492		0.547034		-0.67197		-0.628322		0.271473		-0.15362		0.350592		-0.361317		-0.883493		-0.408607		0.765111		-0.436607		0.935452		0.714724		0.101814		-0.244274		-0.0651197		-0.996056		-0.792234		0.484386		0.689934		-0.354363		0.557072		-0.114997		0.25904		-0.0601004		0.246		-0.532964		-0.8738		0.56904		-0.803129		0.164107		-0.665421		0.0445133		0.982188		-0.797264		-0.722677		-0.891555		-0.87158		-0.670416		0.866575		0.875051		-0.120315		-0.824054		0.972462		0.848924		0.532146		0.09384		0.392907		0.326773		0.54282		-0.915919		0.451732		0.555264		-0.50191		-0.575717		0.401629		-0.870631		-0.301285		0.163773		-0.888083		-0.228099		0.997102		0.17456		0.639773		0.599783		0.502927		-0.802387		0.0828882		-0.501935		-0.416931		-0.522253		0.675311		0.841462		-0.501919		-0.891491		0.123964		0.231983		0.723588		0.14639		0.861011		0.54336		-0.949759		-0.500254		0.59608		-0.341551		-0.34277		-0.393166		0.331033		0.759447		0.784067		0.287807		0.242008		0.529512		-0.172276		-0.238756		-0.102104		0.408111		0.119818		0.710985		0.332634		0.524518		0.645305		0.449665		-0.392646		-0.483471		-0.374733		0.616733		0.419582		0.357229		0.850901		-0.422873		-0.626114		-0.486765		0.162318		0.322475		0.174242		-0.255967		0.285129		0.928795		-0.740072		-0.503692		-0.240436		-0.119475		-0.638975		0.807102		-0.988735		-0.971656		-0.479681		0.12609		-0.932337		-0.303706		0.498655		-0.0466456		-0.0668361		0.466585		-0.859485		-0.586794		0.935001		-0.871079		0.561594		0.546172		-0.963995		0.00866973		0.962502		-0.145408		-0.594347		0.534894		-0.219977		-0.0687817		-0.710904		0.511166		0.79986		0.959882		-0.929		-0.581319		0.693545		0.848441		0.53211		0.774882		-0.570033		-0.56919		0.0415338		0.56347		0.20404		-0.100649		-0.783302		-0.216721		-0.293934		-0.324011		0.352269		-0.456066		-0.99414		0.043058		0.0907731		0.139735		-0.440385		-0.972798		-0.498522		0.628369		-0.632725		-0.262966		-0.441665		-0.299031		0.257435		0.302205		-0.464723		-0.859659		-0.54431		0.652761		-0.327476		0.966107		-0.26159		0.619792		-0.932221		0.30769		-0.684535		0.422698		-0.885474		0.600869		0.826585		-0.191728		0.33629		-0.788447		0.182408		0.128743		0.262644		0.494507		0.204445		0.61226		0.272168		-0.931702		0.66853		-0.155968		0.209892		0.051071		-0.810368		0.0273055		-0.793877		-0.00572133		-0.391842		0.690467		-0.500534		-0.928758		-0.954662		-0.18591		-0.689529		0.462676		-0.169394		0.699645		-0.0997376		-0.544487		0.689492		-0.231233		0.170142		-0.607701		-0.614653		-0.931755		-0.116466		-0.993607		-0.26034		-0.81226		-0.932603		-0.000315368		-0.406383		-0.349939		-0.925131		-0.86403		0.532219		-0.0167515		0.63889		-0.422767		-0.449326		0.387362		0.384096		0.938893		-0.175991		0.605613		0.0226921		0.161524		-0.0139534		0.885997		0.491821		0.263698		-0.200781		-0.101138		0.00510645		0.857825		-0.0108507		0.659155		-0.116769		0.273924		-0.111057		0.100583		-0.592445		-0.209001		-0.838338		0.49779		0.0338575		-0.483491		-0.217886		-0.0969709		0.392792		-0.0189236		0.317734		0.807955		-0.622651		-0.644384		0.276023		-0.497645		-0.411599		-0.0189069		0.113151		-0.362796		-0.766736		0.999834		0.876808		-0.708685		0.724436		-0.79209		-0.504006		0.809511		0.689001		-0.327109		0.00550377		0.678204		0.947489		-0.677909		-0.686644		0.612132		0.634822		-0.430722		0.224748		0.870835		-0.96137		-0.170072		0.452082		-0.234299		-0.2215		0.08305		-0.447071		-0.190881		-0.133361		-0.945092		-0.481951		-0.921863		-0.778964		-0.0961825		-0.577447		-0.000399709		-0.633162		-0.240847		-0.421842		-0.072487		0.129149		0.996576		-0.614039		0.829265		0.449373		-0.745638		-0.148542		0.110589		-0.977235		-0.779483		-0.646676		0.147125		-0.783342		0.0190663		0.350701		0.819328		0.602		0.735139		-0.481332		0.462338		-0.490657		-0.494517		-0.492134		-0.61709		0.27996		-0.0276952		-0.832605		0.0512818		-0.9212		0.790071		-0.132823		0.982802		-0.872673		0.178295		-0.677125		-0.641564		0.184835		0.830396		0.982006		0.382063		0.963524		-0.0969017		-0.62477		-0.786284		0.981735		0.47669		0.0524924		-0.750675		0.798649		-0.44205		-0.291568		0.297413		-0.559368		-0.759193		0.281284		0.364974		0.13882		-0.309439		0.760785		-0.195869		0.561361		-0.232144		-0.376685		-0.833462		-0.719846		-0.0829489		-0.947326		0.633492		0.348416		0.29551		0.433728		0.139692		0.686311		-0.831346		0.653814		-0.0750082		-0.982956		0.602034		-0.295923		0.962492		0.698505		0.793658		-0.106361		-0.457763		0.881393		-0.845484		0.193959		0.162503		0.100379		-0.0650457		0.465094		-0.706403		-0.760067		0.0432606		-0.597847		-0.595311		-0.854315		-0.583034		0.476809		0.837671		-0.444335		-0.0279544		-0.099836		-0.258568		0.6692		-0.896284		0.809752		-0.145566		0.3216		0.131292		0.802074		0.384289		0.694667		0.16941		0.493649		-0.602159		-0.553704		-0.350805		-0.379003		0.263394		0.608363		0.890747		-0.824535		0.025607		-0.890594		0.425127		-0.262545		-0.117566		-0.309049		0.441255		0.750752		-0.225358		0.553417		0.431447		0.746263		-0.164528		-0.15987		-0.505076		-0.127808		0.796485		0.878357		-0.0731996		0.390502		-0.486886		0.888117		-0.408294		0.290907		0.880355		-0.186693		0.801124		-0.881084		0.0771934		-0.453181		0.20933		-0.343846		-0.183231		-0.330257		0.859334		-0.967898		0.964918		-0.395944		0.549337		0.542402		0.315108		-0.257626		-0.146604		-0.335576		0.145334		-0.654037		-0.362966		0.848932		0.505102		-0.547453		0.282634		-0.657483		0.769368		0.81091		0.19722		0.723906		0.301623		-0.144029		-0.241777		-0.00790942		-0.949551		0.22106		0.0467391		-0.202549		0.604146		0.164135		-0.297657		0.53819		0.125823		0.908163		-0.00829786		0.953486		0.738189		0.209304		0.666313		0.733077		0.178577		0.533547		-0.913624		-0.441855		0.209202		-0.709977		0.721422		-0.867239		-0.376702		0.870529		0.100627		-0.321422		0.895324		0.79682		0.250823		-0.0448207		-0.417354		-0.623841		0.429561		0.0616294		0		
0.98253		0.42069		-0.655072		-0.202079		0.146756		0.0137671		0.921481		-0.633194		0.873462		0.993405		0.628695		-0.718798		-0.372222		-0.276751		0.297086		-0.298055		-0.694408		-0.591087		-0.309973		-0.572253		-0.28544		0.000318289		0.614268		-0.980439		0.393168		-0.134839		0.148428		0.354059		-0.637574		-0.709198		-0.206595		0.979442		0.411905		0.328876		-0.853894		-0.125835		-0.975363		-0.417871		0.275223		0.206309		0.260105		0.859297		0.908719		-0.623221		-0.0959423		0.853087		-0.503675		0.0483307		0.110718		0.748205		0.721327		0.294965		-0.194287		-0.0327955		-0.548982		0.148218		0.73172		0.899614		0.950582		0.392841		-0.0893029		-0.947361		0.408104		0.203231		-0.153281		-0.253163		0.999842		0.349653		0.44745		-0.700104		-0.840872		-0.39143		0.556657		-0.479943		0.751071		0.139325		0.0552925		-0.254083		-0.62589		-0.540564		-0.0286137		0.459875		0.818837		-0.00727361		0.176997		-0.110758		0.330634		-0.75524		0.407053		-0.06118		-0.802872		0.754595		-0.132135		-0.801945		-0.681936		0.0592182		0.125606		-0.50651		-0.914016		-0.825662		0.448698		0.376944		-0.0854136		-0.0734485		0.732553		0.785434		-0.614727		-0.341191		0.465087		-0.975256		-0.369916		0.218551		0.54731		0.289454		0.343723		-0.120865		0.758089		-0.642558		-0.612072		0.318252		-0.572353		0.0688728		-0.409441		0.536928		-0.477825		0.807489		0.785796		0.519634		-0.233867		0.40777		-0.36075		0.570164		0.285118		0.684387		-0.373176		-0.108601		0.598894		0.275878		0.668489		0.254261		0.456779		0.910387		0.550474		0.433958		0.606315		0.937104		-0.0373553		0.110629		-0.609873		-0.534699		0.758954		-0.399689		0.570244		0.27008		0.965817		0.00908315		-0.0131748		-0.492919		0.312392		0.200495		-0.507987		0.885287		0.120428		-0.555046		0.274129		0.0578244		0.119362		0.546394		0.421569		-0.924562		-0.873384		0.011067		0.509363		0.46605		-0.34202		0.267837		-0.854692		-0.916037		-0.636679		0.75628		0.746989		0.203796		0.476416		0.919575		-0.790683		-0.827637		-0.4621		0.55579		0.271998		0.456787		-0.421236		-0.565354		-0.687469		0.442378		-0.735504		-0.522475		-0.845944		0.300815		-0.71923		0.779718		-0.811281		0.882164		0.0156949		-0.674382		0.936196		0.998091		-0.933255		0.953386		0.949466		-0.777213		-0.258679		0.639384		-0.110935		0.39914		-0.769095		0.089396		-0.191625		-0.298212		-0.808563		-0.792752		0.539252		0.23948		-0.456889		-0.690918		0.71209		0.621693		-0.0897832		-0.642188		-0.574503		-0.33562		-0.721877		0.887667		-0.635305		0.471373		-0.310877		0.429639		0.841362		0.544012		0.508744		-0.746053		0.313954		0.296934		-0.381287		-0.181445		-0.271247		0.852671		0.243982		-0.971862		-0.0573517		-0.518234		0.840679		-0.65797		-0.169565		0.520926		-0.787048		-0.383229		-0.739115		0.381594		-0.450335		0.133898		-0.930804		-0.397598		-0.427083		-0.373419		-0.792108		0.0413615		-0.507866		0.174709		-0.288186		-0.339019		-0.346517		0.394453		0.58557		-0.625326		-0.658254		-0.94923		0.593391		-0.0215207		0.958439		-0.216579		0.503201		0.27614		0.195359		-0.231522		-0.873224		-0.241771		0.544152		-0.459284		0.246479		0.978627		-0.970667		0.24991		-0.096273		0.16649		0.154583		0.0369971		-0.372148		-0.00229943		0.116107		0.94722		-0.758912		-0.47375		0.166097		-0.14937		0.62425		0.941373		-0.298329		-0.932141		-0.826582		0.949735		-0.695074		-0.896737		-0.443667		-0.993678		-0.641643		0.272319		-0.27037		-0.0467203		0.524472		-0.764836		0.00664818		-0.203526		-0.244201		0.789749		-0.125685		0.422085		0.244982		0.343111		0.125814		-0.965879		-0.0318769		-0.883803		-0.423722		-0.12598		-0.601614		0.0134552		-0.184538		0.724541		0.466817		-0.694583		0.131891		-0.752932		-0.95892		-0.461085		-0.817493		-0.928433		-0.101455		0.427029		-0.201977		-0.446639		0.919895		0.43354		-0.192039		0.117675		-0.476295		-0.820658		-0.293645		0.818787		0.248546		0.810256		0.701145		0.950545		-0.793346		-0.781026		-0.0658243		-0.893231		0.363481		0.743263		0.675878		0.536578		-0.572922		0.310609		-0.285117		0.695367		0.647727		0.0643977		0.00376546		-0.436273		-0.207614		-0.175425		-0.598318		0.150915		-0.199212		0.317801		-0.164044		0.427105		0.0870267		0.573227		-0.932975		0.90188		-0.790004		0.346751		0.345812		0.27433		-0.651563		-0.635587		-0.12318		0.00879121		-0.000564337		-0.779824		-0.415183		-0.708435		-0.102032		-0.913991		0.334199		-0.940106		0.0918012		0.348016		-0.417561		-0.988937		0.157257		0.779505		0.161457		0.150668		0.80206		0.584177		0.334922		0.807698		-0.912296		-0.24189		0.656341		0.898398		-0.88797		0.146496		0.898233		-0.443517		0.0403851		0.23368		-0.999997		-0.321184		0.0667408		-0.45627		0.751935		-0.684113		0.204283		0.611817		0.124915		-0.346115		-0.279218		0.695404		0.687176		-0.0831917		-0.751019		-0.434517		0.0488582		0.375186		-0.32995		-0.770175		0.0319607		0.820287		0.742646		-0.943476		0.382311		-0.294792		0.87383		-0.541204		-0.34922		0.821646		0.257331		0.302188		0.59964		0.617858		-0.985877		-0.177755		0.521813		-0.18911		-0.570004		0.38441		-0.49992		0.847906		-0.952308		0.776001		0.157873		-0.984668		-0.436001		0.135667		0.175624		0.786988		-0.0121692		0.98012		-0.0788868		-0.51077		0.52448		-0.299009		-0.42066		-0.219381		0.781959		0.969325		0.540305		-0.484228		0.699572		0.549541		-0.356315		-0.163625		0.538602		0.981945		-0.786353		-0.951917		-0.888036		-0.379393		-0.331173		-0.0903327		0.319281		0.411572		-0.817246		-0.881595		0.271366		0.822789		-0.648266		0.958424		0.0927368		0.735951		-0.788375		0.693191		-0.508946		0.146792		-0.112339		0.187752		-0.989894		-0.403639		0.981194		-0.647481		-0.30238		0.475363		-0.866435		-0.193789		-0.758556		0.884613		-0.0543503		0.424312		0.968843		-0.587183		-0.485843		0.0539576		0.0616931		-0.199071		0.670517		-0.27491		0.00123227		0.376349		-0.0282226		-0.666526		0.464346		-0.119745		0.0289541		0.932336		0.228458		0.97854		0.350877		0.439931		0.280763		-0.279687		0.842011		-0.328856		0.180332		-0.159218		-0.0287715		-0.411152		-0.0154053		0.0631557		-0.11125		0.0547695		0.947959		0.0670588		-0.704017		-0.869936		0.448042		-0.290861		0.540175		-0.642944		0.606464		0.841697		-0.472729		0.0234526		0.854297		-0.357		-0.321976		0.178594		-0.95447		-0.152148		0.841961		0.262943		0.521157		-0.584901		0.491059		-0.964128		0.753371		0.455292		-0.239963		0.560961		-0.361315		-0.482718		0.925776		0.917002		-0.703859		0.353323		0.453269		-0.207988		0.636654		-0.456454		0.187987		-0.96117		0.549362		0.425957		0.0604011		-0.0668785		0.824397		0.19431		-0.508799		0.856976		0.501428		-0.697583		0.00542045		-0.286994		0.0335348		-0.818553		-0.399829		0.0937358		0.454787		-0.216393		-0.376495		0.760924		0.0163791		0.303017		-0.393711		0.33917		0.679018		0.645916		0.588413		0.943838		0.307609		-0.14011		-0.352562		0.79307		-0.104958		0.351159		0.458368		0.171487		0.906581		-0.116097		-0.892353		-0.214162		-0.541381		0.0595829		0.202676		-0.0301512		-0.0774182		0.966394		-0.295154		0.660202		-0.382388		-0.282637		0.125706		0.681328		-0.0979206		0.114628		0.805241		0.761902		0.913113		0.165293		-0.826738		0.501882		-0.771448		-0.805766		-0.214369		0.935425		-0.119043		0.43909		-0.335621		-0.84738		0.0272838		-0.0272547		-0.143095		0.00598252		-0.533498		-0.758987		-0.130878		0.678666		0.4598		-0.816124		-0.465501		-0.336943		-0.672656		0.304991		-0.358549		0.455329		-0.825771		0.74328		0.757123		0.890506		0.661795		0.023165		-0.0753663		-0.371038		-0.771036		-0.144627		0.692625		-0.171594		0.310102		0.0461336		-0.0939169		-0.603983		0.277737		-0.302751		0.727392		0.109876		0.45635		-0.358136		-0.750699		-0.945031		-0.488269		0.687105		-0.937032		0.976598		0.536528		-0.115808		0.252074		0.400873		-0.950632		-0.448108		0.991814		0.0420613		0.698581		-0.879644		-0.229742		0.543312		0.392947		-0.805719		0.655463		-0.345916		-0.263668		-0.452611		-0.58623		-0.227038		-0.169943		-0.0216362		-0.0695445		-0.0499588		0.723262		0.0220031		-0.19926		-0.211366		-0.10164		-0.601588		-0.952579		-0.384461		0.155057		-0.669008		0.715882		-0.00308245		0.49516		-0.503142		0.615556		-0.332114		-0.154816		0.9664		-0.839145		0.420564		-0.590253		0.311359		-0.863649		0.475293		-0.861753		-0.760015		0.0505145		-0.456938		0.755978		-0.344683		0.272649		0.561455		0.871848		0.107781		0.503022		0.894408		0.420141		-0.154712		0.152736		-0.0133763		-0.600474		-0.614019		0.403099		-0.49971		0.936247		-0.913811		0		
-0.181544		0.174193		0.485506		0.206703		0.236585		-0.359826		0.118123		-0.490722		-0.317981		0.987957		-0.250316		0.52507		-0.532791		0.213177		0.703408		-0.0130993		-0.5361		0.653346		-0.555519		0.56514		-0.872232		0.876201		0.556023		0.645693		0.387353		-0.80906		-0.426834		-0.567703		-0.251017		-0.679938		0.389873		0.96321		0.365354		0.205414		-0.811146		0.452772		-0.860905		-0.660933		0.0959049		0.717779		-0.747634		0.0161327		0.90257		0.274016		-0.199805		-0.449601		0.909998		-0.635651		-0.797357		-0.72781		-0.445961		0.879521		0.0575143		0.69393		-0.374388		0.897574		-0.909273		-0.431467		-0.041234		-0.626252		0.828392		-0.787078		0.648444		0.366717		-0.473975		0.945151		0.558599		0.290507		0.853022		0.12039		-0.709368		0.201946		-0.388799		0.260427		-0.160256		0.5447		0.391457		0.930778		-0.567391		-0.640637		0.574735		0.778807		-0.331595		-0.346854		0.839272		0.0664275		0.116203		-0.128033		0.238239		-0.240684		0.49497		-0.799263		-0.299985		0.480336		-0.15998		-0.764236		0.189602		0.430446		-0.993185		0.460464		0.248714		0.535878		0.342667		-0.22944		-0.962226		-0.552991		0.259211		0.250125		-0.561263		0.0542933		0.393555		-0.385607		-0.790305		-0.329625		-0.314427		-0.38249		-0.930465		0.920646		-0.65729		-0.907894		-0.133923		0.205525		0.654959		-0.982071		-0.323537		0.00148594		-0.735924		0.936773		0.450256		-0.0716751		-0.910406		0.664824		-0.210434		-0.047453		-0.71745		0.122389		0.683369		0.366291		-0.940253		-0.479187		-0.618312		-0.50234		-0.88413		-0.613102		-0.176613		0.482564		0.57852		0.202664		0.266595		0.166322		0.162044		-0.299164		0.107516		-0.427279		0.388676		-0.933831		-0.0236665		-0.153582		-0.531875		0.407797		0.840101		-0.625552		-0.736537		-0.570044		-0.452321		-0.483541		0.954212		-0.814943		-0.56824		-0.365369		-0.379202		-0.908829		-0.138373		0.149813		0.782457		0.812318		0.780196		0.402507		-0.767291		-0.771171		-0.318001		-0.817356		-0.118343		-0.777796		0.623132		-0.249194		0.87018		0.70356		-0.520645		-0.907892		-0.268066		-0.492222		-0.685509		-0.595556		-0.271571		-0.996407		0.566734		0.834775		0.95927		0.746018		0.65486		-0.82296		-0.787508		0.652233		-0.00588274		-0.807405		-0.868724		0.287734		-0.137391		0.165323		-0.263274		0.178611		0.808778		-0.442488		0.961411		-0.917655		0.354783		-0.563671		0.045067		-0.203313		-0.855124		-0.996667		-0.456184		-0.471986		-0.34563		0.381669		0.302175		0.865198		0.332257		-0.719884		0.494649		0.188224		-0.748708		0.273776		0.793012		0.36038		0.127752		-0.249127		-0.736022		0.12873		0.648498		0.924404		0.440694		0.494889		-0.0738039		-0.974231		0.0745435		0.197109		-0.622559		-0.0998165		0.502409		0.649968		-0.424707		0.285161		-0.936118		0.408836		-0.825085		0.209509		0.413353		0.130188		-0.85428		0.27126		0.549531		-0.311188		-0.310523		0.140717		-0.428831		-0.592651		-0.946113		-0.399903		-0.396168		0.689378		-0.102243		0.605296		-0.0694371		0.932889		-0.141985		0.993065		-0.94077		-0.217769		0.487137		0.754532		-0.262621		-0.812446		-0.47093		-0.482363		0.431443		-0.361453		0.177248		0.0588834		0.88016		0.35258		0.55213		-0.164859		-0.976446		-0.69841		-0.676509		-0.841502		0.446715		-0.913392		-0.509821		-0.446004		-0.362833		-0.357647		-0.894965		0.250427		0.569271		0.673591		-0.352704		-0.532413		-0.41019		0.0855155		-0.772639		-0.500332		0.308158		-0.0222141		-0.456143		-0.465813		0.53025		0.368511		-0.855582		0.409581		0.530115		-0.871415		0.0230294		-0.67832		-0.511653		-0.63757		0.738296		-0.242141		0.659617		0.277572		-0.798377		-0.205151		-0.251897		0.58196		-0.656984		-0.220008		-0.441565		-0.938679		0.366934		-0.941735		-0.0358053		0.844092		0.216682		0.819909		-0.154636		0.903543		0.585126		0.220913		0.570033		-0.953486		0.62501		-0.411793		0.944834		-0.478853		0.413107		0.261743		0.127508		-0.478685		-0.538251		0.681303		-0.909213		-0.0230318		-0.541979		0.622371		0.199091		-0.974124		0.548177		0.927605		0.91172		-0.102503		0.351948		0.912167		-0.388352		0.611164		0.32131		-0.815711		0.617767		0.340699		0.162615		0.740292		0.985625		0.651642		-0.0962924		-0.924811		0.847425		0.432786		0.603968		0.90101		-0.693137		-0.904882		-0.641712		0.537998		-0.40091		-0.223066		0.285355		0.246864		-0.563946		-0.215653		-0.0466403		0.587994		0.361414		-0.832251		0.0990446		0.280035		-0.704084		-0.843049		0.42724		-0.692663		-0.893495		-0.513059		0.371114		-0.369949		-0.455929		-0.0428779		0.100178		0.00394893		-0.481785		-0.592938		-0.236953		0.81605		0.152445		-0.189586		-0.0522991		0.276088		-0.445097		-0.275535		0.210141		-0.00294864		0.569597		-0.361044		0.241631		0.0033356		-0.429607		0.462109		0.727797		-0.89715		-0.55227		-0.917929		0.657834		-0.72512		0.37516		-0.60042		-0.147865		-0.441476		-0.729976		0.173525		0.76044		0.00916493		-0.566324		-0.0913646		0.536605		-0.975001		0.0888041		-0.487356		0.366869		-0.784648		0.785097		0.622527		-0.145175		0.594759		0.133694		-0.112635		0.824312		0.477588		-0.568713		0.943147		-0.0232012		-0.43078		-0.87719		-0.235695		0.974196		-0.200915		-0.481071		-0.960129		0.937347		-0.937949		-0.842611		0.908182		-0.731511		0.756717		0.396002		0.572811		-0.737614		0.219367		-0.782699		-0.836632		-0.262805		-0.918566		-0.496718		0.353578		-0.69149		0.663377		0.0707494		-0.865866		0.451838		0.629626		-0.137022		-0.258534		0.117436		-0.467065		-0.531477		0.0884067		-0.762577		0.354746		-0.653091		-0.0189496		-0.189643		-0.574331		0.84438		-0.968842		0.362305		0.356043		0.741988		0.526708		-0.433833		0.274899		0.445485		0.0512573		0.0978183		-0.513574		-0.642401		0.835217		-0.230852		-0.268293		-0.298977		-0.55334		0.0537676		-0.970061		0.0293868		-0.8529		-0.504096		0.0165082		0.208791		0.861774		-0.201578		0.660995		0.0348535		-0.0743587		-0.364473		0.450749		-0.732971		-0.0181133		-0.162672		-0.310395		0.942655		-0.921892		-0.16603		0.978868		0.240559		0.91323		-0.71926		0.532561		-0.297725		0.524159		-0.123198		-0.558213		0.154831		0.803379		0.573509		-0.90391		-0.0751188		0.165442		-0.741024		0.421562		0.659903		0.731465		0.663833		0.378046		-0.375922		0.223729		0.515978		-0.284401		-0.0183765		-0.621004		0.603343		-0.369258		0.305216		0.968717		0.632945		0.354872		-0.136742		0.0972335		0.990419		0.719595		-0.269006		-0.522558		0.801025		-0.218385		0.311037		-0.115194		0.673333		-0.32064		0.260021		-0.714692		-0.00381047		0.961517		-0.108895		-0.270459		-0.804995		0.0926056		-0.247611		-0.583349		-0.605651		-0.127268		-0.736989		-0.328988		0.544372		-0.791261		-0.208595		-0.818675		-0.707323		-0.503808		-0.690366		-0.138244		0.0891947		0.697127		0.00196004		0.306864		-0.590365		-0.50687		0.872959		0.544289		0.982983		-0.500202		-0.238098		0.626467		-0.396236		0.865302		-0.382522		-0.484406		-0.0936385		0.526317		0.76457		-0.313116		-0.223503		-0.607907		-0.449218		0.945487		0.432651		0.364834		-0.563447		0.270155		-0.866569		-0.357343		-0.646192		-0.009		-0.587743		0.670232		0.0102626		0.592889		0.750843		-0.33739		0.379631		0.0399804		-0.753578		0.830041		-0.792699		0.219868		0.555359		-0.853831		-0.362915		0.369225		-0.427072		0.571671		0.721995		0.910522		-0.698317		-0.0587088		-0.884167		0.820053		0.692287		-0.224977		0.729753		0.56631		-0.834649		0.552884		0.791065		0.064975		0.305308		-0.0508034		0.0042063		-0.416016		-0.942902		-0.288346		0.443971		0.0424275		0.178628		0.646817		-0.852465		-0.882125		-0.949245		0.552624		0.106585		-0.0402878		-0.0778392		-0.573424		-0.463451		-0.146297		-0.413712		-0.551703		-0.318761		0.813493		-0.914142		-0.661679		0.802061		-0.732547		0.712028		0.828171		0.363833		-0.265698		0.554208		0.235065		0.551614		-0.493066		-0.303166		0.519512		-0.167431		0.347342		-0.583638		-0.269838		0.550385		0.196197		-0.431137		-0.904615		-0.464528		0.381172		0.271734		0.00177872		0.104699		-0.673066		0.0223209		-0.737053		0.655519		-0.42144		0.905388		0.511072		-0.32057		-0.747563		-0.696799		0.912702		0.428187		-0.490712		0.167915		-0.340625		-0.723732		-0.867485		-0.124232		0.405439		-0.33557		-0.278669		0.383459		-0.399125		-0.774842		0.0153512		-0.0723724		0.883792		-0.591455		-0.276568		0.836484		0.61602		0.565723		0.721482		-0.848302		-0.81171		-0.85708		-0.626024		0.633203		-0.574992		-0.0102943		-0.905807		-0.494837		-0.566793		-0.396972		0.25232		0.0156608		-0.572894		-0.936541		0.378175		-0.991759		-0.0771012		0.188063		-0.0348952		0		
-0.731739		0.530557		0.595186		-0.332156		0.168937		0.505933		0.904255		-0.0634541		0.863873		0.00230694		0.528236		0.681431		-0.201673		-0.314325		0.695964		0.153693		0.491481		-0.405027		0.981877		-0.350265		-0.760165		0.578063		0.716063		-0.278149		0.612185		0.238307		0.364467		-0.16476		-0.497859		0.383533		-0.995079		-0.993311		-0.364236		-0.232861		0.287948		-0.114249		0.0709081		-0.258472		0.805073		-0.249822		0.0688436		-0.172783		-0.313113		0.932576		-0.0165226		0.0396403		-0.819277		0.381416		-0.336648		0.603076		-0.222579		-0.70907		0.107997		-0.976338		-0.400456		0.234174		-0.64954		0.587988		0.800956		-0.260104		-0.531095		0.631462		-0.406417		0.362054		0.679331		0.311511		0.619692		-0.132387		-0.73367		-0.05488		0.90986		-0.434098		0.802694		0.735354		0.335427		0.952921		-0.980457		0.263099		-0.085386		0.579346		0.896056		-0.70987		0.53244		-0.0808462		0.306869		-0.778792		-0.0938271		-0.184657		0.412734		-0.454094		-0.38943		0.604061		0.58519		-0.937818		0.251668		-0.914813		-0.500289		0.37259		0.782249		0.282524		0.751801		0.319669		-0.896733		0.277389		0.261571		0.19614		0.0928432		0.19757		0.752707		-0.556896		-0.801848		0.398875		0.805309		0.418928		-0.987107		-0.323928		0.752693		0.556835		0.458272		-0.630819		-0.313499		0.802594		0.769727		0.135047		0.963823		-0.312456		0.734711		0.0916078		-0.201006		-0.132872		-0.988758		-0.241147		-0.513425		0.0697095		0.318177		0.695353		-0.167636		-0.243864		0.629817		-0.556333		-0.683663		0.649639		-0.825015		-0.552358		0.407221		-0.561521		0.0948558		-0.651449		0.417006		-0.32412		0.870022		-0.671044		0.991783		-0.0347664		-0.844848		0.17549		-0.273628		0.430792		-0.878142		-0.662977		0.575986		-0.606413		0.542528		0.0763186		-0.171199		-0.36398		0.965722		-0.159739		0.151134		-0.188774		-0.981656		0.423208		0.873677		-0.686133		-0.908626		-0.653697		0.564338		-0.874954		-0.912911		-0.932352		-0.676479		-0.172306		-0.334068		0.482708		0.965099		0.87052		-0.85487		-0.643623		0.676124		0.89173		0.104764		0.0755409		-0.807812		-0.147623		-0.297746		-0.836946		-0.280544		0.463876		-0.674249		-0.223923		-0.470402		0.770511		0.639775		-0.492397		0.373837		-0.0479008		0.904338		0.0347557		0.490925		0.945223		-0.919286		0.480753		-0.185118		0.481558		-0.235397		0.581434		0.0620406		0.760948		0.675262		-0.12015		-0.993393		0.377617		-0.449896		0.390467		-0.783648		-0.409273		-0.940756		0.298257		-0.639259		0.118333		-0.474651		0.18134		0.511399		-0.247597		0.368984		-0.195102		0.954863		0.443861		0.912914		-0.709139		0.0664353		-0.270127		0.456067		-0.890649		-0.430492		0.400806		-0.881345		0.31876		0.93935		0.575671		-0.349504		-0.0298422		0.280361		0.775995		0.684079		-0.736536		-0.742526		-0.598832		0.462535		0.701442		-0.696828		0.644597		-0.522142		-0.688517		-0.378876		-0.721852		-0.621978		0.548952		-0.521479		-0.728937		-0.884763		0.803199		0.775734		0.784343		-0.230015		-0.521661		-0.20539		-0.948641		0.00531936		0.344231		0.893884		-0.54809		0.957388		0.326372		0.440946		0.138959		-0.617681		0.131783		0.475111		0.15512		0.760163		0.16473		-0.34877		-0.024196		0.0515331		0.382918		0.027523		-0.652505		-0.899266		0.544822		0.533961		0.178492		-0.463347		0.570364		0.252065		0.666005		0.500096		0.677105		-0.0227267		0.764193		-0.349501		-0.707433		0.54288		0.673147		-0.754291		-0.559325		-0.385995		-0.0800471		0.367334		-0.357433		-0.177293		-0.822335		0.972345		-0.483725		-0.807068		0.114675		0.633005		0.689523		-0.959578		0.741989		-0.768963		0.114606		-0.808302		0.497214		0.27241		0.296111		0.357086		0.710883		0.288556		0.818773		0.514053		-0.751995		0.196568		-0.582669		-0.0138643		-0.746638		-0.443696		0.38515		0.568065		0.497807		-0.688216		0.96625		-0.199222		0.219492		0.424667		-0.838424		0.582093		0.874484		-0.897889		-0.0927303		-0.196329		-0.853925		-0.181359		-0.384012		-0.200685		-0.666706		-0.367057		-0.463504		0.342257		0.548784		0.292477		0.140177		0.421869		-0.417674		0.135592		0.278135		0.957077		-0.665168		-0.0810435		-0.831035		0.0680597		0.308953		-0.186679		-0.914266		0.141272		-0.534765		-0.891028		0.937235		-0.226646		-0.472658		0.466504		-0.970452		0.781333		-0.0422808		-0.631023		0.124299		0.833001		0.363387		0.0284861		-0.626642		0.576448		0.693618		0.866858		0.864929		-0.785472		-0.693055		-0.992387		-0.384165		-0.4398		0.805996		-0.415648		-0.185397		0.641676		-0.992348		-0.654138		0.00241041		-0.736422		0.827434		-0.537924		-0.543447		-0.695095		-0.581821		0.477856		-0.673045		0.407991		-0.615834		-0.0797089		-0.153779		0.355737		0.577156		0.995011		0.753528		0.586689		0.589407		0.410802		-0.60909		-0.977643		-0.970211		0.407929		-0.844983		-0.110005		0.79911		0.294569		0.384814		-0.481579		0.0714319		-0.87075		0.427747		-0.233311		-0.441515		0.360271		-0.293108		0.0789523		0.749296		0.258661		-0.14918		-0.532451		0.134913		-0.273459		0.0433649		-0.750777		0.77697		0.816064		-0.546956		-0.438839		0.772071		-0.501378		0.208851		0.271773		-0.677226		0.81633		-0.0581319		-0.585282		-0.795618		0.425369		0.462571		-0.622707		0.48566		0.612245		0.394892		0.0989091		-0.936974		0.745978		-0.605759		0.786203		0.656358		-0.717471		0.504012		-0.807516		0.240742		-0.162366		-0.430001		-0.83176		-0.12472		0.221853		0.170034		-0.489363		-0.510002		-0.380349		0.884713		0.306608		-0.255493		0.0293406		-0.918428		0.980705		0.181998		0.440821		-0.282592		0.615916		0.594324		-0.652208		0.959398		0.893183		-0.488998		-0.436961		-0.337593		0.479893		0.536641		-0.0379648		-0.477516		-0.745647		-0.970811		-0.0535279		0.0477751		-0.262043		0.399994		0.285574		-0.919567		-0.65794		-0.459724		-0.147609		0.422004		-0.299615		-0.0765674		-0.23193		0.192241		0.07184		0.754105		-0.995871		-0.849231		-0.359436		-0.23659		0.00580907		0.967036		-0.0856231		-0.917989		0.244975		-0.414667		-0.967349		0.90689		0.669135		-0.00927639		-0.919067		-0.494679		-0.33129		0.511408		-0.647306		0.752588		-0.394765		0.7167		-0.0972928		0.0425521		-0.037558		-0.82504		-0.864957		-0.217362		-0.774029		0.375704		-0.980963		0.304034		0.101168		-0.747115		0.0938269		-0.767801		-0.817905		-0.86608		0.95668		-0.202942		-0.535163		-0.966514		0.459473		-0.184043		-0.24774		-0.654397		-0.000280321		0.696156		0.28613		-0.361181		0.184796		-0.595663		-0.0951787		-0.218101		0.170286		-0.164514		-0.915387		-0.0683547		0.454645		-0.18992		-0.104064		-0.884968		-0.0449727		0.053619		0.0875344		0.266852		-0.397489		0.120979		0.348782		0.317994		0.0760622		0.949294		0.31679		0.773408		0.758478		0.149328		-0.466438		0.273942		0.671615		0.956682		0.380124		-0.353491		0.251998		-0.0272111		-0.976562		0.332315		0.528358		0.17967		0.232706		0.458213		0.309773		0.599235		0.272064		0.168405		-0.133875		0.350102		-0.926761		-0.0845811		0.312736		-0.571797		0.770297		-0.214335		0.0409983		-0.643105		0.110377		0.00471759		0.966414		0.293462		0.369481		0.832204		0.107597		-0.258593		-0.238287		-0.666009		-0.325447		0.835039		0.369268		0.625052		0.955268		-0.227282		-0.719911		-0.288083		-0.61766		-0.381794		0.766109		0.568255		-0.343237		-0.390742		-0.384427		-0.945978		-0.39338		0.738867		0.379355		0.878101		-0.636555		-0.759553		-0.238507		-0.612381		0.497062		0.0103973		-0.587135		-0.256369		0.000769734		0.153211		0.439129		-0.768703		0.766975		0.987366		0.0862848		-0.395374		-0.90922		-0.311941		-0.626247		-0.501888		-0.984758		-0.917188		0.0480446		0.598635		-0.699344		0.919624		-0.270438		0.0771029		-0.38486		0.995824		-0.492425		-0.185845		-0.902828		0.744532		-0.307101		0.0960648		0.0247107		0.746274		0.934197		0.553762		0.339209		-0.730699		0.758432		-0.995576		0.752533		-0.285343		0.363208		-0.966725		-0.954574		-0.904422		-0.990803		-0.412549		-0.343466		-0.0678198		-0.237143		0.836907		-0.92901		0.488791		0.964091		0.170305		-0.909057		0.734208		0.703229		-0.30969		0.598018		-0.664958		0.804777		0.736271		-0.529302		0.867098		0.324037		-0.126255		-0.662241		-0.264081		-0.154626		0.270849		-0.790814		-0.0177348		-0.646778		-0.749849		-0.130688		-0.604541		0.258703		-0.57325		0.409319		0.25525		-0.765281		-0.0580495		-0.894834		-0.502531		0.158677		0.250363		-0.323017		-0.465044		0.654881		-0.130395		-0.118629		-0.627343		-0.123915		-0.132529		-0.773544		-0.0784733		-0.136259		-0.63066		0.386511		-0.706517		0.694965		-0.475743		-0.868604		-0.203243		-0.170393		-0.349514		0		
0.863164		-0.340419		0.563394		-0.88403		-0.900963		0.96985		0.533297		0.770662		0.0309167		-0.751793		0.783267		0.368531		0.083551		-0.973912		0.764622		0.581737		-0.635162		-0.805371		-0.335008		0.000474453		-0.092325		0.582		-0.223386		-0.977246		0.683674		0.626168		0.430848		0.627637		-0.00977504		0.401028		0.114818		0.825494		0.305997		-0.547019		0.761904		-0.736126		-0.805171		0.168555		-0.617089		0.294843		0.377585		-0.834396		-0.425929		0.253801		-0.794906		0.421785		0.106663		0.602894		0.141795		0.784053		0.598275		-0.281448		0.709283		-0.415916		0.116902		0.197019		0.256301		0.456645		0.139028		-0.310251		-0.100479		-0.802428		-0.874921		-0.201115		0.305928		-0.622993		0.34538		0.039896		0.227605		0.925757		-0.4103		0.23342		0.864864		-0.495658		0.263822		0.834677		-0.111255		0.746249		-0.794537		-0.95017		0.291462		-0.749076		-0.306533		0.0527008		-0.863955		0.589748		-0.781759		0.169806		-0.393496		-0.669553		0.386164		0.104921		0.243889		0.689743		0.120615		-0.933377		-0.433856		0.471183		0.204465		-0.413923		-0.991559		0.0191109		-0.829966		-0.80962		-0.784003		-0.0276974		0.0467943		-0.160361		0.0879546		-0.416784		-0.349237		0.915533		0.10337		-0.688759		0.798325		0.351372		0.0875573		0.623302		-0.391323		-0.827071		0.679163		-0.17243		0.14325		-0.458966		-0.383905		0.0895752		-0.318676		0.744973		-0.525151		-0.461065		0.885097		0.732999		-0.640211		0.244054		0.997228		-0.888693		0.281172		0.722384		-0.0793765		-0.917771		0.802034		0.689633		-0.087352		-0.664204		0.686675		-0.490433		0.508352		0.4481		0.482412		0.0779641		0.672157		-0.0707933		-0.927886		-0.465113		-0.104969		-0.684515		-0.424189		-0.347451		0.103261		0.0622531		0.803898		-0.884361		-0.302478		0.0691837		-0.0919752		-0.730821		-0.573804		0.677971		-0.659031		-0.0353611		-0.776903		0.880407		-0.817357		0.344337		0.0545728		0.611188		-0.669291		0.196175		0.555973		0.203337		0.00443101		-0.929608		0.875385		-0.389395		-0.235597		-0.309832		-0.483766		0.403223		-0.95625		-0.722771		-0.641748		0.858125		0.507913		0.539733		-0.642436		-0.376529		0.126644		0.621471		-0.237876		0.447147		-0.360615		-0.217295		-0.421607		-0.198034		-0.620797		-0.236827		-0.591157		-0.600392		0.589366		-0.754239		0.893003		0.581039		0.283708		0.82358		-0.209849		0.803703		0.297957		0.741142		-0.477753		-0.140457		0.23042		-0.973913		0.402323		-0.975291		0.351525		0.398792		-0.376287		-0.31363		0.403971		-0.906747		-0.270285		0.46077		0.694396		-0.0994502		0.0912045		-0.807033		-0.328004		-0.91264		-0.084557		0.370816		-0.613045		0.266998		0.444751		-0.795916		-0.222943		0.935739		-0.700772		-0.589783		0.117246		-0.471808		-0.588864		0.685937		0.393502		-0.557405		-0.425513		0.904521		0.0308522		0.616509		-0.370582		-0.689714		-0.722367		-0.243146		0.53519		0.452409		-0.59088		-0.594674		-0.0422692		0.801119		0.995641		0.381036		-0.790825		0.961021		0.538582		0.119781		0.763808		-0.285652		-0.222089		0.872025		0.549		0.0154711		0.00829077		0.623388		0.221377		-0.285619		-0.0919202		0.409831		0.671811		-0.247042		-0.158715		-0.789951		-0.7483		-0.125734		0.552593		0.730559		0.596084		-0.33682		-0.640795		-0.104296		-0.99753		0.715192		0.74394		-0.575522		-0.151335		-0.0428343		0.386146		-0.228608		0.0990385		-0.106098		-0.583879		0.00694644		-0.771429		0.701856		0.456091		-0.545035		0.411775		0.265151		-0.838136		-0.253845		-0.274321		0.51207		0.684402		-0.375687		-0.531553		-0.939954		-0.893169		-0.250428		-0.67057		-0.929362		-0.329598		0.527503		0.708711		0.792585		0.788264		0.362455		-0.988767		-0.440524		0.511639		0.263625		-0.107829		0.394463		-0.622413		0.00180733		0.482614		0.501303		-0.411692		0.520175		-0.430542		-0.219331		0.375802		0.685643		0.940007		0.671944		-0.764492		-0.565914		0.111126		0.361878		0.0409931		0.519658		0.725236		0.445362		0.766364		0.448074		-0.141748		0.0186325		-0.35582		-0.577603		0.173068		-0.475277		-0.694075		0.877521		0.664538		-0.617568		-0.684179		-0.44744		0.317495		-0.753733		-0.734879		0.689529		-0.146328		-0.5971		-0.576732		0.932436		0.539669		0.762607		0.262883		0.431416		0.46149		0.204048		0.340503		0.471777		-0.0567391		0.331196		-0.919694		0.1135		0.297976		-0.485444		-0.343125		-0.461652		-0.193588		-0.998185		-0.450188		-0.346324		0.495033		-0.125497		-0.107694		-0.328862		0.268127		-0.989974		0.0609289		-0.357072		-0.094313		0.218466		-0.498283		-0.0703951		0.063078		-0.467714		0.413191		-0.839707		-0.0309013		0.261766		-0.793281		0.664986		0.416812		0.306392		-0.13009		0.693561		0.168287		-0.962702		-0.85651		-0.421044		0.133593		-0.199184		0.910049		0.66566		0.271129		0.57978		-0.373882		0.940136		-0.380669		0.385648		-0.142828		0.520979		0.0183837		-0.369276		0.325839		-0.820361		-0.144023		-0.914783		-0.788682		0.199127		-0.0692242		0.825888		0.143456		0.136066		-0.475219		-0.372718		-0.118684		-0.630598		0.20431		0.331537		-0.692772		-0.235933		0.385014		0.122236		-0.328769		0.147857		-0.610226		-0.470267		-0.455115		0.947925		0.900923		-0.757339		0.576084		0.75458		-0.706231		0.218655		0.402664		0.293834		-0.769999		-0.650791		-0.576783		-0.187528		-0.896948		0.475801		-0.536101		0.943526		-0.260875		0.887345		-0.843094		-0.108607		-0.834915		-0.291353		-0.717885		-0.689644		-0.717694		0.708351		-0.743681		-0.720414		0.0830044		-0.24837		0.536311		0.679535		0.494362		0.415926		0.600574		-0.140803		0.165709		0.639061		-0.195324		0.903321		-0.109468		0.715366		-0.634658		-0.380408		0.822057		0.509574		-0.81597		-0.227734		-0.762788		0.742692		0.00765502		0.806946		0.600453		-0.767766		-0.128419		0.30738		0.0562135		-0.29602		0.289485		0.696007		-0.153232		0.333611		0.620059		-0.365425		0.87733		0.312542		0.405023		0.753018		0.302392		-0.440354		0.8762		0.757976		-0.666774		0.720111		-0.584694		-0.799948		-0.107149		0.406577		-0.43747		0.437268		0.869088		-0.831825		-0.828721		0.887894		-0.665894		-0.568657		-0.0806637		-0.582253		-0.188316		-0.0103376		0.946082		-0.395093		0.325805		-0.0872968		0.865762		0.623999		0.980489		-0.342621		-0.0633252		-0.632597		0.450718		0.274027		-0.284416		0.279803		0.697421		-0.666221		-0.964215		0.326032		0.68326		-0.359836		-0.0846384		0.42249		0.432995		0.706543		0.543885		-0.628765		0.114716		0.40459		-0.993028		-0.604701		0.936653		-0.265095		-0.156106		0.151919		-0.206015		0.382764		-0.961556		0.696939		0.296486		0.0148549		-0.77246		-0.182052		-0.219956		-0.907054		0.228411		0.496932		0.481055		0.229658		-0.881145		-0.946136		0.286111		-0.398305		0.610719		0.279786		0.291376		-0.52186		-0.792926		0.527883		-0.902314		-0.496677		-0.709605		0.766466		-0.00235534		-0.997351		0.618701		-0.15791		-0.70605		-0.0760162		-0.915476		-0.116436		-0.214637		-0.599703		0.611732		0.100915		0.85719		-0.54077		-0.488726		0.302755		-0.989768		-0.48752		-0.908679		0.193937		-0.178873		-0.178699		0.646655		-0.348032		0.266456		0.0683523		-0.61968		0.682771		0.397874		0.166011		-0.873664		-0.242286		-0.120377		0.608473		-0.119615		0.513186		0.132109		-0.925082		0.108541		-0.221476		-0.477699		-0.216814		0.308876		-0.175357		-0.658982		0.395405		0.97869		-0.382321		-0.980251		-0.378635		-0.196659		-0.750199		-0.602035		0.849188		-0.161298		-0.0410923		0.505601		0.153331		-0.718901		0.650908		-0.614944		-0.621896		-0.131451		-0.093278		0.0848886		-0.552958		-0.34429		0.982879		-0.0882278		0.525816		-0.440424		-0.608406		-0.359102		-0.740339		-0.775014		-0.165661		0.561855		0.00358355		-0.26029		0.495086		-0.832016		-0.444734		-0.512539		-0.182778		-0.304935		-0.818852		-0.644375		-0.706543		0.766877		-0.675518		0.428594		-0.446396		-0.323913		0.957171		0.461689		-0.665194		0.268595		0.964132		0.899018		0.402482		-0.175685		-0.940551		-0.107344		-0.222703		-0.326982		-0.449891		0.808781		0.212401		-0.663788		-0.0933908		-0.6713		0.60664		-0.721018		-0.642861		-0.776929		0.0501666		-0.206833		0.73032		-0.890744		0.322146		0.911316		-0.259683		0.555936		0.329344		0.505961		-0.156114		-0.913206		-0.925205		0.380729		-0.971792		0.7575		0.84157		-0.247311		-0.150764		-0.0735418		0.344998		-0.855032		0.707855		0.920582		0.777147		-0.117469		0.942887		-0.0792361		-0.8163		-0.661563		-0.232955		0.432929		0.850284		0.0935634		0.423961		0.640502		-0.250618		0.699918		0.947187		-0.152953		-0.331452		0.386878		0.226794		0.383127		0.673068		0.97205		-0.805155		0		
0.431508		0.378104		-0.485787		0.809575		0.778993		-0.24574		0.432484		0.641672		-0.972547		0.239936		0.734216		0.489388		0.845273		-0.904482		0.544878		-0.992793		-0.869665		0.442228		-0.821335		0.831061		0.444443		-0.547563		-0.0521954		-0.0430325		0.931689		0.243196		0.809107		0.927236		-0.118934		0.406758		-0.617124		0.279299		0.226435		0.711472		0.841829		0.86924		-0.620334		-0.430646		0.112482		0.629275		0.683321		-0.409782		0.398721		0.769637		0.294054		0.192134		0.577127		0.591201		0.878341		-0.358479		-0.516241		0.375428		0.999529		-0.450563		0.448902		-0.0813419		0.376968		0.527856		0.736182		-0.743809		0.717207		0.829976		-0.521235		-0.250343		0.738138		0.0695715		-0.747475		0.594547		0.0322623		0.692271		0.26978		-0.775751		-0.310489		0.494503		0.175057		-0.575182		0.996145		0.489109		0.98786		0.124776		0.287834		0.783789		0.997784		0.404634		-0.352859		0.576753		-0.871343		-0.836784		-0.749218		-0.150692		0.98691		-0.892266		0.243676		-0.227219		0.0751473		0.482337		0.0931902		-0.0490978		0.922079		-0.506649		0.604726		0.966311		0.558421		0.55268		-0.358462		-0.700594		0.558781		-0.378993		0.259828		0.83979		0.308747		0.444478		0.662794		-0.235313		0.416215		-0.474107		0.00140011		0.393063		-0.0692888		-0.378668		-0.675252		-0.562133		-0.841389		0.398099		0.854255		0.23238		-0.611319		-0.747671		-0.0856643		-0.0758443		0.385658		0.282628		0.760432		-0.95993		-0.573631		-0.139362		-0.572123		-0.47251		-0.566208		0.38189		-0.420025		-0.962876		0.859955		0.489419		0.699345		0.266186		0.130651		-0.801361		0.261488		-0.973138		-0.355445		0.246554		-0.822399		-0.825709		0.291048		-0.377002		0.673787		-0.775658		0.940232		-0.811384		-0.8532		-0.781207		-0.577556		-0.687179		0.665854		0.805106		-0.15898		-0.672366		-0.880339		-0.120942		-0.916745		-0.632562		-0.0291884		-0.0674688		-0.0186396		0.33701		-0.800017		0.534882		0.109573		-0.30536		-0.483856		-0.142772		-0.775764		0.451214		-0.64926		-0.851381		-0.841894		-0.541252		0.0222235		0.0846636		-0.609548		-0.447553		-0.724787		-0.0792859		0.0781583		0.796551		-0.387434		0.550687		-0.259984		0.357027		0.60094		-0.512377		0.985891		0.649373		-0.683647		0.307311		0.574103		-0.991347		0.452297		0.445603		0.476735		-0.0530955		0.976272		-0.500537		-0.973445		0.145783		-0.0676495		0.144546		0.848977		-0.0600992		-0.916427		-0.266677		0.630769		0.285326		-0.95859		0.256375		-0.809276		-0.0524898		0.229884		-0.0095675		0.81863		0.999501		-0.0418007		0.767739		0.26752		-0.941536		0.555669		-0.950804		0.107072		-0.295793		0.452505		0.386709		0.746207		0.717357		-0.934735		0.0104351		-0.436368		0.280111		-0.0362494		-0.0478769		0.0224168		0.320539		-0.839822		-0.0427628		0.306244		-0.35093		-0.478073		-0.769909		0.901868		-0.897457		0.319896		0.842401		-0.312472		0.918336		-0.139456		-0.382508		0.408946		0.517266		0.447643		0.360015		-0.750059		-0.990829		-0.867971		-0.282497		0.189153		-0.10269		-0.135992		0.519957		0.987157		-0.773185		-0.384998		-0.0680982		0.458873		0.326022		0.880486		0.684187		0.301595		-0.000937045		0.921114		-0.372066		-0.740541		0.392461		0.951201		0.763684		0.00772452		-0.570311		-0.802358		-0.70482		-0.659392		-0.924749		-0.300924		0.0934641		0.928463		0.521884		-0.402125		0.632369		0.484108		-0.403852		0.540412		-0.0428591		-0.785678		0.940191		0.378079		-0.0904378		-0.644156		-0.052691		0.67158		0.524787		-0.01362		-0.430989		0.54375		0.856315		0.578792		-0.920499		-0.668569		-0.550416		-0.725139		-0.303336		0.361613		0.695291		-0.60193		-0.0165305		0.64495		0.236277		-0.611984		0.0576017		0.741866		-0.675541		-0.736756		-0.954877		0.358898		-0.56866		0.624428		-0.476906		-0.800956		0.66864		0.0743994		-0.817718		-0.560253		0.0274681		-0.890096		0.995653		-0.141194		0.42185		0.706512		0.49522		-0.565161		0.298145		-0.703964		-0.394232		-0.712651		0.464761		0.625575		-0.884021		0.858518		0.440829		0.393066		-0.498893		-0.655644		0.44696		-0.249947		0.0210747		0.361998		-0.60478		-0.837886		0.221677		0.987603		0.895204		-0.902074		0.859358		0.368791		-0.699284		-0.937325		0.302375		0.836224		0.499867		0.989183		0.880024		-0.711021		-0.0708378		0.791066		-0.162599		0.703002		-0.56375		-0.629354		0.905765		0.361919		0.203487		0.646181		0.742783		-0.920145		0.853408		0.744914		0.812104		-0.134186		0.731695		-0.193716		-0.325607		0.717772		-0.940166		0.124375		0.860376		0.151561		-0.745626		0.98942		0.627477		0.922816		-0.282414		-0.19342		-0.127032		0.562016		-0.339476		0.145979		0.658985		-0.489026		-0.49118		0.398597		0.267084		0.0789158		0.872264		0.0480465		0.19986		-0.453328		-0.761271		-0.164412		-0.639561		0.67105		-0.646292		0.0187631		0.418568		0.224713		-0.99056		-0.6397		0.31822		0.12213		-0.515557		0.0628592		-0.900806		0.764728		0.304946		-0.974845		0.241079		0.464131		0.17638		0.677067		-0.114156		0.0471212		0.539966		0.39378		0.786972		-0.788324		-0.429915		-0.2517		0.15802		-0.854604		-0.0248737		-0.256026		-0.173166		-0.153356		0.293244		0.00786436		0.331708		-0.864657		0.812401		-0.829078		0.801348		0.297821		0.0844432		0.765213		0.518683		-0.765942		-0.96588		-0.424462		0.194428		-0.831737		0.977623		-0.632295		0.406963		0.592206		-0.33347		0.792528		-0.11301		0.649974		0.629011		-0.830092		0.985087		0.874557		-0.907021		0.113018		0.825129		0.510445		0.906544		-0.977783		-0.369615		-0.10904		-0.101932		0.179793		0.388707		0.728542		0.790903		-0.734749		0.196728		0.793532		-0.477563		-0.551679		-0.234526		-0.967939		0.986934		0.835926		0.720744		-0.3367		0.756209		-0.207555		0.691961		0.323043		-0.171828		-0.333665		-0.21266		0.176506		-0.692751		0.871447		-0.0825735		-0.143877		0.454408		0.806803		0.368351		-0.982581		0.2903		0.864281		-0.964624		-0.726993		0.10325		0.425696		0.732383		-0.329784		0.758332		0.80658		0.897345		0.300699		-0.131963		0.961051		0.184299		0.904956		-0.0383965		0.635342		0.00176644		-0.365248		0.96118		0.797927		-0.6976		0.989131		0.864413		0.0928178		-0.901919		-0.799011		-0.67301		-0.242954		-0.190233		-0.74813		0.346251		0.667332		0.752918		0.267679		-0.833417		-0.852226		0.0594118		0.159913		0.794921		0.476848		0.382262		-0.0055182		-0.100509		0.565015		0.382608		-0.169927		0.698542		-0.553759		0.113845		0.477071		-0.0574045		-0.807669		-0.12045		0.487661		0.450264		0.995608		0.01362		-0.509778		0.228225		-0.522376		0.37776		0.333206		0.0202072		-0.745565		0.788686		0.600145		0.363543		0.605754		0.374971		-0.981342		-0.64738		0.48314		-0.00251007		-0.896307		0.3042		-0.0988685		0.36017		-0.00798333		-0.364346		0.17142		-0.675658		0.541814		-0.211857		-0.163704		-0.267434		0.523362		-0.657524		0.247215		0.590953		0.674212		-0.0309229		-0.648975		-0.514608		0.52294		-0.181618		0.582875		0.28196		-0.398565		-0.232425		-0.924968		-0.902172		-0.593733		-0.4543		0.368916		-0.0340905		-0.796537		0.101911		-0.251863		-0.700972		0.834633		-0.759015		-0.30541		-0.166722		0.56055		0.226611		0.919064		0.930639		-0.809636		-0.724979		0.286694		-0.602348		0.345801		0.737248		0.0589113		-0.446136		-0.701338		0.335178		-0.937023		0.852122		-0.717913		0.820134		0.791623		-0.407026		-0.420552		0.527467		-0.60945		-0.226159		-0.501227		0.360706		-0.5461		0.877275		-0.859024		0.640642		-0.366502		-0.0930364		-0.982488		-0.351087		-0.684759		-0.0634827		-0.865391		0.0117813		-0.0645843		0.285593		0.891102		0.615862		0.0625275		0.131089		-0.202676		-0.229549		0.0540986		-0.963826		-0.792146		0.62205		-0.117962		0.326936		-0.217905		0.621029		0.50576		0.478243		0.0734719		0.135692		0.14435		-0.58783		-0.605253		0.165834		0.683317		-0.0537037		0.495491		-0.0850847		-0.631662		-0.22542		-0.509989		-0.946555		-0.892282		0.73201		0.907047		-0.510227		0.834134		0.684002		-0.34355		0.677294		-0.592634		-0.559724		-0.442876		-0.645986		-0.832854		-0.226922		-0.095386		-0.8119		-0.330376		0.974895		-0.861476		0.561318		-0.181875		-0.544699		-0.347382		-0.155289		-0.587881		-0.975722		0.268087		-0.534003		0.945384		0.368729		-0.280135		0.343473		-0.036398		0.415077		-0.511701		-0.0740927		-0.46712		-0.328853		0.410443		0.0556815		-0.654706		0.36027		0.268101		0.45163		-0.982527		0.379951		0.868714		-0.891519		0.186523		0.523402		0.756449		0.990446		-0.934725		-0.693068		0.608726		-0.244851		0.0254267		0.024423		0.526124		-0.649305		0.566608		0.0595969		0		
0.219956		0.321644		0.513024		0.481656		0.185881		0.648775		-0.242469		-0.0139962		0.226139		-0.927088		-0.514074		-0.183945		-0.865844		-0.392973		0.687583		0.524597		0.840598		0.44271		0.908292		-0.00754213		0.153197		0.61419		0.125793		-0.229957		-0.524014		-0.0220435		-0.27382		0.21715		0.370989		-0.327166		-0.22275		-0.131569		-0.9617		-0.276621		0.922784		-0.864111		0.830567		-0.842637		-0.867872		-0.686743		0.577258		-0.676905		-0.0273921		-0.317776		0.689148		-0.960807		0.960124		-0.534329		0.921145		0.293358		0.58457		-0.14001		-0.804456		-0.178084		0.57688		0.14479		-0.111528		0.636402		0.271297		-0.306437		0.146264		-0.0167591		-0.203013		-0.731006		-0.00475043		0.123012		-0.948522		-0.0219882		-0.0848078		-0.612138		-0.297363		-0.877304		0.573483		-0.668099		-0.555702		0.0640738		0.294078		0.637629		0.705248		0.63055		-0.473758		0.550217		0.805401		-0.192673		-0.287829		0.98961		0.354898		0.299211		-0.670513		-0.911604		0.694528		0.254242		0.702862		0.00348997		-0.86873		0.641909		-0.553388		-0.578007		0.226953		0.234049		0.298285		0.37475		-0.575432		0.938223		-0.42717		0.287106		0.11222		0.791506		0.980853		-0.939718		-0.563142		0.192516		0.207219		-0.576761		-0.279709		0.777856		-0.94001		0.245633		0.271408		0.446956		-0.182065		0.972229		0.564294		-0.369721		-0.815508		-0.0638747		-0.354048		0.0512559		0.845757		-0.124177		0.648078		0.396084		-0.79616		0.299143		0.436275		0.47955		-0.732933		-0.323087		-0.0850137		0.661361		0.169662		0.582634		-0.524004		0.833096		-0.544695		0.686513		-0.504943		0.100714		-0.296867		-0.334748		0.0492176		0.979021		-0.0786276		0.491289		0.164229		0.283955		0.990134		-0.829853		0.00202584		0.482031		-0.94672		-0.280478		0.467904		0.276365		0.562105		0.137694		-0.12371		-0.445535		-0.740349		0.38687		-0.697328		-0.494361		0.975178		-0.0178715		-0.0351974		0.529597		0.516777		-0.112643		0.762516		0.967121		0.488925		-0.245054		0.327777		0.410294		-0.640456		0.349684		-0.808458		0.0759678		-0.740366		0.537057		0.723036		0.628938		-0.234938		0.0404078		-0.79408		-0.756646		0.382352		-0.860114		0.338387		-0.0361756		0.763676		0.818507		0.726328		-0.550289		-0.844096		-0.566706		0.232635		0.00385761		-0.906875		0.840207		-0.836691		0.438836		-0.245425		0.195889		-0.372604		0.677756		-0.998119		-0.315828		0.487106		0.317148		-0.638229		0.244244		-0.782328		-0.550726		0.987723		-0.45804		-0.166206		-0.934966		0.0138483		-0.714284		-0.320842		-0.30701		0.501858		0.304078		-0.093469		-0.794597		-0.559765		-0.290282		0.424228		0.811571		-0.909799		-0.758952		-0.894671		-0.56437		-0.238632		-0.227917		-0.242911		0.546423		-0.257403		0.202302		0.458012		0.990787		-0.118796		0.786237		-0.751191		0.176068		0.293091		0.483607		0.441349		0.751143		-0.613485		0.754696		-0.730941		0.218085		-0.0996806		-0.248703		-0.359693		-0.359982		-0.356567		-0.199976		0.0409087		-0.953709		0.333215		0.145939		0.0937084		0.066395		0.94349		0.949645		0.178005		-0.00864536		-0.80494		0.0176195		-0.644095		-0.00293106		0.823219		0.866386		-0.516127		0.225982		0.189963		-0.806867		0.273069		-0.240074		-0.243185		-0.716396		-0.24706		-0.883497		-0.321075		-0.0521759		-0.599679		-0.214834		-0.169662		-0.691617		0.859459		-0.780005		-0.824523		0.642827		0.111434		0.336626		0.384282		-0.787056		0.747368		0.445837		0.120642		-0.635754		-0.263227		0.517385		-0.310611		-0.550529		-0.333596		-0.0252241		-0.253864		-0.779739		-0.16321		0.161838		0.225434		0.457069		0.847396		-0.983875		-0.304739		-0.370179		-0.0258651		0.138022		-0.773613		0.641439		0.00653362		0.718986		-0.0727229		0.56573		0.819755		0.959426		0.569749		0.789396		-0.400111		-0.861857		-0.454794		-0.123282		0.997435		-0.563846		-0.801504		-0.408186		-0.618008		-0.834905		-0.0794765		-0.311464		0.831933		0.263577		-0.443801		0.527652		0.443432		-0.0355315		0.129419		0.00457656		-0.270983		0.285168		0.953466		0.667899		0.999631		-0.11759		-0.825894		0.380601		-0.655397		-0.224532		-0.982748		-0.866629		0.720828		0.957384		-0.939356		0.0111009		-0.727338		-0.121293		0.38131		-0.995224		-0.42169		0.681117		0.762416		-0.333813		-0.257767		0.934777		-0.188381		0.724447		-0.20835		-0.815492		0.188361		-0.389794		-0.784691		-0.122263		0.13167		0.704927		-0.417265		0.327765		-0.796499		0.480935		0.876545		-0.850277		0.000139236		0.565983		0.577347		-0.210153		-0.703301		0.831519		-0.768656		0.0401318		-0.465346		-0.0179829		-0.776998		0.0158498		-0.705966		-0.991202		-0.452058		-0.0352074		0.357975		-0.99689		0.310398		-0.792167		-0.910364		-0.634513		0.328056		0.386613		0.652471		0.461244		-0.644115		-0.201521		-0.815384		-0.961409		-0.505419		-0.793148		0.991392		-0.417023		0.637785		-0.787908		-0.524174		0.931706		0.244595		-0.366817		0.572446		-0.322226		-0.954878		-0.263596		0.8299		-0.313077		-0.197799		0.944572		-0.0740395		-0.0920888		-0.269753		-0.425756		-0.649886		-0.936581		-0.267514		0.513575		0.968323		-0.752768		0.331933		-0.294972		0.247331		-0.295		-0.0784937		-0.992278		-0.643774		-0.278402		-0.0743832		0.644741		0.0894479		0.330051		0.105842		-0.970904		-0.0822831		-0.846445		-0.393106		0.0185832		0.378217		-0.966128		-0.376322		-0.382861		-0.131488		0.968208		0.504351		0.760829		0.0396471		-0.483456		-0.213044		0.534818		-0.475053		-0.629877		0.512858		-0.192267		0.904476		0.72358		-0.947773		-0.934612		0.705961		0.383166		-0.791313		0.607558		0.602205		0.387177		0.555565		-0.122892		0.188486		0.782396		0.286141		-0.10987		-0.520547		-0.88268		0.718526		0.12143		0.464214		0.532862		0.655826		0.054888		-0.768034		0.10902		0.431053		-0.556757		-0.857839		0.281776		-0.85921		0.326647		-0.16269		-0.261365		-0.738839		0.0332631		-0.416807		-0.471601		-0.626829		0.259335		-0.239753		-0.33974		-0.59083		0.440939		0.735545		-0.635215		-0.312828		-0.49012		-0.552405		0.0965071		0.829188		0.247894		-0.13568		-0.876424		0.874232		-0.368742		0.894861		0.119401		0.0271466		-0.927096		-0.601188		-0.737109		0.780455		0.153088		0.449088		0.832707		0.775234		-0.721714		-0.158545		-0.848405		-0.205947		-0.198533		0.635162		-0.673036		0.626248		0.123695		-0.568649		0.498542		-0.305153		0.433083		-0.595502		-0.71269		-0.759255		-0.535402		-0.70438		-0.250158		0.134108		-0.297729		-0.780717		-0.000586987		0.686803		0.753185		-0.0212285		0.416831		-0.985419		-0.789248		0.0279824		-0.861362		0.855239		0.473302		0.694597		0.513619		0.439047		0.268229		-0.11322		0.138638		-0.878704		-0.155453		0.0525656		-0.304935		0.985641		-0.0347558		0.897608		0.209825		0.79945		0.0750515		-0.0616065		0.841554		0.105687		0.168405		0.522002		-0.277386		0.64048		0.361083		0.552675		0.387209		0.143022		0.16231		-0.0695561		0.116258		0.397988		0.0573376		-0.133016		-0.0582598		0.755841		0.163749		-0.696984		0.663214		0.734463		-0.208499		-0.772922		-0.574124		-0.573849		0.63376		0.616398		0.635419		-0.970081		-0.0398741		-0.0799283		-0.194997		0.892805		0.74938		0.735157		0.885607		0.0680768		0.589427		-0.989924		-0.588571		-0.528314		0.619344		0.151964		0.922754		-0.688915		0.0236722		0.614454		-0.228501		-0.710022		-0.427523		-0.0502904		-0.80847		0.118015		-0.638062		-0.794763		-0.0268892		-0.0726027		0.748448		-0.872572		-0.046195		0.757878		-0.398934		0.0692394		-0.568471		-0.126553		0.314947		0.840487		-0.138026		-0.983988		0.672601		-0.369857		-0.73163		-0.873731		-0.41102		-0.952078		0.602129		0.945799		0.413286		-0.987896		-0.63832		-0.240813		0.8957		0.949718		-0.517291		-0.131458		-0.753713		-0.943571		-0.470502		0.852002		0.172621		-0.965448		-0.358844		-0.627148		-0.0209353		0.720193		-0.667819		-0.068148		-0.395472		0.9375		-0.843671		-0.219827		-0.498466		0.927623		-0.283616		0.270807		0.218758		-0.170092		0.925923		0.956684		-0.744568		-0.498725		-0.509977		0.0758612		-0.78581		-0.53148		0.910145		0.540574		-0.766353		0.616423		-0.469286		0.106967		-0.673572		-0.0185528		-0.72205		-0.690903		-0.450934		-0.850907		0.631245		0.93014		0.48145		0.0881488		-0.0976248		0.702779		0.313957		0.125468		-0.28036		-0.920326		-0.0661696		0.619067		0.564112		-0.819605		-0.762185		-0.612449		-0.997081		0.108181		0.459502		-0.13122		0.598527		0.962297		0.176152		0.0606214		-0.699873		0.29766		-0.521225		0.490256		-0.133199		-0.731544		-0.811353		-0.642286		0.172611		-0.427988		-0.756158		0.406529		-0.0851873		-0.675865		0.973199		-0.937809		0.194875		-0.859296		0.86299		0		
-0.277964		0.371695		0.254789		0.492041		-0.241303		-0.874122		0.400307		-0.094011		0.51541		0.758503		0.0377971		-0.367703		0.878907		0.796115		-0.202335		-0.575036		-0.36898		0.350767		0.667655		0.321718		0.821977		-0.206615		-0.615095		0.166108		-0.051571		0.644321		0.705128		0.472269		0.464247		-0.305147		0.932841		0.181361		0.00240052		0.22383		0.304344		0.749486		0.444077		-0.0210003		0.361641		0.119213		-0.326437		0.320446		-0.270664		0.988899		-0.216237		0.347197		-0.0074845		-0.606378		-0.0663075		-0.689113		-0.347165		-0.635198		-0.941855		0.466512		-0.679699		0.300773		0.965202		0.058714		0.510683		0.773637		-0.205716		0.785553		-0.746989		-0.840388		-0.351215		0.602084		0.110168		-0.712461		0.811864		-0.323639		-0.964125		-0.52503		0.875987		0.440953		-0.571514		0.717445		0.159503		0.622214		-0.240276		-0.562231		-0.645457		-0.131857		-0.666608		0.442835		-0.947455		0.68274		-0.796148		0.905549		0.686559		0.688159		0.539032		-0.490747		0.522617		0.975154		0.875838		-0.0124918		-0.830401		-0.032965		-0.86318		0.761128		-0.774744		-0.247353		0.542902		0.924715		0.759528		-0.191194		-0.0350834		0.756048		-0.928181		-0.87897		-0.916275		-0.804339		-0.427884		-0.875024		-0.697003		0.885677		0.335203		-0.355202		-0.431593		-0.338908		0.399673		-0.236564		0.885474		0.485867		0.828701		-0.522126		-0.622559		0.175447		-0.82068		-0.91435		0.165554		0.132764		-0.254778		0.0580913		0.0690724		0.522607		-0.914737		0.754297		0.140716		0.681462		0.716485		0.106327		-0.697173		0.879413		-0.978418		-0.841044		0.216838		0.712163		0.073764		-0.76073		-0.258211		-0.560671		-0.856863		0.90626		0.0934976		-0.105187		-0.715136		0.680349		-0.594742		0.606072		-0.17206		0.393547		0.791723		-0.976562		-0.704401		-0.31345		-0.0191702		-0.3448		-0.384282		-0.848854		-0.572969		0.817754		0.251713		0.470309		0.125203		-0.575866		-0.807863		0.992885		-0.887928		0.675223		0.357529		0.671116		0.535253		-0.0166332		-0.285578		0.963244		-0.446215		-0.531135		-0.946995		0.600747		0.923776		-0.632448		-0.816387		0.630545		0.0377076		0.5065		-0.475543		0.244442		-0.551291		-0.341788		0.131454		-0.505985		-0.27525		0.564069		0.301563		-0.398243		-0.810522		0.0831709		-0.0649795		-0.982736		0.704234		0.616149		0.865766		0.0202278		-0.51249		0.591348		0.958426		-0.666925		-0.831281		-0.597251		-0.88852		0.509268		0.964131		-0.780914		-0.690407		0.994694		-0.665742		0.918117		-0.610163		0.488056		-0.469208		0.827128		0.508036		-0.432711		-0.837461		0.953572		0.660229		0.363507		-0.963801		0.36434		0.486176		-0.199816		-0.185841		-0.97028		-0.755285		0.144113		-0.616902		-0.694446		-0.0300639		-0.00823694		0.947561		-0.245018		-0.822066		-0.574553		-0.887614		0.428058		0.577084		0.317876		0.153862		0.193528		-0.550602		-0.497403		0.252131		-0.356971		-0.814607		-0.94082		-0.755548		-0.353722		0.878759		0.0425556		-0.00302494		-0.9445		-0.684078		-0.991007		0.532408		0.82789		0.673751		-0.350798		0.553663		-0.243032		-0.511841		0.819842		-0.820104		-0.761692		-0.852321		0.725811		0.433821		0.243005		0.259232		-0.544416		0.131403		-0.3681		-0.862162		-0.49915		-0.359171		-0.160518		0.512812		-0.22864		0.0773133		-0.699355		0.348578		0.784884		0.403471		0.00476408		-0.610034		-0.282402		-0.387425		0.288662		0.445643		0.80125		-0.801998		-0.119743		0.0142591		-0.0781273		-0.813075		0.478777		0.853915		0.155165		0.16653		0.802443		-0.147918		-0.797994		-0.43833		-0.0119644		0.786333		-0.471482		0.665062		-0.490261		0.8428		-0.753714		0.347367		0.265718		0.499767		0.740814		-0.335921		-0.104037		-0.114446		0.610486		-0.325502		-0.73152		-0.309319		-0.721913		-0.334976		-0.0581177		0.866451		0.380756		0.293182		0.784741		-0.964718		-0.60831		-0.63972		0.742434		-0.714545		0.862874		0.278406		-0.247805		-0.679361		0.838626		0.177963		-0.675313		-0.418516		-0.911872		-0.931081		-0.750373		-0.418508		-0.446157		-0.463089		-0.0932031		0.981764		0.85806		0.596359		-0.520321		-0.0935406		-0.836738		-0.713523		0.510519		0.0177609		-0.400898		-0.826313		0.396111		-0.00824982		0.987538		-0.504047		-0.66152		0.532037		-0.547311		0.596839		0.172547		0.132471		0.819301		0.380832		-0.165977		-0.167125		-0.312493		-0.111095		-0.340501		-0.78055		0.467172		0.959534		0.903785		-0.922204		-0.0359099		-0.248977		-0.986475		0.960235		0.910027		-0.619183		0.593959		0.553304		-0.0817913		-0.259046		0.15418		-0.306646		0.930058		-0.273766		-0.550598		0.553968		0.721574		-0.867489		0.762316		-0.283194		0.445967		-0.836018		0.81393		-0.804288		0.986786		0.763968		-0.0307291		-0.790777		0.909537		0.805397		0.0150266		0.711422		0.268748		0.934799		-0.560338		0.350286		-0.933381		0.585843		0.557014		0.495668		-0.547997		0.844221		0.963617		0.536342		0.00702512		-0.93572		0.068032		-0.649299		-0.0892246		-0.435702		-0.797139		0.857673		0.22771		-0.830211		0.159891		0.796742		0.384444		0.298269		0.643204		-0.562437		0.775177		0.502383		0.325249		-0.538639		-0.554236		0.240893		-0.461742		0.0280094		-0.750942		0.179072		0.21133		0.668499		-0.848511		-0.242546		0.821398		-0.839205		-0.819248		0.816869		0.409695		-0.816577		-0.661608		0.818842		-0.719786		-0.347289		-0.184075		-0.452627		-0.638791		0.398772		0.379762		0.826607		0.309798		0.157703		0.817829		-0.0350193		0.00989866		0.629185		-0.284982		-0.0391486		-0.663953		-0.104063		0.421499		0.439903		-0.653265		0.741075		0.96249		0.475336		0.911281		0.0691007		0.217118		-0.79655		0.204037		-0.75088		-0.841325		0.109586		-0.797799		-0.784974		0.684643		-0.16279		0.431242		0.805013		0.25828		-0.491347		-0.317148		0.20741		-0.601269		-0.947085		-0.688111		-0.758191		0.482649		0.361378		0.608397		-0.616856		-0.00344807		-0.68189		0.50465		0.448116		0.63395		-0.692799		-0.194348		-0.512376		-0.181242		-0.419541		-0.573848		0.514309		0.0201501		-0.371675		-0.369805		0.316971		0.929196		-0.0781572		0.681716		0.0838441		-0.810792		0.770865		-0.53257		0.0276341		0.183168		-0.272575		-0.217579		-0.333287		0.515738		-0.26697		0.968989		0.725106		0.457565		0.111842		-0.230185		0.749498		0.515319		-0.319991		-0.170424		-0.293595		-0.49209		0.0760858		-0.0730731		0.00284791		-0.628505		-0.0279335		0.834177		0.50163		0.748585		-0.473513		-0.353138		-0.188701		0.371763		0.388546		0.887628		-0.440354		-0.004453		-0.0707892		0.507487		0.880124		-0.0119923		-0.93822		0.765453		0.450612		0.022217		-0.95827		-0.528955		0.778261		0.97428		-0.103849		-0.240701		0.566392		0.598117		-0.847542		-0.930667		-0.294054		-0.363678		0.322869		-0.338534		-0.559247		0.133509		-0.163341		-0.631515		0.717496		0.32441		-0.737325		-0.217304		0.951801		-0.836177		-0.682292		0.425645		-0.470416		-0.169799		0.966445		-0.996421		0.759783		-0.422236		-0.9048		0.42237		-0.749855		-0.531389		-0.873087		-0.880689		-0.291351		0.362672		-0.212261		0.577401		0.516701		0.321213		0.830238		-0.865107		0.981009		-0.491211		0.583455		0.827925		0.401138		-0.704099		-0.341094		-0.168288		-0.141665		0.63179		0.0328114		0.311781		0.61342		0.498051		0.386894		-0.140292		0.252295		0.759191		-0.638028		0.600684		-0.275022		-0.403648		0.949107		0.405032		0.57631		0.740405		-0.364492		-0.668249		-0.863483		0.745999		-0.955388		-0.978769		0.60665		0.0321438		0.085004		0.00582159		0.738788		0.0624199		-0.946826		0.222303		-0.918973		-0.0927366		-0.556729		-0.118358		0.876089		0.791699		-0.550428		0.950699		-0.680817		-0.582234		-0.875095		0.762453		-0.638994		0.903443		-0.12421		0.367365		-0.416501		-0.216973		0.856917		0.739925		-0.468299		0.165022		-0.575287		-0.914724		0.72288		-0.353877		0.196711		-0.753633		0.900913		-0.280439		-0.987074		-0.483466		-0.196439		-0.18136		0.106439		-0.637649		-0.11685		0.535568		0.51799		-0.681793		-0.728883		-0.500126		-0.410421		0.0751477		0.615073		-0.192641		0.6845		-0.301594		-0.865923		0.356557		0.814964		-0.674873		0.361313		-0.324521		-0.686408		-0.0442939		-0.145385		-0.814738		0.50518		-0.348341		-0.973836		0.552537		-0.94966		-0.775325		-0.047469		-0.784951		-0.443266		0.793665		0.180408		0.0236371		0.365013		0.790521		-0.59515		0.523193		-0.550279		-0.459386		0.533672		0.872251		-0.604573		-0.412209		0.166665		-0.484037		-0.993802		0.372963		0.36754		0.539179		0.419666		-0.973908		0.116781		0.689261		-0.436388		0.649771		0.698408		0.882925		0.768296		0.786715		0.0236269		-0.589054		0.292183		0.217868		0		
-0.427141		0.356144		-0.823429		-0.111881		0.282818		0.727252		-0.268174		0.0364847		-0.159614		-0.716645		-0.59474		0.277609		0.333866		0.703069		0.553777		-0.414006		0.0797424		0.549294		0.569835		-0.35354		0.393134		-0.570754		-0.937314		0.834332		-0.746082		-0.865593		-0.515058		-0.944818		-0.705542		-0.861356		0.176276		-0.459922		-0.568336		0.12609		0.327564		-0.644242		0.641537		-0.958588		-0.789743		0.785501		-0.159693		-0.342249		0.442065		-0.332621		0.549458		0.88935		-0.604872		-0.741099		-0.213663		0.0362986		0.361816		-0.567819		0.251683		0.982764		-0.149109		-0.542216		-0.156447		-0.916271		0.434217		0.257542		0.235886		-0.164638		-0.197986		0.879249		0.376108		0.221606		0.641937		0.948777		-0.64691		0.476321		0.589893		-0.355593		-0.032432		-0.600478		0.537979		-0.834988		-0.940304		0.927826		-0.8201		-0.793236		0.83313		-0.0654532		-0.662939		-0.877553		0.874332		0.949039		0.378627		-0.566533		-0.34004		0.596259		0.588177		-0.226627		-0.284448		0.0439384		-0.939705		-0.52049		-0.585046		0.97048		0.839651		-0.75403		0.823815		0.0225937		0.361773		-0.53481		0.924355		-0.133771		0.67081		0.188755		0.648679		-0.836412		-0.0164781		0.813076		0.985549		-0.879805		-0.0970323		-0.572776		0.154106		0.5719		0.975428		-0.952933		-0.466246		-0.736142		-0.153386		-0.835834		-0.955282		0.758863		0.609557		-0.667808		0.563909		-0.825516		-0.346477		-0.019348		0.253863		0.672442		-0.648965		-0.62145		-0.177759		0.0700864		0.900416		0.50525		0.344225		0.687923		0.802789		0.721333		0.227054		0.665276		0.426577		0.103716		0.0109768		-0.92376		-0.918925		-0.802907		-0.956794		0.332836		0.912428		-0.325073		0.429004		0.527524		-0.10603		0.225535		0.454161		-0.541205		0.490377		-0.271295		0.0295117		0.96027		0.296692		0.638934		0.906616		0.0919435		0.937517		-0.88625		0.921104		-0.0558895		-0.556044		-0.187052		-0.202453		0.530289		0.523288		-0.903498		-0.582897		0.703701		0.745779		-0.740342		-0.998289		0.153986		0.245572		-0.391538		-0.731011		0.75633		0.218518		0.894287		0.512757		0.114985		0.0494089		0.145663		-0.567597		0.183657		0.914742		0.504044		0.339637		0.318536		0.612082		0.949846		-0.0570978		-0.725324		-0.723885		0.693652		-0.181404		0.0321429		-0.794763		0.838449		-0.360034		0.0518318		0.0257722		0.0614539		-0.928502		0.209646		0.963653		0.0779743		-0.157122		0.51209		0.919536		0.398698		-0.625094		-0.384492		-0.924133		0.109684		-0.332669		-0.971355		0.157272		0.973366		-0.575084		-0.619667		0.325848		-0.637602		0.713939		-0.850859		0.621696		-0.680346		-0.977601		-0.812031		0.406127		-0.411713		-0.48418		0.623208		0.82845		0.115154		-0.493636		-0.0562448		-0.746055		0.913658		-0.0989867		-0.840487		0.487207		0.342775		-0.989286		0.596648		0.718481		0.345579		0.241941		-0.246377		0.730033		-0.248608		-0.186383		-0.910412		0.381738		-0.0596789		0.0401721		-0.245802		-0.630046		0.638198		-0.147901		0.702308		-0.277145		0.959211		-0.0522467		-0.458414		0.241736		0.890316		0.755225		-0.606076		0.399703		-0.760893		0.227873		0.82368		0.382341		0.91662		0.832922		-0.583023		-0.515465		-0.520056		-0.876121		0.195044		0.393157		0.519094		0.664004		-0.470285		0.430929		0.609429		-0.674658		-0.753578		0.311392		-0.319251		0.31588		0.8473		0.838237		-0.656074		0.566533		0.643807		0.0515587		0.219905		0.109053		-0.319173		-0.257109		-0.42352		0.865319		-0.597272		-0.688865		0.672156		0.809054		-0.563071		-0.290333		-0.522613		-0.0155612		0.742336		-0.726249		0.868314		-0.996894		0.543605		0.541861		0.854279		0.38192		-0.668318		0.451874		-0.41216		0.490347		-0.433216		0.882654		-0.597299		-0.482633		0.621975		-0.723661		-0.528735		0.886674		-0.0903839		0.331028		-0.635574		0.924987		-0.791036		0.876749		0.79396		0.771055		0.330465		0.445039		-0.632248		0.96837		-0.115831		-0.148673		0.838163		0.921152		-0.515748		0.362138		0.09533		-0.534478		0.122559		-0.521456		0.223233		0.964175		0.624756		-0.314663		-0.78046		-0.242237		0.345929		0.722767		0.481862		0.10516		0.956146		0.764446		-0.753722		-0.0485301		-0.573744		-0.573499		0.735495		0.524337		-0.830529		0.597264		0.718811		-0.432801		-0.817009		-0.436989		0.58123		-0.194362		0.754619		0.340596		0.624327		-0.567516		-0.510631		-0.0709085		-0.524158		-0.540369		0.130463		-0.509444		-0.653648		0.155106		0.506091		-0.419901		-0.313992		0.484948		0.992051		0.402452		-0.43011		-0.799135		0.0808369		0.702865		-0.0613929		0.995887		-0.717094		-0.0855707		0.516315		0.966802		-0.966949		-0.503557		-0.722855		0.617034		0.19566		0.117469		-0.148924		0.529947		0.758554		0.843175		0.818455		0.380033		0.237		0.423837		-0.518		0.991618		0.22179		-0.406588		-0.14336		-0.293518		0.114693		-0.759181		-0.166529		0.540765		0.115929		-0.126204		-0.605365		0.221254		0.313756		0.954337		-0.558625		0.348455		0.399877		0.436514		0.120124		-0.0445372		0.267727		0.489941		0.698166		0.564595		-0.571575		-0.923756		0.552335		-0.598759		0.722784		0.14314		-0.485465		0.635578		-0.325805		0.22846		-0.599245		0.305985		0.861501		-0.814749		0.993544		0.392506		0.938962		0.41326		0.157923		-0.0751552		0.721887		0.196479		0.514321		0.22336		-0.374921		0.0745206		-0.84157		-0.447112		0.863811		0.496898		-0.235256		0.0581738		-0.599964		-0.0551919		-0.663133		-0.589526		0.46655		0.463652		0.643745		-0.814213		0.811472		-0.361746		0.378302		0.954481		0.074958		-0.225989		0.0673528		0.511981		-0.465285		-0.165077		-0.895562		-0.31627		-0.217994		0.343861		-0.221009		-0.231442		-0.454694		-0.588068		0.0259957		-0.409324		-0.60859		0.223523		0.68816		0.938773		-0.569907		-0.413037		0.591257		-0.433247		0.0849131		0.384657		-0.149885		-0.0836232		0.208013		0.965685		0.751967		-0.162987		0.991505		0.162002		-0.314755		0.921023		-0.00213128		-0.136523		0.999742		0.675558		-0.768262		0.657992		-0.967261		0.174446		0.382229		-0.840069		0.204709		-0.163182		-0.731499		-0.197813		0.917179		-0.339504		0.601143		0.732716		0.979686		0.115052		-0.339307		0.0212311		0.0526838		-0.537554		-0.810035		-0.50103		0.414131		-0.910198		0.132962		0.859431		-0.135451		0.0248853		-0.490324		0.780372		-0.676353		-0.391008		0.788112		0.416167		0.010327		-0.80103		0.819279		0.748847		0.00619459		0.39522		0.573752		0.97181		-0.0610398		0.883383		0.554977		-0.406907		-0.738092		0.708663		-0.284212		-0.894331		-0.238346		0.136295		0.951143		-0.718451		-0.84504		0.921474		0.443716		0.681883		0.0300449		0.590139		0.983391		0.183622		-0.901707		-0.613476		-0.857541		0.486071		-0.29299		0.485542		-0.318943		-0.233947		0.521584		-0.434263		0.550153		0.0881008		-0.181602		0.391512		0.337443		-0.341165		-0.212039		-0.520771		0.380251		0.11119		0.17048		-0.282841		0.217611		0.963196		-0.20917		0.299217		-0.772573		0.143958		-0.872067		0.119843		0.917863		0.721362		0.624504		0.0215952		0.201847		0.62268		0.309841		-0.951029		0.0939283		-0.94348		-0.352006		0.404487		0.638052		-0.740314		0.536582		-0.892359		-0.690308		-0.919477		0.615261		-0.705841		-0.4545		-0.868297		-0.298353		-0.662368		0.37605		-0.772701		0.18267		-0.914463		-0.69037		0.310089		0.5693		-0.450631		-0.110066		-0.939655		-0.387888		0.0162208		-0.245874		-0.764497		-0.0812462		0.490429		-0.924649		0.329755		-0.601326		0.646304		-0.189344		-0.578925		-0.524462		-0.266403		0.523511		-0.683384		0.821135		-0.769485		-0.301763		0.777119		0.348057		0.638721		-0.497756		0.039515		-0.360081		-0.484475		0.670672		0.65627		-0.665929		0.774417		0.323676		0.269294		0.770838		-0.370296		-0.97598		-0.156459		-0.116726		-0.32193		0.605087		-0.0375918		0.494273		-0.311242		-0.632801		0.4676		0.95299		0.340024		-0.409957		-0.526234		-0.644459		-0.117778		-0.52828		0.982164		0.417518		-0.50689		0.0489525		0.933431		0.947376		-0.210728		0.867014		-0.331174		0.149468		0.538518		-0.22275		0.31346		-0.365561		-0.917583		0.48659		-0.762459		-0.501857		-0.266576		0.371087		0.970798		-0.217085		-0.0755354		0.771844		0.917971		-0.867355		0.367411		0.2381		0.600037		-0.47296		-0.723994		-0.48796		-0.191385		0.0289444		0.390215		0.204893		0.354277		-0.731267		-0.694779		0.472947		0.855978		0.479315		0.665018		0.22277		-0.43348		-0.924085		0.261472		0.030184		-0.848039		-0.346851		-0.109503		0.772658		0.328609		0.962983		-0.503612		0.603789		0.464729		0.37231		0.443855		-0.608668		-0.0545052		0.856328		0		
-0.600582		0.88381		-0.466788		-0.329554		0.89568		0.341606		-0.386747		0.713094		-0.093278		-0.560557		0.351737		-0.105647		-0.857586		-0.19906		0.509602		0.708571		-0.493639		0.105802		-0.755603		0.0435903		0.857808		-0.175682		0.3394		-0.217462		0.899671		0.171158		0.632004		0.205972		0.0663543		-0.670202		0.441903		0.464527		0.363254		-0.0931579		-0.777472		0.365468		-0.674793		0.583165		0.0572481		0.628309		-0.25599		0.0225037		-0.930907		0.741552		-0.806127		-0.136724		0.261687		0.73602		0.617792		-0.440978		-0.826367		0.00144398		-0.727892		0.871554		0.839299		-0.970197		0.570244		0.848606		0.658228		0.544127		-0.676116		0.784519		0.613725		0.595683		-0.447114		-0.478029		-0.446319		0.929085		-0.450327		0.779251		0.86655		-0.354741		0.282918		0.314666		-0.132825		0.318553		-0.429052		-0.916627		0.667099		0.847696		-0.787834		-0.144904		-0.944704		0.540788		0.545643		0.933972		0.461904		0.536616		0.0149876		-0.832716		0.00222266		-0.878906		-0.503284		-0.409632		-0.573479		0.542703		-0.174088		-0.71296		-0.930169		-0.928889		-0.596183		0.852712		-0.653216		-0.823369		-0.983764		-0.0305782		-0.169359		-0.450802		0.861969		0.205974		-0.189769		-0.348116		-0.950984		-0.215868		-0.629631		0.321318		0.867343		0.83433		-0.192007		0.590413		0.530174		-0.703411		-0.832709		-0.810551		0.338794		0.98085		-0.741511		-0.178279		0.143036		-0.215929		-0.0566902		-0.174824		-0.249905		0.990154		-0.797584		-0.20545		0.606965		-0.040109		0.198873		-0.839991		0.407787		-0.646656		-0.47183		-0.267507		0.471778		0.312135		0.547627		0.769163		-0.718032		0.61925		0.0307249		0.00636613		0.931941		-0.471535		-0.147565		-0.112878		-0.311545		0.0614755		0.116145		0.890863		0.00783086		0.519707		-0.859005		0.199718		0.238893		-0.250957		0.434094		-0.822551		-0.227749		-0.443613		-0.753668		-0.61168		-0.723621		-0.977134		-0.508473		0.788959		0.431069		-0.645429		-0.55854		0.434824		0.513412		0.991724		0.546983		0.746322		0.956865		0.644572		-0.939962		0.707615		-0.978236		-0.447365		-0.77543		-0.301125		-0.665343		-0.999786		0.706047		-0.299728		-0.667438		-0.18253		0.175793		0.750909		-0.828042		0.252065		0.652975		0.139565		-0.967142		-0.584786		-0.13308		-0.364235		-0.665646		-0.0606022		-0.655058		-0.457492		0.568125		0.0620924		-0.119096		-0.358965		-0.613432		-0.796739		-0.453161		-0.342855		-0.624004		-0.848863		0.0868502		-0.973087		0.0970207		-0.896881		0.0192722		-0.963742		-0.0506455		0.14186		-0.914811		-0.314406		0.653457		0.80006		0.675312		-0.139213		-0.857398		-0.898035		-0.47753		0.656598		0.906013		-0.414223		-0.524695		0.0597402		0.399244		0.852241		0.64458		0.752873		-0.502898		0.0247341		-0.953308		0.242668		0.490616		0.603059		0.570658		-0.638893		-0.326768		0.710767		0.193598		0.588699		0.558318		-0.206702		0.544779		-0.0515946		-0.342751		0.220698		0.941604		-0.066292		0.8666		0.849637		0.364712		-0.186768		0.980342		0.678009		-0.508548		0.267325		-0.847635		0.383305		0.0323839		0.854907		0.461852		0.812469		0.0538701		-0.0944155		-0.824091		-0.363486		0.270461		0.269631		-0.20574		-0.299846		-0.74143		0.118996		0.256239		-0.236092		0.234264		0.381551		-0.127368		-0.490427		-0.723559		0.211927		-0.0940863		0.767673		-0.133156		-0.213855		0.50773		0.566518		0.214775		-0.31224		-0.716787		-0.174167		0.110523		-0.862941		-0.976713		-0.829235		0.753158		0.216065		0.26035		0.325529		0.612596		-0.17728		-0.832545		0.995159		-0.881649		-0.27535		0.515887		0.199635		0.72214		-0.87019		0.458214		0.0737691		0.00566864		-0.595968		-0.295003		0.229143		0.430156		-0.404182		0.998762		0.231603		-0.0344136		0.566081		-0.182695		0.390231		-0.22652		0.0595936		-0.244091		-0.914743		-0.0261584		-0.00270677		-0.128551		-0.219919		-0.295712		-0.957746		-0.799969		0.549161		-0.187522		0.122822		0.985664		0.574439		-0.41788		-0.270669		0.357229		0.44828		0.647949		0.0373378		-0.792227		-0.781296		-0.145268		0.0564828		-0.17805		0.73357		0.597874		-0.237191		0.857315		-0.160547		0.949969		0.245424		-0.602268		0.953444		-0.0347404		0.724905		-0.576975		-0.557103		-0.261542		-0.282719		0.689339		-0.162798		0.275405		-0.866621		0.236199		-0.777709		0.998058		0.198424		0.79097		0.383396		0.863295		0.804219		0.174065		-0.545283		0.324135		0.276152		-0.190852		0.937291		0.84804		0.326995		-0.431369		-0.146698		0.0788015		-0.547146		-0.626413		0.776922		-0.286382		0.0203862		-0.673312		0.780184		-0.0724922		-0.760996		0.852547		-0.585156		0.542375		0.916978		-0.421421		-0.162292		0.496799		-0.880618		0.588092		-0.0450443		0.876189		0.942838		0.678668		0.994026		0.242074		0.48133		-0.476347		0.0866218		0.803625		-0.563892		0.0700774		-0.25547		-0.796524		-0.10179		-0.241863		-0.134056		-0.300986		0.318643		0.46758		0.995551		0.583309		-0.341876		0.675633		0.851615		-0.594709		-0.673279		-0.406749		-0.250484		0.264565		0.940722		0.786363		0.0539689		0.136511		-0.7743		-0.867386		-0.162197		-0.860006		-0.229647		-0.0121669		-0.644097		-0.544526		-0.759842		-0.182217		0.792118		-0.705426		0.957687		-0.929966		0.272724		-0.29297		-0.646885		0.671165		0.553199		0.338644		-0.455649		0.508662		-0.956495		0.0228121		0.979452		-0.848803		-0.733541		0.868205		0.342297		-0.928159		0.995846		0.601705		-0.768268		-0.20259		-0.340019		-0.884543		-0.356273		0.359684		-0.855726		-0.73804		0.83625		0.687531		0.831777		-0.182101		0.31299		0.959304		-0.781132		-0.617169		-0.653461		0.533277		-0.294528		0.967791		0.236322		-0.264886		-0.603165		-0.704467		0.752697		-0.420562		0.256651		0.294569		0.516528		-0.345628		0.904043		0.77031		-0.934555		0.824142		0.0595505		0.591365		-0.339327		-0.157678		-0.497914		0.224101		-0.275963		0.533569		-0.343929		0.996257		0.217931		0.740118		-0.125064		0.0337611		-0.281052		-0.719187		0.424697		-0.832873		-0.809156		-0.254763		0.039831		-0.261645		0.910946		0.637218		0.296705		0.158841		0.0556685		0.48192		-0.573213		0.054471		-0.333772		0.235988		0.293467		0.664537		-0.673237		0.074332		0.0653938		-0.0642152		-0.675341		0.131278		0.153761		-0.521828		-0.908114		0.965212		0.799665		-0.800991		-0.399144		0.692666		-0.451345		-0.927461		-0.910576		0.0670238		-0.0877492		0.28575		0.204089		0.271628		0.0257206		-0.131328		0.460475		0.777108		0.842994		0.415159		0.533625		0.71759		-0.701984		0.712656		-0.126101		-0.0351115		0.83394		0.868877		0.0790287		-0.0341465		-0.229531		0.533159		-0.566854		-0.124079		0.611182		-0.784974		-0.923842		0.878472		0.564932		-0.449184		0.316956		-0.679833		-0.713964		0.490471		-0.0309364		0.00887227		0.744539		0.348393		-0.812874		0.549992		0.517451		0.996341		-0.500479		0.0273274		-0.956369		0.746397		-0.752281		0.627062		-0.722297		-0.414092		0.462901		-0.447443		0.69026		0.853601		0.984312		-0.344639		-0.41187		0.874641		0.494441		0.547808		0.525581		-0.941792		-0.0383423		-0.15664		0.676424		0.0271939		-0.720687		-0.136234		-0.19686		-0.384478		0.844573		-0.691926		0.248067		-0.14885		-0.549356		-0.491235		0.328323		0.198294		0.696433		0.399633		-0.659766		0.256937		0.542944		-0.23045		0.306176		-0.911141		-0.634313		-0.51257		-0.0963269		-0.74476		-0.0209357		0.0779794		0.820942		0.563615		0.219259		-0.228347		-0.391145		0.68848		-0.995634		0.326865		-0.323219		-0.19511		-0.226745		0.784395		-0.892177		0.033945		0.503429		0.459286		0.256506		-0.880844		-0.0233356		-0.260095		0.220064		0.165209		-0.583519		0.280258		0.803673		-0.0647876		0.757012		0.747371		0.775699		0.0123532		-0.633417		0.356082		0.508333		-0.00323159		-0.568244		-0.591151		0.192556		-0.682265		-0.0124869		-0.558656		0.0703788		0.310371		0.205603		-0.0185592		-0.296712		-0.705462		-0.743795		0.669676		-0.482002		-0.0483118		0.414083		0.867287		0.00864959		0.224244		0.921128		0.452031		0.889237		0.611158		-0.637907		-0.111931		0.274694		0.781593		-0.7602		-0.845579		0.401852		-0.0413105		-0.496958		0.410687		0.738261		-0.957088		-0.602621		0.801433		0.306688		-0.550064		-0.929414		-0.41204		-0.0283008		-0.752139		0.03113		-0.07038		-0.431941		-0.14279		-0.644283		0.922903		-0.665515		-0.609958		-0.268993		-0.965859		-0.470903		-0.892694		0.794165		-0.148332		0.756601		0.377555		-0.541656		-0.101351		-0.490995		-0.320439		0.275927		-0.690422		-0.605388		-0.043661		-0.259254		-0.913915		-0.239245		0.109705		0.940779		-0.419241		0.653175		-0.843131		-0.507118		-0.958196		-0.908183		0.627466		-0.763593		0		
-0.502226		-0.376068		0.204772		0.261942		0.3488		-0.591532		-0.855075		0.428209		-0.669744		-0.650092		0.185901		-0.419037		-0.907653		-0.232724		0.403286		0.475577		0.991776		-0.336299		0.959959		0.438241		-0.357709		0.196235		-0.244119		0.395492		-0.638383		0.250799		-0.0287617		0.773483		-0.831712		0.693276		0.74312		-0.520786		0.554992		0.263755		0.164567		-0.250901		-0.670848		-0.915933		0.440667		-0.819493		-0.0310797		-0.520275		0.391527		0.625332		-0.72849		0.505459		-0.0645105		-0.00556123		-0.828403		0.0912788		0.685301		-0.384219		-0.0587693		-0.362685		0.2409		0.850344		0.10935		-0.195808		0.629957		-0.663382		-0.168886		-0.424828		0.367482		-0.418298		-0.0758482		-0.770674		-0.137083		0.400519		0.0515736		0.845893		0.251577		0.100711		-0.0781103		-0.76633		-0.0486485		0.409615		-0.340915		0.333845		-0.489634		0.737255		0.223027		-0.0294421		-0.871214		-0.755604		0.378896		-0.882191		0.0357875		-0.42936		0.0329891		0.875466		-0.724171		0.948143		-0.831928		0.146839		0.156837		-0.955447		-0.670894		0.243975		-0.324902		-0.810488		0.722734		0.475491		0.0483972		0.544121		0.852659		-0.468746		-0.810059		0.115975		-0.401711		0.103927		-0.355372		-0.288014		-0.285213		-0.243445		-0.333623		-0.230908		0.445236		0.767236		0.374709		-0.287559		0.164996		0.559838		-0.482333		0.145114		0.0388502		-0.375723		0.754528		0.258125		0.322236		0.691584		-0.717146		0.572174		-0.52051		0.263102		-0.424844		-0.684286		0.895765		0.788632		0.377683		0.687683		0.627529		0.407721		-0.916223		-0.330511		-0.0998966		-0.605818		-0.110294		-0.261055		0.398979		-0.032135		0.407954		-0.619865		-0.223861		-0.115126		-0.756073		-0.764695		0.0233287		-0.758431		-0.385885		-0.527059		0.60005		0.101072		0.243379		0.618452		-0.0645064		-0.238569		0.545517		-0.0423602		-0.421433		-0.338656		-0.681479		0.488857		-0.531091		-0.0432585		0.194738		0.684558		-0.0785177		0.908856		-0.948831		-0.149375		0.525038		-0.617994		0.208669		-0.633827		0.398387		0.196287		-0.692122		0.032371		-0.654525		0.00776219		0.520338		-0.370481		0.750015		-0.343988		0.690008		0.1414		-0.639068		0.500983		0.634552		-0.0207578		-0.485809		-0.738583		-0.374582		-0.186582		-0.696445		0.801476		-0.460509		0.497393		-0.419248		0.218765		0.482792		-0.0395099		0.437645		0.672991		0.174129		-0.801681		-0.259359		0.648526		0.121767		-0.403784		-0.0655668		0.660775		-0.55364		-0.862437		0.929567		-0.912113		0.161225		-0.371159		-0.456455		0.12975		0.519592		-0.3104		-0.394996		-0.578149		-0.0324724		-0.892014		-0.530056		-0.75686		-0.694223		-0.00116539		0.428811		-0.319503		0.609457		0.718754		0.738594		-0.405218		0.949987		-0.799742		-0.368951		0.987585		0.540308		0.785478		-0.471425		-0.487798		-0.581487		-0.898785		0.263796		-0.0685949		0.170437		-0.217619		0.29812		0.359693		-0.0180942		-0.560959		0.0341001		-0.776334		0.568199		-0.428167		-0.369775		0.373965		0.18126		0.448348		0.516729		-0.6848		0.117821		0.642158		-0.685783		-0.235632		-0.383397		0.216217		-0.990789		-0.0584639		0.13631		-0.99199		0.903831		-0.784051		-0.553862		0.496946		0.198686		-0.641214		0.994015		0.639141		-0.374571		0.915865		-0.978023		0.802335		-0.816043		0.570093		-0.2001		-0.160431		-0.588003		-0.331911		0.227138		0.79094		0.791619		0.547954		-0.79485		-0.174437		-0.780936		0.466311		-0.716076		-0.672132		-0.403746		-0.941381		-0.160884		0.569251		-0.424532		0.169026		-0.81598		0.447183		-0.844057		0.0798553		-0.514059		-0.821341		-0.296107		-0.479541		0.1266		-0.485481		-0.751759		0.983579		-0.490717		0.236931		-0.0411683		-0.0624147		-0.900817		0.895666		-0.0848785		-0.0339106		-0.330287		0.776429		-0.13029		0.0895734		0.7633		0.0217758		-0.137257		-0.827932		0.916049		0.5005		-0.579448		-0.470726		-0.0412223		-0.197212		0.410386		0.928891		-0.184373		-0.423003		0.384208		-0.919651		0.191202		0.344262		0.0155547		0.486956		0.254665		0.124292		-0.0458972		0.845266		-0.0722523		-0.379631		-0.0800012		0.71739		0.16531		0.545084		0.961563		-0.220838		0.507708		-0.587876		-0.432069		-0.40002		0.492993		0.00321996		0.582096		0.533756		-0.287262		0.444816		-0.750784		-0.234056		-0.791163		0.931172		0.645666		0.450227		0.478136		-0.0297617		-0.840679		0.317539		0.800095		0.395392		0.333957		-0.64655		-0.654919		0.00599432		0.704308		0.188393		0.464301		0.853377		0.311835		-0.00534171		0.834526		0.624551		-0.508946		0.748396		-0.1569		-0.772152		0.0771916		0.035668		0.331359		0.969113		0.633486		-0.672765		0.762495		0.111686		0.632615		0.856011		0.980387		0.650434		-0.164525		-0.500917		-0.359354		-0.789786		-0.202465		0.160681		-0.790662		0.737988		0.797772		-0.208266		0.622042		0.284823		0.18318		-0.302929		-0.367117		-0.812647		-0.9371		-0.219192		0.999184		0.556441		0.654074		0.196977		0.143472		-0.743827		-0.814745		0.291479		0.593483		0.787841		0.860294		-0.0567113		-0.437197		-0.720388		0.473513		-0.192882		0.147126		0.945932		0.00364482		0.0957088		0.862447		0.0567973		0.154712		0.161467		-0.754135		-0.0405783		0.382917		-0.631178		-0.794266		-0.562362		-0.883045		0.874169		0.542661		-0.97691		-0.228019		-0.939325		0.0695746		-0.0331649		0.583906		0.527263		-0.866703		-0.82489		-0.55019		-0.206223		-0.130442		-0.649608		0.530772		0.492735		-0.279132		-0.31283		0.367829		-0.0503728		-0.270624		0.590528		-0.696806		0.616702		-0.465939		-0.737811		0.490819		0.479406		-0.0149048		-0.281507		0.893734		0.0919634		-0.294269		0.701884		-0.819044		-0.309778		-0.88337		0.47072		-0.199842		-0.969849		-0.204631		-0.687401		-0.464608		0.445337		0.677189		-0.815639		-0.611467		-0.0227551		0.183372		-0.796358		0.71483		0.870953		0.0114182		-0.710612		0.226966		-0.765998		0.375808		0.701443		0.37333		0.666511		-0.14899		-0.842326		-0.34054		-0.843647		0.261069		-0.0219036		-0.202445		-0.713391		-0.544455		-0.682851		-0.984825		-0.89236		0.898947		0.291275		0.454042		0.409088		-0.666844		0.818065		-0.216739		-0.504017		-0.85193		-0.887701		0.615554		0.843624		0.531741		-0.594319		0.226848		-0.811252		0.603743		0.948624		0.897951		0.409019		0.929549		0.0969834		-0.156309		-0.921031		0.330127		-0.0253724		0.446024		0.739063		0.813807		0.0431652		-0.662308		0.620229		-0.485976		-0.582261		-0.388686		0.430342		0.390937		-0.0736775		-0.401919		-0.88468		-0.899756		-0.939688		0.558798		-0.239401		-0.516241		0.0548656		0.289427		-0.864928		-0.730726		0.343372		0.53137		0.568175		-0.676478		-0.120089		-0.789792		0.0688795		0.600896		0.843889		0.160664		0.142154		-0.420708		-0.0614554		-0.639358		0.00509953		-0.0736409		0.382028		-0.0797193		-0.89705		-0.0772349		0.84916		0.548239		-0.591591		0.265197		-0.373982		0.150946		-0.0666847		-0.607283		0.976219		0.0157419		-0.357878		0.092921		0.537753		0.608567		-0.697282		-0.429496		-0.0851366		0.773126		0.366625		0.933729		-0.544121		-0.754001		0.657821		-0.541466		-0.70463		-0.933887		-0.0954902		-0.708223		-0.830044		-0.356561		0.88264		-0.360987		-0.147237		0.628874		0.530983		0.262565		-0.427706		0.224331		0.808356		0.0454324		-0.857622		0.554791		0.194385		-0.275225		0.911888		-0.679854		-0.467536		0.610327		0.728549		0.494904		-0.949311		0.716388		0.726025		-0.206734		-0.565171		-0.800781		-0.821693		0.40761		0.246192		0.475167		-0.926199		0.488599		0.0579848		0.597536		-0.627399		0.804991		-0.0453113		0.93565		-0.453766		-0.0997511		0.598902		0.668221		-0.817527		-0.654304		0.730829		0.94958		-0.717733		-0.0794612		-0.563089		0.0743126		-0.3757		0.887037		0.222108		-0.355113		0.569224		0.8957		-0.656854		0.728135		-0.466365		0.578894		-0.961681		0.929413		-0.0733661		0.346399		0.578692		-0.278788		0.413388		-0.718626		-0.862784		-0.048727		0.269251		0.888509		0.668055		0.967684		0.96055		0.759568		0.623226		0.954966		0.295457		0.0465666		-0.321508		-0.373342		-0.074633		0.796602		-0.368972		0.629979		-0.670136		0.54001		0.143737		-0.671456		0.932687		-0.562658		-0.788619		-0.850186		-0.821239		-0.371746		-0.00424939		-0.748189		-0.7827		0.283569		0.828705		-0.146459		0.610931		-0.571977		-0.307194		-0.825125		0.663294		-0.0889945		-0.704317		0.987098		0.955306		-0.844275		0.631172		0.925388		-0.976509		-0.076274		-0.413759		-0.543586		-0.139632		0.717106		0.178251		0.758648		0.170236		0.0689665		0.566817		0.760898		0.562487		0.935333		0.867362		-0.948265		-0.155736		0.536234		0.783512		0.151678		-0.0182475		-0.74107		0.199479		0.152985		-0.924148		0		
