3		784		10		relu		softmax

89
0.504378		2.15648		-1.58217		-0.658282		-0.866848		-1.69067		0.446831		0.098447		0.504356		0.155332		0.317122		0.595506		-0.181922		-0.399487		-1.48162		0.170513		1.66071		0.670356		0.554251		1.3363		-0.524307		0.686364		-1.54241		0.559783		0.212054		0.045039		0.88477		1.24637		0.796533		-0.317142		1.04305		-0.0105819		0.531633		-0.150041		1.44866		0.510969		-0.584477		-1.42922		0.705391		-0.579777		0.65962		0.516532		-1.06516		-0.0582178		-0.92503		-0.225202		0.446229		0.80646		0.266076		-0.89197		1.30248		-1.87723		-0.751106		-1.5999		-1.6838		0.0787994		1.30744		1.23398		1.51647		0.948158		-1.00674		-1.08519		0.592878		-1.35118		1.45937		-0.89734		1.57119		1.47701		1.29197		-0.307979		-2.07586		-0.773334		-0.122126		-0.532453		1.03531		1.402		0.903332		1.44299		-1.91975		-0.307285		1.03731		-2.27332		1.4426		-1.0998		-1.52975		0.519329		-0.819828		-0.768132		1.14754		-1.16436		-0.209512		-0.93749		0.117297		-0.233266		-0.344038		1.07367		0.51786		2.23305		-1.59416		-1.79539		-0.372632		-0.632252		-0.0748829		0.248757		-0.321616		-0.67776		0.0634375		-1.07177		-0.463616		-0.559213		0.437181		0.197469		-0.164796		1.07796		1.02698		0.333921		0.265715		-0.776708		0.452286		-0.0584079		-0.819025		-0.801956		0.213409		0.611668		0.340906		-0.382126		1.02788		-0.625211		0.411873		0.206069		-0.387738		1.55568		0.529644		-1.05069		1.20444		1.52516		-1.22071		0.217475		1.5045		0.480252		-0.522515		-0.61987		-1.49614		1.00657		1.28645		-1.15796		0.249919		-0.883939		-0.678567		0.713006		-0.485469		-0.00332619		-1.29191		0.8125		-2.06309		0.708307		-1.54863		0.96494		-1.27155		0.375988		-1.15606		-1.44974		0.727277		-0.431859		2.20514		-0.490349		0.00482678		0.636041		-1.06761		-0.680939		-0.352524		0.968773		0.342202		-0.156868		-1.09228		0.874611		0.928268		-1.70818		1.2191		0.263189		-0.211635		-1.08094		-0.134671		-0.960731		-0.732975		-0.0132413		-0.743525		0.247602		-0.692794		1.08723		-0.327432		-1.67582		0.393802		-1.70501		-0.436326		0.0702888		-1.09682		-0.283789		1.19416		2.29859		-0.487511		0.734869		-0.201408		0.391713		-0.156361		1.0427		-1.10783		3.14821		1.40073		0.586738		-1.53662		0.0432063		-0.985209		0.484013		1.95778		0.757272		0.0410266		0.360721		-0.463563		0.300459		-0.449401		0.347446		0.199522		-1.3596		-0.429591		0.700189		1.53592		3.39672		-0.0549171		0.179307		-0.518343		-1.02774		-0.543751		-1.29036		-1.04678		0.041886		-1.07974		-1.7526		2.13187		0.289829		-0.43887		0.130272		1.63942		0.667312		0.19395		-2.32914		1.27883		-0.17651		-0.491356		-0.230921		-0.0123129		-0.592237		-1.30052		0.834001		-0.886158		0.570086		0.731541		1.65846		0.00255553		-0.261293		0.775386		1.47557		-0.0706346		-1.00139		0.716887		-0.864679		-0.772925		-2.02417		0.489191		0.0549185		1.45112		1.13434		-0.45254		-0.263105		-0.280652		-0.670285		-1.17128		0.720061		-0.402997		0.998791		0.365783		-1.67153		0.250826		1.98603		1.34637		-0.759536		-1.2427		0.603222		0.58204		0.112184		0.398328		-0.16902		-1.52735		-1.80813		2.06291		-0.708047		-0.383536		-0.210006		-0.206383		-0.404262		-0.970973		-0.363648		-0.39091		0.134771		0.651594		0.946567		1.61417		-0.575739		-0.717977		-0.122286		-1.69079		-0.756194		-0.261025		0.973949		0.980681		1.48597		0.376338		-1.65892		-0.197477		0.426713		0.797176		-1.21823		0.017802		-0.785461		0.724438		1.12845		0.447205		-0.938281		-0.562803		-1.38861		-0.452897		-1.51732		-0.275688		2.19484		-0.189989		1.81698		-0.618838		-1.29207		0.0856705		1.41282		-1.8952		0.621457		-0.412688		0.0899112		0.160428		-1.76401		-1.01949		-1.98607		2.11775		-0.37598		-0.601629		0.449645		-1.55101		-0.363975		0.367647		-0.126947		-0.312224		-0.143219		0.212468		-1.15178		0.278546		1.0514		0.36773		-0.902952		-0.06472		0.201279		0.418238		-0.936509		-0.239968		-0.574971		-0.0940348		-0.938616		-0.784816		0.399693		0.987861		1.54978		-0.153502		-0.15793		0.1796		0.66993		-0.0861192		0.624028		-0.419401		0.748178		-1.81776		-1.82686		-1.3885		-0.768983		-0.378954		1.01285		-2.87207		-1.40973		0.343088		-0.00653843		-1.24351		-0.871836		-0.59116		-0.175199		0.389341		-1.49162		-0.35595		0.176142		0.504078		0.434151		0.732367		-0.524021		0.611055		0.856683		0.57834		0.59097		-0.867158		-0.337801		2.50873		0.845562		0.125767		-1.35839		-0.457763		1.73485		-0.200364		0.233003		-1.23771		0.430187		-0.454692		-0.447644		-0.586281		-0.579204		0.565068		0.497275		-1.13979		0.942723		2.39811		-0.158903		-0.734379		-0.105711		-2.56304		1.0476		-1.99823		-0.859454		1.20794		0.406291		-0.386477		0.280705		0.491307		0.43064		0.585057		1.94529		0.230093		-0.0224221		0.802738		-0.651258		-0.779503		0.471697		0.110004		-1.63866		-0.103606		0.57522		0.986826		0.720676		0.582601		-0.876359		0.252641		0.498415		2.4923		0.818102		0.385175		0.2165		1.97921		0.656906		-0.492578		0.202531		0.935175		-1.72871		-1.64887		-0.895751		-1.26156		0.380281		0.207096		2.48347		0.331111		0.107575		0.167915		-0.62218		-0.178923		-0.568265		-0.505813		0.302535		0.608542		0.87561		-0.281088		0.981172		1.0422		0.325307		-0.491166		-1.95109		-0.143235		-0.0195419		1.85546		0.831628		-0.139475		1.70393		-0.561529		1.78807		0.708818		1.75341		1.08735		-0.285625		-0.25469		-1.51235		-1.08962		-0.0701092		2.17322		0.0700844		-1.02709		-0.366211		-0.373832		-0.250985		-2.00984		0.801126		0.88321		-1.31899		-1.16564		1.65557		-1.03091		-0.0750554		-0.319822		0.156274		-0.45423		0.180288		1.0315		-0.164176		0.190171		-0.906568		0.39636		-1.75679		0.590044		0.0368431		-0.494035		1.06648		1.46327		0.814371		-0.300351		-0.945044		0.611737		-1.59803		-1.58156		-0.404169		1.52848		-0.310924		-0.459415		-1.28507		-1.65781		1.83694		0.224432		0.506582		0.105194		2.02564		0.977261		-0.751527		0.72882		-0.685718		-0.132258		1.78153		0.992564		-0.819016		1.28033		-1.66551		-0.000917824		-0.564777		0.202437		0.15302		1.11234		0.0601621		-1.02211		-0.542661		0.425532		-1.22163		1.28532		0.549274		-0.595133		-0.188955		-1.0195		-0.128509		0.538354		-1.54927		1.11471		1.00063		-2.5813		0.636299		1.07466		0.348435		-0.775735		1.45565		-1.08573		-1.33892		1.57735		0.79295		-1.27837		0.908706		-0.853396		0.100529		-1.27476		0.731548		0.148118		-0.18687		0.650467		0.859205		0.83762		0.37577		0.315183		0.486247		-0.199849		-0.987094		0.659389		0.0203341		-0.137497		2.04449		-2.24719		1.12503		-0.535577		0.923336		-1.63707		-2.15714		-1.08637		-0.358107		1.78394		-0.438507		2.1901		-1.18188		-0.147853		0.0859393		0.0706223		0.0230749		0.336256		1.33783		-0.823011		2.051		-1.53589		1.44083		-1.86341		-0.674302		-0.169673		-1.87451		0.997613		-0.204813		-0.196007		1.89878		-0.561196		1.09297		0.116633		-0.733331		-1.28178		0.0548733		0.91277		-1.66714		1.08671		1.33138		-0.0218014		-0.0335109		0.60486		-0.13551		0.543444		0.075475		-0.659009		-0.37877		-1.16059		-0.196084		-0.34576		-0.293817		-0.343753		0.292468		-1.7827		-0.431313		-0.12672		0.444218		0.740283		-0.694246		-1.11598		-0.426796		-1.47704		-0.307728		-0.65072		-1.7947		0.0514204		0.747441		0.848735		0.0558269		1.27075		0.331186		-0.353165		0.849246		0.391873		-1.84093		-0.13861		-0.39034		1.11883		-0.632147		1.55668		0.70135		0.718208		-1.77495		-0.850838		0.593835		0.514017		-0.561879		-1.19223		-0.223115		-0.621024		-0.0698493		0.541347		-0.278278		0.0690735		0.25893		0.571797		1.02901		-0.917205		0.26554		-1.01124		0.276559		0.513373		-1.74031		-0.387624		0.279607		0.553973		1.27945		0.236479		-0.781244		0.886406		1.44464		-0.0519618		-1.30374		0.680397		0.808195		-0.102844		1.51691		0.719657		-1.08406		1.96712		-0.715132		0.980527		2.1569		0.548905		-1.25736		1.69477		0.636419		-0.814992		-0.210969		-0.184193		-0.324198		-0.275997		0.412881		-0.42148		1.66967		-1.52366		-0.585725		-0.0249263		-0.60891		1.74749		0.736714		-0.534083		-1.36187		1.51049		0.696295		-0.412469		1.29129		-0.188638		0.0375829		-0.668592		1.03551		-0.181313		-0.267004		0.564157		-1.93972		0.171446		0.301147		1.02337		2.05309		0.0224704		1.09929		1.14553		-1.4962		0.51129		-1.18525		0.00433736		-0.95558		0		
-1.81865		0.182349		0.885601		-0.457872		0.955184		0.0116763		-0.950606		3.06481		0.154897		0.965425		0.802957		1.48406		1.3591		1.05808		-0.302921		0.541659		-0.564787		-2.85074		0.139881		0.259212		0.0435729		1.52693		-0.835249		0.198424		2.09465		-0.357086		0.294932		-0.413477		-1.70941		2.05122		0.971714		-0.433426		0.282134		-2.07531		-0.0974742		0.477089		0.127251		-1.34651		-1.40241		-0.348914		-1.34329		0.348911		-0.809677		1.28941		1.18712		0.618023		-0.6156		0.399989		0.413929		0.0383605		-0.0123954		0.274297		0.210702		0.138136		0.10149		-1.72325		-0.45433		-2.25472		-1.633		0.601539		-0.472167		0.297096		1.65261		-0.073977		-0.489362		0.381751		-0.761608		0.985289		-1.64173		0.0366661		-2.48266		1.86287		1.22225		-1.22196		-0.0950758		1.83967		1.9991		-0.177378		1.03582		0.160919		0.45464		-0.44048		0.0688226		-0.624066		0.77203		0.597599		-0.75744		2.56671		0.447835		1.57051		1.02648		0.0720562		-0.538729		-1.4698		-1.87355		-0.742808		-1.31752		-0.282262		-0.749696		0.299954		0.422967		-0.0794029		-0.028551		-0.126822		0.428865		1.55467		-0.395021		0.227396		-0.0950063		-0.195311		0.361131		-0.560904		-1.0486		-0.583679		-0.467544		0.0214601		0.190108		1.10861		-1.63357		-0.0462298		0.845926		0.38958		0.952398		-1.19491		0.904808		0.34725		-1.72379		0.7554		-0.136796		-1.35809		1.3333		1.07753		0.00659143		-0.468214		1.09195		-0.428949		1.43386		-0.993512		0.477067		0.809227		0.660986		0.206502		2.22657		-0.941357		1.38814		-0.293946		-2.25097		-0.0938788		-1.38326		0.666926		-1.72256		-0.865873		-1.25266		-1.0354		0.121923		-0.771936		1.31334		-0.213022		-0.613403		0.987829		0.663947		0.755335		1.07363		0.310406		0.340014		0.829034		0.427822		0.0836125		0.148083		0.806324		0.443692		-0.910073		-0.382159		-1.9492		-0.863475		-0.503485		0.456822		-0.699123		0.268118		-0.137359		-0.700412		-0.410324		0.810386		0.0267073		0.0730186		0.674924		-1.77154		0.954857		-0.491365		0.000597995		0.452772		-0.26849		-1.2206		0.169518		0.642185		0.426103		-0.201738		-0.527744		0.251767		-0.717487		1.49824		1.02075		0.581415		-0.502491		1.50481		-0.295364		1.78817		-1.13887		1.19221		0.548303		-0.929492		-0.772061		0.443144		-0.13313		-1.65247		1.2776		1.22784		0.944401		-0.383688		1.36851		0.739402		0.852889		-0.461011		-3.07025		1.77001		-1.90623		-0.292215		-0.436954		-0.800773		1.00563		0.842428		-0.75272		0.845995		0.804788		1.81699		-0.31253		-0.882912		-0.674762		-0.799912		-0.376683		2.65891		-1.93638		-0.278288		1.91209		-0.4067		-0.286533		-0.289211		0.947593		-1.39843		-1.62841		-1.90276		-2.0297		-0.0102479		1.9537		0.612312		1.19541		1.23131		0.25804		1.41283		0.538857		1.25311		1.45374		-1.50378		0.601418		0.401277		0.756379		-2.41688		-1.21855		1.98743		-1.04359		-0.268131		1.85256		0.899413		-1.07076		-0.241535		-0.185245		0.792761		1.49571		-0.953372		0.935535		0.463141		1.10312		0.824431		-0.385		-0.714026		0.42114		0.603774		0.0109865		0.234159		0.367559		0.852513		1.38314		-0.0327677		-0.820275		-0.133584		-1.70961		0.241426		1.80069		2.39315		-1.09229		-0.699521		-0.901684		0.156011		-0.480627		0.201176		1.39898		2.01919		-0.193437		1.48425		0.665621		0.792455		-0.250717		-0.168811		1.79807		-2.11938		0.563861		-0.287522		0.494258		0.760776		1.63081		0.795361		0.786329		0.381902		-0.951646		0.720914		0.602012		-1.11276		-0.3018		0.568889		0.963887		0.825688		0.510049		-0.334728		2.39774		-0.982947		-1.04807		0.6874		-1.49983		-1.14981		-0.286529		-0.321855		-0.126689		0.209289		2.34094		-1.93879		0.40688		-0.0217047		-1.23741		0.0082721		-0.473212		-0.016665		-0.404575		-0.166815		0.648456		-0.328578		-0.224262		1.19185		1.25392		0.352221		0.793822		0.572341		0.728721		-1.8248		-1.27313		0.0500482		1.12934		-1.51488		0.307625		-1.01267		-2.02019		-0.78115		1.19204		0.484057		0.395814		0.516055		0.492278		-0.222124		-1.60598		1.06528		-1.01207		-0.0828771		-0.511143		0.385499		-0.608121		-0.846247		-0.502809		0.0978289		-1.10785		0.161839		1.32122		0.598037		-0.299325		-0.309815		-0.29882		1.18069		0.805557		1.3053		-0.519809		0.0216591		0.107689		0.379554		0.553645		-0.0242133		-0.66255		-1.10156		-1.03195		0.725787		-0.624322		1.08082		0.0397407		0.87729		-0.718867		1.42432		0.304265		-0.414814		0.755147		0.268891		-0.45977		0.329475		-1.20987		-0.307647		0.147085		-1.29544		1.9281		1.46519		1.28746		-0.182902		-1.24192		-1.45425		1.52124		0.380426		0.88747		0.487967		0.754355		-0.295567		0.731656		0.465645		-1.74325		1.06927		-1.55749		-1.34264		-2.01684		1.8707		-0.773115		0.369256		0.648171		-1.28748		-0.303792		-0.324375		1.58686		-0.090187		-0.446445		0.393903		-0.22495		-0.631137		-0.508868		0.212566		0.393178		0.662886		-0.204025		0.412583		-2.2208		-0.274826		-0.838717		-0.259619		-2.53306		0.597733		-0.770323		0.250677		-2.27987		1.19775		2.15757		0.0332485		-1.05978		-0.661167		-0.708647		0.14236		3.87698		-1.06551		0.587633		1.15502		-0.734125		1.6451		0.565495		-1.82778		1.58102		0.988161		-0.790924		-0.956589		1.97799		-0.309588		0.304469		0.979483		-0.216043		-0.5427		1.14679		-1.02042		-0.315954		0.131768		1.0183		0.0697711		0.244695		0.932477		0.860573		0.905465		0.338805		-1.11268		-1.02363		-0.794123		-0.506246		-0.734125		0.610999		1.24132		0.293322		-2.34154		-0.928438		1.52614		-0.0180291		-0.0958119		-0.851437		-0.20479		0.790779		0.296435		0.248945		-1.0557		-0.65995		0.0473368		0.324601		0.284912		-0.0230971		0.0135898		-0.204049		-0.162161		0.260535		-1.13511		0.328587		0.0639848		-0.963763		-1.07404		0.668171		-0.538732		0.583434		-0.922233		0.680297		-1.38753		0.460879		-0.578154		0.0792468		-0.438376		0.842709		-1.06745		-0.610233		-0.484472		-1.16002		-0.541815		-0.910737		-0.452648		0.507119		-0.448566		0.735208		-1.3234		0.876112		-1.56935		-0.374842		-1.0261		0.00579208		-0.0473629		-1.31271		1.36909		0.998605		-0.769444		0.177076		0.366583		-0.543875		0.510385		-0.194873		0.500776		0.356706		-0.245688		1.22681		0.574641		0.448592		0.0541464		1.24609		1.8226		-0.581658		-0.62603		-1.07093		-0.533404		-0.116594		-0.222733		-1.37248		-0.245785		-1.69317		0.506927		-0.870071		1.46246		-1.23841		-0.468224		1.56351		-1.09289		-2.1227		0.116992		1.07757		-0.917478		-0.726788		-0.243478		-0.60089		0.125262		0.276132		-0.960966		1.21026		-1.04338		1.0086		0.343756		0.0772737		0.197648		0.473668		0.60848		-0.2302		-0.426597		-0.483008		-0.122236		-1.0776		0.703061		0.808795		0.583911		0.08998		-0.595128		0.0451898		0.637935		0.217813		0.968166		0.0775262		-0.995885		0.0836766		-0.692527		-0.847885		0.804681		-0.0289017		-2.31779		-0.48182		1.95044		0.0469318		0.941748		-1.62673		-0.0832458		-0.749366		-0.622409		-0.742887		-0.0289905		-1.57056		-0.971831		1.50031		0.198787		0.467631		-0.681543		0.0510561		1.21112		-0.0881301		0.540621		0.672867		-0.884498		1.62009		0.0259497		0.144982		-0.0664253		-0.236714		2.17157		-0.419241		-0.812866		-1.1196		-0.500957		0.17135		1.49971		-1.65198		0.848756		-0.944675		1.12701		-1.80344		0.72094		0.726633		-0.0136026		0.363496		0.130277		-0.65451		1.87345		-0.467535		0.864399		-1.05264		0.553551		-0.0179068		-0.232796		-0.608282		1.1558		0.281145		1.94799		0.420942		-0.871058		1.39494		-0.634584		-0.289645		0.0168803		2.96395		-0.00619057		0.314651		1.06768		-0.339622		1.12838		-0.125284		0.835214		0.39597		-0.532252		1.80205		2.7042		-0.836313		0.752554		-0.607253		-0.83068		-0.237014		0.680792		-0.543862		-0.926114		0.700627		-0.685273		-0.0864324		0.807779		0.769389		0.474389		0.117846		0.739502		2.03357		-1.54359		-0.603751		-0.355932		0.471975		1.96034		-1.834		-2.05938		0.310437		-0.803504		-2.13179		2.28849		-0.608635		-0.248566		0.823482		-0.846652		-1.23161		0.402958		-0.978812		-0.34878		1.59441		-0.0576874		-3.27438		1.37496		-0.144936		1.50802		0.818126		0.376455		0.932636		0.825406		-0.47465		0.542975		-1.26528		0.623186		-0.689701		-1.0827		-0.571212		-1.26802		-0.416472		0.00196285		0.713283		2.02233		-0.329749		-0.215087		0.615453		-1.31316		-0.851165		-2.78125		-0.53067		-2.08525		-1.23372		1.50421		-0.941451		0		
0.564964		2.16131		-0.639858		-0.403204		-0.817625		-0.539201		2.4603		0.853589		2.03811		0.977162		0.149467		1.82948		-1.01713		-0.729414		-0.0357362		0.634354		0.960944		1.90938		1.69852		0.260033		-0.420569		1.40003		0.436132		0.77559		-0.676801		-2.16391		-2.74509		0.0190037		-0.349788		-0.111083		-0.0287335		-1.07234		0.326799		0.734066		0.409634		0.716673		0.0759603		1.2222		0.759938		0.355014		0.112499		0.676207		0.375098		-1.28515		-1.83391		-0.583419		0.423414		-1.69515		0.273636		-1.01761		-2.07077		0.0202879		0.531123		0.230878		-0.359032		-0.322498		0.412451		0.483247		-0.391094		0.771626		-0.837356		-0.200108		-0.636827		-0.446138		0.67648		-1.53234		0.78666		-0.471615		-0.753574		0.241627		0.754334		-1.18699		0.189721		2.22752		-0.413705		0.170438		0.652906		-1.09556		-0.160515		0.320234		-0.411061		-0.0463607		-1.86324		-0.527294		0.0557087		-0.457443		0.832922		-0.521796		0.0677438		1.0202		-0.230501		1.206		-2.13712		0.453753		1.935		0.0391026		1.93299		-0.378563		0.770761		1.85343		-1.62449		0.45478		-0.674344		-0.689759		0.324977		-1.00517		-1.41149		-0.317839		0.362739		-1.32103		-0.23231		0.522274		-2.18271		-0.329969		-1.18148		1.63111		-0.128457		-1.03791		-0.0962161		0.485865		-1.43142		0.34188		-1.55487		0.299973		-0.582413		0.758727		-0.736194		0.961725		-0.225812		0.333975		-0.217723		-0.639949		0.836903		0.172104		1.25921		1.94441		0.481463		1.51117		-1.52024		-0.756327		0.120086		-0.600174		-0.39241		-1.17927		1.2191		-1.50589		-1.54925		1.96024		-0.744078		-1.14802		-0.289737		1.23971		1.15475		-1.45987		1.19001		0.723739		-0.0883133		-0.213757		1.6983		-2.14381		1.28176		0.760386		0.129121		0.438209		0.983071		-0.392516		0.608182		-2.10495		1.54639		-1.82366		0.971315		-1.22457		-0.916648		-0.484689		0.648608		-0.803697		-0.8036		0.0749536		1.40715		0.120583		1.34471		0.964164		-0.376775		-1.6888		-0.772354		-1.02419		1.47183		0.0117866		0.51469		-0.716091		-1.08525		1.11954		-1.66979		1.83577		-0.102507		-0.535839		-0.415211		1.17924		0.468695		0.306523		0.240095		-2.18444		-1.0578		-0.53378		0.82144		-0.592516		-1.36957		1.00896		0.57153		1.1179		0.0400216		1.07532		0.17426		0.580705		-1.78763		-0.647044		0.349231		-0.576447		-0.97113		-1.31827		-0.512402		-0.603733		-2.31376		1.16628		1.02908		-0.281004		0.335432		-1.69147		-0.874435		0.91972		-1.13906		-0.573079		1.15969		-0.155436		0.399269		0.884798		0.489402		-0.778006		0.593837		0.663596		-0.554496		1.57051		-1.88429		-0.506789		0.595345		2.64095		0.169396		-0.257609		-0.23988		0.729243		1.07646		0.727651		-0.619701		0.0474716		-0.427407		0.546502		0.547889		-0.0153051		0.755245		-0.396228		-0.236706		0.772664		0.213352		-0.781098		0.304604		0.97298		-0.117168		0.577085		0.543321		-0.313338		1.41193		1.95353		0.689854		-0.505403		-1.76006		1.03264		2.26816		-1.19102		-0.943936		0.774911		1.26271		1.39661		-0.125749		-0.592737		-0.664715		1.21255		-1.83031		0.878287		2.00072		-1.09294		0.221887		0.892432		0.910263		1.54008		1.29783		-1.20442		-0.389868		0.592603		0.27807		-0.454973		-1.62983		0.0581552		2.22861		0.114946		-0.995638		0.148392		-2.5686		1.13863		-0.70634		-1.00948		0.208148		1.1266		1.00373		1.9296		2.18071		0.888854		-3.34826		0.0143289		1.182		1.73134		0.262181		-1.16453		1.45607		-1.2107		0.677234		0.442599		0.459866		1.21532		-1.54551		-0.350298		0.106075		-1.06447		0.117512		1.08133		0.195202		-0.489515		0.991632		-0.0764668		-1.02009		0.394083		0.702315		0.0591659		-1.73799		2.68373		-0.39082		-0.568407		-2.12641		-0.0180173		1.22074		0.854973		0.805906		-0.552914		-0.361391		-1.10871		-0.869781		2.02478		2.30724		-0.468725		-1.27799		-0.863079		-0.962337		0.203523		-0.912167		-0.405653		1.36495		0.34122		1.19777		-1.39817		-1.30393		-0.212422		-2.03284		-0.777515		0.589934		-1.41801		-1.64696		-0.31429		0.28441		-0.948862		0.10345		-1.51864		-0.338207		0.127057		2.53662		-0.532093		0.741847		1.19289		1.99376		-0.402123		-1.31847		-2.02412		-1.02159		-0.149359		1.76304		-0.735114		0.766099		-1.6071		0.352087		0.564865		-1.82209		0.143292		1.40863		0.52663		-0.479421		0.445702		0.479481		0.0909448		0.689804		1.51146		0.470298		0.407658		0.121813		-0.0991613		-0.356328		-0.981355		-0.640213		-1.07923		0.560055		-1.03167		-1.33844		0.218626		-0.504359		-1.72233		1.31997		-1.12926		-0.123356		0.333153		-0.39792		0.27516		0.593686		0.486867		0.672204		-1.84591		-1.14088		-1.92476		0.256096		0.370222		-0.729808		0.940878		-2.01861		-0.118196		1.28601		-0.752826		-1.37685		-0.373964		-1.37338		-2.04463		0.0314217		-0.189001		-2.57023		0.244918		-0.241915		1.41328		-0.597979		0.418541		-1.24404		1.23515		1.82515		-2.1473		1.11572		0.423213		0.538291		1.89777		-0.724461		1.02642		-1.15296		-0.930215		-0.270457		-0.465093		-0.588743		0.361724		-0.597401		-0.822314		0.379322		0.0972404		1.06002		3.18864		1.02197		-1.6367		-0.941509		-1.25673		-1.2542		-0.287966		0.98746		0.654474		-1.12727		1.5169		-0.354117		1.40055		-0.96343		0.304767		0.449483		0.645381		-0.555244		-0.249485		-0.321702		1.9437		-0.099536		0.399177		-0.62871		0.810174		2.0213		0.597299		-0.0146719		1.21106		-0.165986		1.31765		0.613557		-0.479513		-1.4225		-0.21821		-0.411315		-0.296998		-1.36506		0.548247		-0.0774164		-1.09498		1.91306		0.66107		0.0469864		-2.07692		-0.395336		1.23427		0.40399		-0.821179		-0.3349		-0.870949		-0.26864		-0.946637		-0.926765		0.544316		0.855047		-0.22589		0.179961		0.660982		0.68725		1.37247		-0.0641166		-0.692005		0.577893		1.33799		1.18963		-0.601954		-1.52613		0.255072		-0.614081		1.33454		-0.526326		0.0657164		-0.880085		-0.792133		-0.0805264		-0.554447		0.361854		0.856376		0.486139		-0.494869		1.63742		1.22027		0.165993		1.93727		0.774584		-0.331285		0.555101		-0.0898689		0.314999		1.66293		2.08464		-1.86708		1.522		0.0667707		0.745136		0.267733		0.167727		-0.0125363		1.35249		0.310649		0.948256		0.720677		-0.986478		-0.218535		-1.57965		1.88887		-1.55101		-0.923072		-0.905061		0.981121		1.63237		-0.0643389		-1.55281		-0.651546		0.0685441		-0.274494		-0.967164		1.92131		2.19579		0.0337901		1.94393		1.10971		0.0827998		1.16836		1.35617		-1.58885		0.389008		0.302918		-0.194074		0.283391		-1.52861		0.294267		-0.645152		0.0487654		-0.686056		-1.32147		-1.32913		-0.0703752		1.57328		-0.597369		-0.136988		0.00645401		0.0986504		-0.0935946		-0.719782		-1.71145		-0.667343		2.29533		-0.507242		-0.625501		0.793577		0.398259		0.32269		-0.189695		0.799702		-1.48468		-0.421923		-0.112118		0.427014		0.588942		-0.160204		1.10171		-1.10747		0.44404		-0.0441121		-1.87713		-0.751012		0.599506		-0.538021		-0.241496		1.79846		-1.82646		0.755921		0.39666		-0.679643		0.841094		0.0710081		-1.51883		0.0875795		-1.09173		-0.633539		-0.188039		2.09423		-0.81292		-0.746217		1.84382		-0.508507		0.906404		0.357204		0.312375		-0.733687		-0.512803		0.7043		-0.154403		0.18347		-2.85185		-0.452924		-0.0284493		0.552931		1.00181		-0.0328808		0.580254		-0.631512		-1.38506		-1.32211		-0.338497		0.731406		-0.342124		-1.72128		-0.125741		-0.324632		1.64144		-0.371013		0.895538		-0.507669		0.369881		1.02144		-0.0534428		0.0354356		-0.0302231		-0.545804		1.35471		-1.49767		-0.18531		0.208152		0.252684		0.225533		1.41335		-1.40502		1.58119		0.937509		-1.53563		0.499826		2.17608		1.40508		-0.819798		0.737428		1.07584		-0.235827		0.109803		0.328313		-0.363967		-0.0647367		1.92913		-1.22646		-1.50138		0.566974		-0.681105		0.972875		1.5841		1.14155		0.70842		-0.0893494		0.624251		0.579878		0.0543532		-2.66251		0.569097		1.39698		0.193097		1.19029		-0.42518		0.0766608		0.396913		-0.334583		0.894325		-0.50769		0.109455		-1.05556		0.800448		0.791731		-0.35247		1.45516		-2.5219		-1.16015		-1.08507		0.208325		0.134357		-0.0116668		-0.257026		-0.402294		-1.52724		1.20777		-0.669575		-0.0668534		-0.0697066		-0.263857		-1.25238		0.553163		-0.440409		0.00265452		1.03709		1.14726		1.028		0.645571		0.244622		0.0118473		-0.22426		1.59887		0.295856		-0.713166		-0.414427		-0.911522		0.60007		1.06498		-0.898505		-0.811462		1.69886		0		
1.02338		0.239339		-1.41357		1.6079		-1.13823		1.5921		1.21543		-1.64111		-0.290064		-0.688334		-1.18144		1.1224		-0.535124		2.14043		0.471994		0.326287		0.182978		-0.348509		0.078062		-0.163443		-0.747816		0.470213		-0.650875		-0.495937		-0.508188		-1.68224		0.657957		-0.119858		0.87373		-2.09884		0.695238		0.16547		1.01336		-1.41571		-1.38048		-3.0009		1.2988		0.134024		-0.0516953		1.26717		-0.653134		0.269428		-0.339227		1.30579		-0.153547		-0.705904		0.87345		1.51011		1.01483		-0.747289		0.568154		0.356895		-0.568159		-0.191866		-0.0109732		0.46542		-1.33643		-1.24116		-1.01696		0.30241		2.45345		0.95351		0.967178		1.95185		1.34062		1.0101		-0.351934		-1.12903		1.09569		-0.570385		0.838092		0.822983		0.50721		0.738731		0.543072		0.566606		0.806245		-1.1879		-2.19724		0.371683		0.414009		-0.0485446		-0.149446		-0.105959		-1.57767		-1.02278		1.18542		-0.099013		0.545796		0.0458987		0.864244		-0.195729		-0.24311		-1.28406		-1.62513		-0.432151		0.62857		-0.633527		1.121		1.74804		-0.589536		1.12601		-0.878966		0.0782901		-1.38196		0.775607		-1.06276		0.532816		-0.0265777		-1.18007		-1.02767		0.634858		-0.476796		0.409921		-0.192095		2.12271		-0.289056		-0.229419		-1.7965		-0.52803		-0.228416		-0.828496		-0.095914		-1.50409		-0.307746		-0.886217		-0.611476		-0.209646		0.126411		0.777996		1.76379		1.05947		0.325499		0.741212		-1.22003		-2.06833		-0.761625		-0.929466		0.135333		1.45306		0.344375		-0.179088		-0.381995		0.525265		1.02171		-0.82326		0.487362		1.29787		0.883153		-1.35957		0.666914		0.249673		-0.813158		-0.324086		0.412968		-0.962408		1.84508		1.55482		-1.32398		2.10458		1.3312		0.200615		-0.263624		-0.0290869		0.317503		-0.827079		0.0605957		-0.320364		-0.07829		-0.270302		-1.7785		2.31966		-0.792999		-2.37139		-1.11653		1.88419		-0.300696		-0.326647		-0.41115		-1.10883		-0.492963		0.0432661		0.392019		-0.234199		-1.05799		1.3691		-0.602849		1.86621		-0.312711		0.201483		1.02823		-0.440838		-1.56599		0.0708785		0.755926		0.445387		0.223789		0.608637		-0.209453		0.183256		-0.689565		-0.787482		-1.74624		-1.36959		0.147169		1.35342		2.16138		-0.0807906		0.0119028		-0.461662		0.0827546		-0.524712		-1.33417		-0.027292		0.347129		1.06739		-0.127256		0.565441		1.65505		1.71333		-1.20693		1.05548		1.49015		2.12964		1.41975		0.548717		0.563513		1.43512		0.237574		0.331122		0.306518		-1.55871		-0.952751		-0.528404		-3.50015		0.385841		-1.76204		-0.144118		0.206454		0.263018		1.00327		-0.605865		1.69402		-1.37073		-0.952584		-0.530907		0.832498		0.401357		0.73809		-1.75659		1.26632		-1.78665		1.54073		-0.44862		0.0489888		-1.46084		0.197293		-0.07899		-1.18534		-0.968985		-0.782248		-1.12312		-1.95481		-0.630757		1.27962		1.91238		-0.0109957		-0.297241		-0.25102		0.0129638		1.59611		0.279618		0.631196		-0.147137		-2.72511		-1.53498		-1.03806		-0.263699		-1.84143		1.83785		-0.976005		-1.34407		-0.428327		-0.311531		0.970496		-0.803197		-2.50662		-0.477553		-0.289219		-0.35816		-1.1845		1.16509		-0.232935		-1.21061		1.66756		-0.706248		-1.72369		0.667956		0.244844		0.962727		0.36255		1.0218		-2.00897		0.368852		-0.329127		0.756498		2.47232		-0.0738824		-1.39497		0.484543		-1.0931		0.208979		0.655398		1.72386		-0.972377		-1.29256		-0.124079		-1.22667		-1.25975		1.14778		-0.782215		-1.1595		-0.974507		-0.560844		-0.837802		-0.215045		-1.00715		-0.416119		-0.72879		-1.47408		1.0763		-1.18132		2.40871		-0.0916069		0.281621		-0.804844		-0.218647		1.17276		-0.605914		1.0634		0.364918		-0.181637		0.937548		-0.555969		-1.68212		0.425963		0.172989		1.21422		-0.950309		-0.751121		0.786465		1.41477		0.413044		-1.34218		-0.715543		-0.619828		1.99652		-1.23056		0.0122102		-1.7102		-1.68928		0.255397		0.0780092		-0.031678		1.79703		0.590198		-0.873494		1.14838		0.648456		-1.03435		0.961939		-1.03306		0.314216		-0.53195		0.528394		0.693203		-2.01604		0.415071		0.0834097		-1.04235		0.45338		2.16627		-0.505378		-0.475471		0.236675		-2.81585		2.26417		0.828712		0.136477		-0.215224		0.384611		-1.4688		0.0720917		-0.0839977		-0.959607		-0.105778		-0.745097		2.08492		0.0717717		0.497715		-1.63366		-0.98409		-0.602802		0.917151		0.363956		-0.698088		-0.667469		-1.20724		-0.579879		-1.3811		0.227422		2.0349		-0.642841		-0.575702		-0.034237		0.566234		0.58363		-0.423426		2.25404		-0.201711		0.530942		0.706124		0.431095		-0.930961		-0.689057		-0.712684		-0.810237		-0.466204		1.9776		0.903612		0.980532		2.91569		0.688015		1.28727		-0.0420118		0.829328		-0.0499945		-0.478882		-0.176218		-0.126084		1.20855		-1.1562		-1.25238		0.736209		0.703456		0.687249		0.475279		-1.0528		-0.240635		1.76657		2.05111		0.21867		1.10053		-0.947723		-0.626769		0.331718		-1.7514		-0.05198		2.68887		1.44709		1.10108		0.174955		1.99226		0.302632		0.440316		-1.02875		2.18444		0.741899		0.562868		-0.0740528		0.294414		-0.080435		0.997747		-0.281966		-1.55654		1.02499		0.0815369		-0.0927884		-0.543709		0.383064		0.4467		-0.59738		0.456456		-0.188964		-1.06458		-0.553009		-2.26007		-0.0974339		0.246681		-1.80603		-0.818901		1.1143		0.683796		-2.57049		-0.273391		2.09119		-2.44298		-0.270881		1.45008		0.100729		-0.2427		0.189015		1.12553		-1.80118		0.585152		-1.99164		0.577337		0.612192		-0.781036		0.925962		1.19423		0.225219		-0.984986		1.33337		1.62811		-1.76637		-0.00124738		-1.02705		0.25305		-1.09714		-0.703824		0.424188		0.723251		0.642749		0.623365		-1.67584		0.0242529		-1.1035		-0.914645		-0.271619		-0.996117		0.935085		2.19921		-1.80229		-1.10067		0.913814		-0.417857		-0.734091		0.145023		0.501022		0.668491		-1.24013		0.236033		-1.71634		-0.0597502		-1.64355		0.411929		-0.385376		-1.17171		-1.06826		0.307034		1.68775		0.627389		-0.663887		0.368382		-0.0184247		-0.195197		-0.0973422		-0.453514		-1.23147		0.33335		-0.66206		1.41788		-1.7082		-2.60961		0.877721		0.77269		0.212852		-0.81386		0.0381205		1.41346		-0.923562		0.984579		0.566993		1.62923		0.534927		0.956841		-0.799142		-0.609385		-0.211211		-0.786931		0.389456		0.47133		-0.322227		-0.6567		1.28421		0.888642		-0.140024		-0.737884		-2.30106		0.501093		0.474297		1.00018		0.893765		-0.460822		-1.62799		-0.517783		0.387904		0.257818		-0.784598		0.147508		0.285996		-0.746701		-1.18761		0.551969		-0.197898		-1.22601		-1.31634		-0.497444		-0.202094		-0.772788		-1.09546		-0.701199		-0.376045		0.0808757		-1.10744		-1.16184		-1.12927		-1.36845		0.399677		1.60225		-1.18574		0.861301		0.590772		0.695641		1.80837		0.71665		0.167226		-1.16554		-1.05288		-1.06172		0.0149094		-0.159256		-0.363621		3.3902		1.13074		-0.542352		1.19892		-1.21054		-0.190731		-0.0773749		-0.75895		0.0765118		-0.392808		-1.20314		0.00896787		-0.0400177		0.898221		-0.87422		-0.881967		-0.271913		-0.425081		0.151598		0.475393		0.643862		-1.12532		0.274963		0.0534787		-0.281997		0.139441		0.763468		0.0313035		-0.727091		-2.25666		0.850289		-2.65131		-0.335589		0.316924		0.883379		0.299598		0.203727		-2.04936		2.26766		0.00198375		-0.734487		2.29139		0.0297642		-0.34317		-0.540663		-0.792211		1.65109		-1.36311		1.09171		-1.266		-0.57668		0.727152		-0.0501293		1.56574		-0.833252		2.44453		0.00201823		-1.59704		0.486269		-0.707739		0.236824		0.177442		1.25595		-0.46828		0.371989		-0.57002		0.639508		0.106655		-0.293331		0.432763		1.47605		0.539056		-0.172994		0.804015		0.497339		1.21876		0.454033		0.79495		-1.18394		0.0985443		1.06377		-0.11938		-0.521521		0.0423738		0.220432		-3.01599		-0.10393		1.48213		-0.309948		0.122708		0.123244		1.30821		-0.35529		0.537611		0.259451		1.14278		-0.21739		-1.13569		0.685271		0.142907		-1.70477		1.35729		-0.20774		0.439923		-0.233711		0.158211		-1.81032		-0.151187		0.373588		0.486842		-1.47033		0.581378		-1.33222		0.731649		-0.787089		2.7648		0.59973		0.677639		1.92636		0.0325562		0.665107		1.66767		-0.113104		0.627434		1.25325		-0.177844		-0.678324		-1.31785		0.0551113		0.525008		1.9263		-0.0618331		-1.79858		-0.0453037		0.287377		0.342399		-0.638922		0.767253		-0.0288882		-0.141829		-1.90372		-0.990927		0.310704		-0.491404		0.71088		-1.15665		0.630665		-0.750246		0.855911		0.617692		0		
-0.818736		-0.159894		0.0263997		-1.17645		-0.0551356		-1.86533		0.569512		-0.85401		1.00976		0.624932		-0.409168		0.936922		0.167372		-1.81623		0.557566		0.162291		0.458022		-0.61862		1.09634		1.57066		-0.240185		0.0713188		-0.397763		0.994425		1.50953		1.24703		-2.68946		-0.512025		0.884848		-0.0566067		-0.612971		0.628982		-0.452878		0.214439		1.13037		0.669632		-0.302485		0.311582		-0.773366		0.426314		-2.30715		-0.494018		-0.439039		-0.919662		-0.938357		2.10897		1.22961		0.513436		-2.08505		0.334408		-2.0964		-1.86895		-1.1215		-1.03501		1.65319		1.34392		0.424532		0.431659		1.45862		-0.183134		-2.17592		-0.339219		1.12501		-0.76006		2.3533		-0.3273		0.114313		-0.86254		0.298021		-0.442363		0.166882		-1.04461		-0.421444		0.559477		-0.561222		2.31449		-0.520721		1.49475		0.589316		0.959047		1.49339		0.723988		-0.0135316		0.57455		-0.460706		-1.22753		-1.44873		0.919454		2.11014		-1.35158		0.390944		0.918006		0.565714		-0.507279		1.7581		1.37918		1.87819		-1.40728		1.79001		0.0417675		2.44698		0.759464		1.32592		1.39116		1.87512		2.09617		-0.425247		0.579097		1.66008		0.908131		-1.94798		0.555623		-0.627759		-0.571941		-1.05945		-0.634181		-2.00724		-0.89201		-0.288728		1.0492		0.156935		1.20194		-0.770496		-0.262925		0.451692		1.50796		0.283903		0.0504962		0.430491		0.699818		-0.514859		0.940996		0.361203		-1.84372		0.964123		0.350831		1.99112		0.656153		-0.170777		-1.21779		-0.716875		0.634068		-0.441711		0.0689872		0.158413		2.40917		-1.49438		-0.844763		-0.81786		-0.209679		0.596196		1.80154		1.07955		1.68056		-2.49511		-0.366889		-1.30852		-2.18799		-0.294794		0.267364		-0.927017		0.278675		0.580097		0.447004		1.23862		2.15701		0.372281		-0.803275		1.20874		-0.696031		0.662175		0.797515		0.70949		0.302851		0.194329		0.13929		0.82037		-0.67621		0.189899		1.18706		0.537087		-1.01309		1.03225		-1.27442		-0.767072		-0.948392		0.438028		-0.215223		-2.0695		1.95986		-0.144054		1.11798		1.10773		0.366543		0.0223606		-0.52113		2.25572		0.23199		1.29307		-0.861076		0.390983		0.0465388		1.29703		1.55018		-0.93999		-0.871265		0.94112		1.25928		-0.89044		-0.730791		0.0380711		-0.396182		-0.165711		1.61545		-0.229705		-0.0420156		0.529583		-1.37807		-1.63663		-1.01119		-0.373605		-0.0867956		1.48748		-0.376205		0.38368		-0.0780648		1.23962		-0.608199		0.819866		-0.672412		-2.12383		-0.293842		-1.06124		1.51967		-1.31951		1.67227		0.413879		0.716911		-0.614069		-0.833185		-2.48836		-2.4203		0.609829		-1.34768		-0.8129		1.26011		0.52985		1.18621		-1.02165		1.2553		-2.09823		0.251032		-0.764471		2.34902		-1.73794		0.817262		0.0341463		-0.688992		-1.65641		-0.0840343		0.794698		-0.2436		0.524821		-0.288265		0.989643		-0.262914		0.797673		0.0979168		-1.50746		-0.402089		0.143732		-2.16578		0.657924		0.24919		0.258015		-0.127364		-0.951571		-0.457121		0.471621		1.04461		0.0706678		-0.29285		0.114126		-1.49349		0.821963		1.24754		-0.791928		0.278154		-0.289269		-1.60514		-0.523902		-0.709052		0.678295		0.726002		1.23354		0.0945958		1.75161		1.01251		0.998042		0.614319		0.189805		0.561189		0.862194		0.803161		0.0682794		0.0866958		-1.06896		-1.35954		-0.0873274		0.142888		-0.651145		0.626328		-0.183285		1.22712		0.0713428		0.995277		-1.63457		1.428		1.37093		-0.761717		-2.00688		0.337382		-0.0424189		0.0141021		2.07021		-0.696686		0.210017		-0.230681		-0.522584		0.161496		0.393999		0.359432		-1.24835		1.80942		-1.85907		-0.0546686		0.00750552		-0.396472		-0.763279		0.480064		-2.05054		-1.37982		-0.190632		0.722025		1.31138		0.0505124		1.89625		0.0628794		-0.106086		-1.7576		0.0448019		-0.873368		2.40403		-0.845387		-0.172069		-1.82573		0.100057		2.04981		-0.446211		-0.00211368		0.981057		-0.0110177		-0.21876		0.449165		-2.25854		-0.97835		0.732299		-0.691388		0.243096		-0.699143		2.37276		2.5186		-0.274824		1.44935		1.88732		0.143428		-0.829992		1.78817		-0.454243		-0.145377		0.238374		-0.801629		-0.187136		-0.418647		-1.0096		1.91134		0.633988		1.55488		0.0284179		-0.482924		-1.11804		-1.07457		0.640581		0.280487		-2.31158		1.57078		1.06252		-0.576907		0.156117		-0.600816		0.998561		1.37848		-0.355189		-1.01498		0.2174		-0.272454		0.162166		0.621967		-0.893662		-0.778827		-0.360124		-0.586063		-1.11071		0.911155		0.0818289		-0.863731		1.58104		-1.98534		-0.4792		0.154718		-0.611512		1.1143		-0.442751		1.07035		-0.143923		-0.891826		0.0518137		-0.364321		-0.426307		0.290798		0.44816		-0.757733		0.928682		0.116929		0.0906829		0.830213		-0.599099		-0.373887		-0.325937		0.330201		-0.145645		-1.97188		-0.266762		0.428751		-0.13948		-0.309437		0.0657654		1.09895		-2.09666		-1.241		-2.34281		-1.22627		1.19326		-0.838684		-0.146151		-0.439818		1.54232		2.16732		-1.49891		-2.32027		1.23658		-2.24202		-0.849772		-1.36072		-1.41869		1.32568		-1.64593		-2.0422		1.27076		-0.188263		1.35984		-0.702522		0.317666		-1.08925		0.392017		0.298844		-2.4773		-1.60731		-1.29202		0.945453		-0.931465		0.536568		-0.772849		-0.666065		0.91313		0.423245		-0.0123621		-0.430479		1.57421		-0.152088		0.154759		-0.628792		-0.815086		-1.03164		0.335559		-1.16921		0.436727		-0.587572		-0.644106		0.223929		-1.46191		1.83463		-0.261948		-2.15435		-0.237392		-1.59047		-0.366001		-0.64089		1.7335		1.51721		-0.402342		-0.440365		-0.329627		-0.031093		-2.0765		-0.555422		1.22807		0.680739		1.68998		-1.66774		-0.0875406		-0.396925		0.29664		-0.634104		-0.612041		0.0415341		-0.594956		1.63021		-1.78093		-0.533486		-1.03924		0.728002		0.477262		0.984078		-0.0495649		1.54696		-0.0124858		-0.167867		-0.206307		-0.0595418		0.324691		0.320843		-0.167451		0.244221		0.796205		-0.777765		-0.229394		-0.0618234		0.576237		0.845988		1.77256		0.747396		0.294269		-0.420331		-1.83095		0.393868		-0.132571		0.287344		-1.05123		0.372287		-1.46396		-0.831955		-0.970081		-0.938163		-0.476394		-0.685262		0.0959802		0.65403		-1.28383		-0.435241		0.793944		0.261853		-0.915418		1.66727		0.792969		-0.528807		-0.988169		-0.639313		0.565347		1.47162		-0.154793		0.141749		-0.793714		-0.263454		0.214268		-1.00087		-0.39532		0.0886403		1.63733		-1.12697		-0.613957		0.301924		2.41285		-2.6419		1.41114		-0.127336		-0.0866312		1.26472		0.927933		0.57875		1.19843		0.193964		0.297014		-0.956789		-1.24344		1.98077		-0.297874		0.0414334		-0.987957		0.846589		-0.368759		1.43525		-1.07806		0.309909		0.274181		-0.206752		0.113061		1.41436		0.0761296		-0.834908		0.671229		-0.622073		-0.316295		0.384752		0.418168		1.40321		0.0225724		1.05923		-1.42923		1.11005		-0.0390575		-0.441247		-0.511444		-0.354681		-0.632073		0.745185		-0.0220459		-0.164407		-0.0333367		-0.208668		-0.614613		-2.78534		-0.650832		0.31094		0.313556		0.821291		0.576102		0.801332		-1.31706		1.7345		-0.390648		-0.817735		0.15038		-0.225128		1.73283		0.650332		1.51464		-0.221333		0.458452		0.388867		0.667934		0.44665		2.06051		-1.06457		-0.380263		1.35412		0.609057		1.85724		-0.181075		-0.482487		-0.699938		-1.53575		-0.258942		-2.00984		-0.00734202		0.0440877		1.54207		1.12982		-0.184446		0.752302		1.37152		0.186931		0.458833		-0.981886		-1.16934		0.419277		0.377453		0.215471		-0.373284		1.24		0.10347		-1.64225		0.0809603		1.49061		0.606338		-0.799874		-0.090166		0.566941		0.0830648		1.18308		0.192788		1.41432		0.215603		-0.55872		0.82518		-0.502377		0.302253		-0.409121		-1.45505		0.923979		-0.753632		0.113844		-0.132369		-1.89911		-0.438108		-0.0752881		-0.0918874		1.36983		-0.867929		-0.748639		-0.867071		-0.567865		-0.563898		0.0178868		-0.924383		-0.154773		0.746588		-0.681926		-0.169175		-0.630007		0.43583		-0.629166		-1.7001		1.01582		0.749775		-0.990223		0.328691		0.445225		-1.39836		-0.460789		0.231819		0.063419		1.31089		-0.0118144		1.16318		0.298105		-1.46742		-0.416018		-1.79306		0.459769		0.0326368		-1.34871		0.368754		-0.842554		0.638952		-2.11239		0.713933		-0.375524		-0.566041		0.339143		-0.222398		0.027657		-2.1126		-1.29209		0.569159		0.383601		3.24554		-0.540179		-0.605086		-0.530939		0.30891		-0.0668673		1.1159		0.821189		-1.17823		1.8952		-0.127399		-1.13987		-0.0709931		0.581978		0.248502		-0.154345		-0.0878588		-1.05652		0		
0.598745		-0.19934		0.675699		0.447616		-1.29013		1.25171		1.67814		1.40762		0.0404126		0.09122		-0.834835		1.52023		-1.7792		-0.411632		1.14621		2.10031		-0.300866		0.453314		-1.18066		0.905825		-0.601955		-0.319509		-2.44076		0.412462		0.534477		-0.0518693		-0.839572		0.586263		0.0198924		-1.38384		2.78843		0.233675		1.04501		0.376001		1.24868		-0.421333		-0.808781		0.126007		-0.686932		0.756665		-0.709419		1.75484		0.701914		0.0466119		-1.32686		-1.36229		-0.204944		-0.975841		0.904249		1.44744		-0.558385		0.777441		-0.517465		1.04621		0.189664		-0.469271		0.219044		0.873289		-0.0671257		-0.0211334		-1.41182		-0.975918		-0.00372997		0.247563		0.945641		0.324538		0.570225		0.20268		-0.0408451		1.13165		0.0954011		-2.12021		-0.074599		0.372163		1.02523		0.47184		-1.6394		1.16296		-0.921698		-1.67309		-0.0151221		0.114084		-1.17513		-0.534213		0.770118		-0.405191		-0.549786		1.20973		0.111358		0.642336		-0.459257		-1.86058		0.523355		0.233298		-0.0462788		0.535994		1.22284		1.56769		2.0595		-1.08404		-0.646675		-0.174939		1.67629		1.18903		-0.543031		1.05451		0.396234		-0.551511		-0.5805		1.93865		0.49232		0.317324		1.26594		0.0393405		0.756681		1.67309		0.195828		2.28371		1.42138		-1.62851		0.941659		-0.108768		0.0238179		1.01003		0.198701		-0.459383		2.12734		0.255958		-0.44886		-0.317327		-0.941563		-0.210031		0.0715083		0.973341		-0.358181		-0.924835		-0.98398		-0.223283		-0.790065		-0.385772		1.58556		2.13393		-0.231644		2.11447		0.196022		-1.3607		0.081214		-1.16615		0.697247		1.46024		0.0785		0.895747		0.124024		1.75239		-1.05779		0.706502		-0.883927		1.08087		-0.969409		0.737789		0.355446		-0.391214		0.692975		-1.04142		0.192403		-0.732477		1.30311		-0.308182		-0.112635		0.134547		0.457083		1.60152		-0.269855		-0.0311692		0.70457		-0.983323		1.57844		0.0536174		0.371728		-1.38055		1.20737		-1.03061		0.505202		0.504983		0.117503		0.849031		-0.315898		1.708		-0.265905		0.555296		0.778668		-0.229544		1.23974		-0.990738		-0.705178		0.423881		0.213818		-0.656065		-0.929601		-0.556615		-0.125335		0.0427265		-0.252697		0.491756		1.84117		0.538166		1.15836		-0.106622		1.28912		0.197003		-0.766474		0.297449		0.0747166		-0.909427		-1.44078		1.9946		0.350398		0.923083		1.91584		-0.164417		-0.722911		1.61757		-0.822756		-1.76155		-1.54472		-0.783729		0.0730625		0.442318		0.363574		-0.166107		-1.3345		1.74114		-0.311176		-0.109359		2.07017		-0.247627		0.198942		-0.441002		-1.62348		0.481053		1.23963		-1.28776		-0.180937		-0.496408		0.179828		0.244191		-0.451347		-0.373606		0.300383		-0.939134		-1.57357		-0.814703		0.165326		1.35926		1.06514		1.01963		0.0349973		-0.860448		-0.804525		0.666654		-2.06966		0.0755912		0.641774		0.248028		-0.387044		0.307297		0.312443		1.20712		-0.0788044		0.162788		-1.13655		0.00790831		0.925603		-0.869558		-0.623667		-0.178191		-0.529247		-1.9233		0.730826		-1.56398		-0.509024		1.18712		-1.43515		0.699528		-0.712379		0.298654		-0.848847		-0.662016		0.342501		-1.34203		1.89942		-0.37369		-0.508436		-1.69907		-0.648548		0.236607		-0.183259		0.455748		-0.656387		-0.623882		0.0671615		0.181722		0.70748		0.858177		-1.75856		0.446417		-1.1996		1.05318		-0.11616		-0.015173		-0.614168		-0.0305068		-0.613574		-0.0344381		0.285385		-0.833884		1.10865		-0.718906		-0.4281		0.530064		0.914561		-1.57666		0.654228		-3.04393		-1.71621		-0.943342		-0.171505		-1.63187		1.60602		-0.423331		1.10804		0.556264		0.47888		1.62023		0.189912		-0.0679346		-1.40082		-2.44995		-0.23147		-2.28928		-2.46475		-0.142535		-1.07924		0.0437985		-0.95361		-0.24336		-0.673719		1.93996		-0.152797		-1.19234		0.548858		1.34794		0.472208		0.651431		-0.213957		-0.190094		0.490362		0.184168		-0.47664		-0.575059		0.0756846		0.640116		-0.125531		-1.05008		0.158062		0.22047		-1.04408		1.04778		-0.315275		1.18644		0.082273		-1.74297		0.366507		0.0310733		-1.56338		-1.00286		0.173342		-0.452751		0.234158		-0.0770325		1.76576		0.346557		0.656509		1.27909		-0.177493		0.599134		-0.731239		0.12317		0.155906		-1.46508		-1.94269		0.277432		1.32936		1.0147		0.36867		0.514822		-0.845704		-0.315239		1.12338		1.85446		0.738235		-1.27176		0.617684		0.927508		0.502361		-0.331964		-0.87895		-0.22349		0.126481		-0.204101		0.174711		-0.357933		-1.13943		1.32302		0.71429		1.39076		-0.605142		-0.376826		-0.787712		1.44331		-1.22281		0.709123		1.745		0.959496		1.14817		0.496046		-0.450063		0.708224		1.44722		-0.256203		0.192774		1.89233		-0.818596		0.427537		-1.21308		0.0469419		0.702407		0.42211		2.09304		-0.0160426		0.344105		0.770983		-1.3019		-0.28422		-0.458959		0.441351		-1.66519		-1.63005		-1.09985		0.881005		-0.136716		0.34994		1.72662		1.70517		0.307085		-0.0282406		-1.54476		0.342949		-1.06034		-1.39235		0.0334702		-0.113083		0.673137		0.902956		-0.854285		-0.0667225		-0.266711		-1.67801		0.598379		-1.30578		1.09357		-0.676969		0.126446		0.931422		-0.110098		-0.276205		1.47568		-1.03051		-0.592549		1.05896		0.523678		0.398613		-0.594823		0.571109		-1.58533		-0.424941		0.494805		1.03915		-1.2554		0.187176		0.773777		0.538664		-0.575076		0.932626		-0.293096		-0.361178		1.73762		0.830733		-1.28539		2.67881		1.43674		0.326967		0.704977		0.782737		0.75462		-0.169138		0.96158		0.827485		-1.57066		0.408687		-0.711576		0.899652		0.985929		1.46701		-0.232214		-1.12222		-1.43365		0.219512		0.222742		1.468		0.287946		-0.472734		0.00417193		-0.858363		0.938807		0.355732		0.583157		-0.385817		0.176863		-0.485242		-0.213117		-1.77017		-0.418573		-0.272135		-0.391657		0.00620132		0.934305		0.235113		0.0587755		0.263313		-1.87612		-1.26938		1.09627		0.0560279		-0.580465		1.15065		0.292444		1.5197		-0.985393		-0.792038		-1.47399		0.025942		0.41808		-1.54011		0.339833		-1.58567		0.154525		-2.04724		-1.05832		-0.174198		-1.45038		0.445576		1.93355		0.33523		-0.787687		0.0188105		0.896772		0.909315		-1.52116		-0.762293		0.0793147		-0.604923		-0.132877		-1.13282		-0.60839		-0.471426		0.0690729		-0.435734		0.0937379		1.93694		-1.30789		0.285323		0.77611		-0.248542		-0.990244		-0.649562		-0.667351		0.427151		-1.32416		0.253523		0.915831		-0.474437		-0.484543		0.0494207		0.927234		-1.2359		1.21985		-1.49198		-0.148516		0.0682928		-1.79742		0.460243		0.584128		0.663811		-0.567576		-0.867576		-0.456335		-0.290874		-0.100144		0.150045		1.0111		-0.377803		0.163922		-1.5472		1.71581		-0.147767		-0.891571		-0.971389		-0.120296		-1.18085		-0.893476		-0.0881546		-0.92907		0.057742		-0.151082		0.441396		0.461198		-1.58375		-1.0488		-0.135545		-0.688437		-0.0962596		0.339455		0.495011		-1.90155		0.217454		1.17822		-2.22494		0.43051		-0.0825674		-0.535928		-0.194804		0.0295979		-1.32219		-2.82684		1.43531		0.270849		-2.06777		0.891091		-0.746992		0.208822		0.320813		-0.088202		1.61798		1.32859		0.280385		-1.19684		-0.698235		-0.447542		-1.38552		1.3067		0.0707176		-1.19593		-2.82854		-0.657486		-1.41099		-0.494737		-1.51972		-0.586129		0.0398572		-0.428069		0.284468		-0.133141		0.0357178		-1.00893		2.08818		-0.277709		0.62146		-1.33895		0.939679		0.168508		0.116283		0.946098		1.44426		0.984062		-0.575605		-0.147957		-1.92173		-0.651826		2.17191		-1.87727		0.537087		0.632688		0.121144		-2.46756		-1.80614		0.682268		-0.346476		-0.628305		-1.13345		-1.14209		1.46888		-0.336183		2.08874		-1.03011		-0.127167		1.40603		1.38822		0.311578		-0.89257		-0.0786366		0.140037		-1.26975		0.242447		0.191692		0.147178		0.204788		1.54761		0.491914		1.51854		-1.85071		-2.26138		-0.72076		-0.000632567		-0.590304		-1.25142		1.32235		-0.101163		1.85557		-1.66086		-0.374027		0.831166		-1.1946		0.462455		0.0709855		-0.36651		1.57039		1.72177		0.0536294		2.63767		0.456287		0.150378		1.31793		-0.387611		-1.50642		0.534646		-0.772019		-0.0545356		0.917847		-0.762675		1.4358		0.779003		0.521209		2.12688		-0.237302		0.416889		-0.766302		0.0565565		1.43781		1.13266		-0.622426		1.81311		0.156976		-1.68157		-1.24497		-0.883311		-0.85581		-0.0253713		0.649593		-0.82655		-1.41945		0.436093		-1.09579		0.857472		0.534365		-1.16327		0.426057		-1.24759		1.01478		-0.717705		-1.19432		-0.56374		1.67471		-0.327251		0		
-0.485789		-0.861638		-0.547433		1.40589		-0.318401		-0.00966183		0.738051		-1.28005		-1.43097		0.415276		0.977438		0.227572		0.00806839		-0.348733		-1.37838		-2.12449		-0.150872		-1.26692		0.105247		-2.92852		0.669174		-0.75347		0.603952		-1.07684		-0.173543		0.0988009		-1.04134		1.29561		0.0087664		-0.59713		-0.606915		-1.73247		-1.55128		1.13817		-1.35901		1.53583		-1.34145		-1.30131		0.550358		0.601417		-1.62138		-0.377418		-1.7648		-0.219202		-1.61133		-0.625115		-1.18004		-0.608923		0.734311		0.334281		0.907966		0.444175		1.30022		-0.504604		-1.12724		0.0786553		-0.293659		-0.497785		-0.046749		1.17792		0.731283		-1.46158		0.924445		-0.0894303		0.357425		-1.18039		0.812914		0.262968		0.658605		0.31382		0.693119		1.57083		0.284885		1.29998		0.125008		1.75795		0.626574		-0.612683		-0.216024		2.01617		-0.725891		0.352544		-1.37835		0.258391		-0.977004		0.135705		0.517443		0.730358		-2.06081		0.128835		-0.423467		-0.468741		0.441335		-1.05543		0.139331		0.604667		-2.005		-1.65984		1.53529		-0.641039		1.14611		0.786574		-0.367441		-2.76283		-0.228774		-0.000333398		-0.0490271		0.295993		-0.93078		0.235373		-1.45803		-0.710635		0.34483		0.604684		-0.769382		-0.952481		-0.540558		0.795193		0.150467		-1.21911		-2.09556		1.6501		1.46372		3.30334		0.215199		0.74545		0.663861		-0.322323		-0.767385		0.279578		-0.0323669		0.4346		-0.191175		-1.12103		-0.160798		-2.23421		1.36159		-3.12716		0.845449		1.57084		0.566197		-0.964744		1.80245		0.228793		-0.622981		-1.47004		-0.494771		1.92476		-1.17331		-1.04725		-0.561277		-0.644675		0.226652		0.715299		-0.762716		-1.04714		0.93434		-1.33886		-1.77117		0.261641		-0.74867		-0.0886163		1.09244		-0.251896		2.54854		1.24603		-0.0336847		0.0692235		-0.113258		0.434021		-2.15769		-1.78437		0.633225		1.63214		1.5927		0.626596		-0.0163863		-0.772332		0.704462		0.0965555		-0.79652		1.73398		1.12755		-0.679213		1.96946		-0.0840623		0.130704		2.98641		-1.45853		-0.306957		-0.708079		-1.15061		0.587617		0.501288		1.19476		-0.346096		-1.37039		0.793926		-1.47587		-1.16774		1.21457		0.238671		0.869264		0.619392		-0.326971		-0.167352		-0.203479		1.61973		-0.381245		0.174832		0.623822		-1.65333		-0.730592		1.7545		0.474869		-1.22885		1.46878		0.105537		-0.981417		0.100887		-1.04311		-0.334042		-1.15471		-0.269999		-0.476474		1.89873		-0.398451		0.380626		-0.302687		1.10839		-0.135819		0.0887628		1.15753		-0.145502		0.683019		-0.478014		0.934141		0.694861		-1.00457		1.10089		-0.153795		-0.0103559		-1.45663		1.09287		0.66569		1.3935		-0.441186		-0.949685		1.82129		-0.985702		0.180631		0.443462		0.492131		0.436828		-0.231481		-0.737531		0.631943		-0.694851		-0.356422		0.971185		0.711806		-0.720238		0.947183		1.87142		0.798516		-0.459941		-0.553027		-2.04371		-0.926379		-0.135263		0.182242		-0.0347906		1.1799		-1.92381		-1.1441		-0.46911		0.488378		-0.266654		1.42974		-0.213003		-0.705007		-0.284664		1.21438		-2.20436		0.524565		0.29655		0.403289		2.26584		-0.88194		-1.27449		1.24148		0.812154		-0.39454		1.47085		0.169129		0.63202		0.578039		-1.20463		0.250288		0.111256		-0.836651		2.01593		1.18438		-1.82424		0.201027		-1.80289		-0.742055		0.997247		-0.380372		-0.945571		1.8402		0.706656		-0.430408		-1.73568		0.713724		0.832656		-1.23416		0.401578		-0.486904		0.137865		0.180121		1.31886		0.549324		-0.737979		-0.117645		-0.831728		-0.116565		0.198687		-1.89468		0.0213869		0.921413		-0.100232		-0.341854		2.00482		1.55863		0.460085		0.472827		-0.134364		0.698227		0.792651		-0.125246		1.12287		1.6135		0.210312		0.514001		-1.11131		-0.502782		-0.842512		1.48461		0.490981		1.03058		0.490263		0.368863		0.12245		0.0779126		-0.306348		-1.95879		1.49136		0.0248843		-0.687773		-1.1972		1.19361		0.340424		-0.197374		0.260918		0.225995		1.72304		0.238109		-0.591737		0.419703		0.372027		-2.43665		-0.133208		0.130261		0.414716		0.137343		0.392593		2.573		0.430774		0.648143		0.395624		0.000709816		0.18753		0.153636		-1.50037		-0.0704762		-0.405216		-0.492159		-0.727979		-0.604189		-0.578809		0.913398		0.169855		-0.6245		0.995576		0.261933		1.71937		1.28963		-0.667398		-0.354059		0.356859		0.322852		-0.459463		-0.0412095		-1.39123		-0.24804		0.67643		0.13362		-0.839406		-0.273618		-0.513803		1.49123		-0.21881		0.999436		-0.099664		-0.0044489		-0.0413604		0.841481		1.15843		1.98648		1.73735		0.458552		-1.6353		0.654541		-0.624279		-1.81379		0.761115		0.147815		-0.440128		-0.205991		-0.399526		0.569045		0.933011		-1.34946		1.44043		0.0541583		1.25447		0.107873		-0.616198		0.279081		0.288913		-0.204384		1.8628		-0.0788535		-1.9825		0.283837		-0.864535		-0.294378		-2.0211		0.0831976		0.926877		-0.149795		2.26484		1.39862		0.268357		-0.471903		-0.386856		0.654343		0.162609		0.630298		-0.811587		-0.24884		-0.372373		-0.837692		-0.381786		2.65783		-0.127021		-0.408138		0.186653		0.790005		0.338281		-2.46586		0.0193607		-1.83947		-0.345585		-1.14962		0.432115		1.46382		0.792818		-0.0369234		0.559211		0.960679		1.24764		0.174427		2.30622		-1.10713		-0.486638		0.629073		-0.495029		-2.0312		-1.58294		0.123225		-0.598318		-1.15505		1.0564		0.298968		0.614125		-0.367893		-0.333142		1.09574		-0.980689		-0.645394		-0.254166		0.900669		-0.352287		0.612824		0.426588		0.102284		0.471296		0.719339		-0.634669		0.412652		1.77918		1.41668		1.52363		-0.155947		0.0651471		0.0744054		-0.543547		0.206558		-0.394195		0.925519		-0.74019		-0.66688		2.49551		0.585626		2.26158		-0.63744		1.16879		-1.34484		-1.79094		-0.145164		-0.105671		-0.300294		-0.367765		0.322892		-0.0300046		0.697626		0.0268084		-1.11887		-0.240305		-0.0938325		-0.903359		1.43271		-0.521333		0.650388		2.15542		-1.33705		-0.267026		1.38338		0.710565		-0.239429		-0.289577		0.485562		-0.0297669		-1.77057		0.439709		0.38		0.395319		-0.211242		-0.688017		-1.23577		-0.225677		-1.1828		-0.287323		-0.490926		0.123175		0.0315645		-0.971414		-0.321961		-0.823124		-0.325961		0.218421		1.08664		-0.195503		-2.06604		-0.0174397		1.03546		-0.205086		0.647328		1.02155		-0.930886		0.83712		-0.304464		-1.34627		-0.0139361		0.322465		-0.529781		-0.243503		0.521046		-0.566105		1.57682		-0.711231		-1.78367		-0.439853		-0.284471		-1.80798		-1.3834		-0.430498		-0.0858286		-1.29125		-1.87563		0.949036		-0.80626		1.75694		-0.405037		0.611225		-0.801664		-0.448079		0.637466		-1.8013		-1.15954		1.96998		-1.09534		-0.741645		1.21848		-2.13936		-1.75628		-2.72639		1.46994		0.752412		-0.566333		-0.44427		0.367314		-0.95684		-2.50935		-1.28316		0.278911		1.42258		0.181531		-1.18848		0.523584		1.61296		-0.119982		-1.30646		0.724213		-1.29233		-1.75333		0.301766		0.226571		0.528952		2.21811		1.73284		0.0497011		-0.0874098		1.81606		0.181507		0.91195		0.0452452		-0.376843		-0.707481		0.307656		1.11764		-0.282323		0.830523		1.7132		1.19032		1.75796		0.951707		-0.0638695		1.38157		-0.338247		-0.861098		-0.98435		0.606748		0.00604102		0.756195		-1.15376		-1.01402		2.3125		0.0885395		-0.397132		-2.53326		0.132414		-0.879415		0.145745		-0.653724		0.490802		-0.774187		0.938835		0.626878		1.25544		0.380943		-0.218129		-1.44691		-0.856799		-0.230739		1.19426		0.608051		-0.0183052		2.004		0.434561		-0.955619		1.78948		-0.500952		-1.45034		-0.178751		1.13736		-0.0898546		0.412789		1.04195		0.580349		-0.4801		0.485184		-0.0303532		-0.267483		-1.1266		-0.333083		0.140156		0.960283		0.507543		0.17416		-1.67291		1.13406		0.589923		0.751254		-0.0619715		-0.825063		-0.823968		-0.652434		-1.01288		-0.747202		1.0747		1.65578		1.34372		0.504321		-1.50043		1.53944		0.184325		-0.894688		-0.253991		-0.469366		-0.808184		0.269411		0.379519		-0.51966		0.389173		-0.82249		0.408471		-0.727276		0.129639		-0.351226		-0.937532		0.929396		0.0783472		-1.53189		-0.118153		1.42606		-0.142864		-0.888999		-0.0673557		-0.270694		-0.47348		-0.795769		0.215326		-0.103591		-0.871924		1.27763		1.15642		-0.547832		0.00180207		0.603714		-1.58394		-1.25873		-0.657728		-0.20375		0.505605		0.215482		-0.202179		-1.71307		-0.0888822		-1.00168		-0.755614		1.00999		-0.46752		0.114918		0.750917		0.0928631		-0.721526		-0.194065		0.871931		-1.27755		-1.155		0.501549		0		
-0.0352086		1.49365		-0.0784076		0.496729		-0.795174		0.938553		1.31517		0.284299		1.5428		0.242445		0.21088		0.63704		-0.992751		-0.354485		0.580691		1.37672		-0.541195		-0.235296		0.0129862		0.427776		0.0475748		-0.0535539		-0.781154		-1.21152		-0.338522		-0.81366		0.531091		-0.0932937		1.07137		1.50819		0.407849		-0.416294		-2.45675		-0.77092		-0.725239		0.0600531		-2.38111		0.445214		0.783126		-1.91955		-0.977254		-1.27801		0.18177		0.919127		-0.277547		-0.355821		0.0773405		-0.454988		-0.161879		-0.208999		-0.271435		-0.92678		-0.115038		-1.05826		0.350356		1.13133		-0.00518471		-0.0958508		0.600921		1.24717		-0.471707		0.557793		0.158681		-1.78153		0.590493		1.84788		1.81417		-2.22723		-0.494387		0.632881		0.924002		0.434122		-1.19004		0.510888		-0.426129		-1.54987		0.438354		-1.00723		-0.109739		-1.60459		0.815483		-1.33982		-0.887354		-0.65967		1.0185		-0.282014		1.36145		-0.515033		0.0615872		0.812408		-1.12993		0.520299		-0.212762		0.947597		-0.347719		-0.76406		-0.656061		-1.05155		0.667745		-0.554352		1.96074		-0.282106		0.155734		0.88101		0.640538		-1.67049		1.79172		0.754872		-0.254767		-0.529646		0.731467		1.3121		0.47241		0.8947		1.16304		0.239529		0.46382		-1.18089		-0.295267		-0.778338		-0.548318		0.780021		0.65324		0.860418		0.367024		-1.24592		0.465731		-1.18749		-0.564143		1.70621		1.36196		1.5008		-0.213734		-1.13243		-1.00069		-0.451216		-0.363765		-1.08551		-1.68626		0.586433		1.29124		-0.842745		0.378587		0.0289401		0.0505007		-0.207759		-0.00549163		-0.670774		-1.23395		-1.21551		0.399135		0.496036		-0.0647213		1.15083		-0.393062		0.385442		0.263812		-1.38791		0.10957		-0.89352		-1.18191		-1.14786		-0.702088		-0.696659		0.105019		0.657934		0.0300495		1.03628		0.781466		-0.182549		1.15872		-1.23747		-0.706152		-0.432335		-1.73736		-2.13205		-0.78336		-0.234489		-0.774174		1.03152		0.922521		-0.335612		-1.21413		0.640492		0.403128		1.50288		0.0673106		0.3249		0.460266		1.43429		0.263983		-0.37187		0.721195		0.206393		0.0697204		1.10465		-1.37055		-1.59873		0.644664		0.531678		-0.399136		0.0442881		2.47333		0.772285		-1.25204		-0.59521		0.942217		-0.708981		-0.511056		3.53106		1.24848		-0.508228		-0.172259		-0.178593		-1.0016		0.772699		-0.157837		-0.289771		1.28397		-1.04879		1.39976		-0.492998		0.647331		0.820227		0.800087		2.04543		-0.275919		-1.07196		-0.938736		-0.10511		-0.13202		-2.0831		-0.820685		0.917261		-0.212484		-0.0260074		0.957399		1.27072		0.305823		-1.78643		-1.34772		-0.50373		-1.37567		0.555498		0.396562		-0.646044		-0.657393		0.0973221		-0.16843		-0.396354		0.162528		1.03497		0.640938		-0.879865		-1.78862		1.95994		-0.388321		-0.648264		-1.00659		2.13787		0.582213		-0.220501		-0.0586807		0.44862		-0.943218		-1.82081		-0.310622		-2.33533		-0.0953074		-0.839124		0.821852		-0.873812		-0.97816		0.694171		-2.42251		-0.296774		-0.247678		-1.54565		1.18953		0.0896497		-0.502453		0.861142		-0.739789		0.964284		-1.00654		-0.800107		1.75947		0.665096		0.557942		-1.05964		0.187995		2.28297		-1.57237		0.878534		-0.786622		1.77648		2.03521		-0.435186		-0.149036		-0.826297		1.72786		0.880255		0.897926		-1.18096		-2.55207		-1.09799		-1.7882		0.260045		-1.26694		-1.83084		-0.247492		1.47629		-0.274704		-1.32434		0.0817025		0.564018		0.274424		0.169337		-0.591659		0.66573		-0.555482		0.0807353		-0.177318		-0.495623		0.579387		-0.831997		0.113617		0.0609591		0.0981585		2.28815		1.32439		1.02571		-1.04106		1.51116		-0.0351914		0.757139		0.415689		-0.0706904		0.239221		-1.28299		1.74114		-0.946588		-0.28542		-0.796172		-0.491225		-0.721595		1.35984		-0.952534		0.101686		0.877254		0.95125		-0.0708823		2.02723		-0.12022		1.41106		0.746017		-0.786798		0.454624		-0.10417		0.125892		-1.35475		0.0594029		-0.301472		-1.7042		-0.39167		1.33898		0.0997484		-2.55438		-0.154239		1.13161		-0.534456		-1.07067		0.158779		1.17639		0.292125		0.984731		-0.154664		1.8231		0.846458		0.12551		-0.30845		-0.0749038		1.88428		-0.463687		0.828581		0.293127		-2.18086		0.348405		-0.005162		-1.69621		0.809161		1.90285		1.44917		0.317392		-0.445631		0.418933		-0.528945		0.540613		-0.791946		-1.26331		0.0117459		1.89946		0.107704		0.556154		-0.836848		-2.23892		0.0727582		0.882126		1.5786		-0.890366		0.372956		0.0720001		1.43138		-0.369392		-1.08771		0.510719		-0.907579		-0.184066		0.513156		-0.289912		0.762079		-0.255536		0.813686		-0.382877		0.464415		0.861185		0.32683		-0.0270377		-0.82573		-0.270939		0.301258		-1.11406		0.287007		-1.61374		1.23331		-2.15423		1.30167		1.01967		2.57145		-0.143764		1.21063		-0.485196		0.0918126		0.63346		2.45691		1.66393		1.30129		-1.78709		0.488106		0.0277322		1.8401		0.420031		-1.08801		0.93638		0.490116		0.648988		-1.49382		1.2994		1.34052		1.01753		-0.905562		1.58995		-0.814507		1.13875		-0.380314		-0.157358		-0.594661		-1.62735		0.256604		0.573262		-0.679478		0.141268		-0.426244		1.01882		0.501949		0.996706		-1.23168		-0.259476		-1.91767		-0.196283		-1.05922		0.0975711		-0.415535		0.30974		0.576426		-1.39627		0.605431		-1.64109		0.894211		-0.247334		-0.650872		-0.286272		1.14704		-1.03523		0.0116741		-0.304196		1.05329		1.8638		2.38682		-0.149173		-0.900846		-0.980666		-0.147483		-0.460855		1.32585		0.622309		-0.939329		-0.0282492		0.0440451		-0.321706		-2.54072		-0.214896		0.44326		-1.4544		-0.513245		1.43887		-0.453865		1.29495		0.0105439		-0.15482		-1.47526		0.289056		-1.24289		-0.681858		-0.837402		-0.0951189		0.49346		-1.34295		-1.07999		0.572335		-0.833697		-0.264878		1.01476		-0.429572		1.30178		-1.36421		-0.685566		0.743162		-0.88682		1.70846		1.14741		1.55589		2.05137		-0.250723		1.35458		-1.18094		1.24309		0.872362		-0.699589		1.40085		0.293834		1.44463		-0.277543		0.704284		-1.86424		0.883321		-0.753852		1.04596		0.872659		0.854771		0.245643		-0.252681		1.44692		0.213218		0.327071		0.625595		-2.35281		-0.765218		-0.366117		-0.984757		1.53457		-0.698675		0.13842		-0.914976		1.64989		-0.710837		1.58976		0.0388818		-1.00784		-0.17584		0.623905		0.427592		-0.118871		-1.46114		0.150524		-0.60808		0.196106		-2.12258		0.366552		-0.418547		-0.015732		-0.90223		-0.108858		1.66027		1.19239		0.188764		-0.437738		0.132161		-0.157563		0.911779		1.07333		0.217905		0.841094		-0.543644		0.374186		0.263669		0.236249		-1.79471		0.113681		0.758608		-0.799534		0.40224		0.859899		-1.57125		-0.559349		0.00829162		0.078195		1.66942		-0.31489		-0.387446		0.0356059		0.813297		0.535308		0.420739		-1.89052		-0.121423		0.204236		0.702891		1.0653		-0.365789		-0.823653		-0.854161		0.906795		0.877078		-0.404294		0.44906		0.24099		2.05763		0.0781949		-0.737691		0.832164		-1.53155		0.368326		-0.163494		1.41147		0.36079		0.92139		-0.159363		0.512189		-1.23477		1.17025		-0.660538		-1.25385		-0.885079		0.202378		-0.914864		1.90515		0.253542		0.545717		0.296829		0.294236		-1.37207		1.66543		2.04069		1.11741		0.706134		0.747742		0.911061		1.98372		-0.4429		1.84103		0.475854		-0.154673		-0.232799		-0.749869		0.404508		-1.60816		0.500845		-0.543831		-2.30274		1.08658		0.39772		1.15607		-0.555354		-0.248979		-0.817984		-0.897546		-0.496544		0.28717		-0.903058		-2.1649		-0.11535		-0.208761		-0.101032		1.09987		0.202168		0.81617		-1.2856		1.83492		1.93852		-1.28943		0.451677		1.09233		0.510837		0.642058		0.972346		2.08824		1.10529		1.77271		0.587786		-1.387		-0.104288		1.4071		-1.44815		-0.604697		-0.624313		0.823572		-1.53522		0.941455		0.0264554		0.906767		-0.0992446		-0.972636		1.23691		-0.0799887		0.306372		-0.257023		-1.15585		1.32507		-0.115458		-0.372843		-0.445633		0.158738		1.64614		-0.286735		-0.551408		-0.149465		1.85174		-0.312065		0.410315		-0.116968		0.184174		1.84684		0.95373		0.591715		0.877953		-0.407013		-0.742453		1.02873		-0.0213477		0.117502		1.48237		-1.6165		-0.106479		-1.18213		0.622919		0.820835		-0.40492		-0.719049		-1.69569		0.31023		-1.63985		2.14477		-1.39237		2.12803		-0.212138		-0.00891205		1.50899		-0.528157		-0.279245		1.74363		0.258013		-1.53577		-0.721284		1.00278		0.767663		1.19551		-0.00157366		0.574522		0.757978		1.33704		1.70135		0.368744		2.07913		0		
-0.546117		0.311863		-0.759009		0.562045		1.16711		0.117416		-1.97056		-1.02748		-0.22268		-0.490305		-1.45363		0.629091		-1.15767		-0.883521		2.30548		-1.68673		0.769111		-0.642071		0.47718		-0.693938		0.271037		-0.0347387		-1.59427		0.916175		0.0852311		0.101516		0.567946		0.543854		-0.0755368		0.0877989		-1.74568		-1.15485		-0.085035		-0.270133		-0.72064		0.668295		1.64821		-1.60781		-0.996754		-0.0597886		-0.964975		-0.671619		0.514956		1.7201		-0.906987		0.177075		1.14321		0.16788		1.64996		1.64022		0.493958		-0.39251		-1.06592		-0.228519		-0.117177		0.359469		-0.133087		0.853986		-1.24067		-0.827392		0.135995		1.76229		-0.58678		1.46654		-0.709506		0.527296		-0.0661662		0.00654127		-0.404124		0.761233		-2.75514		0.659117		1.46818		0.0664718		0.394923		-0.204738		0.22501		2.64736		-0.255472		-0.111127		0.846788		0.823555		-0.823939		1.51063		1.05723		-1.8314		-0.488518		0.0177032		1.19531		-0.699328		0.0588386		1.26063		-0.306434		-1.35086		0.0153477		-0.671115		1.65092		-0.941443		0.162947		0.312076		0.372172		-0.365364		-0.294478		-0.314508		0.339084		0.976099		-0.536346		0.279702		-0.634381		0.0951377		1.20688		0.636117		-0.265208		-0.0470802		0.547819		0.539655		0.994619		2.40409		0.964006		1.57579		-0.692158		-1.20748		0.208455		0.875433		0.298175		-0.687616		1.42057		-1.9589		0.912304		-0.68539		-1.27401		1.6325		0.828241		-0.302402		1.47111		-0.0409048		1.1619		-0.827692		-0.991882		-1.04025		-2.12846		0.959593		-0.92657		1.77933		2.67093		-1.28713		-0.0992473		-0.555522		-0.607338		0.41762		-0.538511		-2.02118		0.391106		-0.16945		0.0585826		-0.490627		-0.904991		0.0871403		0.235783		0.175685		0.282308		0.883296		-0.195459		1.41395		0.745918		-0.817274		1.29334		1.04049		-0.135694		0.640256		-0.483222		0.453431		-0.487194		-1.742		-1.32109		-0.488632		0.481835		-0.0248351		-0.966049		-1.34808		0.248374		-1.39228		-0.492777		-0.027586		0.556527		0.480555		-2.01365		0.391919		-1.46929		-0.396629		1.62295		0.146005		-0.0365189		1.21047		0.305185		1.34175		0.908863		0.616474		0.768494		-0.473689		0.392398		1.10935		-0.480518		-0.0147696		-0.861425		-0.575305		0.661154		-1.21775		-0.604465		-0.0560576		0.451411		-1.3057		-0.924858		1.56027		0.853837		-0.859183		-0.576202		-0.441346		0.148398		-0.264478		0.467894		0.218937		0.437681		1.16118		-1.30624		-0.456399		0.427032		-3.05755		0.169227		0.106669		1.36058		1.44742		-1.75987		-0.988928		0.0303128		-0.271653		0.615385		0.359342		1.16096		-1.55803		1.4438		0.759395		0.162328		-0.627625		-1.37973		-0.0921923		-1.05473		-0.904096		-1.34579		0.958767		-0.121851		0.356425		-0.566728		0.370074		-1.12362		0.455096		2.13981		0.0151524		-0.953619		0.324929		-0.878743		-1.25806		-0.593862		-0.419871		0.603648		1.02257		0.836314		-1.20957		0.257362		-0.584155		-0.791026		-0.528885		0.554945		0.770836		-1.42971		0.4037		0.268703		-1.07099		0.659146		1.7639		0.665092		-0.298975		-0.618074		0.510212		0.110324		0.48615		1.49248		-0.164774		1.13778		-0.990954		1.23883		0.985156		-0.121896		2.49676		-0.775184		1.19689		-0.02754		2.36915		-1.19368		-2.05847		0.303593		1.33365		-0.309929		1.39656		-1.32642		0.968085		-0.0754207		1.99863		-0.0802354		-0.388717		-0.915211		-1.45146		-1.33022		0.410211		0.243541		0.612683		0.559439		0.132676		1.03282		-1.48427		-0.663672		-0.863657		0.35216		1.15673		0.782284		0.109407		-1.6147		0.541731		1.064		0.243977		-1.38559		-0.359161		-2.20606		-0.667727		1.17526		-0.294662		0.94371		-1.82343		-2.35122		0.918351		0.322312		0.112578		-0.256747		-1.84303		-0.873263		-3.07624		-1.72643		-0.389036		-0.0456573		-0.886124		0.860288		-0.171932		-1.34333		-2.94606		0.0972619		-0.498799		1.21413		-0.327447		-1.71242		0.186918		-0.894467		0.0869646		-2.01887		-1.05492		-1.65427		-1.08401		0.139411		0.299365		-0.50145		-0.353032		0.627846		0.407157		-1.1689		1.50837		0.944062		0.169192		-0.266219		-0.584318		-0.30788		-0.204647		-0.195824		-0.469746		-1.43109		-1.01		0.00493202		-0.00223626		2.72634		0.952543		1.94104		0.385423		0.188672		-0.0803394		0.995363		-0.143857		1.51481		-1.30055		-0.0998742		-0.540805		0.77292		-0.592272		0.313047		0.659461		2.0189		-0.615361		-0.992603		-0.379833		0.599863		-0.486555		0.0521856		1.52624		1.00701		-0.323449		0.22408		0.20653		-0.439837		0.385045		-1.42049		-1.98231		1.74203		0.873829		1.22618		-0.307012		1.41476		0.176392		-1.61133		0.75969		0.888186		0.394695		0.154752		0.975472		-0.534957		-0.885208		0.280604		-0.977814		1.4		1.43889		-0.90317		1.97651		-0.808517		-0.719957		0.54024		1.01479		0.243888		-1.20508		-1.40872		-0.765549		-1.5668		0.285694		0.25765		1.08457		0.995811		-0.317868		-0.454314		0.0547254		0.329431		0.475265		-0.442866		-0.95241		-1.34873		-1.1336		-0.128057		-0.558912		0.364609		-0.960558		0.385691		0.868054		0.919782		-0.328814		-0.531775		0.80475		-0.632642		-0.740448		-1.28357		0.0775593		-0.747965		0.934269		1.9451		0.532039		-0.897615		-1.73481		-1.26338		0.778541		-2.36816		1.30965		2.6133		0.0474352		0.189574		1.44384		1.05471		-1.11729		2.54301		0.858064		0.381407		1.53458		-0.888369		1.38992		-0.377454		1.59916		0.174686		-0.0709578		-0.68945		-0.775397		-0.372988		-0.769547		-0.932611		1.62666		0.255049		-1.91687		-0.194117		-0.540349		0.510146		-0.0385594		-1.13113		0.906945		1.44985		-0.179317		0.441795		-2.12624		0.772221		0.472277		-0.730145		0.277109		-0.564726		-1.15836		1.22171		0.675615		1.00264		-0.240861		0.75153		0.474981		-0.370162		-2.56901		0.0313435		0.886536		-1.33566		1.46275		1.06418		1.14944		-0.285699		-0.275071		-1.92431		0.173092		-0.985535		1.5153		1.68785		-0.444049		0.224405		-0.425065		2.38648		1.29549		-0.212068		0.49307		0.140374		-0.201335		0.233988		0.537925		-1.09018		-1.33593		-0.039247		0.355069		0.3166		-0.341166		-0.538301		-0.610197		-0.540709		2.38562		0.405032		0.454882		-0.403498		-1.06146		-0.794686		1.13982		0.42951		-0.161482		-0.485182		-0.0106502		-0.961264		1.41863		0.680793		-0.6642		1.29363		-0.142928		-0.521714		-0.70857		-1.07436		-0.378829		-0.531669		1.01697		0.803034		0.413855		0.331261		-1.33534		-0.00562581		-1.20265		1.39593		-0.767239		-1.33899		0.216657		0.547874		0.911274		0.517544		3.08693		1.43004		-0.609793		0.502651		0.308148		0.208495		-2.16904		1.23343		-2.18658		0.951467		-0.237264		-1.86513		-0.0916605		-0.754438		-0.926527		-0.139067		1.54829		-1.23806		-1.50624		1.09838		-0.850847		-0.858673		0.896494		0.504511		0.501247		-0.195446		-0.323609		-1.24605		0.189145		1.84988		0.913739		1.89141		-0.0366479		-0.629113		1.92385		1.40701		0.223525		-1.06371		0.465554		-1.9736		-0.0200013		0.949429		-2.0526		2.18202		-0.825776		-0.936216		-2.23156		0.469297		0.325671		-0.547361		1.23173		1.84179		-1.75065		-0.76161		1.48356		0.248063		-0.736841		0.155631		-0.272304		0.972463		0.497743		-0.758423		0.744086		-0.571883		-0.250547		-0.217772		0.770841		-0.400422		-2.8237		-0.0765416		-0.39094		-2.93604		0.640751		-1.14399		0.770912		0.0127152		1.48709		-0.48155		0.714446		0.153037		0.955947		-0.942248		0.637799		0.868652		-0.885844		-0.567371		0.123257		-1.85107		-0.155052		-1.60994		-0.0292172		0.848089		0.441514		-0.342638		0.0176023		-0.613204		0.448381		-0.24719		-1.01202		0.934488		0.428215		-0.0411987		0.634917		-0.345738		-0.274218		-0.069851		-0.0328986		-0.177578		-1.83318		0.401971		-1.54466		1.69574		0.543836		-0.664532		0.205006		-0.260847		0.0574787		-0.523982		0.247835		-0.0846707		1.86142		-0.445203		0.0808636		-1.06052		0.590228		-0.141982		-0.651313		-0.247566		1.13993		-0.107688		1.84181		0.885852		0.309422		0.23984		0.281543		0.627911		-0.477782		-1.60483		-0.346458		0.95901		0.807889		0.283623		-0.365796		-0.603133		1.71779		0.463935		-1.6213		0.664289		0.144079		0.342406		0.517342		3.24438		-0.00340972		0.67275		-0.230627		0.90005		0.0771037		-0.514562		-1.6451		-0.714426		1.66319		-0.998631		1.08798		-1.26948		-1.70069		-0.196155		-0.146366		0.173672		1.08624		1.46608		0.137431		-0.792502		-0.327249		-1.66971		-1.47532		0.0927481		-1.55489		1.86158		0.289166		-0.0520689		-2.63803		1.66762		-0.840697		0		
-0.801808		0.787341		-1.1388		-0.233461		0.0449918		-0.526607		0.207777		1.67204		0.21643		0.587094		-0.946175		1.47426		0.175563		0.137098		0.785677		1.25555		-0.839781		0.338861		-0.843694		0.68983		1.23339		0.109102		-0.301585		0.757858		-0.977943		-1.02164		1.32282		1.69568		-0.0515542		0.0788566		-0.13094		0.87008		-0.798122		-0.328807		-0.714998		0.123312		0.847589		-1.29541		0.325922		-0.570546		2.19068		-0.176947		0.788105		-0.623998		-1.33351		0.0498481		-0.0228263		-0.358368		0.0717397		0.422252		-0.800222		0.71755		-0.645162		-1.531		-0.632307		-0.456646		1.03759		0.680731		-0.958636		0.646524		-0.145954		-0.96596		0.080042		-2.14025		0.125962		0.123364		1.44823		-0.585858		2.61711		0.494679		1.35179		-0.12267		0.600381		-0.259563		-0.578425		0.24048		0.322949		0.412703		1.81878		-2.02594		0.0818537		0.254015		1.46954		0.466292		-0.49464		0.0263873		-0.624736		0.914847		-2.31064		-0.112502		0.558115		0.961918		1.64133		0.109807		2.09533		-1.17868		-0.273309		0.0622927		-2.53369		1.2078		1.29809		-1.13994		-0.150959		0.709114		0.916465		0.265302		-0.0636879		-0.256434		0.0797375		-1.15142		0.449737		0.361021		0.105373		1.22138		-0.394825		-0.214409		-0.231271		0.0628428		1.2987		1.23988		1.59598		1.26532		1.04932		1.9837		0.243159		1.01118		-0.800056		-0.857567		0.548615		-0.392997		-1.52038		-1.532		-2.36687		-0.721406		-0.613519		-0.958425		0.00600044		0.466109		-0.51838		-1.14535		0.233682		1.7319		0.489882		-0.26007		-0.847716		-1.71064		-0.669659		0.511081		0.191126		-0.764973		-0.723455		1.34749		-1.09621		1.59392		0.0820234		-0.348186		-0.911655		-0.485702		1.43928		0.604995		-0.950372		-0.907653		0.176913		1.3433		0.595141		0.00561176		-1.27707		0.995623		0.0519477		0.250077		1.54696		0.623091		-0.926777		-0.758723		0.112385		0.483802		-0.685946		-0.549672		1.03422		0.894368		2.06375		-0.66363		-0.189804		0.0203819		0.071905		0.178343		-0.0676555		-0.518837		-1.72421		1.372		1.06171		-0.509786		0.779861		-1.21241		-0.24001		0.0829299		0.391479		0.408142		-0.0436065		0.0717266		-0.531309		0.934255		-1.32311		-0.0711344		-1.65017		-2.18614		1.63736		1.26834		-0.542302		-0.312227		-0.668112		1.32302		-0.145475		-1.81818		-0.23962		-0.560997		-1.91917		1.48967		-0.225132		0.122985		-1.17729		-1.0136		0.106469		-1.65445		-0.654612		-1.39991		0.000400213		0.156674		-2.55896		1.06576		1.56846		0.0624705		-0.801721		-0.994926		0.122009		0.469579		1.18476		1.17427		-0.536455		-0.93552		-0.87342		-0.970372		0.402767		-1.22117		0.198545		-0.0789679		-0.449408		0.276423		-0.335629		-0.698138		-1.30417		-0.555793		-1.20186		0.135353		-0.191807		-0.75667		1.7629		0.473435		1.35684		0.258513		0.869864		0.275447		-1.71886		-1.76202		-1.22493		0.559723		-0.349905		0.930685		-0.445781		-1.5882		-1.65084		-0.700855		-0.530824		0.0906027		0.422151		1.33978		-0.981406		-0.735601		0.330672		-0.66719		-0.0554307		1.26225		2.15209		-0.796391		-1.07236		-1.11468		-0.0883749		1.13091		-0.51558		2.31406		-0.242581		0.786822		1.20949		0.599412		0.493704		1.83716		-0.399335		1.01578		0.580472		0.0638196		0.348696		-0.179278		-1.0106		0.307603		0.0368188		-0.236023		-0.322337		0.0560784		-0.226881		-2.02709		-0.902517		0.293953		1.55086		-1.45343		-0.736373		1.16161		-0.928257		0.102567		0.740818		0.681257		-0.255426		0.903206		-0.252756		-0.251095		1.00614		0.0042516		-0.867905		-0.49251		0.920886		2.56932		0.627188		0.0436533		-1.3295		0.562014		0.456775		-1.38678		1.62034		-0.0399368		1.77441		-2.04778		0.23366		-1.24478		0.210899		1.74853		-0.44199		-1.06495		1.66516		-0.21701		-0.503862		-0.269213		-0.588976		-0.615606		-0.990954		0.444228		-0.683639		-1.88802		0.285587		0.091454		-0.541216		-1.31436		1.121		-0.657502		0.637578		0.221452		-0.473272		-0.733284		-0.407536		-0.238834		0.975763		-0.574175		-0.235532		0.430903		-1.88531		2.01415		1.83219		-0.323967		2.36184		-0.368058		-0.347765		-2.55456		1.63447		-0.442764		-0.853812		-0.203391		0.648654		-0.0733305		-0.900123		-1.40218		-0.214454		0.174081		-1.47357		0.168102		-0.468627		0.811117		-0.462101		-0.754362		1.88176		-1.43693		-0.509407		0.139159		2.40494		0.0719405		0.0366322		-0.120218		-1.53884		0.208165		-0.902441		-1.3466		-0.420999		-0.483465		0.192099		0.0299406		0.774288		-0.49174		-0.67482		-0.114235		0.825224		-0.295851		-0.177211		1.1298		-0.00458011		0.0442282		-0.113092		1.94172		0.0419354		1.00612		1.11925		1.32242		0.301219		0.354654		1.13667		1.67231		0.316452		-1.14632		-1.63549		-0.0659976		0.971394		0.721452		1.09131		-0.286653		-0.340011		0.348557		-2.18507		-1.72087		-1.22999		0.0911775		0.81951		-1.86884		-1.25001		-1.05791		-1.72196		-0.557024		-0.505111		-0.559049		0.802399		-0.405794		-0.90416		-1.02102		-0.413787		0.939237		1.41592		1.83304		-0.7495		-1.07608		-0.324038		-0.0621091		2.23915		1.08758		-1.79079		0.383389		0.367805		-0.769775		0.429625		1.0743		-1.04129		-1.60267		-0.141889		0.213734		-1.07082		0.0843579		1.15081		0.943877		0.781314		2.10755		0.360399		0.546726		0.666972		0.711983		1.20583		0.23704		1.095		0.746526		0.0558138		-1.78685		1.42099		0.437643		-0.522057		-0.121079		1.06628		0.929083		-0.914916		-1.14382		-0.561159		0.483729		0.192121		0.825088		-0.66537		0.191171		0.683421		0.501425		0.110236		-1.07747		-0.026321		1.87506		-0.512563		-0.708965		0.164567		0.397644		0.221204		0.94004		-0.129831		0.244632		-1.39235		-1.29567		-1.11027		0.15123		-0.563415		2.67701		-0.871884		0.898216		0.344634		-0.0197592		-1.17311		-0.574825		1.10836		2.568		1.91146		-1.80916		1.12995		0.646451		-0.462414		-2.00551		-0.596472		-1.02994		-1.22871		-0.307529		-0.623638		0.700625		-0.853083		0.380449		-0.628238		0.944688		0.573418		0.47143		-1.65886		0.60896		-1.3249		1.71374		0.876459		0.35663		1.54837		-0.992525		-0.0514514		0.281141		-0.491007		0.81011		0.0965962		-1.14794		0.624534		-1.356		0.749867		-0.235067		-0.345646		-1.35178		0.242875		-1.18528		1.71006		-0.210409		2.55938		0.376297		1.29629		-0.800951		-1.22342		0.311859		-0.276643		1.18411		2.21047		1.16986		0.179852		0.799626		1.40242		-0.740177		0.537526		-0.427911		1.09043		-0.701457		0.108434		1.6203		0.402143		-1.41051		-1.16583		0.597443		0.182087		-2.03976		-1.41649		0.375928		-0.00534456		1.07987		1.23995		-0.246384		-0.785746		-1.54224		-0.662725		0.847343		-0.877053		0.141228		-0.83856		-0.983403		0.178089		0.2435		-0.265845		0.839862		0.294749		-1.20288		0.521167		-0.30698		0.908508		1.03596		-0.350191		-0.752377		0.0887475		1.18658		-0.330553		1.40011		-0.129005		-0.250824		-1.79629		-0.225101		-0.201622		0.673313		-0.712085		-0.064538		1.06356		2.41635		1.16434		0.878912		-0.857428		0.706972		-0.284744		1.51004		0.422273		0.119871		0.423922		0.100814		0.859669		1.05284		-0.0903245		-0.805701		0.467263		-1.35544		-0.940235		1.4143		-0.173609		0.702135		0.694462		-0.541995		-1.798		-0.462952		0.637858		0.450573		0.196315		1.45509		0.18703		-1.88362		-2.12434		-0.872178		0.991693		0.119456		-0.664014		-0.261964		-0.867416		-1.01904		-0.159559		-0.338969		-0.494208		0.107276		0.0331508		1.19515		-1.89457		-1.80017		0.13119		-0.758648		-1.43874		-0.727629		-0.944434		-0.935504		0.571216		-1.48585		-0.968652		0.0713177		0.508497		0.0568836		-0.420103		-0.373416		0.499718		0.215775		-0.51675		-0.404143		0.664038		-1.08171		-1.51186		0.016565		0.584668		0.336944		1.70145		-0.170467		0.0746312		1.49366		0.439422		-1.41185		1.80587		0.151294		-0.204715		-0.0707558		-0.946553		0.322686		-1.02741		-1.03297		2.6318		-0.00573763		-0.00461725		0.616304		-0.0810989		0.160394		0.0236059		1.08465		0.926493		-1.35221		-0.347978		-0.155741		-0.0541749		-0.6914		-0.632326		-0.551844		1.47511		0.185774		-1.53762		0.439992		-0.294778		-0.709597		-1.77999		0.837415		-0.244468		-0.0412003		-0.16853		-0.404426		-1.71705		0.286691		1.27917		-1.20199		-0.672537		0.894468		1.51976		3.10183		-1.03368		-1.49874		-1.68781		0.751147		-0.946027		-1.07395		0.640967		1.56315		0.588742		-1.78099		1.13106		0.794548		-2.24247		-0.348451		0.737264		0.704486		-0.39954		-1.18347		-0.696923		-0.170556		0		
-0.498131		1.19187		0.874777		-0.920502		0.290556		-1.09212		2.51378		0.79193		-1.46981		-0.509644		-1.51933		-1.28197		-1.10871		1.21161		-1.50819		-0.0575492		-0.246813		-0.245292		-0.449413		0.357992		0.338717		0.953012		0.21063		-0.331648		0.961734		-0.611213		0.375905		1.88257		-0.541256		-0.369134		0.0810412		0.078865		-0.425174		0.0856413		0.89447		1.93666		0.0838822		0.0885737		0.106013		0.197221		1.47068		-0.00380944		0.520687		1.02347		-0.0256934		-0.248205		1.50469		-0.339896		-2.09589		1.47509		0.0270467		-1.85613		-0.151384		-1.82773		0.0392414		-0.583325		1.48226		-1.17927		-1.04989		-1.16766		-0.550449		0.38691		-1.32381		0.777119		0.46862		-0.504395		-0.060642		0.638579		-1.71771		1.92479		-0.0525648		1.55387		0.83678		-0.348519		-1.58987		-0.522078		0.310798		-0.0367167		-1.35031		0.155769		-1.20013		-1.95053		1.86834		1.06499		0.941781		-0.911978		-0.276966		-0.12379		0.07769		0.168757		2.07344		-0.765807		-0.00461827		0.241057		-0.269603		0.503507		0.611963		-2.10107		2.18298		-0.620007		0.29764		0.309253		1.09302		-0.662934		-0.0678994		2.31257		0.346657		0.826347		1.10612		1.24115		1.52577		-0.00503022		0.295429		-0.857104		-0.381762		-1.44137		0.933303		-0.0783673		0.761573		-1.58782		-0.282803		0.647984		0.16291		0.603651		1.18808		1.08373		-1.38863		1.535		1.11702		-0.122884		-0.0682225		-0.256017		-1.58547		-0.47144		0.294314		-0.608792		0.987705		-0.170413		-0.655571		0.63173		-1.00674		0.590081		0.0221257		-0.530094		0.374339		-0.101394		-0.723848		-0.0659205		-0.798075		-1.70729		-0.246773		1.02993		0.675826		1.9832		-0.430951		0.750517		1.48637		0.0594032		-0.506288		0.0355229		-1.18867		2.0341		-1.02873		-1.52878		-0.798844		-1.06642		-0.136934		0.756489		-0.29581		-1.59472		1.37167		1.09862		-1.74693		0.399542		-1.47776		-0.104325		-0.7342		0.139462		-1.50576		0.294681		0.0219125		1.48898		1.40534		-1.46467		-0.747159		-0.17261		0.532755		-1.01852		-1.78141		0.822085		2.10904		-0.858535		1.18668		-0.682888		0.316468		-1.04007		0.133476		-0.754505		1.62718		0.246009		-0.270907		-0.14581		2.25359		0.881099		1.0659		0.289416		0.105477		0.0421707		0.0811986		0.436723		0.499097		0.103271		-0.76695		1.14898		0.579788		-0.598951		-1.31538		-0.0527091		1.82797		-0.192576		-0.424951		0.861272		0.548363		-0.866094		-0.960441		-0.463365		-0.805127		0.20646		0.0398556		1.80738		-0.295768		0.150465		0.540912		-1.21474		-0.54445		1.27539		0.0428862		0.161624		-1.72127		0.436097		0.086901		-0.0367102		0.897792		-1.32856		0.717523		-0.870904		-0.787015		0.486065		0.12596		0.419268		0.0743854		-0.209585		0.33949		1.6245		0.306606		-0.409573		0.311874		-1.17698		-1.32574		-0.378635		0.463351		-1.22085		0.862058		-1.83226		0.261018		-0.870745		-0.787766		0.541405		1.55976		0.683236		2.54458		0.937393		0.672466		-1.29177		-1.65452		0.822539		0.931334		0.723196		-0.376144		-0.466269		-0.697373		-1.04203		0.120902		-0.436439		-0.539728		2.22617		1.4254		-0.0533088		-2.50392		0.518076		1.06295		-0.633339		-0.362533		-1.26522		-1.20896		-0.0117937		0.0846001		-0.958505		-1.04248		0.0705103		-0.116142		0.80346		-1.27526		0.0106647		0.715793		0.972207		1.0264		-1.34678		0.73513		-0.265096		0.0524595		0.465869		-0.0189242		-0.455967		-0.639515		0.623405		0.147745		-1.46921		-0.603934		-1.07479		0.622895		0.378492		0.744423		-1.90153		-0.928335		-0.510866		1.20574		-0.890076		-0.236547		-1.00318		-1.42206		0.73473		0.26393		0.930504		0.564914		0.831162		0.0602282		1.52389		-0.192066		-0.817275		-0.361533		-0.685118		0.194542		1.31319		-0.0770678		0.50382		-0.321271		-1.1674		0.253086		1.97416		0.373163		-0.100776		-0.541725		0.510962		2.00682		1.16714		0.960991		0.318402		-0.790933		-1.50055		2.26811		1.71293		-0.46674		1.0373		0.414204		1.1379		0.0317773		-1.85709		0.405349		-1.47159		-0.119933		-0.0349231		1.55723		1.1829		-0.934143		-0.305368		0.84462		0.635058		-1.64471		-1.35465		1.02758		0.12788		0.206376		0.202371		-0.0666186		0.397341		0.691753		1.98281		-0.773456		1.90503		-2.12914		1.94008		1.21369		1.27827		-1.14559		-0.500423		0.389716		0.2972		-0.503485		-0.413632		-0.876453		-0.836635		1.06283		-0.598435		1.25605		-0.64726		0.0579344		-0.0910118		-0.318888		1.74155		-1.26791		0.376735		-1.87411		-0.472585		-0.383274		-1.28941		0.234734		0.0901091		-0.724661		0.74865		-0.66222		1.40493		-0.847344		-1.19477		0.310879		0.198226		-0.181259		-0.285147		0.731634		1.17264		-0.9808		0.54079		-0.304003		0.0599601		0.780873		0.676822		0.991064		-2.31033		-0.454171		-0.636688		-0.309771		-0.275169		-0.604447		-0.110039		-0.583062		0.775776		1.95871		0.871111		-1.49517		0.399965		-1.80039		-0.380437		-0.267304		-0.548235		0.127041		-0.215426		-1.38941		-0.437482		-1.18274		-1.66207		-1.52728		1.78659		0.386404		0.55193		-0.566507		0.606761		-0.313915		-0.419131		-0.175161		-0.629967		0.0492734		-0.637808		-0.387007		-0.851815		0.0790382		-2.34927		0.0765502		0.176726		-0.727621		-0.58586		-0.312935		-0.764252		0.61085		-0.299847		-0.489986		-0.970452		-0.522308		1.54277		0.481154		1.57982		-1.21705		0.381873		-0.835088		-2.06505		2.06056		-0.344132		-0.850128		-0.287073		-0.771383		-0.285888		-1.26524		-0.230323		-1.21617		-0.197057		0.382976		1.37789		-2.53036		0.421834		-0.412408		-0.221601		0.89896		1.19328		0.0377825		-0.44943		-0.752912		-1.12844		-0.109729		1.05884		-0.663642		-1.78955		-0.319687		0.552378		-0.45504		0.295036		0.502761		0.393702		-2.47142		0.178752		0.990107		-0.145827		-0.378279		-1.2724		-1.84061		-1.33717		-0.11841		0.52581		-1.46992		-1.0047		1.34422		0.416889		0.565926		-0.175304		-0.497563		-0.7022		0.378396		-0.407103		1.44667		-0.983344		0.541996		-1.63242		0.641874		-0.446756		0.339706		-0.126218		-0.861759		-0.368792		-1.00992		1.35999		0.622587		0.138152		-0.290006		-0.653304		-1.75739		0.523902		0.694924		0.417167		0.917631		0.426545		0.2925		1.06974		0.0826824		-0.831954		-0.997071		0.827624		0.068913		2.1964		-0.0253218		-0.168562		0.175511		1.49614		1.1779		-0.274751		-1.3201		-0.131024		0.614336		-1.26718		-0.620495		0.718095		0.294061		-1.40848		1.23818		0.766799		-0.0538502		-0.282687		-0.0692944		-2.06974		0.953553		2.67705		0.393423		0.424865		0.998858		-0.563541		1.05102		0.13324		0.794689		0.466076		-0.190789		-1.73708		1.536		0.292034		-0.609485		1.18107		-1.2741		0.0109219		0.29966		0.888778		-0.482213		1.23012		-1.25072		0.487842		-0.935245		0.351277		1.80809		-1.93379		-0.373028		0.180353		0.379802		1.63681		-1.53968		-1.79891		-0.53489		-0.834075		0.341081		-0.339307		-0.121003		-1.37809		-0.330419		-1.55277		1.39297		0.00709347		-0.366503		1.08983		-0.71636		-1.14793		1.11796		-0.832938		-0.556847		0.822135		-2.15102		0.334481		0.137764		-0.207896		-0.140189		-0.655523		0.546317		0.193339		1.12998		-0.592414		0.143689		1.18224		-0.128847		0.756688		-1.91269		0.295053		0.532301		0.856372		-0.547899		-1.23813		0.457049		-1.07665		-0.15759		1.37879		2.59118		0.390148		-0.0669361		0.315908		-0.678365		-0.574144		0.952831		-0.150101		1.75262		-1.07785		-0.67063		0.616492		2.7528		1.62495		1.20941		0.547365		0.854915		0.529818		-0.744522		0.270151		0.685346		-0.227566		-0.592727		0.470555		2.17973		0.688886		-1.31846		0.411259		1.19155		0.0185946		0.872048		0.714065		-0.789932		0.939645		-1.9757		0.128105		-0.636919		0.773698		0.775832		0.761737		1.12244		1.17106		0.300296		-0.192746		-0.536819		0.133935		0.634458		0.629651		-1.18907		-0.209119		-0.251293		-0.010645		0.965686		-0.672902		1.41111		0.0699097		1.64845		0.158429		0.400087		-0.594885		-0.0953411		0.652775		0.0172874		0.707499		-0.214766		-1.88016		0.0639995		0.722963		0.473199		-0.0433432		-0.0308402		0.464234		0.163962		0.465726		-0.482077		-0.395133		-0.929163		0.836705		-0.103949		-0.689493		-0.702851		-0.742368		-0.221272		0.00690008		0.63666		-0.646315		1.22676		-0.749168		-0.27134		0.602921		1.18747		-1.35773		-0.143334		-0.121528		0.267551		-0.631339		-0.158747		-2.08108		-1.5025		-0.589244		-0.900528		0.289797		0.555835		0.725621		1.99143		-0.612211		-1.86005		0.42767		0.595886		0.415648		0.467211		-0.975217		0		
-0.592636		-0.509681		-0.83131		0.440496		-0.794035		-1.4708		-0.404294		1.74567		-0.145947		-1.03818		-0.427484		0.0712524		-0.428429		0.368886		-0.211242		0.74657		-1.30911		-0.547964		-0.858338		0.694258		-0.0179741		-1.19819		1.1092		-0.519945		0.412604		-1.12554		-0.938305		1.74052		0.279938		0.240149		2.27026		1.28779		1.01872		-0.489797		1.55452		1.21257		0.153668		-1.68231		1.83236		1.26674		0.254371		-1.37938		-0.497965		0.727649		-1.05802		-0.240266		-1.27913		1.09525		0.442525		1.89788		0.409552		-0.327834		0.45299		-0.791596		-1.95813		-0.0445517		0.240171		-0.89377		-1.94469		-0.863135		0.694382		0.782066		0.519595		-1.02908		0.317886		0.469568		-0.739584		0.0573399		1.29823		-1.36753		0.116055		0.894117		0.530717		-0.0144807		-0.197005		-2.16033		-0.0624266		-0.563022		0.00252887		0.374669		0.349012		1.21573		0.178253		-0.0572862		0.518032		-0.0363917		0.514334		-1.86581		-0.603989		1.09069		-0.33745		0.0517011		-0.437644		0.0720674		0.317619		-0.609327		-0.419615		1.13006		-1.59998		-0.580285		-0.194274		1.13624		-0.979093		0.169358		1.66636		-0.820501		-1.09482		-0.771063		0.535457		-1.24795		1.18797		1.92529		0.143149		0.270407		1.27889		0.544058		-0.982555		0.961825		-2.82835		-1.46973		0.342817		-1.11009		-0.627485		0.362839		1.33951		-0.641666		-0.824381		-0.135705		1.09811		0.058995		0.990523		1.96842		-1.13979		0.170771		-1.66791		2.19517		-0.192832		-1.88534		-0.362525		2.67916		-0.0968542		-1.93595		-1.53147		0.344581		1.14876		0.12406		0.33548		0.750891		-1.80524		2.5874		-0.996651		0.889699		0.0440991		0.183376		-0.692793		-0.102243		-0.368753		2.09091		0.573906		0.0213031		0.403215		0.0159036		0.324248		-0.653531		-0.136493		-0.430317		-0.204569		0.996344		0.613825		-0.980266		1.85453		-1.40431		0.476458		-1.80446		-0.776171		-0.196935		-0.637625		-0.375924		-0.244977		0.765764		-1.74024		1.17719		-0.315044		-1.06504		-0.844246		0.95847		-0.0687475		-0.100677		1.23849		-1.70516		1.2678		0.479289		1.68168		-1.80016		0.608161		-1.52259		0.06435		-0.44827		1.2759		1.08858		0.985597		-0.415506		-2.11664		1.03702		0.434702		0.122109		0.896077		0.426763		0.092727		1.25534		0.907197		1.06528		-0.278584		-0.438502		-0.0341381		1.81767		-0.495045		-1.56032		0.290826		-0.918237		-0.682224		-0.246697		0.191379		0.697423		-0.83208		0.42961		-1.91727		-1.26041		-1.53813		-0.781991		-0.0974388		0.178164		0.237845		-1.46343		-0.620997		1.20415		0.696283		-0.0218189		1.53627		0.311452		1.69159		-0.327961		-0.772288		1.02901		0.347096		0.378357		0.551736		1.37628		-0.927264		-0.232185		-1.25647		-1.11278		-0.110805		2.16439		-0.640284		0.27083		1.3227		1.20165		0.539231		2.45504		2.85821		-0.484585		1.016		0.0875554		0.217806		0.319178		-1.24846		0.408041		0.744176		0.461614		0.0246565		1.76556		0.584392		0.176033		-0.63737		1.57189		0.554375		0.090267		0.76654		0.416895		-0.380969		-0.0366259		-1.5152		-0.532576		-0.0123311		-0.274291		1.16201		0.270354		-1.02393		-0.696154		-0.0974522		1.20021		-0.143384		0.837862		0.505402		-0.291382		-1.29986		-0.703896		-1.21906		-1.2488		-1.34408		0.687915		-0.616636		2.3997		-0.110257		0.724135		-0.762752		-2.30636		1.14013		-0.0561108		1.3818		-0.210268		-0.037815		0.0675044		-0.707044		-0.852254		0.0965644		0.811467		0.46425		2.77182		-1.21592		-1.50466		-0.266452		-0.559912		0.370122		-0.15131		2.05212		-0.142781		-1.49242		0.99616		1.24332		-0.579941		0.273535		-0.714217		1.38202		-0.820762		1.29537		1.22285		0.324822		-0.579983		-0.990452		-0.439928		-0.0308497		0.0279193		-2.05574		1.27083		0.380191		1.27805		0.748099		-1.795		-0.597207		0.452643		-0.00345662		2.5688		0.678462		0.488998		-0.432964		2.36994		0.559645		-0.511782		1.04191		0.36494		0.129765		-2.43051		0.808731		1.86363		-1.14795		0.813457		-0.0988716		-1.07364		0.393883		-0.10447		0.0855776		0.441414		0.241177		1.04372		-0.140315		1.33293		-0.558965		1.83692		1.58294		-0.996356		-1.86131		-1.20487		-1.51147		-1.28799		-0.121113		2.16702		-0.475217		0.78257		-0.24405		-1.09274		-1.33539		-0.378257		0.923144		0.210544		0.348258		0.666734		0.38979		1.22061		-2.01609		0.576807		0.295797		-0.107317		-0.152312		0.791004		1.02004		0.164216		0.348704		0.830845		-0.38084		0.00866374		0.436575		-0.129409		-1.18939		-0.634939		-0.492718		0.700658		0.779666		-1.54614		1.77243		-0.863269		0.488176		-0.66649		0.00250933		-1.19248		-0.209024		-0.834251		0.499093		0.871495		1.02055		-0.0829947		1.11988		0.66252		-2.64343		1.44865		0.970986		-1.51487		-0.817648		-0.725758		0.761383		0.459193		-1.88714		-1.461		-1.59048		-1.26296		-0.629341		-2.99501		0.211999		0.706038		1.53886		0.507771		0.111939		0.309613		-1.45876		0.456384		0.242628		0.861987		0.570994		0.387318		0.522615		0.197355		-0.689194		-0.235367		0.774019		1.10654		-1.00046		0.721148		-0.782238		-0.131403		-0.0636035		-2.12775		-1.34654		0.56833		0.776303		0.467385		0.588014		-1.24034		0.0439457		1.02443		2.18641		-0.0866309		1.27482		0.23045		0.756523		-0.414173		0.694046		0.00813948		0.869849		0.691685		1.67471		0.219359		-0.640434		1.12137		1.38937		0.421346		-2.07256		0.579087		-0.278147		-0.218014		-1.71571		-0.765607		1.03527		0.245638		0.743741		-0.150922		0.479846		-0.227465		0.180918		-0.000923387		-0.625803		-1.73575		-0.517552		0.385141		0.538402		-0.0619088		-1.56793		1.27371		-1.46304		0.591688		0.30693		0.298713		-0.581137		-1.04848		-0.50842		0.848397		-1.19449		0.768527		-0.359946		0.271197		-1.39821		-0.0967515		1.35996		-0.775712		-0.0334307		0.847275		-0.212567		-0.16069		-0.0186579		0.358039		-0.0618625		-0.917386		0.399876		-1.43883		1.67137		-0.278972		0.421106		1.56299		-0.504359		0.510448		-0.861371		-1.82763		-0.859492		-0.39507		0.673058		-1.04301		0.319928		0.818142		-0.691118		-0.494862		0.501731		-0.127065		0.168469		-0.238321		-0.196572		-0.14389		1.05743		0.367551		1.16234		0.0700514		1.95884		2.09756		-0.61973		-1.05984		0.301608		1.48681		-1.81793		-0.339279		0.0996514		0.0883624		-0.676332		1.16065		0.63914		-0.102839		-1.1098		0.400715		-1.22888		1.51658		0.557906		-1.58721		0.508273		2.12475		-0.915197		-0.339034		-1.62187		-0.238556		0.625784		-0.748314		-1.45044		1.2288		1.23676		-0.0663509		-0.0661453		-0.340019		0.206249		-1.0301		-0.599637		2.40791		0.923501		0.917012		1.62879		1.66913		1.11573		1.33085		-1.1698		1.31429		-1.13565		-0.871958		0.307208		-1.08524		0.402085		1.54622		-0.412509		-0.531065		1.3669		0.264913		2.09356		0.712668		-1.88655		0.208196		-0.467513		0.423197		-0.264691		1.48818		0.167754		-1.30042		-1.6889		0.19518		-0.474335		-0.273346		1.23572		0.912274		2.13729		0.429162		0.399836		0.304115		0.752369		0.82521		0.739983		-0.479232		0.168674		1.03157		-1.06583		-0.422156		-1.42655		1.28278		0.190345		-1.00093		-0.0128527		0.491797		1.75227		1.2467		-0.634009		0.999179		-0.063233		-0.65734		1.24533		0.438905		-1.27078		0.527805		-0.408309		0.0460152		-0.281715		0.226229		-2.05307		-0.33321		-0.00909839		-0.648033		0.360949		0.413575		1.27693		-0.521952		0.041648		1.22504		-0.57599		-0.198327		-0.140247		-0.00359069		-0.729435		-0.11328		-0.726184		1.56658		-1.43167		0.693014		-0.188937		0.319009		-0.95044		-0.525396		-0.328748		1.19284		0.189749		-0.218903		1.05618		-1.2843		0.761123		-2.8051		-0.0237583		-0.0559787		1.21225		0.114257		3.15267		1.96337		-1.16902		-1.03541		0.470649		-0.0936054		0.279713		1.36308		0.379604		0.529405		-0.262381		-0.444559		0.352362		-0.544231		-1.22316		0.104508		0.153045		-0.94327		-0.403082		1.11067		-2.07293		0.608499		-0.425131		-0.479619		-1.24899		0.294077		-1.14857		-0.225583		-0.166244		0.84605		-0.97757		0.782684		-0.643027		-0.140704		0.81169		0.576976		0.330465		-0.237585		-0.547655		-1.54312		1.2987		1.02063		0.465511		-0.26558		-1.31912		-0.0296336		0.28219		-1.05806		-1.2589		-0.602125		-0.342405		-3.79822		-1.26059		-0.275932		0.489281		0.168649		0.460434		0.664709		0.377453		0.829314		1.14887		0.390386		0.381091		1.58047		0.754662		-0.406902		-1.75482		-1.12088		1.80288		-1.43462		1.30158		-1.13699		-0.296735		-0.497024		0		
