4		784		relu		softmax

183
-0.448529		-0.20995		1.82327		-1.44919		-0.414009		0.135852		0.52066		0.53817		0.827166		-1.72226		-1.18836		-0.959459		0.480635		0.303566		-2.10115		0.185951		0.408792		-1.56245		-1.53828		1.65244		0.165019		0.442986		0.496322		-0.445881		0.325323		0.402535		0.0908615		0.0869562		0.579108		-0.243264		-1.5221		0.162657		1.84065		0.969119		0.862523		0.0518772		-0.269039		-1.73289		1.27864		-0.0790684		1.41009		-0.779023		0.682782		-0.390532		0.369238		-2.12655		-0.535396		-0.171496		0.89573		-0.215725		0.038223		0.945893		-2.00079		0.219427		0.308485		0.190571		-0.679628		0.796759		-1.05397		-1.72896		-1.21636		-0.38366		-0.0371967		0.0584326		-0.614538		0.512644		-0.0657776		-0.374225		-0.645046		0.905318		0.762941		1.60733		0.0251835		1.02729		-0.417145		1.68272		-0.959148		-0.920494		-1.36288		0.717534		0.146251		0.966558		0.424095		0.896242		-1.8723		0.959887		-0.314804		-0.0506819		-0.1939		0.0269251		0.859102		-1.58958		-0.232955		-0.191182		0.587117		-0.815648		0.600748		-0.300783		0.973224		0.897751		-0.52952		-2.36237		1.57684		-1.08799		1.39624		0.527957		1.73348		0.1099		1.28203		0.00390184		1.42261		-0.220183		-0.0738484		1.03218		0.141202		0.896774		-0.671831		-0.0207404		2.03324		0.780958		1.98469		1.57604		0.510378		0.735772		-0.0379934		-0.887554		0.673176		-0.487091		0.748358		-0.229951		1.80152		0.334662		-0.814471		0.945237		-1.65255		-0.2735		0.113685		-1.13012		2.20153		0.0749115		-1.93818		-0.41027		0.638632		0.726407		-0.0199748		0.147959		1.21889		-0.0822987		-0.506756		0.242742		0.0176311		0.732616		-0.696455		0.0379506		-1.21181		-0.00496785		0.123943		0.466785		0.760421		-2.47585		0.0444405		-1.27904		-0.696215		-0.709346		0.457995		0.459206		0.319122		0.411536		0.240305		-0.363149		2.66424		0.478917		-1.27327		-0.143131		-0.527996		-1.00559		0.587592		1.55191		-0.387714		1.18082		2.74927		0.597594		0.0813173		1.14221		-0.0709956		0.202308		0.160434		-0.0250155		-0.735301		0.225174		-0.265853		0.47905		0.408233		-0.177806		0.182965		-0.481011		-0.357832		1.26752		1.29386		-0.169169		0.152668		-0.685911		2.2965		0.36381		-0.452406		-0.349141		0.530576		0.515357		0.42677		0.773604		1.4393		0.841339		-0.841026		-0.567107		1.00245		-0.127702		-0.126823		-1.346		0.443571		0.295572		0.750379		-0.277829		-0.427193		-0.664033		0.24636		-0.979276		2.06278		0.503541		1.4759		-0.75275		-1.52173		-0.202287		-0.522245		-0.47255		-0.957295		0.53414		-0.266452		2.22465		-1.7903		0.306044		-1.26829		0.998456		-0.667818		0.230323		0.0785991		0.0522299		2.47811		-1.08592		-0.453574		1.00311		1.08806		0.190023		0.203174		0.390869		-0.943274		0.439881		-0.344107		-1.5337		-0.530382		-1.34782		1.32226		-0.0370255		-0.873024		1.36608		0.546784		0.50324		1.36364		1.29369		-0.152029		1.15121		-0.346351		0.0933279		-1.09663		-1.11366		-0.868719		1.32577		2.18036		0.261188		0.214228		-1.1017		2.8765		0.893244		-1.74274		0.162949		1.2503		-0.338948		0.00569406		-0.413722		-1.32112		-0.625253		0.62207		0.49966		0.600006		-1.06945		0.298066		-1.4232		-0.393255		0.0145175		0.0598756		-0.849651		-0.247237		0.40307		0.960866		1.26857		-0.21073		-0.67455		0.0328402		-0.111736		-0.38624		-1.78493		0.819037		-0.843886		1.28875		0.341324		-0.560296		-0.78525		-0.925308		-1.09636		-1.63746		-0.120364		-0.0740831		-0.832318		0.436845		0.0446766		1.68855		-0.344942		1.44734		-0.663352		2.02304		-1.21207		-0.127647		-0.263981		1.5054		1.00867		0.385589		0.430244		-0.765934		0.402116		1.30887		-0.160247		-1.62827		-0.826127		0.364674		0.17549		-0.614426		0.852099		-0.937635		-0.12772		-0.793524		-0.919297		0.486462		-0.285996		-0.355536		1.25229		1.97829		-0.421683		0.889816		-0.193759		0.652583		1.37525		0.332345		0.485279		-0.773962		0.349106		-0.46745		0.99862		1.65716		1.18324		0.972651		0.250796		-0.870279		0.189974		-0.801768		-1.09394		-0.275182		2.46987		-0.617335		-0.334776		-1.06876		-0.572197		-0.211093		0.412573		1.21454		-0.330367		1.84622		2.48425		-0.561559		1.18746		-1.10701		0.524855		-1.0942		0.0345198		-0.545236		0.0492362		0.493092		0.0594828		-0.877701		0.592194		1.09169		0.80386		1.28376		-0.847973		-1.77837		-0.456552		0.701562		1.59687		-0.29101		-0.442461		0.1145		-0.229406		0.726189		-0.26097		-0.240555		-0.234529		-0.676487		-0.0879635		-0.269024		1.01727		-1.41309		0.487224		-0.31483		1.05099		-0.413131		-2.66438		0.621877		-0.522803		-1.34877		-0.260364		0.156657		1.08228		-0.329673		1.48409		0.460881		1.49953		-0.59426		-1.82018		0.0380634		0.0292185		0.159586		0.957384		-0.43662		-1.55574		-1.36337		-0.0967878		-0.156706		-0.0797675		0.306493		0.860134		-0.286802		0.321492		0.419897		0.83828		-0.249431		-0.189212		-0.582212		-0.456319		0.720797		-1.45153		-0.692501		-0.988452		-0.37443		0.319076		0.308018		0.623249		-1.22713		-0.519661		-0.930634		0.604489		-1.46413		-0.525035		0.469961		-0.457385		-0.0720843		-1.12498		-0.136963		-1.73414		-0.165404		-0.830445		-0.253125		-1.16581		-1.32641		-1.52025		-0.358145		-0.832383		-1.31228		-0.860111		-1.17774		-1.01771		0.686442		-0.743006		-0.768116		-0.422415		-2.45		0.529309		1.26839		-0.612262		0.34212		1.45629		-0.667951		-1.4438		-0.604826		0.638573		0.737026		-0.954703		0.118508		-0.298706		0.486754		-2.73752		0.388459		0.253951		0.182202		0.267615		0.10006		0.683837		-0.163552		-0.193748		0.29283		-1.48854		-2.00139		-1.3014		-0.440043		0.552359		-1.03628		-0.536471		-0.765766		0.856857		1.1321		0.00518327		-1.51171		1.33778		1.26201		-0.674616		-0.843069		1.43358		0.250283		-1.48371		0.76277		-1.03822		0.0227043		-1.16192		-0.0854804		-0.191293		-0.348142		0.104491		1.17065		0.0857276		-0.988093		0.828027		0.648703		-0.550311		0.0576994		-2.2631		-0.340688		1.24618		-0.202087		1.10185		-0.208331		0.749593		0.826403		0.0232739		1.40279		-0.830666		-0.641102		-1.27939		-0.246878		-0.757412		-1.17677		0.691836		-0.741546		0.139174		-1.44676		2.27897		0.542699		2.64827		-0.824446		-1.76396		-0.548158		-0.634615		-0.355282		1.8127		0.038785		1.14905		0.59261		1.42065		-2.2589		0.298877		-2.40393		0.0202344		-1.25599		-0.580549		0.200401		1.52665		1.93265		-1.52973		3.2589		1.01085		0.433235		0.372487		-0.575274		-0.126931		1.01032		1.01955		-1.0832		-0.39523		-0.165115		1.65857		-1.14668		-0.248737		1.27154		-0.0796009		0.288056		-1.70057		-1.39014		1.89211		-0.316781		0.193676		0.545256		-0.00879948		-0.819664		-0.325127		0.601576		0.0973523		1.2556		0.115501		0.22759		0.678029		-0.646253		-0.0886498		0.828096		0.165989		-0.209322		-1.25703		-0.500558		-0.467756		-0.159209		-0.190801		-0.574604		0.851921		0.488427		-0.736201		-0.825532		1.04107		-0.597828		1.54994		1.34483		0.31355		-0.916117		1.714		-0.94626		1.05832		-1.27271		-0.629307		0.701389		1.01399		0.683509		1.91371		-0.840352		2.12234		1.03094		0.453625		1.08144		1.07938		-0.0381943		1.26487		-0.814777		0.693911		2.1011		0.194899		1.20434		0.495982		-0.650903		-0.999575		-0.643345		-0.27878		0.561588		2.27768		-0.0100883		0.510355		2.2119		1.5954		-0.169543		0.343486		-0.800636		-2.20139		-0.504814		0.819757		0.490957		-0.323973		1.10137		-1.28237		-0.0313902		1.17877		0.790577		0.681057		0.555454		1.92201		-0.686982		-0.779271		0.807989		0.513926		-1.04484		-0.0957913		-0.738659		0.871675		0.123744		-0.856722		1.3893		-1.59173		-1.94304		-0.13711		0.583872		-1.21685		0.559812		0.0581352		-0.461878		0.406441		2.47893		0.38667		0.0932535		0.39844		1.15699		-0.525391		1.40057		0.455842		-0.317603		1.92234		0.266566		-0.636132		0.382653		0.00096261		0.943152		-0.451815		-1.43698		1.0417		-0.245855		1.14723		0.32624		-1.38164		0.773756		-2.23352		-0.269635		0.119211		0.361495		0.823115		-0.863986		-1.81392		-1.44557		0.614829		-0.119755		-0.0618967		1.14027		-0.468395		0.231874		-0.619426		0.675564		1.82731		1.27432		-0.116894		-0.630816		0.85771		-0.184957		1.52376		-0.143234		-0.710397		-0.317039		0.504229		1.48006		-0.274451		0.953103		-0.655535		-0.338723		1.58531		-0.871118		-0.0910882		1.37158		-2.59991		1.19066		1.27733		-0.170172		-1.41954		-1.55839		1.0078		0.807301		0.297064		0		
-1.50603		-1.45378		-1.82379		1.65519		-0.529479		-1.05913		0.7971		-0.929334		0.0581408		0.585828		1.18693		-0.555201		0.755263		0.131875		-0.839034		-0.855043		-1.42993		-2.47894		-0.483201		1.35049		-0.213697		0.498504		0.183769		-2.01482		-0.512475		1.3362		1.76467		0.145695		-2.23925		1.14915		0.702324		-1.06502		0.342157		-0.314235		-0.923524		-1.08475		0.321639		-1.2192		0.490248		0.111431		-0.277537		0.234049		1.44239		-2.92138		-0.319523		-0.258406		1.85813		-0.753808		-1.46435		1.75772		-1.05375		-0.560787		-0.841248		-0.188431		0.226191		-0.0884207		0.238291		2.05615		-0.0263537		-0.490351		-0.794968		0.357147		-1.1433		0.351835		-2.07211		0.359837		0.903066		-0.0678359		-1.22564		-0.0853636		0.258562		-0.591365		-0.186618		-0.163628		-0.311518		1.54726		-0.171293		0.558687		1.46893		-0.92596		1.19701		-1.22756		0.594566		-2.36782		1.09236		-0.642492		0.267238		0.793846		-1.8424		1.7599		-1.62509		0.196925		-0.309779		1.68282		0.689164		0.172011		-1.29854		-0.780061		-1.52408		0.694522		-0.301328		-0.523197		1.78083		0.130403		-0.618488		1.58995		-0.282448		0.0866491		0.124774		0.221493		0.37411		1.1938		1.47295		-1.45922		0.274257		0.968987		0.0820094		-1.60297		0.160397		-0.243359		-0.840334		-1.41252		0.87125		0.534833		0.052366		-1.13471		0.926241		0.822505		0.627978		1.14341		-0.751109		-1.0999		-0.98641		-0.578747		0.18539		-0.392379		-0.332801		1.01836		-0.618708		-0.383749		-0.891756		-1.05459		-0.381462		0.698466		1.52797		-0.564823		0.730091		-0.0203099		0.520792		-0.31773		-0.959114		0.987159		-0.559911		0.0616259		-0.81763		0.427814		0.992533		-0.609714		0.829327		1.39613		1.46141		0.723846		0.904752		0.296188		-0.444358		-0.222495		-0.41263		-0.33532		0.507041		-0.148165		-2.71455		-0.811893		0.347502		0.410779		-1.01113		-0.454421		-0.665801		0.530159		-0.776784		0.138469		-1.29219		-0.40004		0.918979		1.42363		0.196419		-1.50033		0.128801		-0.325807		3.7026		0.469269		0.718734		-0.071056		-0.212385		1.63251		-0.38577		-1.06689		-0.321294		-1.38477		0.0508062		1.58389		1.09514		0.321668		-2.03965		-0.370781		0.0805232		-1.10799		-0.410774		-0.0304232		1.13528		-0.892217		-1.89006		-0.862793		-0.407547		0.166119		1.21277		-0.663733		0.681023		-1.3986		1.62407		-1.25379		-0.790148		2.55612		-1.15526		-1.33848		0.543311		-0.769042		-0.81211		-0.151831		-0.674579		0.529021		-1.33882		0.819584		-0.527973		1.23954		0.590097		-2.2169		0.620037		-1.52625		0.752639		-0.652136		-0.796856		-0.830234		0.380301		-1.05089		1.46032		2.60666		0.386991		-1.03616		0.946935		0.640518		0.820537		-0.225734		0.250371		0.462833		1.49694		0.225785		0.943979		0.839405		-0.645225		-0.70162		-0.467578		0.33851		-0.126109		0.415334		0.671229		-0.290471		-0.556269		0.798527		-0.979862		-0.235466		-1.34781		0.25191		1.92408		1.3569		-0.886046		-0.0377384		-1.19144		0.119352		1.21714		-0.482083		0.269449		-1.4856		-1.11123		-0.854041		-1.46758		-0.797568		1.22761		-0.422169		0.619744		-0.535807		-0.43394		-0.154346		-0.978937		0.965089		0.381129		-0.912268		1.63433		-0.393588		1.08587		-1.711		1.9231		-1.28631		0.286115		0.841774		-0.661542		-0.636025		0.551945		0.894045		-2.12283		1.78213		0.0977858		-0.416608		-0.394058		0.712191		0.487227		-0.0961614		1.70369		0.957323		1.28421		-0.773784		1.41379		-1.49195		-0.437946		-0.505497		0.487549		-1.39865		0.486078		0.142807		-0.0729718		1.75704		-0.14923		0.315356		0.92647		-1.5204		0.916957		-0.276049		-0.571302		-1.81704		-0.143826		-0.744294		-0.441487		-0.905064		0.369692		-0.601749		-1.39648		-0.854351		0.462812		-0.969189		1.52088		0.830831		0.0554485		-0.0795931		0.428796		0.590837		0.784695		-0.826338		-1.12777		0.580302		1.46292		0.78607		0.323159		1.42022		0.570097		-0.629444		1.03484		-0.248872		0.0209322		-0.802005		-1.38995		-0.759029		0.461212		-0.654037		-0.877776		-1.32013		-1.23638		-0.382536		2.06552		-1.43951		-0.157655		1.95912		-1.71937		0.0371782		-0.105881		1.77192		-0.749041		0.78429		0.457322		-0.0452244		1.39934		-1.42994		-1.0263		-0.0450913		-0.0360137		-0.712215		1.16155		-0.498199		0.43529		-0.705213		-1.15404		-0.60468		0.783646		0.390466		-0.0330338		1.60318		-1.04642		-2.35793		1.27987		0.938934		-0.478016		-1.67417		-3.4919		0.343789		1.05733		0.495934		-0.349555		0.242052		0.34847		0.193431		-1.46374		2.43077		-1.92775		-0.180466		0.117809		-1.14652		2.11138		-0.542076		-0.435705		0.863642		0.735893		-0.474733		0.949895		-0.387959		-0.474354		-0.0885721		-1.97608		0.0730212		-2.36989		-0.658939		-1.05808		0.897473		-0.355374		0.100713		0.592052		-1.28419		-0.572546		-1.23776		-0.0170517		-0.184296		-0.93923		-0.263651		0.138915		-0.19487		-0.599986		-2.00681		0.458121		0.543711		-2.60459		0.427049		0.896507		-0.258493		-0.8926		-1.66		-0.944478		-0.409806		1.69894		2.26078		0.288636		0.291319		-0.21499		0.229219		-0.241137		0.463613		0.687092		-0.44486		-0.593044		-0.108007		-1.99296		0.284332		-0.364398		0.0261388		0.713861		0.371622		-0.307108		1.17604		-0.581201		0.462637		-1.07037		0.518405		0.111026		0.731008		-0.116616		1.95252		-1.03184		0.0365923		0.752752		-0.390082		0.481736		-1.29294		1.74079		-0.314156		0.560558		-3.34336		-0.724362		0.645144		0.952601		-2.27942		0.63207		-0.383737		-0.119841		-0.543405		0.519843		-0.00124203		0.327352		2.09482		-0.952223		-0.655241		0.387437		-0.561443		-0.672343		-2.46732		-0.263063		1.93045		1.37566		-0.0956932		-1.45681		-0.197972		1.70198		1.81404		-0.655551		-0.0392825		-0.280884		-0.457347		0.026012		0.51572		-2.15482		-0.746552		1.46744		1.79952		-0.427838		-1.15229		1.24211		1.07359		0.650435		-1.35884		-2.07627		0.16555		-0.49849		-0.984857		1.6749		0.401277		0.457594		-0.0549242		-0.906916		-0.322702		0.534606		0.879638		-1.24049		-0.154624		-0.541692		-0.85125		-0.625693		0.822672		0.193391		0.274096		-1.2744		-0.176231		0.713595		0.132616		0.48377		-0.0299547		-1.97901		-1.27248		-0.515156		0.163783		-0.622577		-0.638549		-0.691443		1.21009		-0.589129		-0.878616		0.743746		-1.03929		-0.975462		-0.623793		0.684562		-0.112447		-0.274752		1.4926		-1.69896		1.03379		1.12247		0.761083		-1.79155		-1.55688		-1.61856		-0.529083		-0.188814		-0.654953		-2.01871		0.0692011		-0.436682		-0.147517		-0.144679		1.48763		1.18796		-0.494983		-0.409099		0.071018		-0.952339		1.71471		-1.52166		-0.579539		0.936748		0.171816		1.08591		0.655303		-0.0474871		0.676859		0.561928		0.52748		-0.378189		-1.5621		-0.644406		-1.23859		-0.912324		-2.2887		1.2603		-0.632315		-0.797434		-0.720976		-0.311614		1.31916		-1.92795		-1.51811		1.54779		0.644642		0.347808		-2.38752		-1.42988		0.867992		-1.28329		-0.539964		0.718757		-1.00786		1.63392		0.50511		-0.529215		-1.24942		1.01286		1.07358		1.45956		0.576855		0.503616		-0.871996		-0.62934		0.472269		2.53259		-0.729796		-0.891543		-0.466217		-0.0526479		-1.05947		-0.289624		0.536905		0.462371		1.56623		-0.297678		1.47955		0.94822		-0.0813068		-1.37858		1.10183		0.127824		0.17415		-0.49476		-1.18266		-0.354405		1.39142		0.190305		1.45668		0.0733318		-0.451361		1.26344		0.251421		0.0519889		-0.396433		1.11175		-0.653517		0.844481		1.68423		0.771075		-0.101038		0.964912		-2.00974		-0.443202		0.749883		-1.20886		0.722797		0.746359		0.748139		-0.189792		-1.25459		-0.140685		0.718476		0.954121		-0.990525		1.30873		-0.103383		-0.48686		-0.630512		-1.12951		-0.337804		0.462958		0.310817		0.484484		1.18064		0.538832		-0.727801		1.78442		-1.62706		0.643898		0.735536		-1.69953		-2.13381		-0.654469		-0.533796		1.45975		0.932286		1.7361		1.01695		0.124556		0.655134		-0.793108		1.31801		0.356367		0.67945		-0.00849022		0.136417		-0.922256		0.0570845		0.702993		1.40296		-0.388469		0.260574		0.479213		-0.0413272		-0.350318		-1.88516		0.0975163		0.212042		-1.5341		0.796559		1.15888		0.507723		-0.429765		0.829953		0.393243		-0.696096		-0.903225		-0.126827		-0.332457		-0.732225		-0.767593		1.08095		0.398854		1.28397		0.0961437		-0.669535		-0.296645		0.179357		0.759303		-0.953135		0.15799		-1.01572		1.69563		-1.51239		-0.0118212		-0.926225		-1.63467		0.600952		0.0672979		0.538471		-1.62192		-1.14282		0		
-1.01144		-1.32737		0.741696		-0.826149		-1.20236		1.2134		0.378427		0.0347914		0.0277421		-0.759216		0.0356944		1.10252		0.00817732		-1.28092		0.916536		-2.04921		0.599259		-0.0808416		-1.00985		-0.243681		-0.14983		1.2787		-0.333		0.0599086		0.0578869		-0.981175		-0.46957		-0.959731		-0.559		-0.177156		1.11681		-0.620593		-1.57228		1.5679		0.940867		-0.481914		-0.217148		0.703419		-0.791762		0.362814		0.50869		-1.05711		-1.69608		0.634469		-1.37615		0.706931		-0.33796		-0.532534		0.0825294		-0.108336		1.24839		-2.03493		-1.02163		0.00988752		0.470273		1.67445		2.13139		-0.757062		-0.561107		-0.551247		0.948158		0.14311		-0.219065		-1.69084		-0.506998		1.09661		0.725013		-0.21467		-1.67169		-2.53875		-0.0598566		0.172917		-2.07631		0.608775		0.175123		0.980365		-1.66997		-1.16285		-0.0168211		1.20453		-0.277897		-1.85507		-0.910646		-0.572533		1.05435		-2.31562		0.316941		1.03123		-1.16893		2.45343		-0.0264924		-1.45938		0.252212		0.631205		-1.37105		-2.26913		1.3814		-0.456876		-0.166192		-0.00301765		-0.644096		-0.75659		1.59666		0.462565		0.0393375		1.85109		0.684544		0.122699		-0.534314		-1.18173		0.0145873		-0.527152		-0.282359		-0.2789		1.28631		-1.84211		-0.554531		0.99548		-0.163955		1.53798		-3.57774		1.03177		-1.18099		1.73123		0.752487		0.112562		-0.410584		-0.498362		-0.163287		-1.9283		-0.0270735		-1.12925		-0.589854		-1.53299		-0.186595		-1.14785		0.0328917		-0.683359		-0.883078		-0.185235		-0.0732089		-1.02518		-0.157978		-0.971829		-1.02225		1.60824		-0.546815		-1.45366		2.16529		-0.87618		-0.224111		-0.496011		-0.896275		-1.59731		-0.570807		-1.55764		0.751828		0.855125		0.329624		1.00069		1.83369		-0.19004		2.31109		1.75792		0.34423		-0.868848		0.336302		-0.468337		-0.598366		-0.641477		-1.05385		0.404861		-1.13855		1.21512		1.48883		-2.33091		-0.025479		0.818635		0.0460923		0.138904		0.557669		0.206202		-2.28582		-0.584219		-1.16081		-0.059296		-1.45266		0.0627519		-1.14537		1.32437		-0.302361		0.158952		-0.938248		0.680741		-1.22708		-0.0475165		-0.458275		-0.203402		2.04813		1.46371		-1.70739		-1.0818		1.43657		1.50346		0.554478		0.329219		0.319334		1.26709		1.2476		0.0447236		0.360083		-1.28278		0.64162		-0.0868563		0.352968		-0.0584727		-1.69941		0.62641		2.36111		-1.19381		0.820513		1.32574		-0.283362		0.538287		0.378982		-0.869655		-1.46243		-0.250957		1.43745		-1.10275		-0.955036		0.232904		0.359159		-0.227931		0.825417		-2.00725		1.05254		0.519906		-1.07041		1.11805		0.322469		-0.11994		0.304305		-0.694933		-0.70825		1.87795		0.646797		-0.35498		0.924263		-0.783803		-0.810821		-0.139962		1.16125		-1.15433		-0.244085		2.12567		-1.72832		0.498274		0.564938		1.74173		0.812181		0.334689		0.449396		0.899798		0.558692		0.527577		0.38807		0.829113		0.230692		-0.567499		0.292388		0.295463		0.876232		0.0516471		-0.731198		-1.61211		0.819759		0.685725		0.365826		-1.71528		-0.765391		-0.120534		-0.232		0.616395		-0.119954		-1.20603		-0.601498		0.778533		1.61796		-1.42671		1.26427		-1.0941		-0.828913		0.720542		0.185475		0.224615		0.731781		-1.35283		0.445556		0.583099		1.51256		0.512086		0.208957		-1.04119		1.41599		-0.325274		-0.875316		0.0967457		-0.852997		-0.823527		0.655391		-0.310997		-1.40403		0.27899		0.144659		1.06137		0.836799		-1.38672		0.858609		-1.19655		-0.243801		-0.181721		1.82094		-0.786537		0.290345		1.28682		-1.19491		-0.201012		-0.796176		-0.41227		1.56472		0.62536		-0.115838		0.0904776		0.0912862		0.765628		0.722158		0.0987687		-0.0276705		-1.42759		-0.888344		0.13478		0.55689		-2.26417		0.075645		-0.946497		-0.843115		-1.3861		-1.04571		-1.22343		-1.78429		-0.571035		0.515756		-2.7875		0.4395		0.111832		-1.30435		0.902922		1.83648		0.195704		-1.10391		-0.976811		-0.136901		-1.07576		1.35175		-1.00316		0.860045		-1.10058		0.859086		-0.234025		-1.1349		-0.686371		0.69576		1.8619		0.962712		1.25156		-0.406572		0.441941		-1.62513		-0.50306		-2.17599		-0.0770165		0.371527		-0.247474		0.195872		-1.37127		2.08968		2.25045		-0.588704		0.322529		-0.238917		1.48525		0.723272		1.35407		0.401148		1.83876		-0.651144		0.988205		1.81866		-1.31051		-1.43553		0.898418		0.0568166		0.619404		0.598765		1.76109		0.732133		1.5679		0.806516		-2.04073		0.676872		-1.0021		-0.165063		0.985947		-1.21205		-1.34427		0.22015		-0.430937		-0.143794		-1.47637		-1.59787		0.259105		0.449657		1.04675		-0.762463		0.560401		1.41706		0.280842		-0.670744		-0.470932		-1.04927		-0.093242		0.386373		-1.79694		-0.423087		0.781454		0.294559		-1.24815		-0.582703		1.46404		0.129979		-0.713966		1.86063		0.212457		-0.248301		-0.779589		-1.02879		0.286536		0.0704067		-0.485817		-0.513783		0.0880719		0.120001		1.95223		-1.28879		0.430645		0.276677		-1.05263		1.09432		0.576067		-0.932685		-0.745144		0.457538		0.227478		-0.691694		0.240316		0.307355		2.82712		-1.01877		0.332132		-0.243814		-0.0336269		-2.16076		0.559518		0.609022		0.763056		0.40597		0.64788		-0.314775		0.74591		0.291302		0.530065		-1.18611		-1.12505		-0.0991797		-0.0715238		0.171117		-0.270225		-0.841588		0.259307		-1.31505		0.757905		0.722785		0.19983		3.10741		0.931038		-1.99638		0.237488		1.32313		0.423108		-1.39703		0.384611		0.105242		-0.0107252		0.301198		1.44663		-0.644453		1.9253		0.417973		0.114753		0.527544		0.147005		-0.137786		-0.958578		0.678805		0.0400768		0.470131		-0.0824668		1.08515		-1.00754		-1.12837		1.58002		2.33809		1.00876		0.361402		-1.40704		-1.82873		0.367272		0.112923		-0.883376		0.0368721		-0.378277		0.469652		0.370748		-0.476287		-0.249455		-0.209633		1.35974		-0.143557		0.14328		0.453934		0.0181554		0.627646		1.27269		0.978164		-0.301187		0.904069		-1.31198		-1.07037		0.69484		1.20628		-0.000278579		-0.745723		-0.733329		0.116624		0.467234		-1.70416		0.933805		-1.21121		-0.491344		0.986507		0.645792		-0.647015		1.52505		-0.12132		1.29325		1.02275		0.122798		0.459302		0.228637		1.98378		-1.35819		0.352545		0.769264		-0.876051		1.1548		-0.943293		-0.3811		0.365128		-0.100144		-0.249221		0.981663		-0.0650389		-0.0546578		-1.15975		0.668345		-0.427856		0.486205		0.401891		-0.271396		1.14922		-0.367663		0.0598607		-0.784715		-0.0178438		0.491608		0.406077		0.984669		1.52944		0.065757		0.299984		-1.0416		1.33976		0.0562541		0.520686		1.49247		-1.76152		0.147651		1.07524		-0.735527		0.400417		0.065983		0.160932		-0.650119		0.0037086		-0.915085		-0.377398		0.245273		-0.430663		0.621683		0.208901		-0.138894		1.4605		3.05543		-1.66441		0.470961		-0.0442823		0.151848		1.15245		0.16049		1.56836		2.2022		0.660711		0.669809		0.474152		-0.607515		-0.390282		-0.314951		-0.0708733		-0.030745		1.65893		0.893962		0.180003		-1.20555		0.986287		-0.0893619		1.48224		-0.114686		1.74712		0.120058		1.46798		0.742721		0.788983		-0.0389851		-1.68458		1.56313		-0.870741		0.206192		2.07066		1.05919		0.508153		-0.444819		1.66175		0.613817		-0.679539		1.44731		0.00640267		1.42456		-0.223254		-0.0766312		0.493417		-0.819789		-1.84862		0.0332274		-0.271966		-0.503653		0.630017		-1.18442		-0.495572		3.48649		-0.651322		-0.373225		0.190364		-0.132027		0.0140071		0.656697		0.107353		1.19574		-1.25265		1.2129		1.06398		0.522885		-1.27225		0.930602		1.05842		-1.05872		1.06366		0.657558		-1.36814		0.15926		0.0788545		1.2322		-0.120928		-1.97405		-0.542579		0.950943		-0.588558		0.561313		0.556171		-1.51626		0.877874		-0.180134		-2.12555		-0.351844		1.50589		2.23403		-1.13458		1.18029		1.48343		0.619776		-0.0457394		0.375239		-0.295785		-0.364877		-0.846594		-1.37979		-0.81265		0.659435		0.799546		-0.903424		0.546937		-0.667556		-0.246049		-0.156383		-1.35679		1.73834		-0.437284		-0.0108265		0.129098		1.49501		-0.112089		-0.0457655		0.125646		-0.0443211		1.02903		-0.866909		0.61919		0.603465		0.627937		-0.240976		-0.386608		2.12803		0.188047		1.41439		1.40039		2.22049		-0.741642		-1.29344		0.969203		0.30784		0.0105039		0.464792		0.247843		0.829756		-0.356661		-0.980767		1.18785		-1.71268		-0.448967		-0.450391		0.209947		1.32917		1.88873		1.09263		-1.09546		0.741352		-0.144303		1.09656		1.26933		-1.81378		-0.581514		-0.514021		-1.87196		-1.10675		0		
-0.439912		0.250151		0.521851		-0.208485		1.91992		0.150847		0.39392		0.85169		1.41482		0.125607		-0.857729		1.63507		1.51968		0.76361		-0.0306854		-0.808782		0.459034		-0.100442		1.67754		1.48961		-0.885061		-1.62295		0.528638		-1.02787		0.26908		-1.43156		0.241446		-1.23134		-1.74838		0.347415		0.523489		-0.68773		-1.01048		0.184851		0.388456		0.94552		0.970398		-1.73857		0.467329		0.432212		0.790033		-1.04078		-0.465776		-1.27313		1.48779		-0.700046		0.65737		-2.88585		0.358498		-0.4718		-1.67554		-2.12664		-1.79903		-0.100258		-0.423047		-1.91851		0.811928		-0.247785		-0.757684		-0.0945301		0.138141		-1.59569		0.00595701		-0.533435		0.822285		1.40656		-0.870885		-0.203368		1.31132		0.521683		1.22896		-0.441935		-0.599895		-0.640901		0.0860785		-0.762101		-0.680981		-0.273313		-0.183924		0.503639		-0.669023		0.733314		0.17524		-0.764273		1.07304		1.18639		-0.361737		1.95089		0.513213		2.14563		0.332716		-1.32344		0.324015		-1.36912		-0.457696		0.442462		0.102571		-0.733246		0.124836		-1.42109		0.190674		1.05702		-0.0461456		0.318783		-0.58724		1.33085		0.0652104		-0.273305		-1.17537		0.926757		-0.149268		0.867124		0.175275		0.143624		-0.152504		-0.816929		-0.641403		-1.11464		0.937862		0.77769		-0.167181		0.107271		-0.657099		-0.900693		0.0340681		0.618129		-0.856979		0.717366		-1.87735		0.284326		-0.944023		1.08112		-1.84345		-0.075125		0.462808		-0.525027		-1.71492		-0.153894		0.0705857		0.0155574		1.09571		-0.862352		1.13605		-0.212186		-0.0492439		-0.517658		0.414441		1.28713		-0.249267		0.199741		0.705824		-1.43088		-0.490048		-0.908804		0.395631		-1.10258		0.153816		1.1873		-0.529285		-0.523583		-0.584143		-2.33629		-1.74796		0.607157		1.021		0.840652		-2.16368		-0.320266		0.340458		0.0488883		-0.788497		-0.985701		-1.27242		-0.223112		-0.964189		-0.563214		1.05822		-0.110544		1.64627		-0.406292		-1.03173		-0.461358		-0.496023		-0.399676		-0.441998		-0.296246		1.3147		0.160204		-0.813657		-0.0106596		-0.408838		-0.205141		0.911634		0.442298		-1.86334		-0.792013		-1.54707		0.800403		1.65465		-0.601138		0.762918		0.650664		-0.394486		1.16274		-0.135158		0.488416		0.286422		-0.571463		-0.659552		-1.00854		0.836363		2.13012		0.42572		1.24617		-0.321738		-1.21673		-0.879205		0.94149		0.652798		0.969164		-1.60879		0.637672		1.66374		0.589652		0.183177		-0.639654		-0.455628		-0.289265		-0.872725		0.299501		-0.0415155		1.18371		0.718632		-0.224586		-0.893719		-0.642983		-1.4359		0.149335		0.411382		0.925839		-1.60342		-0.869305		0.467677		-0.115784		-0.465749		0.765892		-2.09076		-1.95105		-1.12293		1.07264		0.262245		0.253921		0.273144		-0.629914		0.700654		0.629968		1.85148		-0.584773		-0.999622		0.648246		1.30696		0.262687		0.19989		-0.299161		-1.37397		-0.518609		-0.368749		-0.944544		1.68315		0.506919		0.613482		-2.51334		0.668164		-1.9458		1.48868		-0.887057		-0.308647		0.0683976		-0.553565		0.371275		0.178296		-0.942718		0.237887		1.92987		-0.146153		0.736176		0.819677		1.46711		-0.390137		-0.129671		-0.500576		-0.1473		-0.3657		-0.889927		0.0256855		1.16885		0.019318		-0.288844		-1.12392		-0.759126		1.14653		-1.06015		1.01762		-0.229099		-1.45285		-1.19469		-1.15955		0.583551		-0.108508		-0.909991		0.383795		1.72733		0.255631		-0.918303		0.84939		1.55036		0.109117		-1.50215		0.880893		1.56124		-0.741376		0.743627		0.493405		-0.706629		0.737754		0.0328329		-0.914765		0.156277		0.68159		0.843695		0.689252		-0.611174		-1.33379		-0.0536323		1.18864		0.332705		-1.07846		1.09561		-0.855309		-0.731		0.626353		0.749782		0.976484		0.699076		1.62554		0.368359		2.10321		-0.515118		1.00499		-0.041734		0.366963		-0.923864		-0.334955		0.75618		-0.406385		-0.530703		1.79319		2.0399		1.49		0.98749		0.297418		-0.40533		-0.204327		-1.84269		0.616005		-0.0115299		1.10517		-0.0460745		-0.601702		1.72401		-1.48622		0.794888		-0.966851		0.925507		0.617966		-0.529741		-1.19487		-0.588424		-0.55281		-0.373209		1.98055		1.64037		0.660227		0.489148		1.02778		-2.03117		1.70569		0.688007		0.141335		-0.105156		1.04108		0.964967		-0.409667		-1.62315		0.862148		-0.480313		-0.188372		-1.16241		0.985586		-1.25855		0.0774969		1.11901		-1.12505		-0.0350504		-1.91345		0.23688		0.113		-0.441865		1.34947		1.22111		-0.621157		-1.33734		0.0577805		0.701606		-1.3147		-0.131479		0.27343		-1.22428		-0.98825		-1.06531		0.887928		0.189846		-1.40514		-1.20546		0.0891257		-0.322963		0.0984227		-0.845438		0.0487722		-0.547729		-1.39645		-0.954596		-0.861053		-0.451469		0.507336		-1.40354		0.112431		-0.253582		-1.53878		0.0489666		0.997913		0.848952		0.0127924		-1.5972		0.000725932		-0.485503		-2.54873		-0.095453		0.861564		0.432858		-0.00956454		-0.62087		-0.413752		0.636506		0.696356		0.413853		-1.03173		-0.609588		0.458911		-2.40461		2.38737		-0.00976749		-1.20636		1.14817		0.981203		0.69598		0.553351		0.0516213		1.61621		0.972518		0.217391		-0.668818		0.247799		-1.32585		-1.22149		1.01359		-0.0399615		0.776313		0.705454		-0.313497		1.21482		-0.270611		1.20901		1.28765		-0.319473		-0.85962		-0.102883		1.95507		-1.20958		-0.434692		-1.18565		-0.961551		-0.91471		0.0651953		-1.05689		-0.558752		0.046587		-0.320328		-1.51473		1.39819		0.61489		0.234781		-0.984805		0.559317		0.198765		0.712759		1.52417		-0.425103		-1.60118		-1.51309		0.144244		0.693561		-0.410641		0.764729		0.15698		-0.800268		-0.236871		-0.584245		-0.12119		-2.40122		0.0753056		3.02059		0.771872		-0.275968		0.878275		-1.11584		2.42406		0.190732		-0.893711		-0.466082		-0.899299		-0.685148		-1.07391		0.973945		0.251313		0.919034		-0.0609603		-0.0716775		0.569575		0.982838		-1.33583		0.944832		2.47672		-1.15858		-0.865752		-0.0922876		-1.2692		-0.106664		1.35933		-0.413614		0.651396		-1.65965		0.00256516		-0.23547		0.378937		0.111749		0.341511		-2.55125		-1.56228		1.8053		-0.226781		-0.414089		0.158443		-0.590492		0.898999		0.601678		-0.782375		-2.10441		-0.903235		-0.202027		2.23287		1.71933		0.851156		0.977543		2.22616		0.239329		0.867127		1.79908		-0.060232		1.12707		-0.948536		1.67884		-0.45505		-2.00322		-0.736226		0.570905		-0.37692		0.506991		1.07658		0.367079		0.932364		1.56314		-1.0834		1.5092		-0.654565		1.51576		-1.18698		0.969784		0.403873		0.359689		0.864782		-1.23322		1.23178		1.58201		-0.393582		-0.139401		-0.0619498		-1.37218		-1.54298		-0.0638692		-0.54804		-0.442783		-1.29192		1.24828		-0.35089		0.877088		0.692379		0.756892		1.00255		-2.29274		1.82484		0.97332		0.74443		0.297287		0.372258		0.37129		0.84741		0.600674		0.304001		-1.01619		0.0393835		-1.22684		-0.902551		-0.238014		0.974869		-0.63669		-1.2003		-0.775071		0.519698		1.45918		0.893656		-0.283665		0.355226		2.0319		0.689741		0.20576		-0.991718		0.182863		0.474255		0.392816		0.0552056		-0.172122		1.12664		-1.07012		0.545488		-1.87079		-1.06481		0.774109		-0.169966		-0.185094		-0.705887		0.44175		0.537667		-0.512688		1.19195		0.292624		1.62123		-0.157552		0.0846396		0.66085		-0.367634		0.359582		0.323318		0.396122		1.15611		-0.740596		-1.05384		1.82173		-0.0160737		0.571553		-0.578367		-0.421618		-0.367801		-0.0928196		-0.858578		-2.12699		0.49833		-0.685789		1.20059		-0.00751565		1.18849		-0.285161		1.19232		-0.526772		-1.65005		-1.99027		1.35893		0.510638		0.613074		1.17603		0.316195		-1.5054		-0.572303		0.27314		-1.32633		-0.0565112		-0.808634		0.401305		1.24602		1.45015		0.588771		0.493036		0.997698		-0.29442		1.884		-2.32483		2.09872		0.027314		0.465593		-0.6898		-0.879396		-1.77192		-0.65585		-0.990242		-0.596254		0.189016		0.683946		0.0695271		-0.0947123		1.4948		-1.44521		-1.09592		-0.505481		1.76007		-1.92202		0.617685		1.71825		-0.541676		2.04968		-0.379395		1.03584		0.085879		-0.25635		-0.103875		2.96145		1.84536		1.39561		0.0878161		-0.166925		2.08978		0.93597		-1.07546		-0.806398		0.569735		0.0839466		-0.746217		0.0436357		0.49675		-0.351415		0.0272471		1.40849		-2.89399		0.185455		-0.517719		0.812254		0.329165		1.22242		1.33477		-0.00782692		1.95663		0.176548		1.08501		0.2363		-0.577153		0.841756		-0.439618		-0.00717371		0.114293		0.475713		-1.6183		0.0399739		0.701572		-0.770298		0.939365		0		
0.347516		2.00696		1.58962		-0.629057		-1.30245		-0.787256		-0.329425		-2.09211		0.247867		0.950725		-0.829842		0.70632		0.135801		2.1206		-1.76435		0.69489		-2.33425		0.0172756		0.90274		1.18694		0.22904		0.822922		1.98413		-0.704239		-0.723498		0.359422		-0.879973		-0.335744		1.06964		2.25116		0.524609		0.512521		-0.409056		-0.236949		-0.575593		0.823437		0.368711		1.74886		1.2675		0.0237142		1.53366		-0.4017		-0.778259		0.585218		-2.14691		-1.19269		-0.344544		-0.480389		-0.24025		1.49529		0.7866		0.6993		0.341934		0.0204835		-0.881303		-1.35416		0.27759		-0.500571		-1.5917		1.14634		-0.823284		-1.3786		-0.383549		-1.12135		0.295467		0.102719		0.386714		-0.970013		0.271642		-0.0294482		0.377549		-0.200636		0.903056		-1.94121		-0.31482		1.15452		-0.103072		0.837314		0.474554		-0.82983		1.09464		0.659796		-1.31259		0.982479		0.632247		-1.19157		0.0440778		0.862049		-1.18712		1.11568		-0.219986		-0.571133		0.285052		-1.66517		-0.664128		1.10686		-1.80754		-0.218803		-2.00885		1.29454		0.725416		-0.46709		-0.304323		0.116336		-0.353159		-0.0497699		-0.963979		-0.131992		-0.495361		-1.803		-0.745256		-0.369725		0.297666		-1.63371		0.662378		0.345492		0.591239		1.11465		1.52297		-1.11042		1.50877		-0.593394		-0.732905		-0.236822		0.240564		0.418839		-0.554199		-1.48271		-0.226143		0.357801		-2.24703		-0.74785		-1.46844		-0.0867188		1.22914		0.920788		0.0887348		-0.842663		-0.389088		-1.06142		-0.291059		-0.0208652		0.230521		0.277075		-0.552423		-1.60666		0.489218		0.182175		0.138576		-1.55988		0.432661		0.605703		1.99454		-0.334905		-0.387138		-1.32511		-2.24286		0.715643		0.990417		-1.2299		-1.14417		0.863043		-2.04286		0.379352		0.674848		-0.113158		-0.538078		0.315064		0.216749		-0.302808		0.26287		0.0391623		2.12704		0.422602		-0.0646965		-1.77353		-0.207609		0.25205		2.82387		0.344955		0.383339		-1.62762		-0.18833		-0.113899		0.151692		2.351		0.777782		-0.0637017		-0.110382		-0.785909		0.0138352		0.571493		1.22148		-1.50789		-1.34715		1.23361		-1.57055		1.09691		-0.467816		-0.130692		1.07623		-0.552337		0.932152		-0.684138		1.37554		-0.712965		1.05803		0.532661		1.45668		1.13452		1.10736		-0.220973		-0.52019		0.499645		-0.622054		0.31876		1.37696		-0.436792		-2.14295		-0.4665		-0.467742		-0.742521		0.0267228		0.633967		-1.72402		0.154292		-0.0109593		0.564453		-0.586313		0.409384		-1.08599		1.11628		-0.273918		-1.67775		-0.0455167		0.125842		0.324416		1.32317		0.354963		-0.203777		-1.09387		-1.20813		-1.01965		-0.974668		2.23408		-0.21771		1.39124		-0.0954813		0.888408		1.0426		-0.567847		0.430071		-0.727383		-0.188388		1.15788		0.693967		-0.0276355		-2.9365		0.631528		0.189692		-0.159731		0.423383		1.56692		-0.555794		-1.89968		-1.99643		-0.0568905		0.503725		-0.16822		-0.453289		0.649899		-0.0104748		2.5718		0.0823673		-0.0548204		-0.387832		0.857435		-0.677853		0.385507		1.21667		-0.712646		0.594347		0.185463		0.579185		-0.560522		-2.28547		1.7767		-1.05419		-0.490759		-0.459892		0.792764		-0.265604		1.10863		1.12126		-2.3687		1.64216		0.917923		1.05851		0.836849		-0.664982		-0.319999		-0.0253853		-1.51188		0.133334		-0.618078		1.31187		-0.0313063		-0.322163		0.572582		0.00485884		-1.16421		0.217235		-1.55894		-0.651438		-0.277634		1.52574		-1.27199		1.04385		-1.06702		0.215551		0.176869		1.4672		0.244794		-0.452887		-0.513142		0.737503		0.417595		-1.41931		0.455841		-0.382677		-0.56082		1.09887		-0.407352		0.377015		-0.042231		-0.369599		-0.361044		1.00723		-1.01451		-0.730426		-0.938081		-0.722346		-0.639557		1.36267		-1.21944		0.733342		-0.595908		0.858837		-0.502311		0.662781		1.26675		0.238553		0.500742		-1.24745		-0.497761		1.69366		-0.480159		-1.79012		0.324263		-0.524544		-0.762771		0.49404		-0.0766102		-1.73031		-0.717621		-1.82165		2.13906		-2.04916		0.0264613		1.62878		0.226598		-0.083179		-1.21288		-1.23718		0.190907		-1.05976		0.956796		-0.896973		-1.33541		0.251976		-0.63041		0.722998		0.636411		-1.48246		-0.124461		0.988445		0.0812881		-1.00979		0.919208		0.905945		0.0284933		-0.119925		2.44782		0.163152		-1.33568		0.607372		0.160214		1.8871		0.654081		-0.665556		-0.641542		-0.445368		0.497541		-0.458361		-1.31496		-0.757942		0.652782		0.798534		0.890413		-0.658148		0.973846		0.659141		0.688628		-0.879706		-0.00107683		-1.11421		0.837643		-0.776854		-0.747956		0.965852		1.53672		0.678119		0.0745059		0.547044		0.384049		1.25852		1.46747		0.200462		-0.152087		1.35984		-0.177474		-0.945941		0.266583		1.93256		-0.0994479		0.876811		-1.35932		1.14136		-0.390041		-0.859861		2.2436		-0.699637		-0.583546		-1.05514		-0.65211		1.3552		1.12622		-0.110947		-0.772462		0.0448495		-1.09775		-1.23204		0.459928		-0.763665		-0.121102		0.368805		-0.562448		0.16617		0.641665		-0.919802		1.4891		0.754562		-0.839336		-0.359443		-0.942207		1.62888		0.928464		-7.5515e-05		0.326414		0.694119		1.04581		-0.232451		-0.69556		-2.19474		0.512128		0.251133		0.842928		-0.693561		-0.00617294		-0.926614		-0.726281		1.00167		1.39286		0.128908		0.796368		-0.702501		-1.30621		0.735158		0.145438		1.32627		0.672148		1.69769		0.829401		-1.5229		0.749214		-1.61299		0.389102		1.20819		-1.2056		2.10847		-0.985461		-1.45233		-0.411993		-0.526936		0.181652		1.26311		-0.0470401		0.0958812		0.206961		-0.0967032		-0.447551		-0.0344175		0.287763		0.431974		-0.910271		-0.715613		0.601511		0.0620161		0.504133		-0.129676		-2.48091		-1.38715		-0.277655		1.50604		0.406144		-0.0113176		-0.833387		-0.464818		0.128691		0.226586		0.888876		-0.77596		-0.173115		-0.118594		0.173207		0.929634		0.283897		0.852311		0.307656		-0.425966		-1.46221		1.65573		-2.20074		-1.26606		-0.441464		0.40761		0.409733		1.11038		0.506398		0.761335		0.273249		-0.381833		-0.492574		-1.36046		-0.296537		-0.0710584		-1.27794		0.908522		-0.210926		0.158492		-1.2849		1.69394		-0.503667		0.704139		-0.258197		-0.619184		0.992163		1.23497		2.39006		0.357904		1.82793		-0.704883		-0.371134		-2.51126		0.626166		1.90273		0.123177		-1.55904		0.395296		-1.53571		1.12347		0.309458		-1.33106		-1.33932		1.44391		-0.662469		-0.99124		-0.614268		0.111992		-0.998016		0.756212		0.0514609		-0.363337		0.387594		0.929271		0.334021		-0.366707		0.535335		-1.24389		0.785772		-0.0304657		-1.26119		1.13735		-0.117545		0.902994		-0.273838		0.639193		0.950079		2.19045		-1.66464		-0.282442		-0.414722		-0.918301		0.0216272		-0.557663		0.0418687		0.728557		0.14006		0.442055		0.522746		-0.361496		-0.489376		-0.636537		0.104941		0.707327		0.30809		-0.527688		1.06788		1.05343		-0.385679		2.27746		0.165352		2.73499		-0.0266128		0.262557		0.81878		-0.0387461		-0.0190831		0.23118		-0.434352		0.613231		2.41123		-0.160748		-0.275371		-0.323741		-1.15622		0.571939		1.71542		-0.537169		-0.664717		0.418361		0.660613		-0.671719		-0.528023		-0.75406		1.11379		-0.0775883		0.349303		-2.14366		-0.680631		1.3702		1.6434		-1.22021		0.213431		-0.200056		-0.699156		0.752588		0.601139		0.210029		1.20684		1.25911		2.60123		0.47141		0.375397		0.172744		0.72274		0.364323		2.22239		-1.13912		0.838523		-1.5767		0.00529821		2.46469		-0.828233		0.0147445		-0.815265		-1.42791		-0.701568		0.403702		-1.41358		1.25423		1.52592		-0.478886		-0.0821784		1.83799		0.325678		-0.232311		-0.14938		1.24097		0.177272		0.936961		0.710335		1.78588		0.38762		-0.169152		-0.625142		-0.904041		0.0406382		-1.41421		-0.615092		0.550843		1.42974		1.60895		1.16744		0.897243		-0.63757		1.16822		0.41025		0.577054		1.43445		0.487889		0.517156		1.31465		-0.0864767		0.265725		0.0147112		-0.270418		-0.114228		-0.348586		-0.222835		-0.526567		-0.792751		0.289278		2.15559		0.792483		1.79037		-0.875167		0.902059		0.215484		-0.985846		-0.448821		-0.388293		-0.797484		0.575939		0.9376		0.100575		0.869128		0.652086		0.233099		0.691807		0.690474		1.05851		-0.0641806		-0.0232961		0.758341		1.02433		1.11096		1.53602		0.94984		-1.26582		0.730913		-1.19996		-0.478489		0.739636		-1.61058		-1.22092		0.706177		1.47107		0.903336		0.450638		-0.389153		-0.175741		0.433635		0.00144156		-0.120354		0.393243		-0.563733		0.441427		0.680056		-0.123634		-0.271248		-0.633026		-0.157257		0.815081		0		
-0.823152		-1.42499		0.0056445		-0.448876		-1.20252		1.39109		-0.354511		0.552593		-1.35191		-0.0482705		0.14785		-0.414395		0.515302		1.89422		-0.594748		0.0823143		-0.284943		0.874366		0.883847		-1.45461		-0.00457142		-1.88438		0.596233		-1.28801		0.209403		-1.28468		0.389319		-0.836456		1.58825		-2.4811		0.385274		1.05883		1.69013		0.481098		0.0455683		-0.687469		-0.678664		0.217127		-0.378977		0.0019314		-1.83108		-0.179782		-0.168298		-0.622794		-0.358018		2.08696		0.13525		0.705156		-0.600224		0.169854		-0.380501		-0.358872		1.28343		-1.21057		1.02501		1.30345		0.259821		0.965317		1.33327		1.40482		1.33265		0.546695		-0.10264		-0.264245		1.26654		0.511959		-0.701116		1.75468		-0.832848		0.701284		-0.685755		-1.56524		0.565643		1.2169		-0.658308		-0.397027		-0.583765		0.577121		1.10808		-0.993374		1.13842		0.443927		-0.0144335		0.0655872		0.896211		-0.398466		-0.28251		-0.246074		0.131715		-1.2597		-0.221427		-0.899621		0.838097		-0.970099		0.796689		1.50114		-2.26618		-1.25222		0.718459		-0.787715		-0.156901		-0.183336		-1.65714		-0.110538		-0.639087		1.55935		0.18576		1.15007		-0.182913		-0.346694		-0.0302962		-0.472133		1.74026		-0.635216		0.574697		-2.95797		1.39976		0.680165		0.307763		-0.917927		1.22078		-1.75259		0.565827		0.0375434		-0.611425		1.45074		1.49753		-1.11848		-0.872914		0.552946		0.724485		0.403751		-0.0694966		1.76537		1.01925		0.215906		-0.485588		-0.194353		-0.0507095		-1.04366		0.826944		0.787525		0.612091		1.35268		1.22142		-0.858174		-1.37197		-0.112649		-1.03873		0.0822026		-0.47522		0.440634		-1.02151		-1.315		-2.53746		1.17335		1.20662		0.277825		-0.112395		0.873031		-0.310109		-0.545822		0.255761		1.38384		-0.54668		0.234529		-0.923371		0.647197		-0.57432		-0.756124		0.386647		0.578988		-1.86195		0.577744		-0.697929		0.542389		-0.37698		-2.3376		0.50932		-1.12924		1.97		0.525357		0.798727		0.0779155		-0.370386		0.388225		0.245656		0.59956		-1.29784		0.907923		-0.899147		-0.525095		0.744656		0.616132		0.838335		-2.14128		-0.72917		-0.659493		1.26759		0.0514063		-0.285484		0.073972		-0.247299		0.715417		0.500758		0.310174		0.245064		0.137752		0.473782		-0.941223		-0.960663		0.289922		1.64415		-0.968622		0.648192		-0.738669		-0.759263		0.443985		-1.04217		1.84412		1.44596		0.642964		-1.07234		-0.560175		-0.667379		-0.299256		0.130075		-1.36316		1.51194		1.38182		0.759532		-1.20528		2.82105		-0.705498		0.86172		-0.354447		0.478221		-0.388771		0.382541		-0.556582		-1.11409		-0.192746		0.639159		-0.768158		-1.18984		0.973951		1.00409		0.14384		1.76683		0.0205168		-1.15208		-0.406413		-0.601167		1.65851		-0.616704		-2.0909		0.579402		-0.190222		-0.262449		0.451207		-0.327375		-0.153071		-0.859285		-0.813231		1.45385		-0.155171		-1.66435		0.518252		-2.17652		0.327423		-0.372285		-1.24088		-0.374559		-0.441144		-0.697159		-0.556388		-0.645362		0.192873		0.151139		-0.805334		0.192066		-0.16009		-0.428037		-1.47219		0.521317		-1.24414		0.36073		-0.240596		-2.09311		1.17008		-0.329776		-0.745725		0.50456		-0.0529123		1.10768		0.267192		-0.768344		1.12385		-0.752337		0.174573		0.190114		0.675261		-0.828907		0.0409873		-0.813129		-0.4646		2.02242		-0.516633		-1.06229		1.23242		-1.37334		-0.244439		1.28617		-1.90991		0.981		0.310249		-0.268698		0.526936		-0.357811		-0.918919		1.18049		1.67608		0.201553		1.80518		0.111891		-1.45283		0.691334		1.28091		-0.349032		0.140309		0.305408		1.52331		0.825506		-0.36699		-0.567728		-0.382794		-0.499788		0.185509		1.02917		-1.19391		-1.10753		0.193166		0.458412		0.427946		-0.52764		1.26384		-0.529758		0.750446		0.318187		0.895996		0.169419		0.139941		-0.747085		-1.41218		-1.50225		0.894675		-1.75703		-0.31672		-2.09276		0.127571		-1.28566		1.22562		1.04608		0.0428395		0.385548		-0.148744		1.34161		-0.0295457		0.102488		1.35208		-1.74016		0.795143		-0.45744		0.0458676		1.631		0.289209		2.06314		-1.3822		-1.57416		0.0382071		-0.233098		0.0307175		0.149198		0.885505		-0.276035		-0.860916		-0.385243		-0.11652		0.471331		-0.168655		1.33025		-0.26092		0.0335078		0.373366		0.904439		-0.339296		-1.46895		-0.0451155		1.56611		0.799445		-0.228955		-0.0193165		0.185922		1.45247		-1.39693		0.117948		-0.833213		0.210552		0.251798		-0.319511		0.326452		0.335758		0.619367		0.256705		-0.388148		2.09076		-0.713413		-1.18331		1.74541		-0.52857		0.10252		-0.249921		-2.34678		0.21281		0.213096		0.804438		1.25102		2.57421		1.38438		-1.00916		-0.417186		-0.714865		0.330026		-0.815736		0.417338		-0.527703		0.342475		-0.2016		-0.115005		0.106427		1.67308		1.01714		0.252652		0.372517		-1.31449		-0.92884		0.281265		0.430886		0.253549		0.388824		0.207241		0.980952		-1.18458		1.43528		-0.620824		0.332955		-0.354798		-1.55887		0.745695		0.583306		0.579925		1.35761		0.245795		0.144222		-0.413154		-1.02715		1.28356		0.324184		0.531884		0.522506		1.48616		-1.63073		-0.485941		0.452439		0.175489		-1.47385		1.58061		0.460701		2.43816		0.363001		-0.142101		-0.685578		1.97919		0.489602		1.70612		-2.03385		0.193586		1.12528		-1.27444		-0.74647		-0.550137		-2.36289		-0.365914		-1.54903		0.795361		-0.358397		0.408742		-0.670341		0.0229923		1.0447		-1.44642		0.380066		-0.377381		-0.374919		-0.394903		-0.563593		0.218938		1.36033		0.77216		-1.37314		0.233951		-0.336571		0.292688		1.8767		0.163622		-0.48605		-2.48144		-0.456285		0.779156		0.145969		0.481706		0.403375		1.44303		-1.13752		0.894677		-0.249908		0.285957		0.819691		-0.0338663		-0.178062		-1.27192		0.157754		-1.32201		-1.12627		-1.7156		0.297055		-0.0664934		0.350482		0.727776		-0.728729		0.471182		-0.436493		-1.51905		-1.65066		0.818505		0.308477		0.265846		0.389439		-0.699911		0.0727917		0.986752		0.261928		0.0787379		-0.253636		-1.18296		0.552684		0.229991		0.398486		0.735673		-0.845152		-1.11939		1.17117		-0.209774		-1.4157		0.123907		0.820029		-0.37		0.192653		-1.62697		0.803467		-0.328309		0.695744		1.05203		-1.48921		1.00997		0.0837318		0.960484		1.92327		0.449636		1.3438		0.32638		-0.385369		-0.183318		-0.0498037		1.15889		1.26938		-0.788134		1.40869		-1.86569		-0.524647		-1.74158		0.151597		-1.22587		-1.66125		-1.81621		0.431317		-1.96522		0.658923		1.40259		0.154059		-1.34789		0.509666		-0.396617		-0.107805		0.637024		-2.34426		-1.60485		-0.0934989		0.72618		-0.300108		-0.473385		0.290421		-0.61098		0.609261		-1.10426		-0.00285497		1.13278		0.975371		0.845776		0.392067		0.919643		0.753988		-3.58485		0.686254		-0.396222		0.362543		0.698713		-1.5758		1.06679		0.654696		-0.161926		-1.64258		-0.344666		0.555059		-1.10546		0.655205		-0.34506		1.48921		0.416585		-0.299506		-0.794443		-0.17085		-0.385671		-2.96403		0.10072		0.0700021		0.86691		-0.45708		-0.0569793		1.49047		1.29981		0.0765773		-0.785049		0.315331		-1.62935		-0.419579		0.455657		2.35568		0.902062		0.528395		0.963013		0.0368102		0.563394		0.361236		0.125071		0.511862		0.161275		0.82346		0.238156		-1.46304		-0.402566		-0.536046		0.177447		2.52329		-0.333407		-0.814549		0.583305		0.345136		-1.68157		0.27749		1.10179		-0.427543		0.142942		-1.00533		0.0292569		-0.229065		-0.184687		-1.43821		-0.102005		-0.316179		-1.45337		1.24316		-0.0943049		-0.422212		-0.615819		1.12683		-0.684402		-0.690728		-0.818737		-0.502775		-1.20114		0.583529		0.472021		-1.73864		-0.374267		0.504653		0.555472		0.109763		0.600086		1.19455		0.490223		0.436761		-0.350899		1.95043		0.784551		-0.146192		-1.11563		-1.28567		-0.87625		0.929516		-1.78466		-1.03796		-0.528001		0.0219138		-0.651558		-1.66717		0.98466		-1.07004		1.13496		0.604836		-0.0511301		-0.026396		-0.202683		0.801553		-0.0464667		-1.13789		-0.14263		0.982244		-1.23211		-0.23077		0.0130246		-0.192607		2.42078		-0.213719		0.288783		0.0330631		1.48503		-0.881559		-0.569478		0.672004		0.354828		0.558313		1.31258		0.210374		1.70996		0.272154		0.423721		-0.34374		-0.148339		-1.71407		-0.261251		1.20849		1.58472		1.59963		-0.166261		-0.166612		-1.73184		0.400704		0.349539		1.10397		0.581224		0.892257		0.758695		0.350258		0.229507		0.43525		0.559077		1.02946		0.359176		0.923413		-0.493183		0.0774567		1.97765		-0.345818		0		
1.95109		-1.83586		0.390882		-1.34954		-0.104017		-0.23568		0.365615		0.178154		-1.08328		1.18523		-0.339994		0.868664		0.151072		-1.77531		1.85572		0.225981		-0.889696		-0.425564		-0.0015605		0.59269		-0.858783		0.836495		0.344056		0.571207		0.366549		-0.782677		0.973725		-0.646647		0.818926		-0.00224446		1.12104		-0.912763		-0.172474		0.0208902		-0.138085		-0.485601		0.524033		1.41433		-0.706187		1.27616		-1.56334		0.232086		0.0826972		1.13971		-1.05821		-0.893566		-0.657742		0.598874		2.62148		-0.826185		-0.0118009		0.173491		0.887087		0.185527		1.36622		0.84946		0.321782		0.602013		-1.60377		-1.55802		-0.844258		0.75922		1.57672		-2.67508		-2.23625		1.86487		0.318515		-0.93475		1.51342		-1.00551		0.869033		-0.134291		-0.763256		1.20497		0.73112		-0.039251		-1.16031		-1.57597		-2.56911		-1.21803		0.57486		0.292903		0.71671		0.631631		-0.0702707		-1.50238		0.0698022		0.514989		0.72752		-0.369964		0.757366		-1.45409		-0.873795		-1.12848		-0.752579		1.50857		-1.37537		-0.379462		0.365901		0.410904		-0.812628		0.270302		1.37751		0.435824		-0.325142		-0.188763		0.563605		-0.932318		-0.148437		1.72782		0.176671		-2.39398		-1.77456		0.720225		0.824607		1.18053		1.32492		0.0617423		3.20801		-0.355211		2.19001		0.303166		-0.00914218		-0.276686		0.335051		-0.413323		-1.38213		-1.96468		-1.11898		-0.109266		-0.706449		-0.439719		1.46147		2.42926		-0.231507		-0.0668763		0.0796979		0.0552186		0.0638904		1.30085		-1.44055		-1.31872		0.105048		-1.40376		-0.385738		-0.16676		1.52267		1.34084		-0.0381679		-1.27724		0.433103		-0.86867		-1.57128		0.4921		-2.34651		2.24426		0.932311		-0.116255		-1.4918		1.92254		1.07326		-0.135604		-0.571136		0.861636		-2.04853		0.474013		0.718078		0.00641323		0.109755		-1.33362		-0.0331541		0.194726		-2.25097		-0.277797		0.683777		0.542421		1.14089		0.50312		-0.104279		0.611499		-1.46024		-0.603196		0.598963		0.388406		0.572078		-0.540112		1.7298		0.54145		0.786195		0.425947		2.09779		0.617803		0.0940211		1.99838		-0.827653		-1.43681		-0.566428		-0.587382		-0.386877		0.133818		-0.684788		-1.24339		-2.24967		0.0437568		-0.45558		-1.09853		-0.247305		-0.307043		-0.54199		0.839922		-2.04682		1.30096		0.756629		1.23465		2.14951		-0.0521529		-0.731136		-1.87516		0.609641		-1.42074		0.0647506		0.416611		0.335083		1.60816		-0.70055		0.870412		0.202297		-0.452715		0.602448		0.13648		-0.058168		0.499839		1.64832		0.09286		0.493759		2.1479		1.42202		-1.39555		-0.598781		-0.860809		-0.588621		0.94281		0.553666		1.07762		-0.290868		0.0225272		-0.216953		-0.331308		-0.252934		0.988912		1.11143		0.228249		0.626863		0.996196		-1.32296		0.0386551		-0.271826		-1.67084		2.00829		-0.741509		0.240827		0.131368		-0.313366		-0.122431		-1.11484		-2.31753		1.04082		-0.532109		1.15413		0.646839		0.027536		-0.524045		-1.06787		0.200611		0.337954		0.658053		1.48406		1.34407		0.0109547		0.481435		-0.412885		-0.888331		-0.339434		1.3046		-1.02438		0.188778		2.27336		-0.399242		-1.20481		0.897249		0.473026		1.09256		-0.182948		-0.782168		1.441		-0.909479		1.47316		-0.159925		-1.72456		1.11912		2.25992		1.15298		1.26455		1.49059		2.26359		2.02748		0.563421		-0.871557		0.647555		-0.683618		0.566473		-2.14631		-0.714564		-0.0990327		-0.0886206		-0.0471941		0.121303		0.201545		1.35264		-1.26927		1.9178		1.79194		-0.48174		1.34175		0.17827		1.83188		-0.0702256		-0.241013		0.346667		-0.382198		-0.991144		1.09418		0.201133		0.649125		0.0120574		0.418222		0.0663551		0.0392207		-0.500671		1.13638		-0.495848		0.583675		-0.300664		-0.163526		1.25439		1.7461		-1.07427		1.09948		1.75004		-1.21083		0.107452		-2.02216		0.0752618		-1.73588		1.52901		-0.0465055		0.0545422		1.20717		-0.618278		-1.54542		-0.88302		0.162463		0.615021		-0.156194		-0.379813		-1.04212		-0.401418		0.349251		-1.03881		0.576136		0.201839		-1.06531		0.771643		-0.928437		-1.31788		0.627411		1.81708		0.0505125		-0.154851		-0.579269		1.6323		-0.165484		-0.33318		1.44483		-1.4388		-0.905616		0.775783		-0.680983		0.420612		0.743475		-0.714773		-0.0804303		-1.63671		1.00413		-0.680699		-0.847041		1.53849		-0.465159		-1.15338		0.150285		-0.619799		-1.2235		-0.145897		0.570165		-0.89671		2.20136		0.515437		-0.569234		-1.34977		0.472948		-0.486493		-1.43448		-0.798396		-0.932612		-0.1933		1.34682		-0.270145		1.24075		0.202627		0.679933		-1.67079		-0.650505		1.66025		-0.224629		-1.61006		0.578471		-0.227462		1.02136		-1.15028		0.159305		-0.833711		-0.119244		0.907807		0.973148		0.428827		0.111105		0.192452		-0.0616967		-0.54879		0.940323		-1.93779		1.29339		-0.287963		0.939813		1.0707		1.26078		0.841693		0.469314		-0.543896		-0.376824		-0.60125		-1.08957		-0.765923		-0.336842		-0.861176		-0.952085		-0.507421		0.957967		2.37668		-1.26985		-1.20714		-0.652733		0.846154		-0.0786036		2.73573		0.616727		1.05255		0.935929		-0.00698416		1.10196		1.17103		0.98134		-0.784618		-0.222518		0.143529		-0.145385		0.793661		0.404396		-0.731129		0.194737		-1.52288		-1.32683		1.54257		-1.25679		-0.445748		-1.20517		1.18614		0.321271		-0.537642		1.36503		0.425545		0.10826		-0.448517		1.48995		-1.32091		0.330971		-0.865417		-1.16734		0.259343		-1.43833		1.52874		0.255045		0.474134		1.86747		0.870826		-0.0136662		-1.32678		0.200077		0.921925		0.289293		1.02325		1.81464		-0.375526		-0.290454		0.0861212		0.0965133		0.290921		-0.0266087		-0.465551		-0.0923959		-0.0166607		-1.83478		-0.693006		1.96415		0.176092		-1.26533		1.82752		-1.06103		0.0719948		0.762952		-0.60346		-0.405122		0.917963		-0.438204		0.394813		1.29188		-0.632256		-1.29282		0.089731		-1.03366		-1.37925		-0.313476		1.30015		-1.14792		-2.05337		-1.18798		-0.816813		-1.74527		0.966859		1.16374		-2.78422		0.507891		-0.298937		0.308127		-1.97143		0.240083		1.39648		1.5511		1.39399		0.400578		-1.19654		-0.522482		-0.915104		0.787735		1.03684		-0.220279		-0.659017		-1.17168		1.21747		1.29961		0.87893		0.983078		-2.06772		1.54042		-0.729018		-0.0613404		0.82984		-0.844729		0.479439		-0.350185		-0.305054		-0.727897		-0.466251		0.92138		-0.943142		-1.35464		-0.965026		-1.03686		-0.875713		2.72158		-0.79203		-0.309824		1.74899		-0.179841		0.819747		0.565101		0.589609		0.440788		0.303412		0.0262165		1.04977		-0.850442		0.183242		-0.185749		-0.406577		-1.20089		1.51893		1.43633		-0.51093		-2.06249		0.567913		0.569059		0.529666		0.838627		0.752984		2.14096		0.537774		-0.307196		-0.335898		-0.0587397		-2.64543		-1.12257		0.00275475		0.670012		-0.0714155		-0.0647349		-0.929631		1.84552		0.0830675		-0.293178		-1.47804		-1.59206		0.232888		-0.464347		-0.459948		-1.44954		0.187321		0.579654		-0.298307		0.49286		0.517274		0.677187		-0.34556		-1.01388		-0.115031		-0.670302		0.426686		1.16059		0.322163		0.377622		-1.49349		0.0276336		-1.77338		-1.42763		-0.85988		0.247888		-0.131744		0.943711		0.277448		0.382446		-0.0431037		-0.438566		-0.752692		-1.36521		-1.22504		0.078424		-0.189465		0.738386		1.30503		-1.76573		0.266698		-0.398557		0.521315		0.795861		1.19745		0.190251		-0.0157047		-0.682692		-0.233283		-0.22899		-0.562157		1.25609		0.907976		-0.78157		-1.12449		-0.240709		-0.912394		-0.328939		1.10801		0.668291		-1.67845		1.96116		1.085		0.689163		-0.138691		1.04715		0.269608		0.888317		0.0982354		-1.20367		-0.579359		-0.22815		-2.15806		0.438139		-1.59674		0.795227		0.616272		1.3197		0.229629		0.396142		0.271048		0.162802		-1.79038		1.30919		1.01151		0.0199284		0.582997		1.00811		0.840581		0.315339		0.387686		0.280961		-0.134135		-1.11829		-0.699874		-1.27034		0.277263		-1.48301		0.666109		-2.71249		-1.12143		0.456324		-0.14686		0.712363		0.636141		0.32218		-1.66984		0.0597805		-0.934461		-0.579549		0.372719		1.60464		1.16337		0.104547		-1.75486		0.429787		0.853421		0.179716		-1.91534		-1.10316		-1.32619		-0.286261		-1.97403		-0.343854		-0.460359		-1.06622		-1.2479		-0.0878552		-2.19489		-0.184494		-0.363184		-1.69192		-0.289679		0.400569		-0.0920983		-0.372572		0.528562		-0.474847		-0.0230061		0.00671954		-1.73527		-1.02631		-0.0261194		1.16912		1.02634		0.946053		1.61409		-0.508855		-0.480527		-0.658052		1.65096		1.20972		-3.22496		1.59754		0		
0.995333		1.0018		-1.47656		-0.131378		-0.0461839		0.296137		-2.37694		0.11205		0.393441		0.58706		0.90082		-0.393393		0.63638		0.242119		-0.674214		0.165951		1.20327		-0.80429		0.329744		-0.442868		0.919786		0.408634		-2.9128		-0.0372848		0.90506		0.0915582		1.09884		1.22773		0.571573		0.603609		0.232604		-0.950901		-0.192201		-0.440418		0.142627		1.10455		0.156192		0.118025		-0.601334		-0.194913		1.52166		-1.61027		1.33821		-0.116532		0.700397		0.912744		-0.243404		0.737418		-0.67217		0.194648		-2.20939		-0.233422		1.28266		1.32237		-1.80417		0.937347		-0.884285		-0.555308		1.3599		-0.0916507		-1.69412		0.0621366		0.331166		-1.60039		0.602183		-0.0748922		-0.120554		-0.64774		-0.36119		-0.632854		2.37092		-0.464064		-0.533138		1.18634		0.450564		-2.08502		1.15152		-0.55607		-0.237737		0.547797		0.0758123		1.65033		0.221644		2.04105		-1.58153		1.26257		-1.52653		-0.5927		1.35924		0.282337		-0.155294		0.241942		0.294007		0.353901		-0.858061		0.482191		0.0852395		-0.861882		-1.20685		0.423225		-1.24822		1.08686		-0.44751		1.49288		-1.45186		-0.957259		-1.40339		-0.156325		0.686305		0.0168525		-2.6185		0.275665		-1.36969		0.910591		0.600369		-0.857362		0.256578		0.847031		0.151372		-0.375045		0.959026		-1.25187		1.35063		0.999306		0.320147		0.882017		-1.17165		0.81005		0.721703		0.363468		-0.883691		-0.30843		0.657642		0.596371		0.215257		-0.802478		-0.194407		-0.40673		-0.256001		-1.71669		0.723576		-0.810939		-1.71109		-0.0382298		1.50224		-0.262369		0.263012		0.267533		0.0766901		0.127066		0.528002		-0.659355		0.648205		0.0896212		0.420972		-0.402458		-0.82879		-0.314304		-0.163447		-0.802006		0.517251		-0.00540842		-0.340817		0.99685		-0.698675		-1.88489		0.160873		-1.54357		-1.55669		3.01107		-0.14674		-0.534388		0.204801		-1.46336		-0.823964		0.0956691		-0.367661		-1.1798		-0.929037		0.543424		0.673384		0.575759		0.68227		-0.551117		-0.169538		0.188377		-1.78047		1.06563		-1.14645		1.27007		0.909879		0.439586		-0.484672		-0.642458		-0.00584178		0.497591		1.03854		0.592224		1.15865		-1.25502		1.23778		-1.02569		-1.51092		0.206618		-0.325027		-0.624927		0.140672		3.3508		-0.932274		-0.288141		-0.266873		0.699383		-0.261927		0.5846		-0.548576		0.835069		-0.431383		-0.307289		-0.774607		-0.935617		-0.521021		0.814361		0.12341		1.05696		-0.25633		1.45059		-0.565757		0.793734		-0.862987		0.755477		1.67057		0.685664		-0.0858556		0.556561		-1.35207		0.767558		2.70151		0.485846		-0.328		-0.803603		-0.183079		-1.68608		0.662594		0.934621		0.303267		-0.677892		0.112892		-1.30697		-0.696994		-0.0162069		0.188956		-0.062146		0.975874		-1.06345		0.215439		-1.2043		0.812213		1.38161		-1.29859		-0.82981		0.737		-1.66292		2.00657		0.298665		-1.17245		-0.0789097		2.28807		-1.42009		-1.24074		-0.304441		0.0124239		-0.197586		-0.16411		0.834917		-1.02718		1.12785		0.171133		1.6474		1.66942		-0.108197		-0.46411		-0.579208		1.70319		-1.49761		2.04407		0.540534		0.428891		-0.489506		-0.146713		1.14999		1.30358		1.74281		0.441636		-0.436201		0.350019		2.45422		-2.09026		-0.693399		-1.10355		0.283906		-0.362163		0.119564		-0.216868		-0.438359		-0.714195		-0.178203		0.270909		-0.400491		1.76757		1.40941		1.46959		0.399691		0.419584		0.94168		-0.282152		-0.119428		0.0505946		0.355367		-0.0760578		-0.558301		-1.49921		1.51119		-0.214153		2.16926		-1.81131		-1.35054		0.812879		-0.729398		0.199444		0.467084		1.4667		-1.49355		-0.808981		-0.0939168		-0.250893		0.658933		0.289248		-0.166438		-0.932345		-0.492808		0.404548		-1.06589		-2.37932		1.23868		-0.063325		0.124597		1.4986		-1.60265		1.40209		0.113575		1.90407		-1.26535		-0.932803		-0.86355		-0.033519		-2.33231		-0.870987		-0.888766		-1.50326		0.185745		0.850969		-1.03362		-0.801842		-1.18607		0.288212		0.89773		-1.22717		0.414084		0.0110227		-1.40541		-1.83866		0.670179		1.01765		0.987615		-1.62558		0.26925		-0.5089		0.0624802		0.716395		0.645409		-0.701045		0.518031		-0.6103		-0.157181		-1.10376		1.76696		1.07002		-0.501781		0.274365		-0.655692		1.9836		0.821269		0.462485		0.371385		0.438566		-1.54379		-1.03652		0.11607		0.814092		0.580288		-0.494432		-0.632341		0.106336		-1.0709		-0.701631		-1.32409		0.453759		0.913693		-0.0890714		0.515397		-0.153183		1.12784		0.0174352		-1.66453		-0.15162		0.274869		0.51272		-1.20056		-1.09857		1.16125		2.85748		1.36941		-0.0522195		0.514017		0.475501		0.486166		0.667622		1.18422		0.975152		0.0582343		0.761751		-1.73423		1.91943		-0.585141		1.49953		-2.14653		-1.0369		0.755165		0.0137116		-1.31997		-0.318848		-1.87211		0.307365		-0.00209148		-0.197861		-0.311775		0.522198		-0.695661		-0.647484		-0.343025		-0.969199		-0.275879		0.138376		-0.476481		-0.236941		0.0121686		-1.36446		1.61565		0.997549		-0.850051		0.257594		0.352108		0.937095		0.988226		-0.880177		0.187573		0.276428		0.367858		0.498869		2.72093		0.432593		0.781757		-1.56888		-1.27493		0.714839		1.10239		1.27698		1.332		1.06994		0.954662		-0.0326045		-0.225205		-1.93103		1.41838		-1.2356		-0.272193		0.22919		-1.23854		-0.793015		-1.11636		-0.432543		0.859796		-0.25548		-0.162169		1.76603		1.93587		-0.0808874		1.15505		-0.0353892		-0.565581		0.560001		0.885613		0.456101		0.26439		-0.0655014		0.383232		-0.639833		0.133139		3.21904		-0.353864		-1.50419		-0.12981		-0.821174		2.75713		-1.29857		-0.453844		0.784154		0.628271		0.0716652		-0.45337		0.805627		0.382139		-1.08125		0.348985		2.14042		-1.51839		-0.648024		-1.33465		-0.276853		1.91492		-0.309788		0.373277		0.411909		1.10758		-0.373874		0.0254669		0.232297		-0.589802		0.0700413		-0.795177		0.408123		-1.87061		-1.41153		-0.0592205		0.439352		-1.56729		-1.15867		-0.790424		-2.25793		0.560481		1.3032		-1.972		-1.08854		-0.0838483		0.964477		0.863917		-1.28751		0.317152		-1.09718		0.179545		-1.79851		0.0762705		0.208929		2.65827		-1.1831		-0.535644		0.774593		-0.54865		1.67861		0.0914757		-0.162914		-0.420177		-0.87146		0.563081		2.15493		-0.510891		-0.529416		0.0598081		0.117852		0.182803		0.591096		-0.907906		0.262695		-0.821835		-1.35633		0.32314		1.23369		0.527335		0.620417		-2.52101		-1.75313		-1.04376		-1.71131		-1.30938		1.23279		0.237227		-1.66801		1.97732		0.770914		-2.10013		0.0516922		-0.911445		0.586533		-0.730016		0.10997		0.635957		0.0515857		0.851347		-0.192597		-0.183289		0.847461		0.174238		1.51091		1.7026		-0.77024		0.341236		-1.61513		0.576994		0.148044		-0.259624		-0.452546		-1.00654		0.0301588		-0.341988		-0.00574552		-0.634146		0.796259		-0.765384		1.84055		0.915772		0.695548		1.12273		0.213935		0.243434		2.47841		-0.264983		-0.813556		2.56215		-0.889287		-0.535874		0.434766		-0.568433		0.358657		-1.6135		0.524388		0.946453		0.862782		-0.144148		-0.314816		0.723277		0.0392634		0.0464441		0.498091		-1.32221		-0.130496		2.31879		0.675485		-1.00206		0.915054		0.879277		-0.137649		-0.0443334		-0.291019		0.203824		1.45373		-0.865588		-0.29394		-0.280155		-0.0421828		0.269985		-0.198505		-0.219842		-1.38677		-2.37433		0.247106		-0.392789		1.29424		-0.723506		-1.01967		0.596905		0.129991		-0.718731		0.24343		-1.95831		-0.07743		0.691215		0.731746		0.531226		0.119969		-0.601599		-1.73537		-0.338951		-0.601873		0.630776		1.05175		1.1444		-1.6331		0.30346		-1.51335		-1.0649		1.11912		-1.31051		-1.33235		-0.0180234		0.726779		0.441252		-0.289237		-0.77912		0.990862		0.657988		1.00319		-1.17683		-0.173531		-0.0564017		0.107386		-2.36819		1.19538		-0.146878		-1.1869		0.476061		1.1416		-1.1989		-1.21959		-2.47878		-0.564825		0.797524		1.54265		2.43398		0.649172		-1.41706		0.53656		-1.6582		-0.0547355		1.54763		0.319854		-0.211565		0.0760773		-0.113983		0.749413		0.0363121		-0.703759		-1.30199		0.724129		-0.864581		0.447906		0.953879		-0.32798		-0.395665		2.1017		1.82971		0.38659		0.200137		2.47738		0.211669		1.12536		1.03702		0.261966		0.599969		-0.767549		-0.504925		0.297864		-1.1981		-0.638497		-0.916568		-0.602364		0.328944		-0.553136		-0.500245		0.569919		0.767502		2.17968		0.662089		-0.667353		0.157937		0.0678602		1.12268		0.963038		-1.62876		0.486878		-1.55723		0.956725		-1.20631		-0.328798		0.4081		0		
0.230706		-1.33196		0.781877		-0.143285		0.370544		-1.81161		-0.285355		0.0735111		-1.13588		-2.26468		0.416554		0.724604		-0.461561		-0.680487		-0.421307		0.828966		-0.152995		-0.0192927		-1.07906		-0.933048		1.00898		1.15366		0.842041		-0.0537738		-0.52377		1.70863		0.0633282		0.0981282		-0.314586		-0.424641		0.0183566		0.922966		0.610325		-1.32142		0.672829		0.476051		0.791734		0.105353		-0.369178		-1.0975		0.882721		-0.163325		0.728988		0.0840965		-2.06068		-0.950392		-0.416484		1.77314		-0.661389		0.599939		-0.504395		1.5504		0.45607		0.198886		-0.308941		-0.208573		-0.421246		-0.788018		-0.624132		0.803957		0.432543		-0.363788		-0.993443		-1.03004		0.882466		1.16002		-0.53199		-0.533772		-0.274048		0.0516761		-1.53843		-0.539536		0.528107		0.466908		-0.547447		0.743702		-0.341267		0.38666		0.446078		-1.30878		-1.42023		0.507155		-0.175286		0.082885		-1.82041		-0.327029		-0.614901		0.490158		0.710819		-0.468869		1.22724		1.68751		0.38918		-0.263607		-0.342875		-1.02334		1.76318		0.696997		1.2288		-0.357803		0.336874		-0.196257		0.823053		0.433579		0.178542		-0.327941		-0.63581		0.323316		0.620003		-1.5601		-1.46644		-0.631153		-0.701343		1.1093		2.22292		1.35342		-0.8738		0.666209		-0.336814		0.50139		-0.591218		-0.0584101		-0.0543429		-0.253826		0.541605		-0.0596138		1.22032		-0.0127045		-0.799653		0.856934		-1.67618		0.0353934		0.992714		-0.877516		-0.634304		-1.50042		0.695147		-0.757321		-0.0019329		-0.91684		0.125741		-1.26179		-1.09879		0.90327		1.83273		-0.0350821		-1.21761		2.23102		-0.445497		-0.28355		-1.77544		-0.128333		-1.27925		0.71867		-1.2025		0.0259626		1.44995		0.551195		-1.02512		-0.8685		-0.195508		-1.12828		-0.559005		-0.882424		0.803185		-0.968448		1.67101		-0.721016		1.38755		-0.781935		0.332664		-0.0914267		-0.598341		-1.53037		1.53386		0.132963		1.08346		0.714178		-0.589573		-0.480897		-0.90736		-0.0849403		-0.813075		-0.473983		0.0262413		0.119882		-2.25771		-2.37533		-0.920727		0.329441		0.278464		-0.975963		0.612016		-1.99249		-0.876499		0.581549		1.04059		1.48572		-1.04756		-0.807504		-0.28679		0.29762		0.293849		0.0226887		-0.752447		-1.04062		-1.28728		-2.11127		-1.04823		0.0337743		1.12405		-0.178621		1.85681		-0.717483		1.01792		0.584976		1.43662		0.382133		0.675734		0.493677		0.205177		0.945738		-1.18351		-0.625337		0.169502		-0.605037		1.72254		-0.155969		0.248788		-1.70602		-0.0805838		-1.33782		-0.0380827		-0.791588		-1.23795		-0.307551		-2.29592		0.173359		1.35255		-0.271114		1.13566		-0.779		2.3795		1.19584		1.24349		-0.0573615		-2.01627		0.427559		-0.312827		-0.303763		1.48867		-0.443075		0.635947		-1.4628		-0.4524		0.286503		1.65631		0.0220443		0.13696		0.530907		1.03191		-1.23379		-1.1761		-0.585963		0.380929		-1.47583		-0.419358		-1.56092		-0.938973		-0.254487		-0.335377		-0.201255		-0.899254		0.758714		0.178179		0.702021		-0.0475755		0.987257		1.70675		-1.79518		-0.682684		1.43002		-0.173416		-0.901154		-0.862058		0.717111		-0.798835		0.553715		0.250022		0.341302		-0.0978835		-0.107337		0.264189		1.00172		2.9878		-0.184618		0.893737		-1.87272		-1.86931		0.194436		-1.33064		-1.27277		0.864915		-0.134153		-1.44876		-0.0965188		-2.31985		-1.05578		-1.09461		-1.19998		0.33608		0.508138		-0.925029		-0.0436395		-1.56794		-0.507644		1.76153		-1.45889		-0.0674447		0.321239		-2.10823		0.424065		0.663331		-1.95754		0.686113		1.64569		0.650637		-0.293765		1.10389		0.798156		1.09692		0.900317		-1.80597		0.716898		-0.99915		-1.29399		0.99424		1.40382		-0.0872735		-1.34994		0.0373605		0.303878		1.22617		0.885439		0.482637		0.360177		1.24906		0.219358		0.252746		-0.155195		-1.40467		-0.280645		-0.515408		-0.459781		-0.0769449		-2.65812		-1.08439		-0.157552		0.634564		-0.182149		1.45686		-1.13322		1.30795		0.156417		0.127008		0.266781		1.99783		-0.322017		0.0356602		0.203467		-1.72841		-0.425297		0.760902		-0.282722		0.904535		0.775486		-1.65265		-0.792264		1.78662		-1.61957		1.85888		-1.64742		1.5625		-0.33092		-0.242789		0.788258		0.992469		0.224228		-2.08766		-0.700977		-0.407173		-0.342764		0.859283		-0.364187		-0.511784		0.574413		-1.72196		-1.15614		1.7167		-0.172932		-0.393163		0.990109		-0.0838467		1.83623		0.0639237		0.563367		-0.859757		2.81238		0.550465		-1.66631		1.20207		1.29225		-0.640237		0.98837		1.78277		-0.639753		-0.187226		-1.69291		2.2547		-0.271339		0.184316		-1.93757		0.399092		0.903404		0.433519		-1.83233		0.721613		-1.5196		-0.747286		-2.28188		0.565065		-0.999583		1.1971		-1.53421		1.40977		-1.38809		-0.729225		-1.85036		-1.50005		0.908197		0.688502		-0.798645		0.452969		-0.0346149		-0.396715		-2.21027		-0.933635		1.09488		-0.180854		1.27873		-0.4701		-0.5549		1.0717		-0.0926909		2.03727		0.665087		0.176048		-0.539163		-0.947332		0.12628		-0.00349756		-1.04258		1.71875		0.434626		-0.352102		2.48388		-0.161342		0.0454061		1.03659		0.872832		0.60213		1.43212		-0.172956		-0.123939		-0.972223		-0.494311		0.196085		1.46142		-0.285932		0.831472		-2.7086		0.403289		0.494844		0.909775		0.86252		1.07715		-0.901565		1.67606		-0.229313		-0.341577		-0.316064		0.246197		-0.426545		0.90604		1.00906		-0.310902		-1.57923		-0.208644		-0.245699		1.57194		1.63264		1.30614		0.950078		0.818878		-1.65705		0.242409		-0.087411		-0.429495		1.10993		1.08883		0.557437		-0.261748		-0.539904		1.49017		-0.0771804		-2.03879		-0.540585		-1.75207		-0.433024		1.25036		0.444289		0.19163		-0.255019		-0.440991		-0.449144		-1.14457		0.631402		-0.334275		1.17047		-1.34861		-0.928172		-0.428126		0.149333		0.237069		1.27715		-0.399212		-0.172511		0.781147		1.893		0.102989		-1.12849		-0.528851		0.16864		-0.264601		0.496445		-0.346109		0.0284635		-0.791455		0.950255		0.0582454		-0.680266		0.437583		1.82659		1.63996		1.28778		0.232477		-0.801984		-0.425318		-1.17946		1.5563		0.322334		0.589466		-0.30921		-0.698495		-1.23671		0.724304		0.0277939		0.0678133		0.284352		1.13497		-0.55561		-0.636237		-0.857343		1.61439		0.259734		0.0293292		-0.648061		0.81309		-0.231956		1.14215		0.710786		0.673979		-1.1087		1.60775		-1.09489		-1.24682		-0.899869		0.522146		-0.117997		-1.78819		0.0882429		-0.630581		0.567918		-0.236599		-0.0168856		1.43282		0.201098		0.999748		-0.405469		0.748683		0.0675774		0.114089		0.557792		-2.07229		1.38814		-2.11161		-1.30309		-0.0942659		-0.435003		0.141608		-0.607849		-0.396388		-0.175896		0.962796		0.102386		-0.149891		0.251712		-0.0830805		0.169919		0.305473		0.540358		-1.73083		-0.251484		1.55043		-0.24363		0.169571		-0.303336		0.592658		0.48928		2.34506		-0.654984		-0.46791		2.09987		0.0989242		-1.37004		0.155362		0.279518		0.708781		-0.427422		2.14186		0.18247		0.856373		-1.23518		0.893604		0.22887		-1.26685		-2.18546		-1.43537		0.10774		1.31784		0.592192		1.06216		-1.01225		0.964948		-0.0133291		0.592907		-1.71084		0.263343		0.414956		-1.23589		-0.742917		-0.316284		-0.0296464		1.44742		-1.24253		-1.91842		-1.65292		-1.31597		0.63731		0.307386		-0.336023		-0.196158		-0.68798		-0.416611		0.0364677		1.38865		-1.01277		-0.107749		-1.30265		-0.0704539		0.352812		-0.570183		0.312701		0.147414		1.92124		0.0194326		0.943896		-1.06133		-0.405062		-0.507038		0.605101		-1.23315		0.673602		-0.869757		0.0840727		0.984826		-0.609628		-1.28639		-2.18565		-0.981558		0.992735		-0.271971		0.515083		-1.3246		-0.347281		-1.42999		-0.374245		-1.32684		0.303766		0.911426		-2.03167		1.04606		-1.72075		1.32091		-1.94989		-0.293631		1.4692		1.14819		-0.497377		-0.0334534		-0.144309		-0.316979		1.18922		0.180265		0.0162444		-0.322981		0.233272		0.114705		-2.31715		-0.526988		-0.558921		-0.15538		0.95962		-0.867332		0.433995		-0.150081		1.14949		1.16932		1.67734		0.602348		1.16968		1.15394		0.258573		-0.309362		0.892241		1.20215		-0.352853		2.24304		0.850699		-1.22531		1.05542		-0.0309046		0.0801901		-1.95078		0.461156		0.162137		-1.87207		-0.30011		0.419668		-0.249487		-0.0719012		0.464684		0.626297		-0.0326273		0.181114		-0.608169		0.760564		0.967196		0.769291		0.364241		0.433884		-0.665766		-0.16807		-0.152967		-0.731473		0.556265		-0.272458		-0.956876		0.262458		-0.162908		2.60749		-0.247788		0.910177		1.17466		0		
-0.699303		-0.837983		0.930863		-1.2877		0.18038		1.15557		-0.385958		-1.19338		-0.535976		-0.297416		-0.61412		-0.832567		1.15345		0.256695		0.207555		-1.12161		0.462281		-2.54499		1.03826		1.15213		-0.21452		-1.2774		0.529476		0.0266736		-1.26696		1.95892		1.69035		-0.583918		-0.296754		-0.0185203		-0.354738		-0.159309		-2.02766		-0.533359		1.24455		1.79996		-0.298268		-0.479038		0.223781		-0.22271		-0.403527		0.544553		3.25519		0.730488		1.70017		-0.338208		0.798176		1.12126		0.223247		0.084679		-0.378146		-1.11749		0.754385		-0.925109		0.1375		1.52598		3.15609		0.864096		0.405695		0.0709132		-0.19111		-1.55992		-0.796494		0.000265042		-0.025103		3.17609		-1.02754		-0.982389		0.696488		-1.05212		0.0154214		0.361021		0.599148		-0.659847		1.93656		-1.71039		0.557658		-0.339711		0.781985		0.678647		-0.0676007		2.03974		1.86294		-1.48811		2.05718		1.72961		0.605563		-0.551692		0.848666		0.389309		-0.410682		1.61993		-1.62381		-0.185815		1.20984		-1.24875		-0.854628		-1.19444		0.238732		-0.422943		-0.035969		1.66867		-0.110011		0.437511		-0.791027		-0.678719		0.0700411		-0.285445		0.371937		1.33856		1.15074		1.03957		-1.78971		-0.0327716		-0.0384404		-0.50366		1.8703		-0.39612		0.363671		0.868161		-0.974195		1.37276		1.41851		-0.721994		0.0845302		-0.382287		-0.325313		0.824794		1.57668		-0.798465		0.37407		0.586921		0.663232		-0.369401		0.254305		-0.0306796		0.434911		0.449204		-0.601773		-0.617739		0.723421		-1.12759		-0.0473375		1.50626		-1.02973		0.420507		-0.612834		-0.999108		-2.05768		-0.884697		1.04474		-0.473063		-1.73034		-0.801578		-0.68394		0.799122		0.625084		0.119606		-0.749532		-0.379486		0.0562907		0.213737		0.564537		-1.36854		0.299972		2.07945		-1.73751		0.0216281		0.908591		1.41455		-0.304289		-1.76375		0.709683		-0.508114		-0.637124		1.88095		-0.508912		0.357957		0.197676		-0.309005		1.31878		0.761577		-0.039056		-0.276526		0.385477		0.75866		-0.433472		-0.323212		0.90058		-0.441298		0.101737		-1.54352		-1.06731		0.997506		1.05963		-0.420729		0.238352		1.44839		-0.318919		-0.808378		1.92504		1.47843		0.0939754		-0.62403		-0.0225233		0.1899		1.60353		0.816351		1.54178		-0.189559		0.306758		-1.81142		-0.521405		0.234872		-1.55584		-0.548356		0.666784		-0.12059		0.0514937		1.43925		-0.486259		-0.483461		-1.34359		-2.40796		-0.408113		0.497913		1.15451		0.168121		-0.202051		-0.323114		2.78171		-0.948867		0.469913		-1.90458		0.526327		-0.850696		0.20043		1.61891		0.334897		-0.585857		0.602099		-0.294842		-0.273497		-1.18137		-0.0389513		-1.06283		2.31931		1.04248		-0.18883		-0.91568		0.779163		0.989238		-0.955031		0.524411		-0.671073		-0.801573		-1.99069		-0.0898297		0.928381		1.22908		-0.440126		-1.10544		1.51715		0.484064		-1.38223		-0.854094		-1.15315		0.728623		1.52861		0.327943		-0.0939624		0.251642		-0.0101218		0.461163		-0.92541		1.24722		0.967847		-1.38689		0.823774		1.54134		-0.329713		0.814412		-0.463106		-1.19842		1.38747		-0.035028		0.0187662		-0.698927		0.197773		1.05422		-1.50564		0.116443		0.391533		-0.0361229		1.4955		0.429796		0.685266		-1.20814		-0.487523		-0.460467		-0.058183		0.140291		1.4313		-0.989964		0.0132853		-1.77223		1.62232		-0.42405		0.0344757		0.280702		0.361377		1.55032		1.32097		0.623063		0.242655		0.37993		-1.67817		2.26603		-0.00743615		0.225801		-1.30532		0.216808		-0.0579575		0.10279		-0.0882567		0.189729		-0.0795083		-1.19308		0.88021		-1.0859		2.21841		-0.827885		-2.60022		-0.539758		-0.383327		1.13159		-0.836172		1.19446		1.09272		0.912365		-2.20493		0.514913		-1.47716		0.114563		-2.41788		0.765126		1.29736		-0.811301		-2.48788		-0.499888		0.340752		0.736513		-0.754039		2.61213		0.128535		-0.382456		0.413505		0.885264		0.743528		0.232511		2.07194		-0.805381		1.05589		-0.133181		1.29752		-0.539243		0.445313		0.0965945		-0.237074		-1.36671		-1.19178		-0.611064		-0.554012		0.710273		-0.811347		-0.805568		0.188129		1.06533		0.0470519		-0.58608		-0.163993		-0.657703		-0.0912379		-0.914273		-2.52335		0.863503		-0.446964		1.01735		0.411318		1.1514		0.524866		-0.437981		1.98155		-0.225219		-0.00285481		-1.42125		-0.49507		0.474292		0.251316		0.336652		-1.86937		0.0792139		0.130112		0.214517		0.473758		-2.27263		-0.348758		0.939366		-0.522812		-2.70266		0.773666		0.46825		0.346014		-1.19447		1.30747		-0.728394		-1.15427		1.03083		0.87444		0.112518		-1.85075		-0.0935168		-0.92881		-1.15516		0.179542		0.273964		-0.291352		0.46782		-0.857384		0.621167		2.13125		0.969155		-1.11781		-0.41049		0.00803118		0.170846		-0.914559		-0.212052		0.868852		0.145051		-0.979255		0.239254		0.282701		-0.691691		1.13667		-0.852583		2.32931		-0.293762		-0.973689		2.09356		0.631517		0.866086		-1.88575		-2.32215		0.395619		-0.888772		1.03196		-0.806274		-0.446303		1.27832		0.994248		-0.788863		-0.887451		0.357457		0.222658		-0.947702		0.437697		0.034236		-0.362886		0.0738964		0.350177		-0.259452		-0.73157		-2.61059		-0.738407		-0.0759525		-1.14955		0.939929		0.549126		-1.57413		1.12311		0.13161		0.337142		0.0378546		0.629958		0.913938		0.738353		-0.0995769		1.03354		-0.52161		-1.05822		-0.57124		-1.72642		0.374225		1.46		-0.0242547		-1.89482		1.43102		-1.6631		1.11994		0.0108516		-0.150492		2.33923		-0.35552		0.276046		0.197455		0.723898		-1.51452		-0.563075		0.836528		-0.889148		0.0777205		0.209027		0.6364		1.44151		-0.795312		-0.668479		-0.878907		-1.29163		1.1664		0.738056		-1.97663		0.263677		-0.0951906		-1.05858		-1.47682		-0.0584184		-0.395427		-0.232605		-0.767768		0.305063		0.0267343		2.30809		-2.3038		-1.01497		0.208634		0.595981		0.500725		0.0765348		-0.393151		-1.27014		1.36757		2.06819		-0.455344		0.0514599		0.974836		-0.22557		1.10499		0.191656		-0.680703		0.253994		-0.129462		0.291239		-0.694189		1.01022		0.133875		-0.280441		-2.15495		0.898194		-0.332952		-1.44371		-1.29639		0.0851939		-0.951642		2.25255		-0.881054		-0.190985		1.23309		0.205792		-0.388092		1.49477		1.13282		1.34722		-0.43726		-0.444266		1.12899		-0.121256		0.171511		0.211633		-1.60941		0.0223692		0.279096		0.0109454		-0.788249		-0.388205		0.11851		-0.761412		1.02656		0.0819797		-1.50042		-0.398775		-0.836813		1.27187		-1.99906		1.13127		1.1579		-1.57342		1.03642		-0.649906		0.00313945		1.79336		1.55011		-1.38795		-0.825068		1.0801		0.174268		-0.753223		-0.608884		-0.504196		1.0289		-1.20689		-0.0430423		0.0683492		-2.19666		-0.34771		-1.15819		-0.614741		-0.475005		1.48928		-1.2237		-0.162373		0.43313		0.108765		1.05521		0.581133		-1.53848		0.429385		1.0295		-0.720801		0.19964		-0.543748		0.386083		0.311096		0.161424		-0.218249		-1.20104		0.346611		0.270798		0.129504		0.0734316		0.424998		-1.42335		0.726768		-0.75727		1.81977		1.18362		-1.13949		0.797359		0.160068		0.787714		0.348242		-0.80109		1.04773		0.0577527		0.608745		1.51113		0.111317		-1.59913		-1.44383		1.59003		0.448772		-0.513393		2.30614		-1.02007		0.172002		-1.07238		0.630454		0.0170063		1.06455		0.374798		0.221921		0.694702		0.742026		0.371242		1.64829		-1.44571		0.316811		-0.509868		-0.276895		1.26353		-0.747003		-2.26725		0.849353		-1.87395		-0.108791		0.979924		0.630706		-0.795433		-0.860249		-0.332411		0.687091		-0.119962		0.159516		1.04489		1.24702		-0.065198		-1.61655		-0.912245		0.278659		0.325941		0.920148		0.668595		1.01313		-1.81274		0.722616		0.150651		-0.0960474		-0.689768		3.11822		-0.19025		-0.459144		1.31962		2.13061		0.736457		0.992279		-0.692647		-0.872018		0.558173		0.832733		-1.62129		0.435422		-0.727795		0.562613		1.85622		-0.153311		1.8872		0.563002		-2.43656		-0.0334672		-1.07592		-0.652795		-0.62668		-1.12274		0.617416		0.748465		2.30427		1.43706		-0.0798049		0.483634		-0.277037		-0.488515		1.36772		1.40342		-0.768734		0.41075		-0.478583		-1.61007		0.189015		-0.334891		-0.69298		1.91618		-0.750022		-0.313016		-1.75327		-1.69653		-0.414006		-0.0150187		2.03854		1.13503		0.24114		1.13899		0.820473		-1.08746		-0.139803		0.917253		-0.387957		0.187062		0.38047		-0.794078		-1.33888		0.0734105		-0.355871		-0.924213		0.778539		-0.215337		0.390719		-0.494279		0.306307		-1.1195		-0.67703		0.0381081		-1.81228		0.137849		-1.1567		0		
2.08514		-0.3154		-0.717893		1.67356		-0.203871		1.07791		-1.83661		0.880319		1.15067		-0.593573		-1.13019		-0.78946		-0.293444		2.08033		-0.499749		-0.959982		-0.58722		0.721364		-0.139755		-0.288711		-0.492287		-2.03736		0.176177		0.615666		1.59558		-1.65072		0.992357		-0.398053		1.49708		-1.33024		0.525491		-1.29922		-0.989505		-0.600894		-1.60682		-0.146307		0.885748		0.322639		0.723107		0.128613		-1.09319		0.175147		1.87512		0.0360041		0.35928		2.02003		-0.164789		-1.30606		0.798906		-0.262604		-0.930059		0.52184		0.270031		0.6579		1.81198		0.28315		0.0522975		0.701056		-1.38728		-0.951981		1.7308		-0.418812		0.778183		-0.30947		-0.832262		-0.564245		0.9363		0.363051		-0.0251415		0.991804		0.796017		-0.11481		-1.65029		0.0578054		0.715961		0.241975		-1.64902		0.168092		0.130916		-1.03496		0.554134		-2.22704		0.337853		1.47021		-0.27642		-0.681338		-0.389153		-0.121755		-0.994892		1.29983		0.242188		0.969329		-0.187843		0.14176		0.0831203		1.38437		-0.27199		-0.304828		0.385415		0.500748		-0.994403		0.0499672		0.459749		-1.02289		0.121279		0.721974		0.558013		0.301693		1.01097		-0.803878		0.049029		-1.26393		0.506674		0.52631		-0.772138		0.775936		-2.01809		1.29018		0.486054		-0.752045		-0.688684		0.842667		-0.690377		-1.17006		-0.948532		-1.76519		-1.198		-0.726348		1.36021		-0.27715		-0.302126		-0.680102		1.10443		1.81404		-0.685964		0.324286		0.0394665		-2.27832		-0.504044		0.902133		1.36364		0.586034		0.77196		-0.642625		0.188171		0.171191		0.259624		-1.93091		-0.462461		-0.684823		-1.22332		-1.39938		0.619116		-0.865885		0.337577		-0.122074		0.23922		-1.57127		0.435216		1.40563		1.203		-0.152178		-0.357654		-0.687428		1.17457		3.0001		1.2873		1.67128		-1.39421		-0.490298		-0.716257		-1.42323		-1.39477		-1.60482		0.925241		-0.524635		0.133968		1.22986		-0.361584		0.96678		-0.657323		0.685551		0.589036		-0.111771		1.21748		0.596329		-1.81077		-1.78942		-0.305797		-1.55992		1.15767		0.629081		-1.13914		-0.686168		1.09262		1.10891		-0.624083		-1.19179		0.531398		-0.121271		-0.205242		-0.363402		-0.919387		-0.132939		1.68236		-2.13897		1.21683		-0.819771		-0.35919		0.953745		-0.702978		-3.30441		-1.36115		2.77137		0.821945		-0.98019		0.130635		-0.513126		1.6875		-0.422094		-0.699279		-1.58732		2.53308		-0.335448		0.112233		1.10091		-0.32861		0.562245		1.17883		0.679101		0.254672		1.08382		0.836557		0.020733		-0.632147		-0.0282758		-0.34373		-2.04803		-0.365625		-0.0523714		1.23109		0.176867		1.36745		-0.599745		-0.942852		-1.37087		0.290835		0.0278621		0.478056		-1.84458		-1.57722		-1.71988		0.0190384		1.17883		-0.37666		-0.207323		0.41588		-1.28162		-0.00681072		0.200514		-0.992246		-0.645264		0.474422		-0.950256		0.109967		-0.287922		-0.478732		1.2301		0.641603		-1.36629		1.08906		-1.06521		1.3587		0.94343		-0.586162		-0.518822		-0.774832		-1.83321		-1.77765		0.0625029		-1.76972		-2.23729		0.585096		-0.151878		0.0387254		-0.942355		-0.299396		-1.43568		-0.587143		-1.56103		-1.04811		-0.136935		-1.35357		0.997218		1.32401		1.52481		0.190682		0.335383		-0.712399		2.17942		-1.25919		1.42418		0.488843		0.109918		0.170184		-0.199466		0.59558		0.466722		1.59914		-1.13278		1.67935		-1.34908		0.559515		-1.18674		-2.09994		0.253316		1.32815		-1.64717		0.121638		-1.09733		-1.02329		-0.357567		1.45178		-0.464313		0.646924		-0.415569		0.76563		0.584378		-0.0946836		0.182743		-0.186855		-0.66406		1.81785		0.216242		-0.23559		0.738962		1.47653		-0.528347		0.717964		-1.65963		0.741482		-1.53782		0.484502		0.43863		-0.273257		1.51717		0.0762418		-0.411721		0.0251617		0.866942		-0.808975		-1.14154		0.369091		0.494952		-0.448331		0.387856		-0.855152		-0.0792066		-0.57795		-0.913042		0.0618182		1.37696		-0.921758		2.32565		1.16062		-0.774255		1.01568		-0.343509		1.75926		-1.36829		1.67993		-1.5989		0.618925		0.377149		-0.339573		-0.496555		0.433034		0.823764		-1.10958		0.0191046		-1.11126		0.50021		0.0881187		-0.373036		-1.20932		-1.84713		0.227918		0.0892725		-0.00658525		1.93781		0.913487		1.07501		1.01992		-0.523477		-1.44195		0.0876412		0.310915		-0.474363		-1.48279		0.253366		-0.253145		1.02516		-0.0151183		-1.15792		0.43161		-1.7127		0.435886		0.523354		-0.512136		-0.629409		0.42854		-0.21526		-1.98158		0.24555		0.323022		0.953377		-0.755443		-0.43755		2.1491		0.386679		-0.950143		-0.175595		0.146096		1.02898		-0.280137		-0.0113785		-0.400147		-1.33307		-0.541697		0.165712		-0.734554		-1.72449		-0.135109		2.29533		0.599834		-1.33582		-1.02212		0.967936		-0.537007		-0.119611		1.53847		-0.864487		0.0968764		0.17464		-2.33185		0.914159		-1.05537		1.50091		0.559234		0.423312		-1.13539		1.28062		-0.902762		-0.375624		-1.55268		2.00459		0.756898		0.321018		-0.227036		0.159916		-2.35438		-1.22107		-1.32471		-0.294681		-0.423082		-1.77103		0.0114463		-0.079867		-2.31203		-0.0797693		-0.204733		1.05442		-0.826502		-0.747473		-1.09908		-0.300365		0.338152		-1.71414		1.81359		-0.848692		-0.297476		-1.06081		-1.47215		-0.972616		0.370508		-0.038026		0.815155		-1.98374		2.96822		-0.623086		0.559319		0.415959		1.12759		-0.783031		-0.466993		-0.19665		-0.147489		0.744684		0.491407		1.46939		1.27647		1.44093		-1.54975		0.375149		0.198103		-0.0092678		0.726163		0.658123		-0.179747		0.615158		-0.770034		0.537602		1.12821		-1.51664		0.725539		0.0655285		0.756069		0.428116		0.783773		0.898902		2.63629		0.388082		-0.519411		-0.148095		0.590521		-1.28329		0.579582		1.37336		-1.11902		-0.621691		0.688904		0.236212		0.243139		2.07391		-0.892312		0.749679		-0.392041		1.43445		-0.237776		-0.73773		0.123609		-0.758158		-1.97949		-0.364315		0.814745		0.0370287		-1.15698		-0.480369		-0.269517		0.681253		0.262287		0.135712		-0.633031		0.83222		1.35775		0.130778		1.00572		0.898386		-0.258089		-0.670668		-0.145019		0.634047		0.0277468		-0.933714		0.671765		0.760591		1.39857		-1.60467		0.447671		0.340807		-0.849418		-0.92359		1.60917		-0.635203		-0.143841		-0.0121127		-0.881432		-0.600905		-0.488952		0.329278		-0.237256		-0.291309		-2.85417		-0.332652		-0.731127		-0.267621		-1.15319		-0.621972		-1.04215		-0.736088		1.88502		-1.64282		-0.0214253		1.17232		0.83183		-1.98743		-1.40474		0.376382		0.683274		-0.0194846		-1.28079		1.20715		0.839681		-0.279339		-1.30237		0.709597		-1.17355		-0.431804		4.04201		0.246338		-1.06397		-2.44383		0.0969207		-1.59557		-0.511317		1.44407		1.29872		-1.35784		-0.0321501		-0.220899		1.83905		0.0577096		-1.97865		0.258918		-0.111728		-1.68985		-0.189847		-1.79785		0.511479		-1.1312		1.30265		0.381522		2.96509		-0.12471		-0.621204		-0.334223		0.316711		0.132328		2.35995		0.617253		-0.450056		-0.694487		1.539		-1.30134		-0.334267		0.495834		-1.0547		0.232611		0.102384		-0.0247848		0.0267179		-1.71463		-0.468427		-1.15181		1.40905		-0.0900529		2.04128		-0.74276		0.516892		1.27063		1.52958		0.858159		1.04887		-1.11276		-0.462544		0.179709		1.35659		2.43076		1.39598		-0.230016		-0.426778		0.952553		0.0742146		0.6157		0.912706		0.110489		-1.11908		0.87541		-0.64921		1.54535		0.183241		0.617085		-1.34075		-0.638638		-0.679393		-1.54756		-0.929792		0.304861		0.429406		1.34484		0.932972		0.766119		-0.13236		1.49907		0.143804		-0.164151		0.412697		2.58786		-1.06157		-0.57888		-0.385263		0.503738		-0.929888		0.518923		-0.845289		-2.50076		-0.492703		0.66453		-1.33068		-0.258297		0.356853		0.383076		-1.76055		-0.660196		1.1012		-0.95815		-0.299898		0.477393		0.718273		0.477543		0.0799501		2.01367		0.300442		-0.518219		0.540756		1.40806		-0.819472		0.101259		-1.26561		-0.657875		-0.511734		1.16838		-0.126519		-0.949429		-0.154272		-0.0266731		2.44386		1.53471		0.109066		1.3858		-0.763031		1.31378		-0.0102467		0.978952		-0.629298		0.365873		-0.912722		-0.804566		1.10532		-0.794454		-1.48108		-1.9884		-0.726177		-1.28824		-0.618986		-0.309153		-0.904086		2.12124		1.09896		-0.94975		2.66847		1.20593		0.118683		-0.0401765		0.497924		2.00065		-1.58812		-0.21552		0.498197		-1.49957		-0.249107		0.593584		0.271894		0.240441		0.294726		0.304867		0.234324		-1.23742		-0.525081		-0.136268		0.661606		0.771781		0.0169358		0.289517		0		
0.0074945		-0.0976891		1.02528		0.418755		0.0514357		0.57535		1.77872		0.0524829		0.035558		0.742411		1.18448		-1.31638		0.610782		-1.0818		1.97134		-0.765814		-1.03957		0.754313		0.282342		0.721194		-0.840432		-1.08733		-1.20656		0.535332		1.40683		1.36575		-0.593859		-2.07695		-0.997011		0.433358		0.894944		0.162943		0.989849		-0.0179102		1.42897		-0.110349		0.867416		0.358117		-1.1984		-0.702244		-0.379576		0.390095		-0.539178		1.37762		0.60757		0.612031		0.0142773		-0.559534		0.294863		-1.99062		0.00759986		-2.30703		1.0366		1.12433		0.86096		-0.197387		1.49151		-0.148029		0.719468		-2.04864		-1.40346		0.34226		1.043		-0.258373		-0.969195		0.467181		0.715761		1.54466		-0.783355		0.0462331		-1.13918		-0.409223		1.18514		-0.087712		-0.232428		0.653527		-2.24214		-0.287425		0.750445		0.514037		-0.6974		1.10063		-0.642388		-1.45633		-0.189881		-0.975981		1.6646		0.180917		-0.749002		-0.464855		-0.325216		-0.0479744		0.615243		-0.0269869		2.0369		1.64092		-1.13511		0.168365		0.3736		-1.19241		1.18093		0.536118		-2.51121		1.11539		0.564507		-0.839281		0.489632		-1.00709		-1.7024		-0.267053		-0.330605		-2.06617		1.16406		-0.868041		0.798955		-2.38708		0.731325		-0.197102		-0.981424		0.297222		0.593071		0.520082		0.302395		0.835626		-0.0314787		0.82734		-1.9351		-0.226846		1.40787		0.694364		0.255667		-1.80854		0.0250155		-1.5279		-1.03265		-0.815603		-0.206194		-0.552257		0.235713		-0.26374		-0.536692		2.0795		-0.155889		-1.1455		-1.64079		0.832182		0.146652		-1.56457		0.744508		-0.676124		-0.653028		0.00414605		1.62114		0.484688		1.45693		0.829695		-0.802402		-0.164796		1.99658		0.614455		-0.0800003		-1.96823		-1.22833		0.249592		0.482344		1.22436		1.52164		-1.37111		-0.0402752		0.537705		-0.702118		0.727331		0.00227839		-0.600722		1.92093		-0.542753		-0.158527		0.427697		-0.648911		1.65129		0.260191		0.0318008		-0.430967		-0.0299126		0.454844		2.03678		-0.961408		-0.108543		-1.12346		-1.82267		-1.21522		0.857127		-0.38027		-1.64607		0.271238		-0.079232		-0.78277		0.883776		0.092846		-1.01547		-0.969889		-0.376058		-1.87633		-0.986206		1.34305		-0.000827635		-0.58651		-0.00101589		1.51096		-0.249865		0.149372		-1.16076		-0.44789		0.24809		0.272519		1.07352		1.53368		0.616951		0.0265081		1.47655		0.132645		1.3454		1.44393		-0.874334		1.77671		-1.95757		-1.38824		0.903789		-0.0519729		-1.52454		-0.0424014		-2.01823		1.2591		0.590478		-0.720273		-0.98519		0.411204		-0.384444		0.717225		-0.949192		0.282865		-0.070183		1.38588		-0.0355298		0.118032		0.250895		-0.201551		-1.32432		0.661206		-0.960677		-2.72258		2.09462		0.980028		0.171314		-0.899019		0.405481		-0.356762		0.958793		0.799443		1.8643		-1.71434		-0.008147		1.93855		-0.383643		0.708507		0.0434791		-0.139354		-0.590208		-0.645078		0.634457		0.768466		-1.70712		-0.520514		0.749891		-1.29764		0.439195		1.31356		0.0589643		0.143499		-1.12304		-1.68645		0.771359		1.04835		1.34897		1.26704		1.38405		-0.837457		-1.43662		0.486357		1.25351		-0.713498		-0.232181		-1.15058		1.74618		1.44882		0.366136		-1.35051		0.633654		-0.161052		0.114331		1.50496		-0.159735		-1.2942		-0.257347		-0.025073		-0.0816415		-0.0382417		-0.29964		0.134701		-0.690055		-0.161802		-0.695423		-1.2939		0.472851		-0.431869		-1.73536		0.97294		0.591227		1.58949		1.67139		0.899802		0.372833		0.0610857		0.221348		-2.23232		-1.79105		1.08538		-0.274035		1.49976		1.04345		-1.51304		0.612345		-1.18817		-0.878716		-0.623127		-0.251841		-0.825652		0.439497		-0.140515		-2.01078		1.32039		1.5249		0.666238		-0.637379		1.22262		-1.43707		-0.266353		0.137434		0.766143		-1.10017		1.57559		-1.53087		-1.00922		-1.31484		0.140693		-1.26698		1.15536		-0.423144		-0.675117		0.90925		-0.386862		0.0724943		-0.625923		0.935004		0.46105		1.40347		2.04735		0.137501		0.163621		-0.971235		-0.273748		-1.35287		-0.18235		-1.06589		1.13347		1.33925		-1.03436		0.457207		0.516235		-1.29022		-1.28563		-0.063879		-0.177047		-0.669075		0.171444		-0.654023		0.776553		0.915307		0.454736		1.4274		1.08641		1.47065		-0.756031		-0.164238		1.11143		-0.256356		-0.627072		1.79716		0.396478		-0.232137		0.924173		1.0919		-0.786748		-0.188027		-1.74389		-0.90167		0.712204		-1.91054		2.15164		0.0694967		1.97157		-0.770413		-1.24386		0.560935		2.29895		1.10637		0.371726		-0.235246		-0.33836		-0.418487		-0.114317		0.448886		1.69487		-0.707394		-1.85747		-0.0130474		-0.0310667		0.621761		1.20797		-1.02543		-0.933754		0.125269		-2.79437		1.7608		-0.47077		0.0277483		-1.17616		-0.533643		0.523571		0.219712		0.317432		0.751166		-1.0779		1.20052		-0.879348		-0.228112		1.41258		-1.22423		-2.81459		0.514981		1.14053		-0.359594		-0.683976		0.757032		-0.636315		0.351231		0.470827		-0.939645		0.893966		-0.724714		-0.905307		0.229998		-0.123948		0.832899		0.743394		2.0687		0.605744		-1.42899		1.64012		-1.49372		0.0632974		1.0157		0.241558		1.71464		-2.24746		-0.166176		1.81358		1.44936		-1.02161		-1.29677		0.335259		1.65554		0.990994		0.179759		0.11678		0.587803		1.61868		0.108801		-0.0574587		0.2402		-0.439126		-0.151926		0.316114		-0.936142		0.368317		-0.118556		-1.02539		-0.0560772		0.332698		-0.013438		-0.439718		-1.86052		-0.524956		-0.717216		1.46446		-0.23073		1.63882		-1.40236		-0.212073		0.825029		-1.52881		0.300182		1.80455		0.0885722		0.238719		-1.47155		0.78427		-0.21371		-2.10642		0.185936		0.118801		0.819847		-0.637998		-0.429572		1.6921		0.317215		-1.01287		1.41408		-0.623301		-1.28701		-0.0874351		-0.834822		0.326757		-0.282475		0.0892543		-1.45817		1.70882		1.53669		-0.286665		1.59716		-1.46221		-0.433167		0.190427		-0.0877903		-0.559938		0.930233		-0.628077		0.511459		0.50682		0.570692		-0.353271		-0.0830094		0.0411995		0.498082		0.467943		0.438047		-0.00671768		0.820327		0.919658		1.32908		-0.121884		-0.442505		-0.843357		0.535947		0.565612		-1.9936		-0.767967		-1.84111		1.16264		-0.941298		-0.316258		2.00467		-0.102158		0.407785		-0.133987		0.815114		2.1568		-0.792259		0.308068		0.596451		0.033649		0.379782		1.82433		1.24822		-0.635558		-0.129161		-2.29284		1.92889		0.863105		-0.862872		0.477113		-0.762536		1.45805		-0.0474077		-0.244102		1.05796		1.18874		1.07186		-0.359761		0.34402		-0.0790436		-1.69854		-0.319227		1.48154		-0.342388		0.279795		0.0211553		-0.200234		-0.533212		-1.50832		2.12386		-0.0544137		0.670607		-0.809204		-1.81496		1.30279		0.0825404		0.295016		0.911352		-0.657445		-0.864524		0.0233426		0.0526582		0.394386		0.147409		1.54821		-0.0836046		0.915397		-2.23883		0.21774		-1.0313		0.200983		-0.44757		0.544614		1.14253		0.514794		0.340884		-0.0481153		0.996471		-1.07525		-0.774478		1.34207		2.26796		0.37019		0.454381		0.180099		2.40612		1.63113		0.00194105		0.130431		-0.495383		-0.965022		-1.4327		-1.21034		-0.889559		-1.13075		1.41061		0.856841		-1.58272		1.35584		0.133337		0.577658		0.818455		-0.43635		0.0729371		-0.201333		-0.974215		0.470107		1.27627		-1.23423		-0.365502		-0.770279		-0.268253		0.134652		0.835891		-0.455277		-0.549492		-0.816031		-0.0187416		-0.323558		-0.449332		2.38681		-0.100962		-0.965225		-0.0999371		-1.13777		1.05219		-0.0510443		-1.66533		0.30557		-0.288988		1.06599		-1.02492		1.27761		0.742583		-0.00832552		-0.309539		-1.42329		0.881041		0.0295091		-0.892549		-0.106391		0.450734		0.00514663		1.15315		-0.263514		1.52323		0.204302		1.72616		-0.276704		-0.384373		0.285582		-1.22556		0.353783		0.103083		1.12181		0.645899		-0.575786		-1.02678		0.365094		0.495866		-0.41571		-0.811635		-0.934442		-1.35756		1.15018		1.0204		0.934825		-1.10674		-1.63849		-2.35047		0.0417542		-0.601842		1.40447		-1.4944		-0.50953		1.67098		-0.112573		-1.04739		0.309867		-0.527593		-0.614486		1.43894		-0.646949		0.199183		-1.28046		2.08002		0.152897		1.86169		0.801998		0.54871		0.255326		1.22227		0.293625		1.56339		-0.0718044		-0.0622487		-1.7021		1.16269		-0.0521066		-0.284495		-0.784401		2.44575		-0.224521		-0.391916		-0.3186		2.03239		-1.42571		-0.394518		-0.658741		0.288267		1.70497		-1.42121		-1.1645		0.363376		-1.30945		-0.986166		0.310386		-0.57503		-0.20221		-1.2661		0.00327949		-1.63675		0.882125		0		
