4		784		10		relu		softmax

184
-0.0945111		-0.344053		-0.0408213		-0.127242		0.2627		-0.158509		-0.369971		0.175542		0.292438		-0.0265155		0.400512		0.107358		0.0574751		0.311494		0.27283		0.134393		-0.136297		-0.0592182		-0.316982		0.0142983		0.131181		0.430826		-0.0663061		0.409434		-0.477703		-0.0810932		0.152368		-0.222861		0.0114667		0.303349		0.116599		-0.00633144		0.37583		-0.459062		0.0419818		-0.288867		-0.423886		-0.367694		0.433745		-0.165262		-0.172053		-0.364251		-0.455379		0.442965		-0.208971		-0.340537		-0.0828547		-0.241506		0.352738		-0.281516		0.238607		-0.139878		0.411972		-0.389775		0.241705		-0.236774		0.0990735		0.177538		0.375784		0.223603		-0.293936		-0.262122		0.261228		-0.227081		-0.233162		0.308003		-0.453244		-0.40964		-0.0899503		0.0997514		-0.29631		-0.238456		0.344432		0.184213		0.235048		0.351247		0.445864		-0.2031		0.0286141		0.017972		0.386213		0.155925		-0.282144		0.111703		-0.467233		-0.351378		-0.171931		-0.499867		0.0614479		0.410648		-0.0710495		0.112632		-0.463788		-0.309196		0.360062		-0.297194		0.314188		-0.0326413		0.358138		0.242252		0.206189		-0.12458		-0.34281		-0.427461		-0.177062		0.204375		-0.424718		-0.487511		0.107586		0.206936		-0.43868		0.466116		-0.280056		-0.107335		-0.348415		-0.180696		0.032129		0.109175		-0.0939779		0.219209		0.198833		-0.384548		-0.424863		-0.327949		0.0812581		0.391744		0.00706158		0.370031		-0.0433231		-0.213536		-0.320336		0.0986679		0.189129		-0.0705399		-0.468982		0.211306		-0.0529601		-0.0482437		-0.41413		-0.22804		-0.0114356		0.0382769		0.102493		-0.0437084		0.184699		-0.339319		-0.166514		-0.362023		-0.211644		-0.154853		-0.385018		0.286484		0.380222		-0.0804776		-0.414786		-0.323169		0.313218		-0.393598		0.0610319		-0.501382		-0.430921		0.133396		-0.0178293		-0.00805109		0.0732955		-0.370241		0.0195654		0.0905313		-0.0950285		-0.283022		-0.0869899		0.459184		-0.174734		-0.0854937		-0.438231		0.0999466		0.321066		-0.0575482		-0.430102		-0.0827379		0.202985		-0.265662		-0.245689		0.405825		0.202788		0.072062		-0.392253		-0.0127841		0.316422		0.114889		0.188653		-0.502205		0.343802		-0.48428		-0.490749		-0.00248411		-0.251841		-0.327109		0.272168		-0.179463		0.392781		-0.461628		0.268696		0.333915		0.301793		0.0149238		-0.276192		0.0413654		0.243454		-0.29138		0.320186		-0.236808		0.349216		-0.132805		0.345451		0.122813		0.361316		-0.19345		0.415592		0.225006		0.346041		-0.166821		0.452125		-0.424077		0.321209		0.220367		-0.0219375		0.421905		-0.376832		-0.130637		0.220445		-0.233357		0.4479		0.483914		0.064722		0.359293		0.290531		0.436343		0.336316		-0.278787		-0.159306		0.22826		0.411301		0.400892		0.157635		-0.251284		-0.341596		0.169282		0.272471		-0.0500975		-0.254681		0.0192482		-0.265334		0.138443		0.0964207		-0.0264785		-0.108111		0.171921		-0.182739		-0.405807		-0.362072		-0.342539		-0.218341		-0.274078		-0.0747347		0.26632		-0.131119		0.394868		0.0695196		0.531557		0.243081		-0.420154		-0.235082		0.299632		0.0996234		-0.109383		0.4703		0.177368		0.48732		0.486172		-0.46261		0.215909		-0.0396191		-0.401518		0.0212323		0.0827694		0.0202622		-0.114503		-0.251572		-0.383524		-0.117525		0.291565		-0.478415		0.159996		0.104372		-0.0574332		0.156501		0.477703		0.107405		-0.333686		0.0666442		0.0641459		0.302018		-0.235923		0.0315123		-0.498612		0.298235		-0.309932		-0.197916		0.18462		0.450367		0.129862		-0.467613		0.1441		-0.481055		0.0312809		-0.244898		0.125324		-0.388931		-0.162144		-0.219628		-0.373501		0.367662		-0.204776		0.155375		-0.371696		0.235381		0.497406		0.549106		0.479369		-0.434917		-0.0409282		0.3751		-0.0242209		0.280197		0.472043		-0.204978		-0.109921		-0.285858		-0.409677		0.487082		-0.188314		0.00865762		0.28469		-0.372548		0.237717		0.119767		0.378129		0.104525		0.0801719		-0.494154		-0.0878566		0.347732		-0.215532		-0.0218844		0.42715		0.20392		-0.0182926		-0.387051		-0.10223		-0.5		-0.233397		-0.119983		-0.00522804		-0.0600807		0.285648		0.138419		0.276335		0.295123		0.313799		0.218011		0.340106		-0.0128265		0.3027		0.199528		-0.252604		-0.353602		-0.409577		-0.356975		0.166881		0.374454		-0.199254		-0.0455716		0.514457		0.296865		-0.267528		-0.151276		-0.271596		-0.0314582		0.0702125		-0.242933		0.368		0.434039		-0.480253		-0.15033		0.295925		0.106884		0.408198		-0.262769		0.14804		0.320034		0.188789		-0.183559		0.139933		-0.134854		-0.102141		-0.357415		0.282509		0.420361		-0.396874		0.540147		0.302476		0.340078		0.336055		0.379662		0.340039		0.470089		-0.199114		-0.135577		-0.428633		-0.271859		-0.457678		-0.224787		-0.0833049		0.149025		-0.270576		-0.487591		0.240129		0.0533971		-0.239645		-0.488277		0.298869		-0.191152		0.317814		-0.189594		-0.357012		-0.12932		0.0290652		-0.117285		0.0514152		0.323933		-0.056126		0.437436		0.158498		-0.196947		0.484716		0.448142		0.066634		0.222246		0.30371		0.481841		0.150793		-0.347415		0.25417		-0.19298		-0.290187		-0.286349		-0.221455		0.434631		0.342215		0.43359		-0.277155		-0.242719		0.13119		0.492363		-0.169623		0.458169		0.323101		-0.183621		0.197259		-0.422712		0.0705754		-0.275228		0.489739		0.0499768		0.440479		0.00888467		0.184043		-0.169731		-0.198971		-0.140238		-0.462289		-0.137786		-0.194372		0.458608		0.120654		0.175985		-0.301169		-0.41176		-0.224479		-0.487287		0.382325		-0.338358		0.410958		0.464914		-0.0604121		0.272245		-0.0308373		-0.400732		0.0260008		0.283682		-0.0839115		-0.00631962		0.186161		0.119599		-0.336766		0.0805297		0.293779		0.478612		-0.34726		0.11259		-0.308027		0.202225		-0.453908		-0.114908		-0.489685		0.00243971		-0.229961		-0.326752		-0.125183		-0.395832		0.207894		0.477598		-0.3667		0.226545		-0.0436539		-0.0323299		-0.169212		-0.451045		0.0470277		-0.0912402		-0.103351		0.419245		0.148875		-0.0692217		-0.409069		0.00534525		0.0553324		-0.432015		0.277072		0.37958		0.0575249		-0.0187385		-0.272979		-0.0902283		-0.253606		-0.120257		0.326559		-0.430446		0.42444		-0.00856219		-0.0520679		-0.208754		-0.315799		0.347253		0.0942244		-0.280133		-0.48268		-0.29525		0.297213		-0.220646		-0.497148		0.307139		-0.292933		-0.357683		-0.0509494		-0.514268		0.231405		-0.507346		-0.508636		-0.114708		-0.385003		0.435333		0.319877		-0.331634		-0.110616		0.036332		-0.0764983		0.274707		0.102096		-0.111906		0.0186489		-0.296507		0.18753		-0.20295		-0.499343		0.318397		-0.00834332		-0.472277		-0.327256		-0.0526166		-0.131507		-0.431432		0.0348353		0.301006		-0.290165		-0.158379		0.261041		0.283834		-0.0717769		-0.236579		0.0968521		0.0300301		0.397535		0.00023334		0.00111162		-0.134444		0.154519		-0.449322		-0.384455		-0.0521843		0.232972		-0.0981953		0.398197		0.165164		0.0551746		-0.0438346		0.392579		-0.493916		0.179545		0.492737		0.450176		-0.0820828		0.22355		-0.130425		0.299384		0.220135		-0.448576		-0.0228013		-0.00522358		0.324493		0.235457		-0.275812		-0.213585		-0.48643		0.21532		-0.220712		0.468041		0.218046		0.268023		0.445109		0.00397896		0.416317		-0.281819		0.0763524		0.0900273		0.146445		-0.160726		-0.333084		0.498928		-0.189705		-0.174642		0.168782		-0.0127459		0.324581		-0.160494		0.4348		-0.306029		0.287664		0.115368		-0.0534189		-0.0393788		-0.13647		-0.119		-0.320023		0.130857		0.169813		-0.136806		0.32494		0.222596		0.165467		-0.488441		0.423432		0.483873		0.213975		-0.138307		-0.401845		-0.0639294		0.462404		-0.192435		0.0996909		0.127363		-0.347572		0.461561		0.250822		-0.266161		0.0429486		0.146254		-0.472781		0.362639		-0.231794		-0.259751		0.299646		0.335702		0.500337		-0.226002		-0.263887		-0.192294		0.171553		-0.114517		-0.180008		0.14954		0.109944		0.391355		-0.0795838		0.321078		-0.351089		-0.483105		0.417695		-0.399334		-0.0225817		-0.230876		0.398687		-0.417042		-0.197315		-0.37393		0.356187		0.271317		-0.103826		0.287862		0.172631		0.317387		-0.155296		-0.387436		-0.269513		0.0410876		0.419004		0.121934		-0.297166		-0.151598		0.398952		0.402893		0.430478		0.234767		0.180998		0.213482		-0.432527		-0.433233		0.482125		-0.0670614		-0.114015		0.163867		0.160767		-0.437942		0.0219575		-0.176017		0.129438		-0.113787		0.0517413		0.0790136		0.0845352		0.264903		0.401306		-0.110719		0.480518		0.144169		-0.43975		-0.236614		0.357494		0.383134		-0.334597		0.154782		-0.456329		-0.213078		0.185314		-0.379987		-0.00671962		-0.360469		0.379145		-0.152909		-0.246587		-0.125233		0.0113157		-0.363549		0.117304		0.00819912		-0.496435		0.127022		0.312715		-0.0109115		0.306688		0.136264		0.314575		-0.478348		-0.030416		
0.478223		0.302472		0.283921		0.186306		0.0985238		0.0774819		-0.0663081		0.0526881		-0.245419		-0.280376		-0.0291827		-0.28416		0.258538		0.445653		0.0661271		0.327157		0.204407		-0.198367		-0.44653		0.158997		-0.0234172		0.049281		-0.481337		0.13531		-0.429896		0.087004		-0.353237		0.354067		0.437442		-0.420435		-0.25864		0.087008		0.158275		0.455196		-0.175377		-0.481312		-0.0852245		0.128054		-0.356939		-0.0530551		0.454439		0.00349125		0.0101344		-0.0539924		0.496274		0.112308		-0.077801		0.188111		-0.469712		-0.205214		-0.274576		0.405326		0.440558		-0.214146		-0.0615792		0.449213		-0.336533		0.480022		0.0688991		0.207248		0.454221		-0.260437		-0.127597		0.360625		0.145861		-0.24039		-0.171684		-0.131373		0.466518		-0.382578		-0.239894		0.225105		0.408764		0.428176		-0.430037		-0.0539776		0.372486		-0.0630666		0.0737085		-0.0161648		-0.433051		-0.000283152		-0.302339		0.102547		0.260547		-0.0568403		0.0333158		-0.121971		-0.0826306		-0.00522664		-0.490395		-0.408849		-0.402843		0.261079		-0.435098		0.499667		0.501128		-0.420641		-0.417838		-0.217702		0.374766		-0.341691		-0.464722		-0.114526		-0.493534		-0.0934932		0.259034		-0.441091		-0.440703		0.0109067		-0.246512		0.453558		-0.196133		-0.479042		-0.242639		-0.143332		-0.0960471		-0.202951		-0.0218009		0.22314		0.249968		0.306987		0.111934		-0.145214		0.255503		0.115054		0.210583		-0.113897		0.293938		-0.210232		0.156997		-0.154048		0.0893977		-0.427361		-0.497344		0.339436		0.116522		0.370904		0.24899		-0.152474		0.262105		0.277164		0.00189367		0.197447		-0.31727		0.0631515		-0.492208		0.406224		-0.0381421		0.0422131		0.494097		0.190527		-0.505934		-0.447988		0.0444575		0.160213		0.171382		-0.210406		0.117619		0.394592		-0.316232		0.47872		-0.12585		0.340881		-0.0953388		-0.337445		-0.363434		0.226483		0.212947		0.140258		0.453133		0.246576		0.364806		-0.0902145		0.424359		-0.476116		0.151585		-0.11616		0.495609		-0.466716		0.419172		-0.105438		-0.497967		-0.193607		0.367359		0.457247		0.0563868		0.273426		0.372618		-0.177226		0.15458		0.233307		0.429278		0.267248		-0.425149		-0.39582		0.415101		0.140317		0.0521453		-0.0478616		0.485283		0.378315		0.425328		0.434228		-0.0726057		-0.432359		-0.234472		0.177209		0.230442		-0.0849583		0.328401		-0.204057		0.341574		0.0652674		0.0891753		-0.349536		0.466337		-0.320112		0.218701		0.0512591		-0.470757		0.0427133		0.48542		0.141071		-0.475123		0.130872		0.0848881		0.0385886		0.142343		-0.193541		0.222761		-0.00671477		-0.0156498		-0.348471		0.194777		0.397812		0.0721622		-0.278184		-0.418698		0.0773617		0.25515		-0.24976		0.285318		-0.0863611		0.342182		-0.206609		-0.0379212		0.279963		-0.374522		-0.222488		0.0993919		0.472946		-0.452205		0.314915		-0.0182387		-0.346561		0.267628		0.477861		0.339428		0.423155		0.17122		0.101594		-0.0531461		0.44756		0.167954		-0.413965		-0.0788706		-0.0297262		0.276679		0.335198		-0.228732		-0.12559		0.373735		-0.184569		0.103186		0.0693217		0.105443		-0.255218		0.118531		0.389443		-0.205988		-0.450978		0.397685		-0.465053		0.417299		0.159818		0.307875		-0.119949		-0.362182		0.0684673		-0.0720826		0.202463		0.387305		0.424672		0.376537		-0.381477		-0.062187		0.35314		-0.0603048		0.0767583		0.382277		-0.36152		0.33963		-0.340771		-0.343964		-0.213054		0.236232		0.331506		0.362195		-0.0190011		0.0521665		-0.234823		0.290976		-0.333604		-0.0239281		0.446781		-0.154661		-0.157189		0.299663		0.302308		-0.497684		-0.435083		-0.386101		0.475193		-0.428415		-0.41708		-0.338408		0.300458		0.222767		-0.418198		0.21179		-0.377198		-0.381266		-0.00292486		-0.286118		-0.243043		-0.210795		0.14519		0.0322439		0.0422869		0.357904		-0.0682762		0.0553165		0.391353		0.430539		-0.378948		-0.404247		-0.400423		0.0537738		-0.0406187		0.00732685		0.438019		0.169175		0.355966		-0.219505		-0.0943722		-0.322503		0.424457		0.310479		-0.132194		-0.0662417		0.344156		-0.270636		-0.209701		0.429053		0.45679		-0.255592		-0.351203		-0.496005		0.483817		0.250582		-0.125892		0.226784		0.0531018		0.45568		-0.0201649		-0.111852		-0.233161		0.361613		-0.51203		-0.0228717		0.0171698		-0.318355		0.195505		-0.00632715		-0.398844		-0.335286		-0.197798		-0.0227334		-0.465156		-0.252697		-0.187654		0.261032		-0.0861199		0.371672		-0.476525		0.0914044		0.0226968		-0.208683		-0.322834		0.165496		0.340867		0.219327		0.0532406		-0.223243		-0.353775		-0.402118		0.467649		0.243988		0.00624		0.453716		-0.306589		0.00419493		0.430723		-0.123974		0.334276		-0.137508		-0.197035		-0.280472		0.318879		0.0108421		-0.318006		-0.0576119		0.199233		-0.377092		0.101649		-0.0596752		-0.274824		0.274773		0.379684		0.282649		0.212907		-0.091452		-0.379851		-0.153624		-0.0903281		0.218858		0.0158453		0.335478		-0.280921		0.191334		-0.191257		0.039576		-0.200267		0.0542039		-0.0121227		-0.340604		0.30773		0.164397		-0.432814		0.167751		0.268187		0.417848		-0.442677		-0.308592		-0.00713358		-0.157766		-0.284258		-0.421175		-0.261029		-0.382327		0.251115		0.208176		-0.235433		-0.368073		0.261114		-0.321001		0.383101		-0.0307907		-0.441316		-0.107317		-0.483944		0.183362		0.0390229		-0.323957		0.467337		0.35914		-0.0239009		0.287687		0.359487		-0.352144		-0.163383		-0.0534125		0.230637		-0.511818		-0.421548		0.22388		-0.447015		-0.0678662		0.130761		0.0972804		0.278957		-0.278308		0.055636		0.028699		0.0654837		-0.0864332		-0.384823		0.469009		-0.223024		-0.155403		-0.501304		0.0255186		-0.437266		0.0651522		-0.201478		-0.347035		0.0893769		0.183547		-0.247911		0.417225		0.095855		-0.34102		0.366144		-0.401209		-0.38853		0.273535		-0.43513		-0.212813		0.43779		-0.438254		0.499994		0.384988		-0.439175		0.210257		0.259789		-0.280701		-0.341325		0.16535		-0.179114		-0.269192		0.466192		0.244351		-0.479479		-0.145917		-0.0755349		0.0712268		-0.359726		-0.309491		-0.299904		0.265946		-0.257831		0.349629		-0.136261		-0.00246295		0.0619607		0.0493471		-0.1467		0.457849		-0.0505295		0.151599		-0.260613		-0.400131		0.445245		-0.0967981		-0.244247		-0.00141589		-0.013131		0.450315		0.10404		-0.417179		-0.160132		0.133221		0.335349		0.117326		0.143574		-0.00600327		0.348798		0.00963586		0.257115		0.345642		-0.0285113		-0.0604637		-0.482176		-0.477949		0.0929614		0.415827		0.0670964		0.383004		0.0935279		0.428563		0.255583		0.0290392		0.447932		0.0815082		0.0156281		0.213503		0.266797		0.386003		0.416058		-0.364408		-0.0165868		-0.00562776		0.435848		-0.0450486		0.223719		-0.476384		-0.459658		-0.122678		-0.506437		-0.323585		-0.47221		0.303835		0.00084296		0.0648318		-0.374813		0.0648284		-0.392047		0.244995		-0.423726		-0.0388109		0.199686		0.422015		0.147204		0.00109114		-0.176045		-0.130427		0.487904		-0.0673606		0.354864		0.0372944		0.143733		0.163007		-0.127018		-0.439637		-0.285653		-0.255531		-0.287157		-0.12651		0.410947		-0.241287		-0.304856		-0.0359439		-0.240047		-0.0876367		0.127541		-0.00573529		-0.417988		0.274109		-0.381297		0.0915783		-0.372475		0.0808637		-0.179395		-0.46369		-0.296656		-0.21837		0.138061		0.241995		0.0792452		0.342867		-0.266309		0.322883		-0.0441989		0.405768		-0.10041		0.31278		0.178681		-0.0248296		-0.261812		0.270188		-0.340169		0.393356		-0.339627		0.0798977		0.27122		0.3038		-0.311518		0.483545		0.0290164		-0.123665		0.210269		0.0492141		0.260586		0.129382		0.386017		0.474777		-0.0372355		0.49565		-0.0145573		-0.339796		0.0979941		0.335659		-0.155297		-0.160514		-0.39067		-0.0877007		0.439912		0.322429		-0.283092		-0.386291		0.482079		0.366664		0.00850869		0.14508		0.215477		0.0302289		-0.171979		0.497837		-0.422299		0.319435		-0.00476155		-0.239996		-0.289826		0.117523		-0.322113		-0.296932		0.0266427		0.198266		-0.246863		0.365032		-0.433018		0.0628475		0.443285		-0.221167		0.293076		-0.108127		0.469388		0.309452		-0.0964093		0.0419426		0.19563		0.134601		-0.147634		-0.114551		-0.192468		0.053094		-0.487746		0.4281		0.174886		-0.104051		0.172764		-0.257004		0.338265		0.249974		-0.494093		-0.322126		-0.00266281		0.202292		-0.223622		0.402916		-0.438504		-0.320794		-0.46892		0.175912		0.0330406		0.077998		-0.0745481		0.0523221		0.187766		-0.427148		0.212012		0.488362		0.293872		-0.269259		0.1401		-0.00329313		-0.154076		-0.368606		-0.402393		0.115387		0.442247		0.459238		-0.252956		0.225244		-0.0386495		-0.219612		0.306549		-0.121883		0.0167364		0.195285		0.309174		-0.188872		-0.269969		0.333575		-0.345275		0.347173		-0.281175		-0.0666968		0.34834		-0.0238684		-0.292294		-0.0186892		0.429454		0.0103535		
0.499957		0.487558		-0.363141		-0.357759		-0.406402		-0.451706		0.317316		-0.189658		-0.396602		-0.282305		0.201794		0.18897		-0.463538		-0.00301564		0.377584		-0.285793		-0.34647		-0.120479		-0.0648548		-0.013919		-0.0258391		-0.216968		-0.403199		-0.1732		0.216392		0.189799		-0.156154		-0.092544		0.116606		0.313058		-0.210772		0.429087		-0.213665		-0.466932		-0.403147		-0.0432621		0.0150341		0.392282		0.439255		0.0382209		0.447425		0.272308		-0.453583		-0.197828		0.2324		-0.138052		-0.203351		0.199345		0.345785		0.25686		0.26326		-0.0758171		0.394834		-0.19041		-0.258207		0.185554		0.107165		0.258303		0.187015		-0.284689		-0.0205181		0.000916719		0.490231		0.437114		0.121038		0.42002		0.083461		-0.0274229		-0.0648383		0.0472382		-0.463419		-0.210188		-0.483735		-0.048808		0.448221		-0.2715		0.335105		0.0999981		-0.222502		-0.421655		-0.31785		0.174636		-0.189842		0.445439		0.296701		-0.157716		-0.031335		0.131047		0.0799597		0.440117		0.238637		-0.222468		-0.099619		0.321884		0.0740255		0.341423		-0.117589		-0.37301		-0.0844562		0.394352		0.234679		0.201729		-0.237751		0.0130869		0.476699		0.106255		-0.395599		0.0192308		-0.0346915		0.475895		0.385481		0.193172		0.38143		-0.123443		0.139454		-0.475927		0.385607		-0.0594024		-0.000283826		-0.29151		-0.307091		-0.443807		-0.105234		0.375112		-0.174165		0.227356		0.0377532		-0.316098		-0.348553		0.106458		-0.404912		0.361168		-0.403634		-0.262656		0.470354		0.170541		0.134588		-0.417349		-0.215108		-0.493626		-0.467603		-0.209103		-0.306517		-0.283445		-0.335727		-0.321581		0.1434		-0.0693533		-0.17775		-0.0530459		-0.113042		-0.0187019		-0.241993		-0.325992		0.489572		-0.341202		0.194588		0.192257		0.0691297		-0.118136		-0.11238		-0.130173		-0.107594		0.0934174		-0.149476		-0.0028294		-0.0178525		-0.388548		0.117999		0.0622098		-0.173834		0.424864		-0.429753		-0.0373233		0.359597		-0.317297		0.0795811		-0.315199		0.20132		0.131667		-0.415519		0.180781		0.40036		-0.471738		0.129061		-0.212184		-0.278969		-0.324825		-0.0388899		0.464083		0.0813361		-0.370635		0.035279		0.156981		0.0763122		-0.135581		-0.294156		-0.331152		0.112024		0.0855747		-0.315393		-0.184583		0.445901		-0.0535895		-0.135081		0.0378158		0.202838		0.155286		0.0771048		-0.107782		-0.491708		-0.238706		0.240671		-0.0873464		0.240585		0.229953		0.405589		0.233369		-0.0217473		-0.390314		0.173503		0.488267		0.48828		-0.393952		0.0559542		-0.432819		0.0215623		0.49233		0.0893463		0.179779		-0.189928		0.426933		0.0478917		-0.0653756		-0.362599		-0.217478		-0.110172		-0.0181053		-0.401705		0.189878		0.425328		-0.219227		0.109977		-0.497856		-0.190715		0.0519844		0.174582		-0.476005		-0.165515		-0.463422		0.0145722		0.457937		0.0952524		-0.138362		0.449284		-0.0245322		-0.442206		-0.390675		0.347295		0.224307		0.15601		-0.483446		-0.242076		0.242543		-0.298513		0.194719		0.187322		-0.497913		0.269937		-0.0607435		0.474656		0.42206		-0.0997822		-0.396693		-0.326299		-0.0621984		0.346786		0.104538		-0.368712		-0.450734		0.478839		-0.335756		0.292311		0.38776		-0.282812		-0.351496		-0.409864		0.422669		0.37696		-0.225767		0.147119		0.134494		-0.15976		0.41477		-0.472587		0.0302037		-0.109683		-0.194659		-0.498512		-0.349494		-0.226057		0.464209		-0.140653		0.223807		-0.0086327		-0.344306		0.17452		-0.0487863		-0.208261		-0.104936		-0.44671		-0.401308		0.450009		-0.310722		-0.166909		-0.168431		0.0690301		0.274904		-0.327307		-0.213759		-0.183493		0.215869		-0.153789		0.478446		-0.454694		-0.286023		0.457632		0.00112223		-0.184256		0.0518877		0.493321		-0.366072		-0.373155		0.402661		-0.139174		-0.405958		-0.301678		-0.484474		-0.432712		0.488165		-0.108707		-0.0461773		-0.0884456		-0.0733827		-0.373466		0.0611594		-0.224516		0.413527		-0.412106		0.25043		0.275303		-0.0539751		0.148531		-0.0910704		-0.0781475		-0.461966		0.331366		-0.206298		0.426311		-0.284636		-0.454298		0.156136		-0.245347		0.097205		-0.103896		0.383646		-0.261514		0.402404		0.16978		0.435604		-0.195186		-0.192187		-0.239357		-0.402821		-0.090736		-0.188019		0.472342		0.0704933		-0.160697		-0.3808		-0.0720076		0.38699		-0.290688		-0.209307		0.381595		0.306806		-0.0432107		0.251186		-0.117283		0.452512		0.406367		-0.112651		-0.288587		0.254266		0.00505418		0.481696		0.36323		-0.133281		0.255232		0.0697551		-0.438188		0.352866		-0.00349892		0.0813688		0.414025		0.415058		-0.508741		-0.422286		-0.260536		-0.321495		-0.433953		-0.415418		-0.47618		-0.106732		0.217009		0.165478		-0.0911059		-0.304737		0.394649		-0.157673		0.22213		0.25902		0.180507		-0.177707		0.0201329		-0.123102		-0.280356		-0.288608		0.190113		0.212164		0.0797814		-0.0744379		0.302373		-0.358091		0.0109799		-0.0950609		-0.397198		0.472627		-0.119799		0.383447		-0.0788345		0.155081		0.426315		0.0316225		-0.282766		-0.20106		0.263421		-0.478871		-0.0127613		0.163646		-0.426014		0.198412		0.372913		0.182271		-0.458816		0.278684		-0.00249142		-0.166509		0.445302		-0.334598		-0.36767		0.0613277		-0.328659		0.0644051		0.204892		0.340324		-0.354683		-0.477033		0.0923485		-0.0916202		0.0213592		0.0418114		-0.43559		0.0777034		0.249641		-0.45459		-0.0345677		0.190619		0.328346		-0.0793018		0.220822		-0.406223		0.340471		-0.226946		0.0386596		-0.0278981		-0.31103		0.220848		0.0919856		-0.274637		0.232989		0.187523		-0.0372035		0.417801		-0.225186		-0.29545		-0.19742		-0.320382		-0.50112		0.101767		0.348775		-0.278737		-0.391343		-0.445327		0.467442		-0.0828551		-0.339268		0.249122		-0.471291		-0.0945516		-0.18812		-0.123388		0.364178		-0.315129		-0.0623803		-0.00535789		-0.492542		-0.48403		0.222392		0.478841		-0.0759628		-0.416431		-0.241111		-0.051066		0.122641		0.202135		-0.368064		0.391182		-0.497517		0.170012		0.091821		0.498516		-0.282063		0.32119		0.498739		0.0210848		-0.270742		0.410217		-0.192722		-0.462468		0.0595669		0.00900192		0.43088		0.0728773		-0.0134524		0.28419		-0.494284		-0.0535695		-0.0788635		-0.155479		0.329774		0.334174		0.121364		-0.361425		0.0315221		-0.112959		-0.0723173		0.154254		-0.309114		-0.475642		-0.157021		0.427767		-0.126807		0.204616		-0.32247		0.15282		0.130907		0.0768604		-0.250125		-0.27645		0.447029		-0.368454		-0.14926		-0.462825		-0.290442		0.0907762		-0.395874		-0.0338761		-0.350636		-0.241094		-0.0867457		-0.283016		-0.445297		-0.142296		0.153688		0.495836		0.00234567		-0.425267		0.0554689		0.435323		0.168501		-0.084778		-0.251405		0.273268		0.344101		-0.0313221		-0.348821		0.266483		0.321709		0.411639		-0.220583		0.058551		0.267825		0.427904		-0.191359		0.0676534		0.359087		-0.194558		-0.498882		-0.30886		0.342446		0.392347		-0.40444		-0.492575		-0.150123		-0.093008		0.423269		-0.147009		0.0822472		0.451895		-0.0500628		-0.0968487		0.453555		0.289821		-0.408501		-0.0789934		-0.366294		-0.194372		0.315286		0.341933		0.380838		-0.265488		-0.329607		-0.255948		-0.348707		0.140182		0.474373		-0.189788		0.416567		0.0407316		0.302679		-0.252584		0.133989		-0.0778439		0.114237		-0.199523		-0.399781		-0.379597		-0.0333221		0.234587		0.487453		-0.208106		0.2248		-0.409073		-0.348354		0.192976		-0.119337		-0.374449		-0.105944		0.360629		-0.277944		0.187618		-0.230922		0.12261		-0.476996		0.183731		-0.430333		-0.223787		0.102443		-0.135701		0.169137		-0.360288		-0.468696		0.352142		-0.112672		0.295645		0.371302		0.333823		0.449131		0.244936		0.0866551		0.458814		0.324526		-0.137975		0.22654		-0.381103		-0.201874		-0.0549176		0.35915		0.32139		0.327055		0.139396		-0.137958		0.126712		-0.469157		-0.172838		-0.295486		0.167031		0.314603		0.363069		0.344483		0.0477188		0.212143		-0.214764		0.475778		-0.425252		0.0471253		-0.276234		0.338385		0.0124803		-0.326864		-0.345694		-0.171028		0.242966		0.496841		0.056931		-0.197402		0.0151917		-0.194316		-0.263686		-0.408691		0.112485		-0.120936		0.24727		0.277344		0.302778		0.412366		-0.0642447		0.333193		-0.278579		-0.205098		-0.273261		0.412793		0.444028		-0.0124392		-0.47017		-0.258254		-0.44083		-0.0369396		-0.328389		0.31188		-0.0549839		0.151688		-0.20608		0.0972227		-0.40657		-0.446191		-0.216245		0.0500998		-0.496045		0.0969507		0.172768		-0.16272		0.145121		0.355891		-0.432852		0.493189		-0.429427		-0.0366694		-0.473104		0.273414		-0.396443		0.401944		0.465435		0.32791		-0.428968		0.465037		-0.0258462		-0.242997		0.0514763		-0.37044		0.479788		0.14739		-0.362734		-0.130975		0.101644		-0.184981		-0.45417		0.449403		-0.0766727		-0.437132		0.289504		-0.323543		0.239905		-0.0254339		
0.392287		0.476927		-0.031878		-0.132497		0.303376		-0.0114381		-0.126562		0.358665		0.488015		-0.409017		-0.226752		0.023945		0.38675		0.13075		0.0815608		-0.391456		0.417045		-0.118792		-0.191023		0.180376		0.0579855		-0.303552		0.257606		-0.433609		-0.314855		0.454389		0.0108196		0.20889		-0.148537		-0.426691		0.477023		0.120139		0.339784		0.137938		-0.461241		-0.145463		-0.174736		0.294172		-0.0168202		0.396801		0.342287		-0.48017		0.375697		-0.321697		-0.00793784		-0.413024		0.35955		0.391906		-0.225951		0.399983		0.0204902		-0.387623		0.27921		0.352567		-0.270517		-0.394807		0.31063		0.396143		0.0627702		0.00656324		-0.12403		0.0841424		-0.0217139		-0.386493		-0.24923		-0.471655		0.140619		0.290791		-0.326472		0.312347		0.168015		-0.232693		-0.344438		0.419027		-0.309073		-0.494958		-0.196691		0.342463		-0.00702589		-0.107075		0.00731881		-0.124613		0.317153		-0.452157		0.302179		0.151979		-0.271545		0.0155817		-0.104847		-0.348827		0.386776		0.203321		0.304477		-0.200624		0.12999		-0.174146		-0.0465294		0.512094		-0.299173		-0.247461		0.394192		0.45065		-0.172992		-0.222341		-0.253247		0.130245		-0.295267		-0.483391		-0.207		0.445764		0.226913		0.366151		0.117112		-0.314333		-0.257233		-0.229315		0.16457		-0.0711253		-0.0014837		0.485254		-0.457561		-0.478398		0.396138		-0.387963		-0.261242		-0.197813		-0.0683934		0.287988		0.341724		0.170861		0.351239		-0.0149916		0.16306		0.305022		-0.155917		-0.144397		0.342983		0.244185		0.000493826		0.466669		0.175892		-0.284195		0.164116		0.393238		0.485243		0.0101725		-0.397133		0.283934		-0.224423		-0.121094		0.245591		-0.21167		0.42322		-0.464007		-0.130528		0.0725226		0.343722		0.111927		0.339432		-0.232198		0.209821		0.402363		0.0255435		0.0111848		-0.503156		0.253257		-0.224276		0.472558		0.105003		0.382457		0.275534		-0.303653		0.455306		-0.0860216		-0.250002		-0.319111		-0.335181		0.125624		0.325127		0.223181		-0.478641		0.427004		-0.378356		-0.165304		-0.167572		-0.384359		-0.401481		0.0278411		-0.482297		0.341749		0.320625		0.247957		0.455932		-0.341075		0.113636		-0.150623		0.186055		0.39624		-0.32138		0.421962		0.00738575		0.276226		0.3442		-0.00169116		0.104648		0.0963085		-0.266265		-0.0603427		-0.199772		-0.299647		0.142609		-0.455145		0.182525		-0.365469		0.300164		0.219894		0.297342		-0.264428		0.357415		0.235849		-0.301039		0.0189386		0.340817		-0.00861011		0.213674		-0.288061		0.405769		-0.396506		-0.242839		-0.0154535		-0.00540854		-0.105909		-0.074833		0.00815792		0.443692		0.191529		-0.18538		0.429557		-0.234598		0.329875		0.243325		0.0985693		-0.0915242		-0.392224		-0.467507		-0.03666		0.14725		-0.0964367		0.203811		0.466902		-0.233943		-0.119588		-0.299111		-0.323815		-0.0604768		-0.233365		-0.157973		0.272755		-0.506213		-0.439643		-0.230733		0.0379831		0.398636		0.356558		-0.34852		-0.428618		-0.154843		-0.0421128		-0.268102		-0.0791589		0.372143		-0.0241648		-0.17552		0.0717972		0.272741		0.0294849		-0.367218		-0.107751		-0.36265		0.121692		0.194497		-0.310251		0.00247566		-0.254298		-0.125506		-0.0768774		0.402774		-0.0416909		0.238594		-0.470273		-0.0960901		-0.382826		-0.0147136		-0.0863836		-0.400279		0.353071		-0.416595		-0.423579		-0.471614		-0.489341		-0.0766471		0.0741901		-0.474375		0.369971		0.38137		0.254713		-0.160984		0.266142		-0.208599		0.0905164		0.238625		-0.313412		0.290624		0.205635		-0.0925775		0.440837		0.0816475		0.335146		-0.372124		-0.0737694		-0.138809		0.0811501		0.452047		-0.485654		0.239623		0.196083		0.186084		-0.161095		-0.278794		-0.197748		0.104413		0.236171		-0.311681		-0.166599		0.320078		0.485366		-0.119269		-0.400238		-0.27926		-0.37205		0.363132		-0.148943		-0.2468		-0.364821		-0.0364499		-0.0367526		0.254198		0.25884		0.14654		-0.0301601		-0.120626		0.287152		0.0881863		-0.116961		-0.347469		0.0631247		0.100272		-0.289686		-0.151578		-0.180738		0.245741		0.395117		0.135939		-0.362641		-0.154515		-0.189277		0.32364		0.310341		-0.169006		0.284359		-0.302285		-0.302442		0.278391		0.0340831		-0.024826		-0.0714591		-0.456841		-0.230987		0.464638		-0.0339926		-0.485818		0.116615		-0.0223982		-0.135472		-0.478495		-0.305082		-0.358097		-0.202396		-0.271584		0.0867109		-0.234105		0.0375817		0.0782446		-0.344408		0.141234		-0.323708		-0.333251		-0.391195		0.193578		-0.41251		-0.481918		0.325187		0.293652		0.328188		0.201301		-0.286449		-0.347718		-0.157933		0.282076		-0.339696		0.0111804		0.463998		0.236458		0.173847		0.275226		0.158621		0.186236		-0.0888892		0.464727		-0.0041868		-0.289619		0.402864		-0.197834		-0.413346		0.488989		0.0521135		-0.114919		-0.432203		-0.370082		0.123684		-0.198242		-0.190472		0.100552		-0.345756		-0.075606		0.100914		0.024549		0.405491		0.290396		-0.442882		0.253844		0.293983		0.337309		0.0858274		0.197416		0.450783		-0.221635		-0.144067		0.306004		-0.282524		0.180529		0.0197047		-0.254248		-0.143661		0.324206		0.21083		-0.291321		0.0569059		-0.266522		0.11892		-0.317506		-0.0249505		-0.314819		-0.00653847		0.24404		0.146236		0.062134		-0.299178		-0.0804558		-0.106523		0.274885		-0.0941885		-0.202965		0.090277		0.260408		-0.351774		0.121697		-0.353976		0.448309		0.362125		0.399819		0.443942		0.405851		-0.165318		0.473195		-0.458399		0.424314		0.0251239		0.0581197		0.28227		0.0910716		-0.432639		-0.166832		-0.489192		-0.123721		-0.252478		0.0225785		0.273063		0.434125		0.00200247		-0.358291		0.179326		-0.386026		0.361903		0.177716		0.489432		-0.336182		0.319675		-0.215972		-0.301094		-0.032912		0.107508		0.212538		0.245452		0.298152		0.435161		0.000898721		0.518118		-0.24797		-0.489041		0.209698		0.27752		-0.163004		0.205842		-0.168306		0.166084		0.317787		0.262453		-0.348614		0.247472		-0.337941		0.25102		0.249819		0.128696		0.319583		0.236563		-0.443351		-0.213532		-0.437646		-0.452515		0.156572		0.150115		-0.420377		0.369918		-0.353233		0.333374		-0.00275883		0.257556		0.100127		0.168722		0.373058		-0.207658		-0.361622		0.388126		0.390202		-0.241151		-0.451591		0.484909		0.0406359		-0.142662		-0.181944		-0.210049		-0.245166		0.21957		0.334363		0.110016		-0.1621		-0.0221491		0.283161		0.434129		-0.426241		0.498337		0.00308458		-0.280841		0.106451		0.480434		-0.334241		0.0471398		-0.0434359		0.293402		0.313617		0.272512		0.265153		-0.238837		-0.401976		0.110935		-0.0724241		0.190173		0.386724		-0.217265		0.0837199		0.15856		-0.331193		-0.268964		0.421779		-0.0751003		0.183194		-0.021782		-0.452222		-0.470367		-0.104569		-0.171717		0.425817		0.364657		-0.245252		0.0909204		0.247681		0.325344		0.253464		-0.161777		-0.33059		0.35935		-0.194494		0.222605		-0.411911		-0.0400702		-0.267349		-0.353524		-0.338395		-0.126172		-0.429542		-0.152593		0.239505		-0.0559299		0.324837		0.038416		0.214161		-0.0793517		0.155296		-0.275898		-0.386762		-0.323779		-0.160343		-0.394671		0.0895227		-0.315971		0.480248		0.108057		0.343693		-0.0226938		-0.185942		0.243226		-0.155482		0.220466		-0.28072		0.0695547		-0.255542		0.325614		0.404721		-0.0164569		-0.339721		-0.12399		-0.474251		0.142264		0.321433		0.329719		0.345183		-0.2695		0.422652		0.207756		0.0546478		-0.371648		0.378111		-0.348762		0.261949		-0.22281		0.475833		-0.159419		-0.0693602		-0.0276878		-0.130039		0.0613059		0.171535		-0.3159		0.037967		-0.216957		0.426657		0.456917		0.0436689		0.25668		0.46436		-0.354759		-0.268163		-0.456607		0.279234		-0.225814		-0.0788265		-0.393896		-0.385467		0.106391		0.395142		0.189535		0.390843		-0.311973		0.477746		0.0349445		-0.0206715		0.105756		-0.466721		0.120931		-0.198505		-0.18649		-0.0518427		0.146743		0.119302		0.0528702		0.481673		-0.364885		-0.155729		-0.44786		-0.473246		-0.319567		0.10999		-0.0714215		-0.156372		0.25666		-0.298772		-0.299602		0.449866		0.131198		-0.0851223		-0.483884		0.157884		-0.269688		0.0288537		-0.273912		0.439928		0.0450524		0.374175		0.387746		0.00235969		0.368542		-0.357255		-0.389399		-0.000153402		0.356952		-0.272214		0.123848		-0.216457		0.300936		0.0555248		0.378579		0.41546		-0.137576		0.31969		0.0793853		0.0813027		0.0554051		0.224309		0.0456515		-0.494153		0.0226868		0.00234178		0.147586		0.437113		0.208395		0.0565151		0.149476		0.410098		0.152921		0.1538		0.228343		0.113766		-0.083807		-0.0331089		-0.332773		-0.317082		0.112247		-0.434233		-0.496082		-0.0590506		-0.346577		0.276213		0.351695		-0.277986		0.00807992		-0.484967		-0.448689		-0.00523585		-0.0802084		-0.221993		-0.380849		-0.344628		-0.225536		-0.0356047		
0.436608		-0.0784774		0.496693		0.464535		-0.200597		-0.0501875		0.264746		-0.0747766		0.397269		0.460027		0.0299777		0.174132		-0.214521		-0.371542		0.302334		0.43176		-0.174993		0.489985		0.216229		0.257554		0.226346		0.0941692		-0.388653		-0.0704341		-0.193286		-0.246155		-0.392875		-0.122798		0.189308		-0.20411		-0.496928		-0.435396		-0.00422918		0.441407		-0.0359538		-0.374204		-0.30162		0.439206		-0.138036		0.352826		-0.311316		0.310978		0.0169431		-0.360272		0.145489		-0.306857		0.188285		-0.0338226		-0.125842		0.101196		-0.467187		-0.150195		0.192478		0.258756		-0.117689		0.266495		0.176075		-0.0937308		0.211883		-0.468202		0.114787		-0.10821		-0.212567		0.464508		-0.376354		-0.0727719		0.32817		-0.238833		0.165003		-0.144655		-0.307781		0.435		-0.203828		-0.086247		-0.0400301		0.0607416		0.212185		-0.164371		0.244703		-0.191082		-0.234301		0.194639		-0.268829		-0.347373		0.12629		-0.164848		0.407159		0.468069		0.459328		-0.269865		-0.198721		-0.0954006		0.0247829		-0.13983		0.246879		0.387426		0.309156		0.299388		-0.0427026		-0.27203		-0.354575		0.266558		-0.362909		-0.0188033		0.307015		-0.130181		-0.0880766		0.0738968		0.444637		-0.255757		-0.172007		0.271087		-0.108715		0.152236		0.255236		-0.23429		-0.40369		-0.157706		0.0660866		0.357151		0.484929		0.0864529		-0.363869		-0.323287		0.188733		-0.0151393		-0.227848		0.299149		0.119576		-0.23844		0.265289		-0.0713994		0.374482		0.222746		0.231097		0.300637		0.0258241		-0.0746547		-0.1152		0.498044		0.303593		-0.434955		0.0439031		0.0736707		-0.0353203		0.27274		0.314547		-0.290005		0.127113		-0.414661		0.0528748		-0.109479		0.0202756		0.293753		0.0109981		0.0308112		-0.499891		0.0646688		-0.214706		0.0906483		-0.413934		-0.145957		0.294886		-0.111467		0.0902065		-0.159613		-0.439474		-0.242345		-0.207396		-0.270918		-0.436798		0.116501		0.0887471		-0.266018		0.404364		0.110293		0.222923		-0.1074		-0.34141		0.349346		-0.167257		-0.248759		-0.431577		0.291381		0.356694		0.407792		-0.00126757		-0.0256127		0.478538		0.293482		-0.371846		0.37527		-0.0168039		0.271193		-0.197661		0.123311		-0.393242		0.122505		0.0427026		-0.420325		0.158484		0.319637		-0.250956		-0.137447		-0.111615		-0.337957		0.204284		-0.497869		-0.089775		0.376467		0.0670388		-0.116162		-0.149066		-0.0950995		-0.37714		-0.0233941		-0.332036		-0.454586		-0.347898		-0.439995		0.013473		-0.171049		-0.151151		-0.355226		-0.0316683		0.215995		-0.0593314		0.341815		-0.366656		0.0820708		-0.301683		-0.169066		-0.244773		-0.025025		0.0640575		0.332431		-0.0430156		0.489161		-0.179796		-0.281647		0.443374		-0.484677		0.469281		0.190936		-0.323139		0.0943676		-0.272111		0.0635144		-0.170262		-0.183155		-0.332197		0.415029		0.468694		-0.391295		-0.373731		0.321215		0.130066		-0.163168		-0.348755		-0.461164		-0.0277639		0.279733		0.49229		-0.0917117		0.170092		-0.491341		-0.269384		0.188344		0.232922		-0.020007		0.0548166		-0.110277		0.396525		-0.335251		0.163531		-0.276994		-0.345221		0.124089		0.185764		0.278275		0.017754		0.494806		0.094981		0.106015		-0.2202		-0.194795		0.474901		0.273695		0.223246		-0.0534534		0.478978		-0.307038		0.155558		0.312226		-0.308912		-0.411049		0.21463		0.169705		0.428713		-0.213817		0.19801		0.00374591		0.271352		0.191997		0.0100703		-0.00635769		0.140253		-0.282155		-0.447726		-0.227242		0.184491		0.460501		-0.179454		-0.191286		-0.154723		-0.182866		0.27088		-0.0811768		0.0309962		-0.372641		-0.267089		-0.190427		-0.398557		-0.463026		-0.354425		0.421011		-0.238376		-0.273235		0.0616645		0.184701		0.0288314		-0.0122039		0.29737		-0.264129		0.442277		-0.298385		-0.367489		0.162402		0.209518		-0.27063		-0.169444		0.409021		0.360375		0.311324		-0.233535		0.211162		-0.475016		0.21798		-0.458386		-0.49855		0.217383		0.253215		-0.132924		0.153576		-0.0650571		-0.453202		0.165847		0.0889998		-0.318193		0.29191		-0.209116		0.262308		-0.354547		-0.0491606		0.249562		-0.214041		0.0455767		-0.442979		0.488006		-0.471302		0.140357		0.108386		-0.0914365		-0.210072		-0.381402		-0.49532		0.298229		0.170336		-0.0635085		-0.255771		-0.423533		0.443543		0.0528685		-0.392433		0.227552		-0.288343		0.421698		-0.366356		-0.176064		-0.478097		-0.127311		-0.19235		0.363404		0.0402744		-0.346652		-0.269539		0.179295		0.477214		0.400592		0.446856		-0.203128		-0.502848		-0.0607814		-0.366082		0.044471		0.122554		0.358266		0.385195		0.244359		-0.0617762		-0.226462		0.235615		0.169048		-0.0390475		-0.445139		0.0350681		0.0690016		0.204164		-0.0429068		0.331393		0.30524		-0.325283		0.101082		0.44863		-0.142417		-0.264042		0.397443		0.103988		-0.21675		0.0866103		-0.482947		-0.457628		-0.417341		-0.0889599		0.225675		-0.374165		0.424353		-0.458996		0.0378159		0.326652		-0.152202		-0.192485		-0.245038		0.0118723		0.151472		-0.187278		-0.242572		-0.154232		-0.00495583		-0.358693		0.231312		-0.208449		-0.302101		-0.0775918		0.0819804		-0.194381		-0.019505		-0.482558		0.451203		-0.497524		-0.22912		-0.465132		-0.417829		0.0606202		-0.143014		0.466177		0.453067		-0.096412		0.423843		0.224014		-0.00688264		0.272245		-0.116094		0.205229		0.160776		-0.226158		0.402162		0.455417		0.0641351		-0.258336		-0.13693		-0.215814		0.403344		-0.188778		-0.274558		-0.153239		-0.247508		0.205923		-0.320882		-0.0753265		0.220818		0.1126		0.230464		0.0574777		0.059312		-0.226485		0.312442		-0.173536		-0.474381		-0.0868648		0.436703		0.2053		-0.0245225		0.118148		0.429913		-0.111432		-0.433171		0.15159		0.279956		-0.364553		0.156948		-0.214072		0.450093		0.363838		0.0607681		-0.0476122		0.274303		0.440572		-0.438282		-0.161981		-0.377043		0.00440969		0.304988		0.419499		-0.316974		0.0513227		-0.047986		0.431906		0.0627405		-0.380028		-0.247649		0.348524		0.230306		0.131411		-0.146501		-0.461302		-0.0302567		0.286859		0.19233		-0.246709		-0.124572		-0.434854		0.441535		0.388163		0.308529		-0.292549		-0.20285		-0.00583359		-0.380274		-0.049622		0.222986		-0.308362		-0.314284		0.213983		-0.292898		0.360137		-0.0248105		0.126731		-0.0854244		0.416031		-0.279461		-0.417272		0.484231		0.201633		-0.178074		-0.322114		0.126995		-0.344003		0.192558		0.0886962		-0.228405		0.281142		-0.378113		0.16052		0.437481		0.296721		0.0199348		-0.142491		0.306674		-0.158917		-0.0165998		-0.449692		0.126279		-0.2875		0.400429		0.439013		-0.139602		-0.45156		0.25226		-0.285733		-0.304161		-0.0554029		-0.366511		-0.0570646		0.0322601		-0.115523		-0.464658		0.105663		-0.348625		-0.441299		-0.0548948		0.296655		-0.0770694		-0.3579		0.209213		-0.415996		0.500124		-0.132472		0.432218		-0.230712		-0.224038		-0.132062		-0.000918616		-0.201296		-0.483383		0.16768		-0.347654		0.369679		0.114593		0.216267		0.430911		-0.368641		-0.281148		-0.460912		-0.377376		-0.170259		0.323669		-0.221192		0.464666		-0.486211		-0.152682		0.473778		-0.512031		0.130052		-0.469851		-0.397888		-0.181878		0.291314		0.479804		0.338402		-0.358789		0.464875		-0.313158		-0.0376014		-0.277901		0.455632		0.340448		0.401196		-0.359875		-0.0694248		-0.0187723		-0.0248419		0.379058		-0.349732		0.184108		-0.348994		0.388451		0.0855587		0.402163		-0.342414		0.168228		0.380266		-0.0429238		0.343142		-0.213602		-0.138405		0.0928938		0.0168964		-0.261374		-0.062144		0.246541		0.408365		0.124297		0.113773		-0.183188		0.432947		0.0403283		-0.458171		-0.435844		-0.255532		-0.131361		-0.0112649		0.326262		-0.102971		-0.347307		0.374976		-0.463224		0.286157		0.294829		0.407999		-0.279845		0.503291		-0.207897		0.487331		0.358043		0.34158		-0.349004		-0.0162817		-0.0514649		-0.103897		0.44163		-0.355854		0.256682		-0.0421884		0.3666		-0.173846		-0.0378008		-0.470645		-0.0697094		-0.0876241		-0.394963		-0.46352		0.438532		0.213808		-0.407271		-0.13673		-0.336002		-0.479279		-0.186655		0.345176		-0.269452		0.189289		-0.250037		-0.19839		-0.286231		-0.248286		0.322133		-0.204668		0.0319411		-0.273744		-0.432415		0.162775		-0.490938		0.197228		-0.486209		-0.449895		-0.085168		-0.0705271		0.155157		-0.298802		-0.362162		-0.269		-0.156466		-0.165914		-0.0497002		-0.0751434		0.220304		0.198274		-0.126545		0.123957		0.316276		-0.421604		0.014842		0.21339		-0.234602		0.467388		0.0166593		0.408816		0.482492		0.0620522		-0.437435		0.127817		0.489989		-0.330717		0.336513		-0.105999		-0.484865		0.367988		0.103138		-0.310629		0.357604		-0.132048		0.0809592		0.4767		-0.0463674		0.307121		0.447791		0.24743		-0.456283		0.444248		-0.283948		-0.250023		0.112324		-0.19612		-0.0222815		
-0.25896		-0.140377		0.390599		-0.282541		0.125018		-0.299897		-0.489243		-0.27205		0.487227		0.180174		-0.411622		-0.151537		-0.457928		0.475786		-0.353826		0.431534		0.49867		0.465475		-0.121334		-0.421499		0.0484381		0.402612		-0.379268		-0.322658		0.342308		-0.384209		0.0588943		0.35154		-0.264268		-0.424183		0.0529733		0.483778		-0.424403		0.237548		0.222742		0.151788		0.255756		-0.202001		0.240353		-0.339043		-0.159943		0.379426		-0.0765487		-0.0256289		0.348137		-0.0361661		0.411125		0.105922		-0.392316		0.377505		0.432883		0.143903		0.474005		0.316979		-0.049489		0.248882		-0.304168		-0.083477		-0.302193		-0.484773		-0.116836		-0.349034		-0.269985		-0.396278		0.440354		-0.0366616		-0.368632		-0.409348		-0.223736		0.1651		-0.0467357		-0.352727		0.497054		-0.391172		0.0480303		0.450618		-0.232103		-0.0185588		-0.369944		0.284477		-0.369709		0.187266		-0.295592		0.0225824		-0.287494		-0.193365		0.376624		-0.491941		-0.339685		0.145067		-0.293141		-0.331245		-0.0542409		-0.235336		-0.20714		0.251164		-0.0217228		0.311206		0.183366		-0.421809		-0.227512		-0.174027		-0.426695		0.308999		0.150023		0.336391		-0.0337807		0.219575		-0.0307566		-0.199805		0.110536		0.135805		-0.189834		-0.0350116		-0.293547		0.0654313		-0.271253		0.313924		0.408248		-0.494446		-0.000237001		0.398202		-0.268762		-0.236018		-0.431419		-0.380815		0.142876		-0.143859		-0.354646		0.421967		0.0366755		-0.176176		-0.463304		-0.393385		-0.131071		0.304404		-0.158157		-0.300013		0.317515		-0.4697		-0.306363		0.195666		-0.226219		-0.409406		0.0726399		0.2219		-0.0457943		0.137416		-0.386925		-0.44257		0.377422		-0.384019		0.436452		0.317543		-0.100981		0.1894		-0.355154		-0.457801		-0.493171		-0.0999859		0.0485266		-0.0437113		-0.368241		-0.168606		-0.00607911		-0.42633		-0.445817		0.296268		0.325327		0.200881		-0.426913		0.181964		0.299739		0.323577		-0.287072		0.427313		0.286492		-0.199267		-0.00215662		0.010532		-0.0612723		0.507969		-0.469588		0.00944196		-0.396841		-0.23397		-0.0584413		0.508287		-0.178679		-0.00525885		0.487305		0.208232		0.0779468		0.21593		0.225357		0.290947		-0.0804187		-0.263727		0.132656		-0.388454		0.0310253		-0.170176		-0.0780284		-0.493031		0.255612		-0.382132		0.284546		0.206612		0.196138		-0.0545627		-0.285555		0.0888635		0.42831		-0.355074		0.442665		-0.301005		0.209299		-0.243159		-0.415385		0.211668		-0.131626		0.366033		0.164047		0.170918		0.426833		-0.154656		-0.00566215		0.442404		-0.460895		-0.258928		0.402646		0.469973		-0.474831		0.25764		-0.0629802		0.440147		0.176928		-0.427579		-0.260872		-0.124342		0.0874294		-0.224422		0.467322		0.510196		-0.44874		-0.483413		0.318081		0.416011		0.048896		0.144447		0.349328		-0.443638		0.182454		-0.481239		0.39756		-0.136046		0.306498		0.026735		-0.0341722		-0.226519		0.38556		-0.236007		0.318062		0.159016		-0.249367		0.304071		-0.380779		0.360738		0.373258		-0.0522248		-0.312945		0.0936495		0.274177		-0.368443		-0.133403		-0.207759		0.383618		0.20115		-0.144541		-0.342613		0.0739451		0.2233		-0.250404		-0.127093		0.0121975		-0.371773		-0.373156		-0.400526		-0.138738		-0.251554		-0.0253423		0.0400592		0.339858		-0.365697		-0.499677		0.155699		0.465668		0.317632		0.211103		-0.455407		0.199294		0.440408		-0.152418		-0.384221		-0.182081		-0.0538877		-0.404606		0.279285		-0.0106879		0.318697		-0.246807		0.383773		0.156831		0.293792		0.321164		-0.146064		-0.262722		-0.0973927		0.408022		-0.125419		0.321439		0.132071		0.144025		-0.299334		-0.257356		0.255478		-0.426514		0.095779		0.150017		0.207944		0.321638		-0.4528		-0.128146		0.208566		0.190725		0.389732		0.322409		-0.245628		0.0628336		-0.357735		0.457478		-0.422022		0.157954		-0.177841		0.383858		0.227341		0.531754		-0.413407		0.307147		-0.369276		0.41502		-0.195535		0.289073		-0.0330134		-0.310943		0.231365		-0.234022		-0.437137		0.109689		0.392823		0.244339		-0.436289		-0.395515		0.454101		0.379752		-0.341771		0.18586		0.323972		0.311176		0.0327139		-0.234821		0.310776		0.104911		0.1814		0.254291		0.283675		-0.333719		0.232552		-0.307196		0.0495767		0.154638		0.298425		0.527131		-0.305553		-0.120769		-0.272089		-0.262016		-0.153658		0.151775		0.31338		0.357882		-0.462754		0.044356		-0.146924		0.0645649		-0.442151		0.276964		-0.298547		-0.45136		0.315386		0.280743		0.321626		-0.344258		-0.215744		-0.187449		-0.409712		-0.433536		0.383757		0.441436		0.0823214		0.260736		0.0715758		-0.30345		0.186667		0.152535		0.288686		-0.115782		-0.406497		-0.328058		0.347914		0.461587		-0.451553		-0.454125		0.320265		-0.102665		0.169172		0.420893		-0.0112801		0.42711		0.203741		0.0738641		0.275047		0.370456		0.356303		-0.267497		0.277937		0.239175		0.285351		0.223578		-0.226248		-0.12869		-0.255208		-0.408769		-0.1487		-0.203083		0.430607		0.241088		-0.271121		-0.0138712		-0.266115		0.136539		-0.0999149		0.399606		-0.300084		0.403483		-0.140135		0.421061		-0.0614776		-0.496743		0.327556		0.364611		0.380181		0.215058		0.382415		0.237548		-0.0986769		0.149832		0.413748		-0.192485		-0.202413		-0.199376		0.0255193		0.454513		0.269353		-0.22524		0.394318		-0.346958		0.207276		0.27275		-0.294028		-0.40379		-0.371015		-0.281351		0.0730413		0.0234834		0.403489		-0.137739		0.184752		0.108017		-0.187702		0.0113677		-0.0196062		-0.289336		-0.274902		0.431843		0.0373493		-0.0631506		-0.280816		-0.0598987		-0.301503		0.0332512		0.181502		0.448275		-0.465042		0.0594682		-0.307875		-0.353347		-0.218239		-0.175724		0.127834		-0.312713		-0.000256198		0.253733		-0.135588		0.211468		0.50024		0.162071		-0.161458		-0.268227		-0.188935		-0.222803		0.400302		-0.367364		-0.455757		-0.0768943		-0.131336		0.40304		-0.074235		0.0390491		-0.203906		-0.389714		-0.327134		0.158877		0.08017		-0.432533		0.0128286		-0.36353		0.420358		0.342254		0.280408		-0.105911		0.0653652		-0.250113		0.00310825		0.392328		-0.351872		-0.0333761		0.302789		0.177245		-0.103376		-0.472905		0.0906514		-0.023645		-0.185419		0.0405231		-0.0867334		0.320288		-0.294148		-0.421949		0.223095		0.0768542		0.167494		-0.27479		-0.414663		-0.518474		-0.302504		0.126513		0.338476		0.066272		0.467245		-0.135579		0.512924		-0.283595		-0.0796361		-0.4108		-0.336849		0.323047		-0.416066		-0.258172		0.258373		-0.448687		-0.399462		0.188167		-0.11152		-0.198518		-0.259554		0.069979		-0.482508		-0.205631		0.215941		0.0834765		0.401794		-0.479569		0.468164		0.478283		-0.175245		-0.25623		0.450519		-0.378473		0.119392		0.17934		0.388061		-0.348359		-0.252759		-0.495982		-0.0803856		-0.457382		0.161999		0.49383		-0.450392		0.451755		0.301315		-0.00960834		-0.0488646		0.178266		-0.199914		-0.0798349		0.468757		-0.316105		-0.442189		0.165535		0.157908		0.337462		0.242886		-0.0715514		-0.0893774		-0.0274142		0.242453		-0.413465		0.0222243		0.426718		0.343249		0.366407		-0.173665		0.21325		0.156547		0.194298		-0.146383		-0.355844		0.292435		0.167146		-0.0270156		0.463658		-0.052353		0.220574		-0.134445		0.286403		0.359025		-0.254054		0.336276		0.278552		-0.177361		-0.000661563		0.503598		0.0265474		-0.315861		0.48358		0.0158551		0.0365453		0.00357493		-0.321871		0.49612		-0.00906449		0.0478544		0.180704		-0.453788		0.023882		0.483516		0.205933		-0.290544		-0.177396		-0.221237		0.415195		0.486774		-0.403578		-0.148709		0.121292		0.248652		0.402823		0.118451		0.126417		-0.370163		0.0871452		0.222591		0.286858		-0.383787		-0.493738		0.108523		-0.450643		0.0103157		-0.0129413		-0.235787		-0.2324		-0.00211681		-0.41516		0.330232		-0.0283866		-0.257726		0.0986298		0.437335		-0.241913		-0.306284		0.16104		-0.0232754		0.24191		-0.466178		-0.16932		0.157674		0.196677		-0.334317		-0.189172		-0.0458303		-0.0767466		-0.483187		0.120058		0.402639		-0.238122		-0.0907438		-0.435578		-0.298956		0.454882		0.0424936		-0.00903289		-0.149251		-0.446429		0.277736		-0.144169		-0.0390172		0.139222		-0.0454534		0.274623		0.375382		-0.0731951		0.413061		-0.481607		0.117444		0.319207		-0.0167656		-0.339417		0.491148		0.155349		-0.107088		-0.398569		-0.290902		0.393791		-0.289854		0.00549054		-0.314321		0.0201023		-0.0153088		0.0298104		-0.0117506		0.371687		-0.200594		-0.340439		-0.448611		0.0848133		0.1682		-0.29604		-0.432175		-0.397412		-0.308811		0.266146		0.31369		-0.112158		0.47029		0.328124		0.344935		-0.412943		0.423407		-0.212557		0.305802		0.235234		-0.421829		0.396907		0.0386972		0.436173		0.290815		0.151524		0.256416		-0.371538		0.134591		-0.386695		-0.286502		0.00667414		
-0.322913		0.181457		-0.171768		-0.264641		-0.13531		0.382541		-0.029557		0.0016349		-0.367222		-0.317206		0.393794		-0.0437519		0.409168		0.251938		-0.0646336		-0.470636		0.321756		-0.194888		-0.406165		-0.293582		0.406273		-0.320848		-0.338029		0.112503		0.244128		-0.161708		-0.0961468		-0.205259		-0.222557		0.276624		-0.276053		-0.482353		0.351605		0.438457		-0.0690963		-0.156274		-0.35589		0.215986		-0.0898387		0.353902		-0.470836		-0.116764		-0.314934		0.286936		0.164984		-0.133208		0.189911		0.100392		-0.337465		-0.385527		-0.112189		-0.0612051		0.0116197		0.229978		-0.20223		-0.235045		0.439378		0.137758		-0.15423		0.373501		0.143762		0.074037		-0.461983		-0.421505		-0.147549		0.286724		0.411972		-0.202119		-0.0139483		0.197458		-0.410468		0.476259		-0.398318		0.420159		-0.170439		-0.253678		0.0474946		0.112958		0.266856		0.245952		0.353055		-0.092159		-0.303671		0.466756		-0.0617468		-0.431052		0.28026		0.448124		0.171754		-0.178314		0.472324		0.271289		-0.361032		0.00123352		0.348123		-0.300816		-0.0306207		-0.296762		0.389799		-0.471572		-0.443576		-0.17246		0.139228		0.316922		-0.242539		0.138477		0.223312		0.315342		0.105653		-0.2291		-0.380121		0.120526		0.28572		0.306571		-0.42166		0.400069		-0.0146625		-0.285052		0.281982		0.115179		0.447762		-0.015183		-0.407691		-0.222128		-0.325239		0.25397		0.395613		0.390814		-0.122597		-0.483574		0.0400635		0.116022		-0.314711		0.385041		-0.0164394		0.0863206		-0.294954		0.253994		-0.241844		0.0571867		-0.237709		-0.3083		0.323654		-0.255589		-0.0847544		-0.224962		-0.379613		-0.0496039		0.0687398		0.450227		-0.483511		-0.368039		0.381164		0.0363736		-0.0877725		-0.0644265		0.393546		-0.287764		0.220323		-0.0141345		0.405444		0.447821		-0.201104		-0.229859		0.074239		0.201074		-0.310819		-0.207472		-0.245941		0.474435		0.396867		-0.289091		-0.159273		-0.0202344		0.260201		0.306415		0.11256		0.487645		-0.100113		-0.209174		0.46357		-0.292224		-0.0677493		-0.265204		-0.0414228		-0.460866		0.315948		-0.0265335		0.0295658		0.349832		0.0932774		-0.221027		-0.00748714		0.442343		-0.491498		0.185809		0.488131		-0.35		-0.439727		-0.479436		0.14017		0.3813		-0.356059		0.00710965		0.516337		-0.124619		0.0416852		0.119581		0.110857		-0.282602		-0.436838		-0.415607		-0.226591		0.261461		-0.310997		0.0242523		0.404186		0.193871		-0.0642506		0.446342		-0.280855		0.41471		0.286456		0.0933049		-0.256861		0.240439		-0.0285292		0.311764		-0.156118		0.512869		0.21284		0.349128		-0.386366		0.379377		0.198117		-0.489528		-0.31005		0.207987		0.340119		-0.0805885		0.113654		0.366242		0.449209		-0.0895144		0.202124		-0.44696		0.114749		0.160658		-0.437264		0.4325		-0.073428		-0.306462		-0.329946		-0.0402983		0.227004		0.118568		0.16827		0.232367		-0.0355982		0.43116		-0.0291228		0.224612		0.406739		0.0773262		0.133711		0.122252		-0.413385		0.103928		0.0667312		0.409867		0.0466442		0.33089		-0.286088		0.40602		-0.205819		0.307729		-0.321256		0.0814401		0.295596		-0.265655		0.41931		-0.155272		-0.406842		0.285548		-0.321623		-0.432406		0.484453		-0.100879		0.307982		0.128904		0.495668		-0.137847		0.0775228		-0.0400036		0.238803		0.314532		0.417634		0.138446		-0.217961		-0.273137		0.401081		0.344293		-0.14042		-0.27788		0.192496		-0.00782227		0.494125		0.0300225		0.302527		0.150587		0.00796153		0.481886		-0.119596		0.4927		0.336278		0.0487599		0.0461192		-0.400052		0.522306		-0.45726		-0.0580616		0.0460529		-0.123514		-0.160546		0.165129		0.422896		0.336935		-0.0240244		0.160794		0.0310932		0.04964		0.103573		-0.306657		-0.358677		-0.0629759		-0.283824		-0.157147		0.428619		0.18706		0.158536		-0.336896		0.364519		0.320793		0.51556		-0.442872		-0.0683055		0.146424		0.439712		0.0141536		0.318724		0.204874		-0.47868		-0.22999		-0.47471		0.147668		0.169572		-0.196595		0.115244		0.101826		-0.238006		0.468875		0.0842925		0.123078		0.274013		-0.216909		0.262409		-0.468147		0.0468952		0.0134946		-0.214055		0.318199		0.12894		0.325612		-0.112474		-0.0370419		0.384888		0.0468068		-0.245003		-0.487023		-0.0992502		0.267218		-0.343533		0.348977		0.034233		-0.466691		0.0852394		0.0718379		-0.278117		0.257997		-0.313317		0.146863		0.218002		-0.118225		0.191748		-0.451565		-0.197292		-0.125372		0.281677		-0.0420903		-0.430868		0.360982		-0.312511		-0.199651		-0.0640649		0.330366		-0.0406956		0.343722		0.318996		0.391369		0.0640892		-0.352629		0.102418		0.0664585		-0.170144		-0.163249		-0.322357		0.257676		0.300126		-0.27919		-0.0777091		-0.472432		-0.0867528		0.222694		0.422382		0.18866		-0.18555		0.208556		-0.401865		-0.0152807		0.109815		-0.0166057		-0.0493066		0.244563		-0.474841		0.307312		-0.322556		0.0695296		0.182432		-0.106574		0.013051		-0.369468		-0.27492		-0.225995		-0.156732		-0.396565		-0.28183		-0.158229		0.100466		-0.36923		0.35915		-0.0866606		0.489056		-0.0484636		0.425624		0.118592		-0.226553		-0.212245		0.450002		-0.364015		-0.379949		0.20437		-0.281635		0.296228		0.243833		-0.472649		0.127962		0.110159		-0.350085		-0.225691		-0.279883		0.322656		-0.453279		0.342853		0.389206		0.217479		0.472569		0.415479		0.320381		-0.157848		0.0254844		0.297714		-0.0517026		0.149558		-0.031		-0.216497		0.312839		0.443707		0.374131		-0.162844		-0.160703		0.462313		0.0927742		-0.360553		0.34747		-0.199898		-0.0822039		0.202541		-0.148433		-0.337379		-0.166418		-0.345035		-0.468689		0.47641		-0.45467		-0.438314		-0.322072		0.0820201		-0.439166		-0.417284		0.146284		0.436835		-0.0575163		-0.419148		-0.0985911		0.14891		0.170289		-0.312517		-0.43465		0.0229772		-0.324385		-0.381981		-0.156741		-0.149304		-0.00848311		-0.314567		0.104625		-0.482138		0.0566297		0.107707		-0.0313848		0.0761368		0.283718		0.270995		0.341995		-0.0523461		-0.049084		0.279949		-0.272778		-0.309271		0.350019		-0.472264		0.395293		0.240787		0.10964		0.482692		0.375098		0.168485		0.178388		0.163463		0.00584155		0.074317		-0.0802977		0.191799		0.136033		0.33212		-0.357018		-0.295772		-0.0560531		-0.318683		0.301689		0.0822732		-0.0473531		0.337826		-0.334002		0.151405		-0.498286		-0.331391		-0.336715		0.422806		-0.198273		0.0944985		-0.165165		-0.440183		0.339914		-0.134808		0.137927		-0.353803		-0.325857		0.405614		-0.0538837		0.427014		0.372534		-0.167305		-0.218637		0.399611		0.323033		-0.0928516		-0.220994		0.157428		-0.0483069		-0.428797		-0.452328		0.366563		-0.395059		-0.326045		-0.173665		-0.028001		-0.184429		0.123414		0.421485		-0.294599		0.131872		-0.12267		0.127102		0.456856		0.347122		-0.0494393		0.199564		0.226879		-0.343564		0.424868		0.18083		0.0289605		-0.21728		-0.0397772		-0.332244		-0.206587		-0.341533		0.0307985		-0.246944		-0.425724		-0.390489		0.319421		-0.195666		-0.432915		-0.123135		-0.455638		-0.393062		-0.195778		-0.103951		0.0396911		0.295612		0.143572		0.119412		0.0757206		0.269649		-0.323959		0.359452		0.112258		0.0615894		0.296523		-0.0942737		-0.407613		0.249408		-0.119262		0.319688		-0.283857		0.335446		0.43383		0.11391		-0.336324		0.21804		0.430593		0.452288		0.0286584		0.235812		-0.465097		-0.0461785		0.487104		0.127673		0.0445502		0.0543281		-0.0812489		-0.379374		0.0968314		0.00962855		-0.284082		-0.138446		-0.464117		0.316576		0.00250829		0.181234		0.121892		0.194085		-0.0980684		-0.0187985		-0.277446		0.073383		-0.0364685		0.220682		-0.476803		-0.294638		0.162079		-0.253395		0.0973869		-0.00673607		0.0650713		0.402478		0.325656		0.0375528		0.393687		0.356457		0.499439		0.0816358		0.247248		-0.229998		0.43825		0.324382		-0.432256		-0.123211		-0.0897501		-0.32667		0.478644		0.0388814		-0.199124		-0.352489		0.467772		-0.0562622		0.293886		-0.486556		0.251355		0.459052		-0.366806		-0.0334061		-0.306107		0.375667		0.0670112		-0.445065		-0.277035		0.413557		0.344899		0.329982		0.110574		-0.432645		-0.149963		-0.189886		0.289854		0.155111		-0.0173439		0.371395		0.0593196		0.254813		-0.323529		0.135229		0.407126		0.111209		0.0351869		-0.240331		0.411961		0.431839		0.18349		0.196248		-0.155034		0.137624		-0.472434		0.0635823		-0.322118		0.450563		0.394179		0.221095		-0.0547703		0.298779		-0.30838		-0.152061		0.0735273		0.170626		0.108383		0.298		-0.178679		-0.42425		-0.451716		-0.201686		-0.427783		-0.169938		-0.334745		-0.245432		0.0294063		0.325546		-0.365277		-0.0759678		-0.0172		-0.263462		0.239908		-0.341372		-0.158112		-0.287541		0.0747042		-0.311227		0.0302226		0.436597		0.426336		-0.402862		-0.451923		-0.283481		-0.0650374		
0.224251		-0.194118		-0.248249		-0.254679		0.499454		0.358199		0.257461		-0.488163		-0.144247		0.256729		-0.149785		-0.403013		0.201261		0.165573		0.464854		-0.27109		-0.174107		-0.45743		-0.302751		-0.391353		-0.369407		0.36372		-0.0894877		0.456369		-0.00543571		-0.272372		-0.144991		-0.0855277		-0.429966		0.005808		0.210408		0.188735		0.243154		-0.186381		0.355772		0.198619		0.421467		0.218318		0.243145		0.215522		0.269011		-0.440431		0.0170446		-0.492901		0.18215		0.38038		-0.265764		0.325168		-0.029314		0.327332		-0.360391		0.32071		0.303181		0.258676		0.308616		0.094336		0.322787		-0.0368782		0.0831785		-0.00829661		0.490208		0.351154		-0.0833086		0.00227535		-0.458958		0.420503		0.0798282		0.0758316		0.171492		-0.0496326		0.118819		-0.376092		-0.156989		0.473419		0.275347		-0.444849		0.351234		-0.262081		-0.454417		-0.00192142		-0.199361		0.11826		0.0799961		0.259707		0.127765		0.378468		-0.19408		-0.483137		0.207469		-0.332338		0.314747		-0.357494		-0.348262		-0.0628521		0.0404652		0.366823		0.227914		-0.0820872		-0.354082		0.0605745		0.417978		-0.405775		-0.394534		0.455108		-0.247264		-0.373309		-0.0207178		0.0909662		0.383435		0.0305521		-0.222915		0.318438		0.0995594		-0.121158		-0.147455		0.126162		0.272609		-0.374009		-0.203147		-0.175061		0.115814		-0.142551		0.347427		0.211042		-0.241067		-0.333461		0.176115		-0.140787		-0.172104		-0.13609		-0.285463		-0.0442469		0.108367		-0.2144		-0.168994		0.191447		0.0331705		-0.0412841		0.255326		-0.495367		-0.350187		-0.140278		0.44384		-0.0368402		-0.318405		0.353708		-0.368353		-0.171879		-0.327424		0.145264		0.439201		-0.220418		-0.230716		0.459581		-0.389283		-0.27052		-0.415418		-0.391048		0.187195		0.236751		0.484717		0.230828		0.123707		-0.297587		0.429324		0.411011		0.300087		0.494994		-0.308574		0.398728		-0.258245		-0.281101		0.34222		-0.359245		-0.00735511		0.0509478		-0.399309		-0.0152976		0.207218		0.347118		-0.195077		-0.357393		-0.284625		-0.440115		-0.192028		0.0663072		0.0291626		-0.020652		0.152192		-0.129113		0.0259969		-0.0509638		-0.227103		-0.209375		0.439386		0.364597		0.153082		-0.302931		-0.237896		0.240463		0.245703		-0.34485		0.322443		-0.197439		-0.059437		-0.0284649		0.0237319		0.393537		0.174395		-0.481181		-0.344531		-0.26865		0.13486		0.23417		0.169367		0.19296		0.387971		-0.0341192		0.245006		-0.19563		-0.467789		0.00613935		0.293738		-0.206007		-0.191194		-0.183182		0.415626		-0.431571		0.260431		0.269805		-0.226903		-0.310866		0.313654		0.101298		0.329754		-0.0634775		0.134603		-0.160134		-0.181318		0.450603		0.227606		0.0573114		0.107548		-0.130754		-0.216815		-0.436906		-0.186034		-0.246546		0.226214		-0.138349		0.00270501		-0.342042		0.299667		-0.204421		-0.32095		0.0114855		-0.0358808		0.301061		-0.237269		-0.175812		-0.20788		-0.190323		0.267331		0.352699		-0.344352		0.179407		0.115124		-0.312714		-0.106928		0.175546		-0.168098		-0.0856017		0.0498278		-0.387613		-0.243767		0.298548		0.00253052		0.35593		-0.12899		0.127538		-0.435598		0.126045		0.073466		-0.0487264		0.0214278		-0.389653		-0.319519		0.214831		-0.0794798		0.107586		0.0305314		-0.0706138		-0.415285		-0.036267		0.464428		0.400735		0.348976		-0.165446		-0.194319		0.0879552		0.00428774		0.351452		0.176465		0.346971		0.269126		0.298831		-0.347683		-0.208526		-0.00268841		-0.201169		0.146422		0.140165		-0.468806		0.380434		-0.245		0.46539		-0.0298675		-0.0912363		-0.26278		-0.0150929		0.242374		0.00401828		-0.0471626		-0.231376		0.196878		0.343697		-0.197029		0.421422		0.425101		-0.438464		-0.171254		0.359128		-0.127357		0.159976		-0.189248		-0.379675		0.467898		-0.468256		0.147054		0.133225		0.337285		0.257755		0.401846		-0.390611		0.119419		-0.468738		-0.233169		0.160786		0.0873567		0.342096		-0.403261		0.00272359		-0.0182721		-0.497991		-0.225316		-0.280039		0.168933		-0.407144		-0.209021		-0.0332803		0.210427		0.309844		0.380912		-0.379148		0.139434		-0.166814		0.0722969		0.270931		-0.192538		-0.38369		0.26464		-0.233034		-0.0767028		-0.407865		0.169974		-0.360673		-0.220658		-0.0582046		-0.376731		0.131081		0.472675		0.0926947		-0.216949		0.185939		0.481312		0.406354		-0.336937		0.352027		-0.49484		-0.109436		0.237654		0.182244		-0.371188		0.0321993		0.225465		0.0848256		-0.316002		0.00586556		-0.18263		0.13118		0.280696		-0.431815		0.0275017		0.0568823		0.240436		-0.489709		-0.352622		0.39422		-0.387499		0.366271		0.016591		-0.390656		0.484516		-0.286749		-0.0921194		0.216517		0.0721812		-0.162579		0.151166		0.214568		0.0186114		0.304476		-0.127628		0.17226		0.433903		0.0692854		-0.328895		-0.320877		-0.495659		0.0610914		-0.331993		0.268828		-0.0991258		-0.3463		0.388347		-0.296348		0.147724		-0.471413		-0.0490212		-0.281742		0.323148		-0.0545928		-0.338319		0.33033		0.274675		0.28376		-0.343327		-0.291945		0.223102		0.24571		0.456694		0.180348		-0.148716		0.315052		0.286805		-0.348725		-0.19518		-0.11497		0.0250117		0.363566		0.048961		-0.353116		-0.262784		-0.361368		0.0759324		-0.487917		-0.178815		-0.0600514		-0.358976		0.0357278		-0.181602		-0.309095		0.124243		-0.322851		-0.327231		-0.156026		0.0529911		0.183772		-0.00125631		0.331558		-0.284852		-0.0499943		-0.0101193		0.202457		0.137584		-0.363372		-0.190595		-0.259151		-0.0786332		0.0346018		-0.275698		0.104594		-0.440344		0.393421		-0.17248		-0.0916417		-0.433895		0.30911		-0.461506		-0.00023709		0.24736		0.0245427		-0.0806389		-0.458511		-0.0188974		-0.39513		0.190115		0.230105		-0.0994528		0.371935		0.426589		0.180824		-0.443896		0.0324977		-0.220642		0.468184		-0.34354		-0.468023		-0.117896		-0.339354		-0.433977		0.410777		0.258363		0.25988		-0.0540569		0.167711		0.150666		-0.335951		0.403752		0.0684471		0.260601		0.045828		-0.320352		-0.416066		-0.45296		-0.0397836		0.401701		-0.347633		-0.0853787		0.0115519		-0.324434		0.482895		-0.0387737		0.274472		-0.0157254		-0.0198495		0.467445		-0.318216		-0.474436		-0.487227		-0.235712		-0.263667		-0.44466		-0.0744229		0.151367		0.0983957		0.31056		0.108104		-0.0793355		0.0917293		-0.141415		0.21853		-0.296071		-0.310988		-0.071696		-0.432607		-0.124945		-0.358249		0.206225		0.474104		-0.287044		-0.468248		-0.448621		-0.105825		-0.225747		0.327005		-0.473371		0.141611		-0.141805		0.230377		0.391143		-0.222128		0.42462		-0.223099		0.398895		-0.44589		0.222713		-0.397972		-0.38952		-0.416214		0.314301		0.126727		0.148632		0.199936		0.20327		0.319853		-0.0726164		0.46473		-0.0643134		-0.465239		-0.452933		-0.293573		-0.297327		-0.0793488		0.464463		-0.326579		-0.209229		-0.391036		0.0979672		-0.221245		-0.39555		0.317513		-0.377363		-0.430081		-0.4677		0.217926		0.265216		0.412525		0.477367		-0.304861		-0.049371		-0.0724111		0.283163		-0.378659		-0.165372		0.0124554		-0.0471085		-0.2624		0.238444		-0.489129		0.255536		0.421251		-0.492626		0.185717		-0.000747254		-0.249679		-0.151679		-0.392395		0.195123		-0.439603		0.475814		-0.0978435		0.493734		0.342188		-0.387167		0.170462		-0.143884		0.192427		0.0201293		0.103071		-0.487336		0.38054		-0.0239999		0.00181549		0.119063		-0.275928		0.120062		-0.399405		0.00695761		0.167085		-0.0106785		-0.264356		-0.0247572		-0.0591021		0.101424		-0.495916		-0.11813		-0.470197		-0.380808		-0.35922		0.0921444		-0.316811		0.120062		0.121519		-0.49949		-0.0957847		-0.371156		-0.484245		0.0550588		0.113311		-0.109521		-0.368419		0.366499		0.249334		0.0573533		0.300972		-0.239472		0.167174		-0.137286		-0.481385		-0.484581		0.122102		0.261045		-0.311222		0.416982		-0.179806		0.203285		-0.380938		0.139828		-0.391818		0.391963		0.0377849		0.0777684		-0.292955		-0.388451		-0.177148		0.0757412		0.492575		-0.38701		-0.385752		0.492073		0.319502		-0.312906		-0.223583		0.128995		-0.209511		0.285335		0.0658837		-0.483209		0.489267		-0.228117		-0.314519		0.20045		-0.470745		0.379469		0.146507		0.414114		0.315645		-0.157643		-0.0465398		0.402034		-0.0802574		0.245174		-0.281171		-0.010756		-0.187975		-0.10099		0.31738		0.123231		-0.45691		-0.0153223		0.0222916		-0.027706		0.486188		0.474088		0.361045		0.390444		0.427319		0.0322062		0.0592638		0.193002		-0.196794		0.176898		0.00219667		0.260055		0.153986		0.330485		-0.208104		-0.473313		0.08313		0.385269		-0.4082		-0.0815786		-0.331473		0.380244		-0.439934		0.459296		0.074036		-0.487089		0.08414		-0.470835		0.468282		0.247442		0.100599		0.384622		0.0742966		-0.220022		-0.20497		-0.393359		0.254419		-0.198474		0.0952015		-0.41923		0.154511		0.00392184		
0.294185		0.0809717		-0.361988		-0.348061		0.420414		0.355693		-0.27638		-0.0244474		0.408669		-0.312393		0.245653		0.406361		-0.155557		0.372312		0.326578		0.212229		-0.155836		-0.427318		0.203851		0.499989		0.499127		0.333209		-0.282705		-0.141774		-0.299133		-0.337639		0.322545		0.43285		-0.371206		-0.148843		0.444467		0.367531		-0.0396305		-0.297393		-0.390881		0.451721		0.0931574		-0.0614516		0.0210159		-0.253658		0.492305		-0.238046		-0.261614		0.0702462		0.483389		0.0252762		-0.0742007		-0.0651223		0.1859		0.2544		0.190512		0.254104		0.305762		0.108472		0.236226		0.449981		0.178888		-0.102049		-0.111763		0.483849		-0.4611		-0.43388		-0.33295		0.449839		0.0319182		-0.317252		0.0018663		-0.13993		-0.459339		0.0380388		-0.0493296		-0.38525		-0.0636338		-0.470033		-0.334959		-0.289973		0.140103		0.0519619		0.0539199		-0.0852396		0.277121		0.485772		0.302389		-0.236288		0.0673037		-0.187978		0.388489		0.224999		0.475974		-0.459865		0.0800763		-0.0750401		-0.288359		0.458577		0.32718		0.0678335		-0.31937		-0.451696		-0.490092		0.131696		-0.129254		-0.349239		0.0270103		0.245156		0.0313288		0.0871813		-0.364851		-0.0220159		0.444965		0.0506425		-0.494914		0.0924588		-0.0778855		-0.344059		0.00348419		0.156517		0.227382		0.0836401		-0.142519		-0.236066		-0.0507527		-0.42868		0.15325		0.249689		-0.242422		-0.45273		0.282132		-0.188436		-0.428974		0.221273		0.413102		-0.333578		0.441123		0.193736		0.472812		-0.469318		-0.223451		0.0225189		-0.209478		0.384879		0.125914		0.324773		-0.0796633		0.349454		0.23909		-0.39876		0.430579		-0.126219		-0.159182		0.318525		-0.353238		0.427138		0.00204982		-0.231442		0.389379		-0.36721		-0.419765		0.143931		0.305347		-0.323974		-0.334696		0.407406		-0.213699		-0.00153858		0.333111		0.31327		0.315808		-0.245376		0.39284		0.0847587		-0.142391		-0.365684		0.33332		0.349966		0.184922		-0.236479		0.103698		0.335953		0.336244		-0.294115		0.493581		0.435983		-0.0217617		0.348411		0.350182		0.0131481		0.0826264		-0.202189		-0.274929		0.104277		-0.33716		0.0799535		-0.00724222		-0.214215		-0.179058		0.499431		-0.182113		0.208812		0.0623087		-0.288247		-0.223908		0.483969		0.240499		-0.32183		0.139338		0.335468		-0.376592		-0.326689		0.212038		-0.0563066		-0.128387		0.393711		-0.442033		-0.0160456		-0.117858		-0.0722415		0.434673		-0.457841		-0.409506		0.397206		-0.0841995		0.294092		0.164613		0.284397		0.156942		-0.0662857		-0.360855		-0.305873		0.446254		0.48033		0.33252		0.291254		-0.0576723		-0.135725		-0.284		-0.409479		-0.400648		0.204712		-0.389401		0.023049		0.233188		0.15635		-0.32915		-0.400134		0.0847052		-0.179162		0.2749		-0.409187		0.325601		0.325665		0.382014		0.173326		0.347911		0.061849		0.428277		0.108619		0.317145		-0.318528		0.428775		-0.154513		-0.11915		0.271959		-0.219672		0.451777		0.338364		-0.246413		0.461912		-0.000335219		0.261399		0.38956		-0.0425018		0.333813		-0.262229		-0.257448		0.417619		-0.420956		-0.333127		-0.473753		0.353734		-0.441002		0.268612		-0.446832		0.171553		0.144882		-0.00083095		-0.285711		-0.226322		0.250636		0.26932		-0.266103		-0.0982833		-0.0204817		-0.0281623		-0.13659		0.229373		0.0756914		-0.374854		-0.193414		-0.168621		0.414597		-0.309516		0.100943		0.0640869		0.286044		0.122647		0.0593825		0.470434		-0.114067		0.334985		-0.327649		0.490326		-0.00234768		-0.0687678		-0.421466		-0.371387		-0.194632		-0.0329343		-0.399248		-0.152048		-0.131934		-0.0807503		0.26547		0.18236		0.370767		-0.408759		-0.387042		0.0155171		-0.446023		-0.455794		-0.354208		-0.336716		0.189066		-0.428296		-0.235908		0.482701		-0.299351		0.475895		0.392086		-0.029117		0.433392		0.0990673		-0.0970946		0.2797		0.131391		-0.333913		0.412938		-0.152677		0.27478		-0.196899		0.0973132		0.0616033		-0.327399		-0.148708		-0.331268		-0.0633272		0.200757		0.47529		-0.166282		0.218108		0.425072		0.242997		-0.26632		0.0832768		-0.452579		0.409343		-0.00351108		0.00373829		0.414181		-0.217123		-0.471321		-0.183433		-0.00654852		0.220281		-0.451754		-0.327515		0.502031		0.492663		-0.245203		-0.154706		0.106104		0.297438		-0.113994		0.303902		-0.504785		-0.163761		0.265746		0.339959		0.466989		0.0197978		-0.490414		-0.29417		-0.0369006		-0.475691		0.322384		-0.0169213		0.369217		-0.121322		-0.198081		0.213365		0.253116		-0.452087		-0.488845		0.255376		0.432042		0.392675		0.20092		-0.188771		0.117449		0.17599		-0.200478		0.43115		-0.343754		-0.328747		-0.433962		0.35975		0.00280244		0.395505		-0.383594		-0.285609		0.293196		-0.397133		-0.439598		-0.245727		-0.0556649		-0.483669		-0.154355		-0.455353		0.476356		-0.363849		-0.13729		-0.381355		0.385645		-0.256933		-0.132235		-0.452488		-0.0618821		-0.265488		-0.237629		-0.399187		-0.233962		-0.431018		-0.357189		-0.238707		0.312033		0.340818		-0.0216416		0.44463		-0.309955		-0.0485606		-0.342831		-0.41588		-0.474383		-0.387171		0.29029		0.291243		0.277063		-0.486521		0.28165		0.362343		-0.434311		-0.00580455		0.0160053		0.340511		-0.237892		0.113031		0.148498		-0.249098		0.445664		0.0243552		0.444711		-0.190488		-0.484361		0.0545534		-0.392871		0.497383		0.231984		0.239198		-0.30631		0.414074		0.204427		-0.184255		0.0431829		0.470899		0.214106		0.390393		0.3003		-0.0919632		-0.206139		0.339707		0.407535		-0.0628318		0.440015		0.299644		0.0294524		0.35175		0.110889		0.00324453		0.0730545		-0.0546825		0.402916		0.225894		0.39635		-0.33403		0.357851		0.404446		0.161855		0.181868		-0.0982903		0.192458		-0.171491		0.0367491		0.0944367		0.429817		-0.229641		0.493708		-0.181164		-0.0783212		-0.198208		-0.456471		0.453146		-0.365308		-0.28491		-0.376038		-0.333596		0.0373837		-0.452575		-0.045462		0.161269		-0.3881		0.255502		0.369187		0.243575		0.119131		-0.187104		-0.0930221		-2.35162e-05		0.187039		0.158927		-0.182503		-0.423677		-0.306136		0.38389		0.252425		0.0454888		0.169326		-0.380652		-0.273681		0.405484		0.281039		0.236106		-0.381802		-0.127906		-0.23333		-0.446259		-0.27024		-0.0908257		0.146087		-0.267839		0.0881178		0.486634		-0.460846		-0.035726		0.0812479		0.30181		-0.323625		-0.486573		-0.197582		0.258369		-0.256318		0.066305		0.388603		-0.16772		0.129419		0.120616		-0.466056		0.0139416		-0.237227		-0.432618		0.458086		-0.31643		0.132834		-0.400378		0.467376		-0.481978		0.181064		0.14291		0.282043		-0.14618		-0.274197		0.491451		0.223392		-0.444001		-0.311464		0.214551		0.0526053		0.144933		-0.438962		0.168195		-0.296464		0.213369		-0.398093		0.193504		-0.371748		-0.154153		0.260859		-0.408099		-0.400831		0.301387		0.442923		0.232604		0.48499		0.348475		-0.111356		0.338145		-0.15768		-0.134854		-0.0777891		0.138917		-0.255027		0.313078		-0.286625		-0.208714		-0.0992631		0.382102		0.345845		-0.478818		-0.0226439		0.14512		-0.385139		-0.427925		0.300582		0.366382		0.4293		0.338619		-0.254662		-0.118823		-0.499694		0.440331		-0.37973		-0.502033		0.277102		-0.338977		-0.314295		0.209232		0.224565		0.455052		-0.209359		-0.115517		0.25573		0.438538		0.14679		-0.46176		0.4026		-0.361862		-0.168309		-0.39064		-0.0920454		-0.432132		0.0967909		-0.45658		0.229486		0.215664		0.166878		0.353781		-0.19989		0.217375		-0.0975555		-0.407239		0.272205		0.0585644		0.0199689		-0.0242392		-0.388737		-0.332838		-0.0700121		0.146748		-0.340134		0.453904		-0.0976522		0.0280604		0.0914215		-0.383051		0.428025		0.166059		0.522379		0.384052		0.112861		0.478141		0.339366		-0.426927		0.243124		-0.407597		-0.255721		0.0758547		-0.233674		0.298557		0.106181		-0.437835		-0.0684838		0.0566943		0.270263		0.015323		-0.485373		-0.209446		0.088931		0.302015		-0.226914		0.467722		0.109264		0.292769		-0.241395		0.0212026		0.426333		-0.11847		0.103855		0.22872		-0.344496		0.16413		0.23103		0.264311		-0.112928		-0.347118		0.0481823		-0.286891		0.182416		-0.174383		0.301924		-0.393258		-0.492868		0.388019		-0.252245		0.0892316		-0.27264		-0.498299		-0.0413309		0.0770562		-0.301013		-0.292976		0.241337		-0.4053		-0.0434247		-0.30385		-0.0704597		0.0175958		0.282261		-0.359002		0.00836494		0.0500757		0.147619		0.249729		-0.116236		-0.339953		-0.282354		-0.255569		-0.191903		-0.132159		-0.240063		-0.479039		-0.11737		-0.208572		-0.310935		-0.0839615		0.0112644		0.388614		0.175071		-0.277826		-0.451559		0.283222		0.410477		-0.0203719		-0.0129236		-0.22472		-0.115696		0.491813		0.40746		0.348498		0.342878		-0.182822		0.289975		0.339521		0.0566468		-0.162794		-0.0715178		-0.185567		0.0173729		
-0.191642		0.469388		-0.450681		-0.103331		0.373587		-0.0421574		-0.245961		-0.0476614		0.240739		-0.352344		0.0112469		-0.291565		0.144454		-0.480026		-0.000241077		0.213078		-0.433771		0.239368		-0.188231		-0.089334		-0.350909		0.142016		0.438733		0.319779		0.112345		0.0411229		0.25059		-0.153585		0.473184		0.050373		0.0992043		-0.300977		0.175123		-0.206374		-0.264687		-0.017177		0.0729252		0.337903		-0.0495093		0.0174896		-0.368244		-0.261934		-0.345894		0.494973		0.426533		0.46592		0.107624		0.357975		0.393775		-0.104072		-0.0543383		0.392843		-0.373655		-0.350596		0.482053		-0.0296059		0.228019		0.0147154		0.0691215		-0.263405		0.0981408		0.308835		0.258879		-0.332325		0.40981		0.0664504		0.496132		0.198711		0.154834		-0.0100563		0.225961		0.00942123		0.176976		0.00707677		-0.0821697		0.435858		-0.179635		0.380063		-0.386481		0.095743		0.4884		-0.184448		-0.00677979		0.098939		-0.0790583		0.317401		0.224771		0.0943132		0.182822		-0.252396		0.410915		-0.482242		-0.00500708		-0.15613		0.310064		0.102702		0.239786		0.460495		0.334294		0.495235		0.0804982		-0.105604		0.179984		-0.139596		0.211472		0.031828		0.440075		0.386089		0.0474406		0.39824		0.36127		0.100816		-0.230258		-0.161996		0.189783		0.125662		-0.247681		0.281385		0.238299		0.367906		0.386428		-0.144888		-0.221924		0.138203		0.221239		0.393807		-0.0762968		-0.359817		-0.364509		0.0362186		0.103413		-0.310552		0.0176689		-0.0726443		0.0880755		0.0850739		0.195197		-0.407089		-0.283329		-0.172192		0.239405		0.450492		0.0665462		-0.0343642		-0.00622159		-0.449367		-0.40589		-0.303048		0.0268933		-0.405689		0.442822		0.0183423		-0.268071		-0.352354		0.477798		0.450916		-0.386637		0.246792		0.314752		-0.396125		0.190245		-0.238719		0.127295		-0.479594		0.109605		-0.106263		0.0240453		0.0412003		0.314268		0.0248646		-0.318069		-0.0601124		-0.0601027		0.291479		0.0969149		0.222509		-0.0788794		0.31523		0.399075		0.284173		0.38304		-0.435284		0.385859		0.185298		0.309452		0.273715		0.403514		-0.0906019		0.0702842		0.18402		0.369897		0.181211		0.0733946		0.430401		-0.326057		-0.410426		-0.0596652		0.0548374		0.459693		-0.305603		-0.10091		-0.319297		-0.177397		-0.384274		-0.48661		-0.467516		0.397748		0.269776		-0.316726		0.404956		0.147389		-0.177698		0.484959		0.0131675		-0.310397		-0.382408		-0.0172279		-0.0197228		0.269661		-0.389266		0.416661		-0.16374		0.465693		-0.0458941		-0.394863		-0.424404		0.144954		-0.376266		-0.0734818		0.411593		-0.0438174		-0.485324		-0.331732		0.101479		-0.437774		0.452544		0.147312		0.21202		0.458521		-0.107336		0.331991		-0.0535517		0.264431		0.229723		0.434911		0.0347065		0.363612		0.193491		0.0925762		0.171595		-0.274116		-0.496322		0.0822017		0.435019		-0.421921		0.226402		-0.478929		0.379705		0.446578		-0.387671		0.216362		0.0265233		-0.284133		0.0608397		0.450663		-0.0379587		-0.493997		-0.00669219		-0.274959		0.00104402		0.39477		0.156834		0.0978026		0.00455818		0.0515726		0.29774		-0.0498974		0.152367		-0.0641208		0.440391		-0.320001		-0.160806		-0.32032		-0.364257		0.486226		0.098372		-0.430845		0.0160785		0.0945149		0.405608		-0.123553		0.114552		-0.354687		-0.0257728		0.0627614		0.315149		-0.514391		-0.115286		0.490479		0.0935984		0.0908866		0.205125		-0.0299735		0.0465463		0.0344517		-0.0464548		-0.245975		-0.446584		-0.154878		-0.00729329		0.221708		-0.0992137		0.165738		0.348539		-0.437886		-0.0170619		0.469662		-0.207074		-0.102459		0.22986		0.147349		-0.322326		0.0141342		-0.0942622		-0.482289		-0.360104		0.462075		-0.0169514		0.111748		0.508905		-0.0521387		-0.116972		-0.372332		0.147982		0.224214		0.468201		0.0400741		-0.189321		0.158977		0.185878		-0.34845		0.255639		-0.275458		-0.00356407		-0.449306		-0.224461		0.0895194		-0.164345		0.41677		0.0551766		-0.0887376		-0.37716		-0.464527		-0.437281		-0.49747		0.309097		0.320379		0.176622		0.133938		0.521858		-0.158237		-0.4349		0.467384		0.441304		0.0944108		-0.238777		-0.371685		-0.425389		-0.282043		-0.330676		-0.200686		0.177587		-0.349182		-0.425599		0.194248		-0.0684652		0.278804		0.00420807		0.119507		0.145133		0.0991288		0.320611		0.0747814		-0.0803664		0.102044		-0.0559138		-0.123926		-0.0211166		0.16349		-0.431953		0.325425		-0.462143		0.181512		-0.450276		-0.175052		-0.467935		0.354068		0.329825		-0.0194656		-0.135815		0.368768		0.283073		-0.0837605		-0.33549		-0.0162441		0.381833		0.355935		0.0999299		0.466383		-0.285877		0.339923		0.282629		0.236037		-0.442825		0.0625935		-0.000230586		0.492882		0.429352		0.218058		0.347673		-0.44031		-0.318279		0.316959		-0.230238		0.382722		0.0148071		-0.22714		-0.119784		0.494948		0.420408		-0.0802334		-0.111594		-0.348817		-0.140044		-0.469822		-0.229167		-0.0503599		0.384277		0.373027		-0.457612		-0.107611		-0.208578		-0.128643		-0.0380231		-0.348257		-0.173482		0.258775		0.266534		0.181437		0.102876		0.408506		0.254546		-0.259895		0.0928945		0.422017		0.0860596		0.181258		-0.40994		-0.320603		0.243789		-0.329712		0.0901828		-0.185127		0.302773		-0.368381		-0.459525		0.239978		-0.422003		-0.216871		-0.0406151		0.361618		0.4685		-0.192067		-0.275674		0.223828		0.378687		-0.426039		0.221563		-0.27476		0.157545		0.174548		-0.26496		0.293561		-0.292106		0.049055		0.562751		-0.385146		-0.399927		0.184825		-0.345951		-0.43747		0.359228		0.259715		-0.335562		-0.21662		-0.0332982		0.241155		-0.381308		0.0232255		0.288252		0.115429		0.492633		0.0872909		-0.36581		-0.401108		0.303864		0.445239		-0.351508		-0.41007		-0.303442		-0.393784		-0.0401566		0.4411		0.0762578		-0.144843		0.152176		0.228195		-0.141682		0.438344		-0.263778		-0.118466		0.16717		-0.386186		-0.488314		0.272263		-0.15801		-0.422706		0.100796		0.0458043		0.0887267		0.425137		0.317968		-0.212009		-0.0771659		0.468141		-0.28707		0.384304		0.12714		0.500726		0.0750518		-0.219432		0.421533		-0.381132		0.314088		0.203374		-0.347787		-0.124691		0.5172		0.205588		-0.0576176		-0.143417		0.291744		-0.0620015		0.38623		0.358318		0.100025		-0.444268		0.398086		0.0640081		0.198179		-0.0709076		0.182992		0.149179		-0.378934		-0.148106		-0.440329		0.394657		-0.433998		-0.00937195		-0.1424		0.484732		-0.202473		0.318732		0.433345		-0.0350786		-0.066869		0.421225		-0.155169		0.401913		0.237906		0.155426		-0.461388		-0.346679		0.31455		0.186598		-0.251443		-0.375103		-0.0148072		0.479707		0.413383		0.0598689		0.213264		0.159539		0.465346		0.31558		-0.0775195		0.277342		0.225053		-0.0498019		0.323219		-0.0672517		-0.273652		-0.082811		0.293977		0.185649		-0.0574181		-0.38071		-0.12223		-0.197793		-0.129786		-0.472704		-0.47131		-0.497364		-0.134439		-0.393331		0.287997		-0.406632		-0.223928		0.132732		0.132068		-0.219224		-0.341471		0.112544		0.277628		0.00850386		0.0776272		0.459724		-0.112164		-0.256463		0.399412		0.085721		-0.118736		-0.256422		-0.057282		-0.449912		0.0234235		-0.486669		-0.432438		0.263937		-0.317189		0.374534		0.442866		0.00899415		0.336392		0.286661		0.0137504		0.25871		-0.185132		-0.168096		-0.302158		0.135997		-0.0517257		0.260013		0.337413		-0.136309		0.221373		0.279282		-0.384697		-0.394889		-0.0697275		0.153604		0.466369		-0.368403		-0.493184		-0.270076		0.424308		0.246225		0.416963		-0.32662		-0.289323		0.267241		-0.0604421		-0.0144428		-0.180585		-0.438798		-0.162708		-0.0907933		-0.0238858		-0.420162		-0.0326594		0.313756		0.110488		-0.499122		0.302965		0.398278		0.085881		-0.0489373		-0.126477		-0.159844		0.244271		0.103092		0.307749		0.156749		-0.18696		-0.393322		-0.469877		-0.295994		-0.467902		-0.236668		0.0139899		0.0667891		0.129629		-0.284493		0.211734		-0.154882		0.173697		0.358773		0.260189		-0.333439		-0.377659		0.0154042		0.477318		-0.394893		-0.0359061		-0.441508		-0.161884		-0.0399288		-0.276311		0.424312		-0.490785		0.213622		-0.436599		0.130621		0.461302		-0.264991		-0.0118703		0.398029		0.117833		-0.181771		-0.36355		-0.420215		-0.175144		-0.0156163		0.136239		-0.222337		-0.0706973		-0.374841		0.411563		0.0230146		0.0609977		0.413991		-0.404332		-0.273088		0.444067		0.182893		0.162558		-0.26855		0.0773757		0.299861		0.236741		0.451454		-0.0750549		-0.473565		-0.0303593		0.354701		0.423804		0.275865		0.215548		-0.257913		-0.128854		-0.466113		0.2981		0.251188		0.183358		-0.379683		-0.328086		0.407554		-0.178566		-0.174636		0.387891		0.00938911		0.0982198		0.469448		0.411967		-0.462393		-0.466785		-0.0333543		0.0481484		-0.292165		0.135213		0.251406		-0.427066		0.489467		-0.13298		0.0246754		
-0.287829		-0.0178375		-0.425186		0.0703696		-0.347205		-0.353478		0.0278764		0.290548		0.248329		-0.396148		0.111067		0.297951		0.314549		-0.168945		0.399574		-0.0065169		0.456026		-0.113079		-0.380969		-0.422745		0.13577		0.0736102		0.305487		0.0527613		0.380432		0.118987		0.24082		-0.262271		-0.202156		-0.34599		-0.266752		0.379016		-0.418793		-0.168276		0.475776		-0.267174		-0.00497928		0.482595		0.44308		0.0232974		-0.0970046		0.235687		-0.392059		-0.252248		-0.366397		0.217793		-0.40758		0.128821		0.439168		-0.364083		0.25378		-0.499338		0.195722		-0.479429		-0.430878		-0.412651		0.488776		-0.415887		0.257923		-0.400705		0.100307		-0.463451		0.218559		-0.105544		0.111185		-0.372213		-0.093588		-0.0930234		-0.0754866		0.411569		0.193316		-0.142898		-0.189489		0.104049		0.464269		-0.247716		-0.379587		-0.36696		-0.444051		-0.383557		0.192774		0.208847		-0.168833		0.12389		0.445093		0.454222		0.207558		-0.232677		0.193554		0.374536		-0.286477		0.13335		-0.491383		-0.463416		-0.054772		-0.391877		-0.341143		-0.422707		-0.219386		-0.207705		-0.464159		0.035038		0.0975969		0.140826		0.308991		0.0679625		0.457252		0.301542		0.119341		0.260838		0.0219342		0.265096		0.356141		0.0733612		0.316619		0.077525		0.074098		0.408017		0.050912		-0.00538882		0.154373		0.233569		0.106406		-0.0176383		0.217869		0.329439		-0.315907		0.44026		-0.20708		-0.473393		-0.0416199		0.157829		0.474139		0.193627		-0.443457		0.426616		-0.44716		-0.193257		-0.0240842		-0.0954391		0.0364201		-0.0379313		-0.0597532		-0.0552875		-0.0547355		0.0147547		0.476238		-0.422746		0.496516		-0.454699		-0.221391		0.0689223		-0.153441		0.397308		-0.331993		-0.163253		-0.398697		0.178069		-0.193147		0.33324		-0.498464		-0.0947727		0.401571		0.253626		-0.2209		-0.325462		0.148151		-0.287488		-0.247443		0.0927767		-0.285889		-0.0321268		0.440002		-0.0745028		-0.389686		0.239581		-0.127163		-0.477514		-0.000883194		-0.0691123		0.383032		-0.149322		-0.453709		0.0608301		0.160677		-0.281314		0.284558		0.414485		-0.237882		0.0105981		0.0918013		-0.457965		-0.169145		0.0511134		0.431959		0.00601395		0.125169		0.0291902		-0.0158895		-0.300526		-0.352692		0.143364		-0.0153058		-0.0798507		0.466297		0.196628		0.36427		0.228375		0.406624		-0.0907225		-0.207977		0.351362		0.369119		-0.0812683		0.217825		-0.186524		-0.196851		0.259615		-0.33384		-0.237627		-0.238623		-0.0816902		-0.313098		-0.0473435		-0.39045		0.301222		0.0985939		0.237106		-0.05388		0.238981		0.426188		-0.0485569		-0.120159		-0.221016		-0.125832		0.453619		0.123723		-0.327509		-0.478335		0.101142		0.085909		-0.474082		0.0256567		-0.135809		-0.240363		-0.323555		0.133512		0.042501		-0.286707		-0.0719842		-0.0302156		-0.451463		0.350561		0.234343		0.0504836		-0.224748		0.154103		0.351694		0.0804257		0.362887		-0.338318		0.241329		-0.354537		-0.125677		-0.23267		0.453686		0.143561		-0.0231522		0.348529		-0.433186		0.0754195		-0.472034		-0.345853		-0.489787		-0.0943315		-0.308237		-0.338796		0.0549086		0.460175		-0.0289913		-0.242786		-0.297338		0.0583567		-0.454558		0.259666		-0.115516		-0.288608		0.49283		0.0613638		0.172783		-0.0610521		0.15349		-0.221558		-0.286281		-0.123708		-0.346152		-0.203119		-0.246018		-0.316306		-0.449475		-0.358927		-0.183467		0.336579		-0.139598		-0.459471		0.466565		-0.304286		0.18233		-0.442835		0.352753		-0.400513		-0.470333		0.0461485		-0.312893		0.248967		-0.422655		0.31831		-0.0764084		0.261475		0.394932		0.215092		-0.471846		0.208363		-0.49323		0.126649		0.204003		0.118094		-0.401302		-0.457813		-0.156077		0.496355		0.145489		0.0574042		0.132922		0.297746		-0.0794879		-0.239269		0.137825		-0.308706		-0.365342		0.239563		0.225256		0.205186		0.474275		-0.241029		-0.250696		0.144435		-0.340297		-0.183839		-0.294757		-0.226433		-0.152889		-0.480317		-0.438305		0.36107		-0.0567625		-0.126853		-0.00651075		-0.114049		-0.163442		0.466277		0.0399054		0.285307		-0.355256		-0.300787		-0.444951		0.116277		0.101648		0.360363		-0.160748		0.135102		0.44406		-0.0569703		-0.0104901		0.376365		0.0967033		-0.357896		0.465945		0.431229		-0.364116		-0.279836		-0.145249		-0.28769		-0.104508		-0.404694		-0.420875		0.115703		-0.273486		0.175234		-0.162276		-0.480892		0.46066		0.0309666		0.437668		-0.275381		-0.216508		-0.246512		0.116039		-0.163069		0.166095		-0.157406		-0.331548		-0.408691		-0.0546982		-0.071584		0.171314		-0.486757		-0.399382		0.379707		-0.162621		-0.474463		-0.432049		0.0931577		0.20968		-0.384457		0.164903		-0.382387		0.125193		0.193877		0.453378		0.214634		-0.464532		-0.476759		0.0325637		0.297512		-0.0382752		0.142121		-0.436432		0.359167		0.0613741		-0.356009		-0.463443		0.415264		-0.253291		-0.166226		0.490327		-0.066387		0.184965		-0.228073		-0.380829		0.466635		0.0378346		0.0465013		0.232408		-0.48896		0.350185		-0.495506		0.193263		0.0921805		0.209605		-0.3182		-0.270231		0.127137		0.356123		0.45969		0.159659		-0.230666		-0.226743		-0.277405		0.261761		0.179787		-0.37084		-0.0851317		-0.152146		-0.0380258		-0.260879		-0.412567		0.011236		-0.117003		0.377903		-0.285851		0.209214		0.17225		0.0545029		-0.428638		0.168615		0.239422		0.275513		-0.139054		0.0834765		0.249157		0.030725		0.444775		-0.412471		0.241775		0.439065		-0.333787		0.234643		-0.0201903		0.034672		0.0777803		-0.00248355		-0.501971		-0.0896068		0.0373273		0.164656		0.200795		-0.474734		-0.166228		0.215321		-0.284663		-0.0484994		-0.385445		-0.222104		0.220339		0.0340241		0.0694304		-0.462573		0.172994		0.397727		0.455781		0.430893		0.377024		0.076726		-0.500156		-0.0488493		-0.248736		-0.487385		0.0627702		0.445479		-0.344167		0.0729436		-0.176344		-0.475281		0.128994		-0.0546553		0.0186488		0.408622		0.265694		0.0407909		0.313281		-0.0516536		0.125236		-0.0629964		-0.427672		-0.0157444		0.0210406		-0.285977		0.281283		-0.448908		-0.295999		-0.115282		0.241648		-0.225986		0.442847		0.0754531		-0.062804		0.0961361		-0.172266		0.419317		-0.424553		0.0643275		-0.440168		-0.158255		-0.447765		0.226598		0.323761		-0.161636		-0.164448		-0.246838		0.396958		0.171986		0.0450741		-0.114192		-0.48951		-0.0924516		0.017365		0.211616		-0.480925		0.108097		0.176119		0.19554		-0.0690074		-0.304493		-0.24835		-0.145647		0.0264813		0.232226		0.155651		0.0307774		0.249421		0.13063		0.14328		-0.0982192		-0.253886		0.414976		-0.32616		0.49		-0.178294		-0.229352		-0.00614715		0.249296		0.478073		0.462092		0.367439		-0.205587		-0.17481		-0.174494		-0.276854		-0.183454		-0.309006		-0.106224		0.15791		0.0606626		0.416183		0.202428		-0.177811		-0.361799		0.305774		-0.430101		-0.0754688		-0.0596559		-0.0744721		-0.200228		-0.186229		-0.304202		-0.253694		-0.412064		0.124334		0.364771		0.25143		-0.0780551		0.101909		-0.458103		0.190605		-0.411257		-0.433928		-0.332088		-0.463944		-0.0689959		0.0201438		-0.224612		0.366154		0.023803		0.327566		0.129218		-0.0812819		-0.49924		0.131569		-0.0699069		0.43463		-0.351374		-0.23123		0.0644119		0.191805		0.301864		-0.435358		-0.476878		-0.424235		0.356127		0.00632342		-0.207389		0.116009		0.195964		0.273038		0.0614346		0.216061		0.406833		-0.401109		-0.427808		0.371492		0.125123		0.144885		0.0495862		0.255477		0.319424		0.324092		-0.0136045		0.406951		0.478678		-0.455455		-0.434395		0.37232		0.232535		0.0437637		0.467464		-0.366535		0.196247		0.0919526		-0.304118		0.176474		0.376738		0.352554		-0.26383		0.0655523		-0.0660405		0.207129		0.165357		0.085012		-0.426491		0.226005		0.00953356		0.109292		0.0546499		-0.0425456		-0.47734		0.103468		0.267334		0.356367		-0.353172		0.0700875		0.361825		-0.0324267		0.304834		-0.0405503		0.19086		-0.205063		-0.218244		0.473162		-0.0924808		-0.44795		-0.208654		-0.00781326		-0.244318		0.143749		0.144172		-0.0715949		0.314275		-0.204865		0.17539		-0.0628762		-0.214642		-0.318447		0.162068		-0.339807		-0.203342		-0.419741		0.323074		-0.0666422		-0.223109		-0.48904		0.173095		-0.479954		-0.0606034		0.000597835		-0.0751102		0.151018		-0.426105		0.341779		-0.190309		-0.429667		0.223488		-0.119931		0.0321972		-0.025357		0.0889978		-0.129615		0.0945685		0.451458		-0.162145		0.370643		-0.273612		-0.386583		0.360077		-0.21414		0.48283		-0.376301		-0.492224		0.264327		-0.289043		-0.146751		-0.00693855		-0.315591		-0.0412402		-0.227708		-0.103736		0.198908		-0.363159		-0.241805		0.38868		-0.360548		0.0550364		-0.084112		-0.436317		-0.256831		-0.0393377		0.298225		-0.283566		0.297557		-0.054949		0.0214271		0.132995		0.356445		0.184981		-0.0122495		
