3		784		10		relu		softmax

89
0.00883766		-0.532806		0.581166		0.819292		-0.244115		0.562073		-1.81635		-0.329081		-1.16579		-0.939095		-1.29058		0.507518		0.585114		0.491149		-1.71141		-1.51287		2.45193		2.08632		-0.0794245		-0.58605		-0.354913		-0.793497		2.5024		-0.678787		0.968408		0.590783		0.189774		-1.08657		-0.194265		-0.447496		0.514252		-1.60112		0.217951		0.953747		0.222391		-0.498505		-0.60305		1.12727		1.55347		-1.81769		1.33739		-0.969969		1.00997		1.05497		-0.045405		0.390059		1.08106		-1.65584		0.277995		-0.392276		-1.54597		0.0847065		-1.21527		1.178		-0.711965		-0.977981		-0.876016		-0.268263		0.406578		-0.98986		-0.211136		0.201861		-0.648848		-2.60762		-0.57539		-0.855913		0.296856		-1.00003		0.492033		1.38587		0.895309		-0.310108		1.11241		-0.0772376		-0.241289		-1.40777		0.330335		-0.689523		-0.387786		-1.19408		-1.37134		-0.0740487		2.07288		0.396659		-0.608476		-0.361151		-0.296031		-0.169967		0.1105		-0.618326		0.895457		0.33945		0.984174		-0.488612		-0.396226		1.37468		1.1496		-0.386734		-0.488019		0.246423		0.207439		0.585062		-1.57195		-0.522543		-0.619732		1.39084		-0.630324		0.910536		-0.407808		1.03974		0.0619393		-2.45741		-1.30344		0.215813		-1.6208		-0.452179		-0.30095		-1.2126		-0.887785		1.69587		-0.352869		-0.297994		0.33782		1.61698		0.207692		-1.81074		-0.573741		-0.419976		-1.16629		-1.01784		0.0967746		-1.00261		0.0635442		0.470622		0.818491		0.890544		-1.13177		1.77853		-0.076154		1.22162		-0.119664		-0.195498		1.90248		-0.31932		0.13137		0.392647		-0.43617		0.47141		-1.22737		0.242767		1.64793		0.0931055		1.08671		-0.07895		-0.158143		-0.537982		1.50326		-1.61612		1.05612		0.290235		-0.341067		-0.640676		-2.00421		-1.39069		1.12312		0.871055		-0.193697		0.224004		0.300001		-1.29484		0.656698		0.660054		-2.29696		0.894996		-1.70797		-0.960446		0.285104		0.420778		-1.64271		-1.3971		-0.499707		1.32596		-0.941549		-0.958894		0.915175		-0.0875905		1.33057		2.78761		0.41411		0.335355		0.94251		1.13583		-0.0524152		-0.24187		-0.679822		-0.672395		-0.956423		-1.6371		1.12358		2.61893		1.62656		-0.943262		0.628732		0.530274		0.224839		0.395367		1.33047		-0.0152755		-0.731636		0.0422531		-0.514796		0.32921		0.332817		0.271056		-0.967616		1.31596		0.462342		0.136956		0.404695		-0.83746		0.608107		-0.79075		-0.693139		-1.704		3.2335		-0.00647278		-1.50841		0.306465		-0.652764		-0.0595697		-0.313407		-1.6341		-0.178829		-0.807076		-0.475849		-2.2634		-0.450216		-0.785495		-1.89093		0.404647		-1.06955		-0.487832		-0.145508		-0.763358		0.124816		0.967745		0.539416		0.53082		-0.237635		0.504967		-0.0127775		0.089487		-1.05272		-0.301874		0.741316		0.868179		-0.163731		-0.484036		0.0858453		0.125197		0.174012		0.110324		0.765519		0.132255		1.48594		-1.05954		0.190356		1.63112		-0.0479002		-1.00431		-0.622262		0.536722		-0.301465		1.1372		-0.339456		-0.536902		-0.679893		-0.0538762		0.196389		-0.905721		-0.763688		0.286627		-0.0602738		0.298269		-0.0733979		1.0329		1.08452		0.0678371		0.046768		-0.457873		0.28387		1.2863		0.832718		0.18237		-0.684353		-0.252203		-0.989299		0.749535		1.34831		2.64117		-1.64804		0.00780835		-1.29477		-0.482174		1.66476		0.612884		-0.922251		0.637357		0.179787		0.622676		0.478403		0.690361		-1.4688		-1.02734		-0.278897		0.538899		-1.05837		0.389816		0.715599		0.482716		0.850982		-0.0435467		0.945421		0.0741453		-0.0174221		-0.038541		-0.808745		-1.76877		1.20486		0.0990026		1.55494		0.479757		0.739284		-0.405933		-1.90586		1.00625		-0.249784		0.351906		0.0998804		-0.801533		-0.228314		-0.649935		-1.16312		1.31838		-0.712057		1.0835		-0.388154		-0.620807		0.838753		-0.42393		0.233226		0.141621		-0.0484372		-0.830554		0.934017		0.245893		-0.136017		-1.47363		-1.03859		0.0373485		0.307446		1.82835		0.311851		0.84015		-0.188781		-0.487702		0.416939		1.45105		0.25412		0.18287		1.20094		-0.658353		-1.1584		-0.0384931		0.604075		2.07969		0.777437		-0.200585		-1.0277		0.115248		0.385428		0.334713		-1.56725		0.871066		0.567408		-0.230178		-0.0121267		-0.922392		-0.0495505		-1.24964		-1.01734		-1.33055		0.61815		1.36945		1.34958		-1.64237		0.568851		0.951592		2.06929		0.757523		-2.47283		-1.59454		0.297679		0.665881		0.777175		2.10538		-0.43699		0.308795		1.40976		-1.87072		1.87466		-1.79999		-0.54166		0.579012		0.74877		0.672128		-1.14421		-0.82978		0.702168		-1.24935		-2.347		0.152646		0.511933		-1.84534		-0.554011		0.623261		-0.0300673		1.91002		-0.19606		-0.777715		0.980506		1.04828		0.901051		0.809329		0.59584		0.529439		-0.738874		0.392199		-1.11995		-0.277777		0.167805		-0.0315073		0.0036377		-2.22293		1.83237		-0.0334552		-2.24714		-0.61194		0.609374		1.04049		0.777519		-0.0526763		0.898237		-1.2714		0.350882		0.451515		0.997452		0.639285		-0.150001		-0.370763		0.212482		-1.40494		-0.136271		0.575856		-1.07073		-0.345111		2.634		-0.953015		1.23817		-1.09914		0.753067		-0.384891		-1.49527		-0.587261		-0.71003		0.753696		-0.17986		1.25311		2.33072		0.10119		-1.16751		0.548392		0.535739		-0.240235		-1.32198		2.02803		0.195693		1.23684		-0.869957		1.27049		0.639692		-0.13441		-1.40251		-1.83517		0.335445		0.990553		-1.80721		0.503704		-0.359532		0.433951		-1.93945		0.60967		0.883518		-0.802132		-1.07069		0.366774		0.993963		-0.0587381		1.35908		-1.3123		-0.900004		0.817781		-0.14419		0.535568		-0.487761		0.834402		0.142386		-1.21654		0.400522		0.0855221		1.10425		-3.09215		-0.129105		-0.567029		0.511066		-1.10566		-0.963516		0.338812		0.363028		1.11243		0.290544		-0.0170974		0.265493		0.856755		0.321698		1.63385		0.162392		-1.61625		-0.106022		0.184052		1.32533		0.262468		1.15489		-0.446965		1.26784		0.829605		-0.654253		-1.07032		-0.477309		2.85726		0.530103		-0.00627262		1.08333		-0.648887		-0.661828		-0.46393		-0.618689		0.354172		-1.73767		1.06155		0.176987		0.257299		0.591483		0.885128		0.263398		0.241954		-1.04781		-1.6449		-0.388892		0.222844		-0.93179		0.603449		1.5464		-0.287145		-1.3109		-1.82296		0.134165		0.89558		0.518034		1.57045		1.02233		1.56313		0.210264		1.44447		2.04011		-0.264084		1.887		-0.422191		-0.204862		-2.21199		1.10693		-0.3979		-0.501302		-0.428816		-0.710265		0.142952		-0.948387		-0.643354		0.579938		-0.265397		2.19789		1.93789		0.984344		1.45096		-0.578974		-0.64965		0.438261		0.800232		-0.513703		0.360227		0.709503		0.00496835		-0.0783824		0.815899		-0.234311		0.630543		-0.27791		-0.298258		0.946333		2.14813		0.126269		0.264277		-0.803706		-0.191586		0.237203		-2.19646		-1.05065		1.88624		-0.44147		-0.379572		1.23822		-1.21225		0.525577		0.277724		1.84712		-1.25053		-0.354234		0.375591		-0.350341		-1.16337		0.166772		-0.279677		0.346628		-0.518924		1.56302		-1.17611		0.84562		0.0204237		-0.5899		1.26807		-0.0511013		-0.946642		-0.175631		0.282594		-1.64919		1.89561		0.00816793		-0.25415		-0.957407		-1.05007		0.848788		-0.575604		-0.295504		0.267994		1.16883		0.297276		-0.98022		0.646688		0.075995		-1.25798		-1.47154		-0.289836		-0.121796		0.306461		1.17165		1.02703		0.397758		-0.47831		0.906006		0.0776644		0.303617		-0.325427		0.995851		0.601597		-0.483398		-3.26626		-0.653975		-1.00225		0.662653		0.5464		-0.758284		-0.65982		2.13137		0.665293		0.15963		0.886958		-0.093982		1.49699		-0.929284		1.59426		0.0300659		0.408369		0.908731		-1.01444		-1.00882		-0.849085		-0.0821644		0.513065		-1.06505		-0.850191		-0.219601		-0.141211		-1.65528		0.596397		-1.05045		-0.0848222		1.69829		0.588842		-0.37355		1.65245		0.495952		-1.16687		-0.322759		-1.79766		-1.81292		-0.152212		0.861005		-0.896486		0.620068		-0.639069		-1.20801		-0.0473809		1.03223		-0.2246		1.92014		-1.17007		-0.961098		-2.0411		0.236453		1.19886		-0.371369		1.34522		-0.62684		1.3363		0.981833		-0.352219		1.12979		-0.00477645		1.42162		1.19064		-1.17874		-0.7087		1.19696		-1.82044		-0.0723947		0.850575		-1.07027		0.354373		-0.316313		1.48009		0.127774		-0.705086		0.0581288		0.0720168		0.559732		0.887882		0.387301		0.525411		1.62418		0.15922		-1.21898		-0.526356		-0.295061		-0.473267		-0.950067		0.107806		-0.0895229		1.89453		0.59074		-0.840568		-0.212599		-0.749876		0.178645		0.942632		0		
0.805123		0.299736		-0.977878		0.331151		2.30381		-0.971556		-0.318463		-0.410046		-0.627302		-0.403169		-1.65447		0.800952		-0.130694		-0.320743		-0.299865		0.557998		0.819646		-0.128333		-0.11658		-0.13274		-0.902869		-0.0741246		0.724145		1.12075		-1.04175		-1.0945		-0.516815		0.666653		-2.03334		-0.114118		-1.57301		0.984155		0.0308157		0.505306		0.871007		0.0472662		-0.454867		-0.665502		-0.48398		0.584238		-1.11939		0.275395		0.826044		-0.163679		1.29595		0.520959		-2.10187		-1.54211		0.788651		0.178864		1.03019		1.54331		-1.3068		-0.0728212		-1.67073		0.506121		-0.28652		-1.59152		1.5945		0.480767		-0.912435		-0.81519		1.18289		0.673094		0.236873		0.214122		-0.439532		1.40856		-0.355088		1.36825		0.829598		1.50698		1.26712		0.936323		-0.924872		0.904633		-0.217069		1.87422		0.0924446		0.761782		-0.257368		0.0885222		2.59104		-0.725605		1.47441		-1.48456		0.185752		-0.460679		-0.443234		1.39321		0.192004		0.69159		-1.38112		-0.271368		1.42934		-0.274879		0.479724		-0.742138		-0.691547		0.272539		0.267746		-0.00413237		1.02896		0.603972		-2.49752		0.383543		0.544073		-0.470525		0.60574		1.88705		-0.807416		-0.820169		0.254069		1.00742		1.4096		0.698522		-0.448647		-0.700955		-0.834618		0.0823404		-1.53492		1.23077		0.391593		-0.993772		1.01637		-0.164281		-0.621001		-1.38406		0.457037		-0.526967		0.403064		-1.95872		-1.28858		0.797714		0.182416		0.797364		0.183175		-0.257614		-1.12499		0.544845		0.634403		-0.305194		-1.24463		0.913466		0.280364		0.544867		-0.00420251		1.2467		-0.998725		-0.787257		-0.99105		0.0533732		0.129869		-0.422253		-0.583248		0.456639		-1.1397		0.486595		-0.923005		0.105391		-2.45333		0.10013		0.857387		1.47291		-0.00368326		0.353282		0.480643		2.75096		1.94615		-0.880196		-0.493777		-0.716519		0.0983315		0.0296422		-1.59665		-1.5405		3.34201		-0.42774		-0.187177		0.266631		0.303941		1.25257		0.278298		-0.175863		-1.16719		-0.537279		-0.0357428		-0.0821307		-0.464625		-0.160087		2.2726		-2.37337		0.382987		-0.627208		0.0920539		0.374875		-1.76726		0.217829		1.15699		0.183752		2.81033		-1.4587		-1.35901		-1.27365		0.199035		-0.665765		0.471528		-1.08054		0.311187		-1.74032		0.799145		0.167857		-0.751496		-0.773561		0.834451		0.158718		1.07648		0.553964		0.847619		-0.700029		2.47899		-1.17687		-0.9647		-0.941296		1.12736		0.23057		1.35623		-0.36385		0.938531		-0.537521		-0.32532		0.129275		0.796832		-0.120729		0.945258		2.2305		-1.13527		0.593066		-0.183976		-0.0254822		-0.0408879		0.508311		-0.63037		-0.0560745		0.569281		0.230741		-0.876989		1.71236		-0.0728915		-0.130058		-0.212471		-1.04611		-0.0642291		-0.393541		-1.82946		-1.1709		0.944589		0.424224		0.973854		0.873559		-0.495402		-0.527896		0.609431		0.559156		-0.851645		-0.41624		-0.31016		0.0337989		-1.51853		-0.283235		-1.52436		0.159278		-0.513356		0.367598		0.549421		0.193683		-0.17684		0.408382		0.618122		-0.630047		1.98812		-0.572982		1.07971		-2.04489		1.83484		1.24705		0.13063		-0.222191		-0.305113		2.02354		-0.704593		1.91911		-0.202236		0.344144		0.380163		0.581024		-0.524668		0.257416		-1.14253		1.47687		-0.568732		0.729584		-0.0731208		2.83164		0.608823		2.36012		1.55347		-0.392827		1.03593		0.264782		-1.10703		-0.13408		0.625663		0.395502		0.0449563		0.760885		0.0981447		0.374252		-0.970876		-0.990406		-0.188928		-1.05476		1.70954		-0.17778		0.212598		-0.360661		0.715543		1.49608		-0.294644		-0.696077		-1.40288		-1.9763		-1.09774		0.418867		-0.546008		-0.887975		-0.888891		-1.52289		-1.29563		2.03481		-0.465203		0.288556		0.0479873		-1.62484		-0.727523		0.582257		-2.27896		-1.77791		-1.22173		1.55589		-1.2231		0.488172		0.381929		-0.352099		-1.91844		0.354033		0.299077		0.295606		-0.224232		-0.433744		0.924482		0.841283		-1.12261		-0.0501555		-1.53921		0.919458		0.899767		-0.728871		0.330546		-0.200222		0.76454		-0.454705		1.98284		-1.02646		1.23767		-0.225187		-0.111005		1.01245		0.601315		1.95071		-0.435338		-0.52025		-0.0994259		0.944379		-0.118399		0.932438		1.82776		0.823922		-0.0890126		-0.134993		-0.918234		-0.552503		1.09472		-0.120542		1.40604		1.15737		-0.412298		0.845295		-0.395373		0.371734		0.4229		-0.0859268		-0.059532		-0.172083		-0.255204		-0.0873333		1.03357		-0.805572		-1.92458		0.253088		0.984098		-0.613563		-2.26215		1.46486		0.504049		-0.0742702		-1.32331		0.890158		0.476959		-2.54776		-0.918376		-0.0736083		0.3427		-0.725077		0.899678		-0.134179		-0.128034		0.525038		-0.0733602		1.17379		-0.265865		-0.510352		-1.97207		0.839109		-0.820681		-2.17026		1.26477		1.3518		0.236472		0.00533956		-2.20122		2.06846		-0.00587189		-0.751254		0.164566		0.758714		-0.842054		-1.43551		-0.404657		-0.96243		0.905806		0.0255778		-2.09746		-1.2183		-0.0702394		-1.13888		0.0480666		-0.918332		1.33308		1.18286		0.670863		0.513218		0.969073		0.43333		1.51527		0.49253		0.476007		0.777426		-0.161078		-1.56405		-1.27278		1.56977		0.575191		-0.924085		1.12417		3.15134		-0.316978		0.235536		1.70272		-0.193228		-0.357979		0.740379		-0.040412		0.224412		-0.759307		-0.81579		-1.0728		-0.00816392		1.62841		-0.390387		-0.205839		1.77957		0.713117		-0.553416		0.923153		0.200864		-0.110918		-2.13488		1.23869		0.271653		0.64462		1.1169		1.68893		0.211523		-0.188613		0.440573		-0.837819		0.52847		-0.614379		0.871832		0.472806		0.195495		0.223974		-0.247932		2.21076		-1.47924		-0.0731554		0.597826		-0.935933		1.00229		1.2785		-0.277732		-0.483476		-0.152546		-0.267594		0.0284043		-0.781235		1.6395		0.606944		0.153417		-1.14794		-0.525123		-0.270262		-0.797526		0.423009		0.649558		0.557485		-1.46707		1.98961		0.501662		0.346431		0.0687585		-1.00904		1.34775		-0.518848		0.624628		0.338589		0.346627		-0.4957		-0.137247		1.44216		-0.97137		-0.583896		-1.96655		-0.792769		-0.723329		-0.627307		-0.921873		-0.0460583		-1.48077		0.51004		-0.0498589		-1.46415		0.389036		-0.504246		1.45699		-0.231299		-0.557937		-0.491914		0.396299		0.112269		-0.424996		0.00933603		-1.53936		-1.53414		1.30397		0.422789		-0.732723		-0.863031		-0.0571527		-0.957299		0.817505		0.639788		-0.105209		-0.610991		-0.236648		1.21947		-0.34772		0.286154		0.5155		1.26354		-0.0256379		-0.734979		-0.724098		0.57686		-0.395114		1.86205		-2.07327		-1.9355		0.88658		1.3628		0.911766		0.58328		-0.086682		0.80238		-0.594675		-0.708477		-1.82314		0.0336545		-0.272635		-1.8945		-0.440655		0.887078		0.401955		0.667457		0.490536		-0.0397153		0.75028		1.01936		-1.71966		0.827192		0.312752		-1.54664		-1.01117		-1.11495		-1.54329		-0.0557692		-1.43698		-2.47858		-0.000706168		-0.0194911		0.566427		-1.85908		0.339586		2.02086		1.84872		0.895485		-1.19381		1.58405		-0.798469		-0.176422		0.310639		-0.726257		2.09168		-1.1416		-2.16197		0.261474		0.305897		-0.835851		-1.92318		-0.516774		0.318717		1.21708		0.965013		0.284308		0.978979		-0.528997		1.49737		-1.40479		0.199531		-0.406162		1.65946		-0.961647		1.06362		-0.0875868		0.0954765		-0.392916		-1.01261		0.675766		0.35001		-1.13119		1.48846		-0.874344		1.34175		-0.210717		-0.284431		-0.182186		-0.96635		2.0419		0.24681		0.811481		0.206933		0.243296		1.30096		-0.49516		-1.11545		-0.886142		0.667954		-0.237558		2.69189		-1.06623		-0.612603		0.503831		1.03539		-0.473603		2.87065		0.427663		0.381379		-0.691472		-0.502688		0.795694		-0.155649		-0.647185		1.42422		-1.45504		-0.739037		1.38307		0.409146		-0.888968		0.940877		0.432973		-0.143704		0.341315		-0.271764		1.45019		1.90141		1.37406		0.0480202		-0.944971		1.7122		1.13387		0.14006		-1.29178		0.833948		0.139619		-0.321352		-0.0866563		0.796352		-1.22764		-0.577642		-1.30639		-0.232007		0.144831		0.575667		-2.13744		1.96064		-0.0785765		0.12926		0.432448		-2.05102		0.988607		0.217674		0.507581		-1.0794		0.811969		0.100595		0.716728		-0.424027		1.54737		0.506655		1.45997		-0.808348		-0.197572		-0.178708		0.626196		-0.247902		-0.759618		0.201965		-0.972997		-0.0059622		-0.0676501		-0.102901		0.910209		-1.03074		0.659718		-0.0576397		0.722967		1.68294		0.218394		-0.512575		-0.138242		1.31318		-3.01249		-0.405766		0.888652		0.457353		0.44978		-0.490982		-0.058801		-1.22711		0.0606405		0.336691		-1.46128		-0.889633		0		
-1.22401		0.836243		0.730147		1.49257		-2.4122		-0.995123		0.216191		-0.168043		-0.528558		-0.168321		0.533889		0.867673		-0.78103		0.762279		0.651585		2.36688		-1.07267		-0.290019		-0.515605		-0.707934		-0.250682		-0.0648212		-1.0705		-0.200586		0.600407		0.447745		-0.386793		-0.754787		0.181576		-0.612699		0.334463		-0.87097		0.274993		-1.117		-0.470301		-0.842832		-0.822395		-0.23703		-0.813881		1.00576		1.57209		0.117025		2.28435		0.189829		-1.02709		-0.877066		-0.808948		-0.810334		-0.432642		-0.524777		-1.24595		-0.639005		-1.08301		-0.410108		0.194541		-0.200169		-0.570432		0.394657		1.86968		0.04457		-0.141879		0.0883422		0.472342		-0.0260982		2.34099		-0.647689		-0.16829		-0.829341		0.0402023		-0.729906		0.711997		2.67375		1.01292		0.81557		1.35194		0.0144702		-0.357896		-0.891648		1.60818		1.79191		-0.164261		0.306318		0.645911		0.494863		-0.71378		-0.324506		-0.655219		-1.04977		-0.816905		-0.450209		-0.143		0.188715		-1.88714		-0.331745		0.997246		-2.61134		1.25037		-0.521602		1.9504		-1.2473		0.289404		-0.421595		-0.794778		0.785871		-0.284576		0.292947		1.12032		0.227811		0.753203		0.26119		-0.308045		-0.168471		-0.482698		0.31575		1.34132		-1.69543		0.853872		-0.660198		1.42532		0.569777		0.729681		-0.061392		-0.430676		-0.390872		1.08371		-0.994267		0.659117		1.04137		0.763166		-2.10673		0.309492		-1.77861		0.672689		-1.60341		1.84507		1.05957		-0.609144		-0.19103		-2.16363		-0.0856145		-0.271587		0.714735		0.318846		-0.61535		-0.759082		1.25909		-0.842472		-0.419463		-0.037484		-0.201941		1.33845		-0.232899		-0.346229		1.20792		1.02463		0.724718		-1.26188		0.633404		0.958819		-0.203998		-1.15897		0.423112		-1.42765		-0.550126		-1.47266		0.939826		0.753172		0.395382		0.643253		-1.68573		0.595586		-0.14787		0.452458		-0.243915		-1.68883		1.08117		-2.09801		1.15001		-0.91101		-0.328086		-0.514681		-0.720761		-0.518337		0.665215		0.0559966		0.00971921		-0.355874		2.17383		-0.317593		0.045382		1.24594		1.35154		1.54493		2.39203		0.0560306		1.84794		0.113257		0.308094		-0.902081		0.200334		-1.80614		-0.770785		1.3232		-0.767312		-0.0820227		0.584763		1.42073		-1.62327		0.773137		-1.51856		1.58983		-1.50727		-1.33265		1.51592		-0.366871		-0.480883		-0.727952		0.412179		0.0289122		-1.02404		0.698399		-0.689626		-0.0918858		-0.103437		0.0993787		1.09611		-1.02048		-1.36511		-0.655519		1.61344		-0.442423		0.490966		-0.20491		-1.68854		-1.16478		-1.48139		0.300167		-1.07557		-0.844134		0.158342		-1.36982		0.920637		0.395076		-0.360619		0.129477		0.896698		0.304377		0.287054		0.293391		-0.577027		0.990964		-0.801509		0.863476		-1.89527		0.259337		0.867009		2.84219		-1.04803		1.01879		0.85082		-0.21474		1.67611		0.249363		-0.0260774		1.25488		-1.7571		0.189653		1.226		1.23499		0.484726		0.0755057		-0.780058		-0.973688		-0.556878		-1.02638		0.106673		0.410896		0.188832		0.414852		1.97485		-0.988843		-0.830143		-0.404069		-1.63786		3.13397		1.18803		0.170658		0.666471		-0.118915		-0.341061		-1.55154		0.645414		1.58312		0.734583		0.301621		0.444811		1.67829		-0.33742		-1.45813		-0.230318		-1.14463		-0.436913		1.39411		-1.02553		0.0933995		0.785119		2.09602		-0.388299		0.731812		-1.30761		-0.845997		0.80897		0.811793		1.06963		-0.316168		-0.291192		-1.27751		0.557081		-0.358642		-0.225838		-1.98951		-0.673609		0.518173		-1.16528		-0.219455		0.802182		-1.17977		1.40441		-0.2852		0.507175		-0.768223		0.240365		-0.635542		-0.81208		-1.01589		-1.0749		0.41813		0.769737		0.422039		0.145131		1.35341		1.04361		-1.40931		-0.704594		-0.00483886		0.501118		0.798932		-0.223116		-0.290537		0.109858		0.628106		0.124214		0.423579		-0.155071		1.11945		-0.0465635		0.246009		-1.37512		0.421913		0.5964		0.418325		0.919409		-0.516878		1.53349		-0.313861		0.734836		1.10641		-0.428432		-0.779927		-1.4952		2.04942		0.0912399		-0.07615		0.951328		-1.01284		0.635497		-0.959618		-0.121449		0.514497		-0.0963642		0.0799605		-0.739078		-0.655013		0.275371		0.420926		0.527625		0.394698		-2.08962		-0.142684		0.225476		0.0404062		0.907755		-1.33568		-0.128973		0.506206		1.96271		-0.745256		0.966173		0.638642		0.340237		-0.285162		-2.17064		-0.447221		1.20377		-1.78242		0.312255		1.4472		-0.297979		0.342377		0.518075		-0.370768		-1.79309		1.58299		1.21929		-0.866974		1.16283		-0.491499		-1.30513		-0.799261		-0.196846		0.58074		1.23254		-0.97011		0.136173		-0.929403		-0.0607838		0.347359		0.0953015		-0.529515		0.49168		1.13803		-0.455024		-0.587038		-0.648682		-1.62096		-1.31026		-0.0647013		1.04246		-1.23271		0.337712		-1.02815		-0.681596		-0.602879		-1.13368		0.691592		0.517366		1.85433		0.120587		0.264866		-0.491163		1.2438		0.547304		-1.81528		0.685408		-0.156338		-0.158187		-1.46658		0.170658		0.591074		0.891259		-0.127332		0.417311		-0.0326989		1.49047		1.1411		-0.71154		1.23349		-0.564993		-0.00508116		-0.120372		-1.62621		0.0165959		0.967191		0.986071		1.26451		-0.794713		-0.46642		-1.03519		-0.525067		0.268396		0.817905		0.458216		-0.526656		-0.435113		1.03244		2.0957		-0.180732		-2.53215		1.10378		0.673186		0.765181		-2.17767		1.90963		-0.86646		-0.132215		-0.467068		-0.0390911		-0.553825		1.21542		-0.0842378		-1.23245		-0.267451		-0.476502		1.13685		-1.71776		-0.202441		0.836243		-2.42595		-0.306179		-0.982336		-0.440859		0.824797		1.00328		0.671418		-0.151093		1.16912		-0.163194		-0.350511		0.443094		1.2498		1.34261		0.856176		-0.29726		-0.321264		-0.0409142		-1.01383		0.0894246		0.503039		-1.56159		-1.26321		1.83366		0.0417508		0.882839		1.62383		1.57248		-1.46219		2.26867		-0.751774		0.0449092		0.11186		-0.300237		-0.362035		-1.02642		0.824072		0.828539		0.533603		1.30348		0.30569		-0.197909		-0.375041		0.311391		0.3124		-0.791327		0.25881		1.03221		-0.494436		-0.875791		-2.00066		-0.705081		-0.958299		0.151806		0.0643689		0.511761		-2.25252		-1.05552		-1.51261		-1.30247		-0.0876163		-1.66528		0.401197		-1.17679		-0.517988		0.0207927		-0.333366		0.505694		-1.15531		0.83339		-0.571036		-0.798106		0.961718		-0.560026		-1.06372		-0.313319		0.0350292		1.05809		0.990278		-0.147228		1.43949		0.0757629		0.649807		0.631311		1.05715		-0.200889		1.67508		-0.937799		0.259937		0.770072		-0.0702505		-1.17953		0.561158		0.232919		-0.572663		1.86877		-0.457343		1.23317		-0.00321322		-1.17976		-0.146561		0.605075		0.520136		-1.36192		-0.523733		-1.04963		-1.72156		-1.17013		0.0229419		1.46721		-0.865177		-0.659722		1.37366		-1.48916		0.958902		0.0177288		-0.379346		0.482225		-1.4884		0.0147201		-0.804235		0.0132227		-0.0258208		-0.225666		-0.478091		-1.12113		0.495879		0.291707		0.0888474		-1.42763		-0.716637		-0.785129		-0.700693		0.558679		-1.68757		0.684272		0.900018		0.965683		-0.749214		0.979927		1.55405		-1.21055		-0.732211		-1.7068		-0.427652		0.513127		-0.644709		-0.404585		-0.178712		1.01941		0.476409		-0.173614		1.17597		0.121866		0.755777		-0.175619		0.00506123		-0.384733		-1.05149		1.22947		-0.301016		-0.697592		-0.828482		0.127927		-0.569121		-0.500013		-0.663453		-0.220206		2.10448		-0.786447		-0.561009		-0.137229		-0.701574		0.17104		0.146416		0.885116		1.80866		-0.551139		0.166044		1.3373		0.42564		-0.762112		0.339328		-0.039816		1.8716		-0.263316		0.0126356		0.226328		-1.75744		-0.62784		0.490235		-0.335618		-0.831615		0.441393		1.92279		-0.870723		-1.40127		1.41885		-0.0151673		-0.327514		-0.546759		0.340097		0.182389		0.634107		0.490275		-0.486369		-0.498211		0.43041		-0.477813		-0.314287		-0.440064		0.289739		-1.27941		0.63579		2.2704		-0.0106253		0.687164		-2.529		1.38102		-0.340262		0.317156		0.0163992		-1.17771		-2.3448		-0.0306683		1.43949		0.080215		-0.689464		0.46016		0.138848		0.130561		-0.3297		-0.0165521		0.0342202		0.165995		0.397378		-1.81015		1.61342		-0.861559		-1.12506		0.794885		-0.502261		-0.358967		-1.15636		-0.661161		-1.38657		-0.0311845		0.67277		-1.1786		1.2683		1.13147		-1.22522		1.50668		0.985772		1.12824		-0.831546		1.74141		-1.18272		0.971364		0.590287		-0.886515		1.57436		1.73173		0.383284		1.51603		-1.33791		-0.967542		2.08222		-0.985023		1.12141		-1.99521		-1.65523		-1.40249		-0.115278		-0.491853		0.118674		-1.32165		0		
0.346392		-0.132018		-0.574692		0.0400389		0.755579		-0.181037		-1.14634		-0.345841		1.09006		-0.145374		-1.53704		-0.779579		0.792461		0.587847		0.389399		-0.199796		-0.735918		-0.445364		-0.262869		-0.733058		2.01566		-0.440357		1.39266		-0.608887		-0.322475		-0.991595		1.46206		0.385635		1.29921		0.210268		-0.100208		-0.672907		-0.298288		-0.53851		0.00138418		1.59609		-1.19681		1.48981		0.325225		-0.169498		-0.644629		1.48737		1.68627		1.52298		1.34647		-0.2998		-0.524395		0.229717		1.37587		1.22034		-1.34781		1.23595		1.30328		0.811472		0.143865		-1.29784		-0.257429		0.309644		-0.0386664		0.774061		1.23222		1.55501		-0.167859		0.303884		0.242718		1.49551		0.0251221		-1.54908		-0.425345		1.85845		0.770928		1.30868		0.771782		-1.69016		0.333105		0.4658		-0.919226		-1.62472		-1.20569		0.807839		0.693971		1.37588		-1.18939		-1.08821		-0.530941		1.31334		1.75882		-0.731537		0.138642		0.285716		0.439966		-0.497262		1.79334		0.604972		0.0172147		-0.250286		0.546227		-0.757475		-2.05133		-0.697879		0.710767		-0.311205		-0.381185		-0.516332		1.02609		1.23278		1.227		0.441608		-0.412726		1.96992		0.455218		1.37017		-1.40174		0.108676		-0.0541464		0.690215		1.16503		-0.567321		1.00257		-1.57828		0.155516		-0.0796193		1.08047		-0.418231		-2.71718		-1.27749		0.891481		1.36859		-0.61079		0.23374		0.75798		-0.266961		-0.277996		0.0219251		-0.847028		0.479509		-1.83693		-1.06611		0.057592		0.971909		-0.332924		-0.671148		0.142507		-1.30426		1.78989		0.281573		0.307619		1.01954		-0.566827		0.519605		-2.31574		0.974852		-2.76493		0.638169		-1.77772		-0.163195		-0.513709		1.09301		-0.585622		-1.0328		-1.33006		0.778439		0.835631		0.784606		0.190221		0.13558		1.8709		-0.354464		2.01521		-1.0587		-0.456668		-1.73468		-0.455055		0.167436		1.32635		0.911725		0.605354		0.616982		-0.568572		-1.46073		-0.0361385		-1.86008		-0.843922		-0.967645		1.40948		-0.420997		0.465178		0.442689		0.440165		-1.35304		0.524035		-0.169616		1.47398		0.47368		0.546119		1.16463		-0.859023		-0.0449391		1.16064		0.699079		-2.08123		-0.234436		-1.02347		-0.146125		-0.572019		-1.43405		-0.0356026		0.212631		-2.19045		0.085051		-1.16164		0.380437		1.0238		0.365169		0.0868354		0.00926124		-1.52089		-0.845916		0.310252		0.76941		-0.170195		1.04459		-1.01673		1.15984		0.550197		-1.56685		-0.381411		0.0294647		-1.00542		-0.381287		0.546801		-0.329527		1.95779		-0.794445		-1.16852		-1.22364		1.14776		0.65263		-1.88437		0.0711206		0.359063		0.531513		0.112646		0.0759749		-1.5135		-0.0866846		0.26731		0.444477		-0.429565		1.23929		0.728019		0.644764		-0.181309		1.01505		-0.38311		-1.28378		0.905624		1.13346		0.107343		0.232376		-1.15719		0.804403		-0.414049		0.620123		-2.78472		0.745029		-1.4416		-0.156553		1.7178		-0.0725863		-1.50643		0.373783		-1.15662		-0.608194		-0.38938		0.960294		-2.26477		0.896697		-0.176557		1.03062		-0.272935		-0.176004		-0.648479		0.493611		2.10005		-2.46856		0.696343		0.102351		0.584273		-0.164095		1.56615		0.785538		1.4786		0.703383		-0.156322		-0.399535		0.853433		0.761846		1.61686		0.583631		-0.586488		-1.07785		-0.453662		0.388471		0.0749814		-0.496861		0.174712		0.317585		-0.380016		-0.100673		-0.517307		-0.187194		-0.286266		0.294946		0.328415		0.956487		-0.574532		-1.05202		-0.771862		-0.677902		-1.26747		0.0811111		-0.427417		-0.650793		-0.486289		-1.37076		0.893356		1.32557		-0.639895		0.759029		0.252902		-0.157524		1.87583		0.998215		-1.32144		0.217886		-0.378507		0.428167		0.636561		-0.383363		-0.19722		-0.444005		0.438384		-0.669801		-0.107404		-0.360902		0.390134		1.07602		0.42431		0.704357		0.878991		-0.37924		0.397884		-1.26214		-1.31781		0.696777		0.385396		-0.927722		0.166879		-0.298371		-0.946041		1.52431		-0.0220006		-0.56854		-2.47848		-0.785053		1.24787		-0.794722		-0.455972		1.28263		-0.856295		-1.73334		1.14968		0.45731		-0.54445		-1.73062		-0.207		-0.0965382		0.35786		-0.12971		0.668078		0.0407892		-0.278072		-0.119718		-2.34742		0.343427		0.212402		-2.00369		-0.521774		-1.37859		-0.0591745		-2.64391		-0.813433		1.16416		-2.62928		-0.00978149		-0.475985		-0.528463		-1.7391		0.584895		-0.0304413		-1.20165		0.0610195		-1.96265		-0.569594		-2.52549		-0.563606		-0.0385377		-0.493584		-0.92776		-0.636496		-1.53854		0.994551		1.60343		-0.181205		0.051566		0.689676		-0.729935		0.169822		-0.112634		0.397638		0.379488		-0.932141		-0.894749		-0.822669		0.116476		-0.0131081		-0.260236		1.08579		-0.768802		-0.62143		0.894779		-0.299618		-0.224383		-1.06554		-1.34581		-0.0380893		0.216436		-1.14996		0.114165		0.099116		0.280164		-0.402756		-1.12337		0.752594		-1.05146		-1.88741		1.22629		1.86311		-0.190636		0.84334		-1.08369		-0.326783		-0.621088		-1.69849		0.24657		-0.564455		-0.556022		-1.17251		0.338444		-0.461885		-0.307471		-2.66146		0.0251329		-1.2393		1.40075		1.38416		-1.75279		-0.0696609		0.383668		-0.910315		-0.0871959		-0.616583		-0.485022		1.54465		0.255738		1.04829		-1.35108		0.457356		-1.67607		0.329365		-1.33483		1.8807		0.177056		-0.505849		-1.62588		-0.0358966		-0.456928		1.46075		-0.551099		-0.419036		-0.188457		0.00769958		-0.0664301		-0.631822		0.304509		-0.539618		-1.1881		-1.06243		0.500942		-0.929875		0.210543		-0.491968		-0.190124		-1.16035		0.890928		1.28595		-0.394961		-1.10139		-0.410334		0.0625169		0.86724		-1.2452		0.402147		1.56118		-0.858756		-0.776832		-0.619853		-0.384329		0.323412		-0.123344		1.39121		-1.88503		-0.24009		0.142122		-0.0953686		-0.527461		2.32977		-0.863001		0.551412		-2.03517		-0.711425		1.12774		1.38387		0.475964		1.23228		0.623425		0.541582		0.88505		0.0253812		-0.729824		2.65554		1.03561		0.0897082		1.82744		-1.04618		-0.912068		-0.512793		1.27914		-1.25866		-0.346988		-1.01713		1.52896		-1.17324		-0.922583		-0.27105		0.387453		-0.751302		0.00431491		0.29451		-0.311822		0.346114		0.285321		-0.241796		-0.343695		0.408194		0.447999		0.523065		-0.518132		-1.35991		-0.164426		2.02026		1.0161		0.0601886		0.566198		-1.00088		1.26785		2.14414		0.0727935		-0.910506		-0.606799		0.245275		-0.081554		-0.840768		-0.0178651		0.731374		1.15528		-1.05997		-0.190289		0.0946443		-2.68645		0.026204		0.146524		-1.32126		-1.76168		-0.198413		-2.9037		2.0728		1.81021		0.42722		1.08331		1.12991		-1.46281		-0.613913		-1.58817		0.425761		1.22137		1.38231		1.25147		-0.1811		0.242249		-1.25617		2.3043		0.26969		-0.750978		-0.818913		0.0566355		0.454159		-0.0666052		-1.00275		0.7118		0.135037		0.149607		0.420173		-0.668108		0.584734		0.0436628		1.0013		-0.0070745		0.162037		0.539992		0.795433		0.157951		1.20103		-0.134235		0.303344		-1.18277		-1.81308		-0.0758762		-0.708424		-0.21208		-1.6778		0.403882		0.532677		-0.153023		1.62028		-0.479728		-0.918169		1.30478		-1.05107		1.17555		-1.03857		0.217582		1.00521		1.76118		-1.15235		-0.583621		0.801293		0.245353		-0.994782		-0.0348704		-1.19845		-1.44401		0.878267		-0.256043		-0.161611		-0.727965		-0.202611		0.890855		0.790887		1.60248		-1.50421		0.228185		-0.0238756		-1.61145		0.538875		0.185058		-1.01777		1.29296		-0.842503		0.471357		0.158303		2.43213		-0.861963		-1.29465		0.644726		-0.712528		-0.0398929		-0.41456		-0.556622		-1.8912		1.04418		-0.274234		1.94181		1.53056		0.266996		2.40184		1.8008		0.102395		0.026712		0.314436		-0.019578		-0.867205		-1.02854		0.959877		0.569751		0.816149		-0.287205		-0.11536		-0.617089		1.5109		-0.606243		-0.203483		-0.510221		0.355445		-1.7449		0.223961		-2.07897		-0.452499		-0.241086		0.0629643		-0.436422		-0.168121		-1.49272		0.0149707		-1.42312		0.018298		0.0884339		0.496927		1.41513		1.70066		-0.678546		-0.425465		0.981547		-1.79136		1.75079		-0.731672		0.0376461		-1.34885		-0.356051		0.361373		-0.890285		0.665581		0.148838		0.533995		-0.862784		-0.998074		0.197904		0.731885		0.636734		1.02924		-1.9957		0.0291428		-1.6232		-0.987403		0.484011		-0.31489		-1.34902		-1.05972		1.9287		1.77858		-0.86384		0.613183		-0.0224248		-0.970678		-1.25472		0.306019		-0.642306		-0.941148		0.214891		-0.168824		0.474611		-1.11265		-0.0995544		-0.813087		-0.475448		0.27117		-0.903802		-0.55295		2.13037		-0.853222		0.591325		-1.051		-0.136308		0		
0.325649		-1.57289		-1.54819		0.929493		0.492141		-1.27625		1.07609		0.338938		-0.858985		0.693645		0.247822		-2.08611		0.102018		-0.876418		0.258012		0.431047		-1.26541		-0.947845		-0.0912365		-1.31377		-1.74139		0.0589156		-0.360347		-2.2143		0.580169		1.05729		0.442619		1.60772		-0.237389		1.53855		-0.040016		-0.236884		0.396824		1.33059		-0.212293		0.716778		0.217816		-1.32297		-0.702124		1.02671		1.48523		0.484668		0.520485		-0.376639		-0.660229		-1.37749		-1.23581		-0.141681		0.862965		-1.15816		-1.48104		1.12697		-0.214755		0.789879		1.43545		-1.46447		0.278176		1.96543		-0.748672		1.41364		-0.164739		0.350767		1.69379		-0.441897		-0.163109		1.36387		-0.768765		0.254075		1.81018		0.284992		0.877355		-1.13566		-0.634479		-0.290216		-0.255274		0.115362		0.945028		-1.11657		-0.0902711		0.148326		-3.15496		-0.908581		1.06443		-0.418284		-1.34275		0.855769		0.848882		-1.47796		0.257033		0.0896775		-1.85127		0.217524		-2.31791		1.34395		0.198432		-0.378984		-0.971065		1.13881		-0.754525		1.80578		1.01904		-1.30238		-0.0171681		0.427885		-0.982811		-0.327157		2.21913		0.269349		1.14714		0.170382		0.426429		0.607075		0.223927		-2.26309		-0.871739		-2.3967		-0.856385		1.24657		-1.45949		-0.164696		-1.68735		-0.771126		0.555151		-0.234101		-1.21347		-1.28073		-0.397023		-0.577895		0.0122124		2.47649		1.35581		-0.229567		0.303015		-0.681922		1.10075		1.44353		1.00038		-1.69982		-1.52037		0.643429		-0.400684		1.0556		-0.218366		-0.464968		0.0744293		2.44315		0.230909		1.41529		0.997495		0.876302		0.585934		-0.871639		-0.518202		-1.10435		1.15057		0.823884		0.393979		-0.0889073		-0.222099		-2.47068		1.37064		-1.19339		1.08535		-0.510317		0.546589		-1.31496		-1.29988		-0.26621		0.153626		1.0669		-0.715497		-0.177848		-0.461295		-0.184052		-0.606916		1.57691		-0.265496		0.0602607		-0.434439		1.01135		1.69393		-0.331934		0.363065		-0.234279		-0.925389		1.09403		-0.0724333		-0.029878		-0.163621		-1.44667		0.946849		-0.0903166		0.232508		0.30653		1.06311		-0.974833		-0.370219		-0.308881		-0.768946		0.245839		-0.389111		-0.773983		0.24268		0.0559068		-0.982447		-0.667872		-1.071		-0.64563		-0.69099		1.09139		-1.15162		-0.976662		0.521549		0.376173		-2.71668		-0.78736		0.287429		0.0379767		0.750881		1.84049		-0.954786		0.929594		0.911221		-0.460135		0.94944		-0.781691		0.168008		0.510568		-0.427842		0.313094		0.162005		2.37558		0.347467		0.167793		-0.986098		0.396771		0.633959		0.870866		0.629977		0.988404		-0.914109		-0.80031		0.0486239		-0.376771		-0.886509		0.640442		0.473008		1.64267		-0.142575		-0.0705792		0.365631		0.84832		0.499414		-0.553131		-0.663628		0.382789		0.538078		0.304575		0.451443		1.27436		0.982156		1.09935		0.123832		-1.62867		0.277017		0.221366		-1.54799		-0.253659		-1.62621		-0.37109		0.243814		-0.107662		0.21217		0.467736		0.0440773		0.97498		0.771506		-2.0468		-1.0973		-0.672361		1.51981		0.215344		0.451206		1.92272		0.348948		0.900622		-0.856714		-1.65645		-0.770459		1.22268		0.0723229		-1.52637		-0.213168		-0.649704		-0.414496		-0.386167		-0.797336		0.642099		-1.10463		0.543936		-1.39219		1.38397		1.44445		0.329512		1.17751		-1.32463		1.32047		0.290707		-0.143556		1.48264		-0.920319		-1.27884		-1.11656		0.688737		-1.77359		-1.20599		-1.20454		-0.671482		0.103088		1.01257		0.732862		-0.300423		0.20002		0.687039		-0.356418		-0.00491347		1.05991		-0.0980808		0.44588		-0.568767		0.32371		-1.31508		0.545329		1.92033		0.695886		0.866673		-0.983559		0.285551		-1.73076		1.13452		1.17893		-0.643824		-1.22221		0.245896		2.03951		-0.564166		0.7963		0.264952		-0.260457		0.0215531		0.571676		-1.66439		-0.572269		0.922759		1.10515		0.326702		-0.897507		0.0365058		-1.44754		0.277981		0.367321		-1.59987		0.0627529		1.09368		-0.983842		0.0966763		-0.263583		-0.0227359		-1.12677		-1.35196		0.530519		0.375832		-2.20277		-0.0123357		0.989465		1.09564		0.541647		0.493549		1.84699		-1.8116		0.955108		-0.501446		0.209727		1.17436		1.95237		0.162543		-1.2315		0.707489		-0.18572		0.645911		0.705048		-1.54736		2.15436		1.36011		-0.356552		0.53233		-0.172809		0.917943		0.946621		0.896457		-0.470184		-1.11314		-0.704629		0.635016		-0.546498		-1.34665		0.277002		-0.476906		0.545369		2.85325		-0.385349		0.992159		0.882606		0.917637		-0.638322		0.114804		1.94364		0.615528		-0.652695		-3.1141		1.42581		2.05235		1.21543		0.66787		-0.378536		-0.756013		0.199886		1.43298		-1.37796		-0.424878		-1.4295		0.229606		1.34902		-0.340068		1.37894		0.575552		0.21184		0.512547		-0.775943		0.503663		0.552194		1.8106		0.596851		-0.0826634		0.0410471		0.509785		0.866079		0.0243777		-1.358		1.52984		-0.337648		-0.0979439		-1.07462		1.26869		-0.935691		2.04608		-1.57408		-0.230282		0.0136503		0.215904		0.58411		0.0638365		-1.36056		2.12648		1.30427		1.73323		2.44452		-0.0263692		-1.2684		0.232457		-0.807859		-0.945888		-0.618697		-0.731877		0.936657		-0.806643		1.10458		-1.00548		-0.715715		-0.487553		-0.634033		1.48005		-0.858282		0.0694345		-0.0633552		0.687634		0.375532		0.619231		0.40702		-0.214565		0.809173		-0.560445		0.105345		0.661747		-0.186251		-0.0542064		1.54634		2.3235		0.103003		0.274366		0.434149		1.32317		-0.875363		-2.64854		-2.59746		1.29944		0.485447		1.6277		-0.104632		-1.29787		-0.2501		-1.99541		0.187034		-0.0106693		0.915046		1.23102		1.5645		-0.3355		1.32576		1.22258		0.28696		0.259111		-0.16145		1.38535		-1.139		-0.0331287		1.16361		0.18214		-0.43027		-1.43331		0.675862		0.966127		0.924536		-0.843235		-1.38451		-0.226321		0.0298646		0.221833		2.04973		0.961481		0.133888		-0.235352		0.332805		1.50714		-0.367233		-0.214923		-0.755592		0.805209		-0.0380753		-0.242571		0.165898		0.296204		0.39769		-1.23473		-1.78149		1.81728		-1.22732		1.30666		0.260785		0.829214		-0.046412		-0.769668		0.80974		0.934327		-0.975348		-0.00401238		0.391588		-1.17664		0.306913		-0.921974		0.00444824		-0.976414		0.0428113		-1.46634		0.339197		-0.650174		-1.10831		-0.325343		-1.72813		-0.583529		-0.758987		0.0973009		0.937329		0.926402		0.138777		-0.293427		0.211577		-0.0823585		0.567981		0.358635		-0.483785		-1.97575		1.35246		1.08805		-0.629178		-0.145559		1.02276		-0.401193		-0.413604		-1.18969		-0.479992		0.829997		1.19477		1.44444		-0.797394		-1.06771		0.253409		-0.181093		2.08208		-0.292726		-0.787782		-0.253208		1.29077		0.0524278		-0.839371		-0.716646		0.510044		-1.85277		1.60032		1.1251		-0.466527		-1.0949		0.851848		-0.653542		0.650397		1.39791		-0.51721		0.654373		2.14747		-1.03577		0.106486		-0.655643		1.08747		-0.0861166		0.143433		0.389129		0.196147		-0.120179		0.405302		0.0483338		0.348102		1.50089		0.421082		1.34039		0.0102717		0.780612		0.231235		-1.30994		-0.451494		-1.52037		3.00351		0.949166		0.741585		1.35249		-1.613		-0.843824		0.328543		0.591405		-0.846758		-1.16223		0.114957		0.0301239		-0.704189		-0.212567		-0.587799		-0.792438		0.500844		-1.50965		-0.765657		-0.957729		-0.125229		-1.65305		-0.237225		1.46883		-0.37541		0.287798		1.31057		1.29683		-1.08272		0.23943		0.384763		0.609962		-0.481774		-0.427126		-1.33985		-1.15203		-0.00592117		0.978406		0.145778		-0.328727		-0.215252		-1.11347		0.945812		-1.90034		0.402868		-1.96498		-0.429922		-0.702568		0.443133		0.115387		-0.60235		0.449981		-1.08164		0.043197		0.929716		0.866827		2.35381		-0.155651		0.546511		-0.387723		-1.33307		-2.42554		-0.459519		-1.36302		-0.211797		0.0830749		-0.461964		-0.0904302		-0.160184		-0.197599		-0.413583		0.687405		0.302544		0.548596		-0.680284		-0.353691		-1.13542		-0.152934		0.821805		0.339889		-0.42142		0.61161		0.0937185		-0.347568		-1.03757		-0.0675488		0.690931		0.154854		-1.45202		0.420606		0.459405		0.85539		0.350373		1.00533		0.320694		-0.331944		-0.763715		1.04347		-0.958887		0.057836		0.430134		0.411812		1.11533		-1.39686		-0.609742		0.119258		1.28633		-1.61005		0.301789		-0.542023		0.882156		1.02463		-0.471164		-0.571636		-0.712265		1.89143		2.98984		-0.428119		0.80405		1.95123		1.2252		-0.533763		0.211314		-0.89567		0.704468		1.96181		0.331751		-0.419259		-0.237724		-0.49991		-0.44595		0.534888		0.406372		0.862599		0		
0.943181		-0.12447		0.90459		-1.79612		0.699603		0.112998		1.07199		0.590053		0.250301		-1.04949		-0.408378		-0.785458		0.157535		0.684389		-0.691716		0.122334		-0.73284		-0.29483		-1.19556		0.197018		-0.322272		-0.192566		-0.321195		-0.959617		-0.353606		-2.10117		0.520754		-0.412825		-0.501449		-0.35305		0.558447		2.46707		-0.634335		0.161729		-0.152251		1.8348		0.58763		1.41409		0.826799		0.40913		1.11193		0.672288		0.940869		2.13156		-0.926392		-0.215773		-0.0653177		1.16142		0.445084		1.84035		-1.98152		-0.0768194		0.348247		-1.06293		-0.422669		0.00963399		1.05488		-0.347039		-1.04451		0.736532		0.0329391		0.817789		0.336167		0.880154		1.42477		-2.22257		-1.08958		0.885107		0.261881		-0.4394		0.211191		0.706665		0.674179		-1.00985		-0.691421		0.919217		-0.809278		0.00292683		-0.919828		-0.599272		-2.34686		-0.992191		1.27064		0.384374		-0.455121		1.23926		0.474097		-1.11231		2.85464		2.03263		-0.633661		0.849664		0.290898		-0.216701		-0.30727		-0.441972		-0.730242		-0.0259809		-0.789681		-0.668592		0.211612		-1.27504		-2.39823		-2.81864		-1.08312		0.224022		-1.31562		-0.0490966		-0.327189		-0.700744		0.351683		0.411647		-0.825541		0.760932		0.84608		-0.59937		-1.35618		2.20878		1.35904		-1.70191		-0.941614		1.8561		-0.99774		0.034501		-0.919531		0.91481		-0.861125		1.27657		-1.5263		2.33552		-0.132919		0.764203		0.93634		-0.295564		-0.820048		0.376905		-0.121214		-0.920956		-1.00494		0.0871614		-1.28604		0.264278		-0.133258		-1.63855		0.0522119		-0.532885		0.220532		-0.0837304		1.43814		0.379357		0.696495		-0.396135		-0.940827		-1.22489		-1.03869		-0.85735		-1.04562		0.792083		-1.1339		1.65609		0.373873		0.634848		-1.77412		-0.630351		-0.385697		-0.256126		1.75004		-1.57241		1.20431		1.49819		-2.44191		0.30785		-0.678152		1.06843		-0.714267		1.32511		1.16239		1.40833		-1.06422		0.910804		-0.370325		-0.720734		0.0215091		0.0444639		-2.56529		-0.0494364		1.75038		0.56037		0.245883		0.00980463		0.260739		0.430609		1.09914		0.227093		0.809669		0.810195		-1.32279		0.969416		-0.232869		-0.220167		1.48084		1.81424		-1.21198		0.143035		0.955411		1.15819		-2.37318		-2.15345		1.86352		1.57462		-0.851345		0.817887		0.346879		0.97328		1.44802		-0.166639		0.787744		-0.556406		0.403504		2.47933		-0.111886		-0.811063		0.716232		-2.10419		0.524469		0.172929		0.953069		-0.0786214		0.638107		1.48013		-1.36657		0.147328		-0.632215		-1.51219		-0.0599468		-0.607946		0.707188		0.352215		0.667139		1.59787		0.505533		0.415334		-1.53895		-0.800502		1.03451		-1.8837		-0.485009		-0.778536		0.989171		-2.06848		-0.740015		-0.231735		-2.07278		0.837552		-0.899807		-0.814117		-1.39034		-0.775319		-1.77324		-2.31524		1.51266		-1.3715		0.788221		-1.08863		-1.48595		0.11469		-0.311098		-1.6013		0.271814		2.23734		-0.53704		-1.21529		0.442301		-0.724484		-0.0914977		0.10888		-0.26565		-0.440377		0.0798973		-0.811354		0.420571		1.2451		-1.19411		-2.09634		-0.0984741		0.966607		0.162824		0.25566		0.920581		-0.476475		-1.28517		0.238164		-0.288628		1.55279		-0.88116		1.39745		-0.944991		-0.295019		-1.05102		1.46492		-1.47776		0.640881		0.383905		1.09321		1.63884		0.390524		0.722391		0.385934		1.71183		0.741543		-0.473223		-0.558907		0.685435		-0.521861		-1.71029		-0.376324		-1.57337		-0.661301		1.16329		-0.886414		-0.122259		1.23775		1.13048		-1.50531		0.188506		-0.798354		0.0525859		1.44571		1.17862		0.520196		-1.04792		1.23293		0.572594		1.00956		0.659068		1.75705		-1.89716		0.365386		-1.54296		0.070889		-0.166303		0.298153		1.42705		1.82371		0.386307		0.244187		0.076119		1.04556		0.743261		-1.05925		-0.0232768		0.680729		-1.34577		-1.22395		1.33989		-0.813559		-0.892071		1.0695		0.838957		0.425996		-0.087405		-1.26015		-0.560319		0.322136		-1.03156		-0.0740689		0.84439		-0.456899		1.52936		-0.0159722		-1.5104		-0.0215767		-0.812378		-0.607422		0.493101		-0.673722		-0.17042		-0.185151		-0.247287		-0.840876		0.0373061		-0.431879		-0.319174		-0.135818		1.65918		-1.06659		1.46682		2.60617		0.306215		-2.8788		0.588535		-1.3203		-0.497637		-0.735023		-1.17997		-1.02761		-1.2378		-0.208046		-0.357508		-0.65771		-0.0531578		-0.248078		-0.435026		-0.215983		-1.3493		-0.306293		-0.138779		-0.8001		1.03216		-1.62013		0.0280011		0.445195		0.533987		-0.592959		-1.20601		-0.502043		-0.95328		0.0737789		-0.432636		-1.69217		0.0387159		0.270351		0.920025		-1.47211		0.739264		-0.326061		0.988051		-0.0304116		0.69786		-0.801909		-0.815173		-0.613112		-0.668394		-1.49226		-1.01		0.729802		-0.914795		0.880616		-0.696186		1.6371		1.01535		-0.882855		0.847167		-1.41061		-0.793154		0.0177148		0.66455		-0.545795		-1.14457		0.222796		-1.38713		-0.234494		0.0169037		-0.044881		-0.705865		0.345721		-2.41964		-0.87755		1.16238		0.000229599		-0.240866		1.13503		-1.08808		0.0720797		1.10639		-0.324701		0.18819		1.24914		-0.0538518		-1.1184		-1.63387		-0.441587		1.06865		1.10182		-0.640207		1.02905		-0.890431		0.0383414		0.495196		-0.621875		-3.14539		0.63054		0.445514		-0.141095		1.02773		0.915941		0.431462		0.361918		-1.49089		-1.80956		1.3453		-0.46094		-0.810963		-0.279568		0.720761		1.22241		0.242061		0.0985664		1.23414		-0.108364		-1.33149		-0.374354		-0.0446397		-0.0260831		-0.850407		-1.29093		-0.946217		-0.943621		-0.462168		-0.634236		-0.325568		-0.331854		1.28473		-0.505443		-0.10748		-0.508313		0.470018		0.114078		-0.157717		-0.763435		2.8438		0.950695		-0.434275		1.62595		-0.540757		1.65233		0.234775		0.877558		-0.511256		-1.55501		0.208669		-2.32789		-0.225561		0.29303		-0.0237939		-0.732102		0.959501		0.554829		0.667203		0.949356		-0.854317		1.00185		-0.0521785		0.40342		-0.654429		-0.586635		0.068471		-1.22141		-1.15182		0.111689		-0.744989		0.212967		2.34874		-0.724555		2.24444		-1.00347		1.94749		1.31342		-0.921074		-0.00421711		1.00299		1.54032		1.31684		-0.247489		-0.896927		-1.30822		0.686471		1.34457		-2.56654		-0.513059		-1.03759		-0.525585		0.938318		-0.680442		-0.728287		-1.29345		-1.14905		-1.47318		-0.258283		0.823594		-1.78127		-0.107652		-1.1306		-0.412469		0.476882		-0.0345777		0.857096		0.0335489		-0.888587		-2.20741		-0.809243		-0.523055		-1.37157		-1.34098		0.747014		-0.11654		0.753028		-0.933837		-0.927599		-0.73617		-2.21007		-0.0505142		0.261873		0.0690534		1.36425		-1.14426		-0.137921		1.36371		-0.0735686		-0.185009		-0.0867053		1.39926		0.39224		-0.849663		1.48325		0.331389		-0.246216		0.431474		-0.440046		-1.4358		0.225709		1.23322		-1.97203		1.7547		1.09719		-1.45532		0.281274		0.469192		-0.218453		-0.565775		-1.59586		-0.332153		-0.171019		-0.32553		-0.946893		1.21484		-1.14762		-0.38983		0.86613		0.362069		-0.322894		1.12464		-0.464694		-0.0785313		-0.54098		-0.260367		-0.538689		0.925472		1.43987		0.495828		-1.62584		0.624322		-0.507202		0.695714		0.658024		1.87073		-1.52985		-1.45623		0.606497		-0.14232		-0.593146		0.204933		0.805605		0.457246		-0.726879		-1.99407		-0.663155		2.24275		0.336656		-1.05249		1.34625		-1.05443		0.233888		0.767574		-0.297959		0.140419		-1.07558		0.384692		0.556465		3.50905		2.1355		-0.771788		0.262606		0.216535		-0.195402		-1.6598		1.11779		-1.20702		7.4967e-05		0.816462		2.39072		-0.548332		1.00002		0.871823		1.46378		-1.11026		-0.833108		-0.909525		0.805394		-0.0418636		-2.82052		1.71582		0.390216		-1.41747		-0.988433		-0.286261		-0.308442		-1.35864		0.515907		0.0627834		1.55874		0.888176		-2.21864		0.561465		-0.793011		-0.688583		0.000951154		0.195771		-1.00576		0.147542		0.64214		0.622071		-0.246908		1.97789		0.239971		0.752051		-1.035		0.33628		-1.49376		-2.09634		-1.4271		1.12799		-0.582982		0.96538		1.50305		1.04222		0.895415		1.29772		-0.506512		-1.71814		1.64185		-0.876676		0.623288		-0.545726		1.65765		1.61291		0.720974		-0.745169		-0.194255		0.953469		-0.886695		0.401996		-0.665773		0.295361		0.11112		-0.141239		0.142267		-0.546569		2.08011		0.526044		-0.633496		-0.0871733		0.430194		-0.585275		-0.0355808		-1.31465		-0.0436777		-0.81328		0.934392		-0.525003		0.48161		-0.742792		-1.59609		-0.964706		-1.7205		0.979309		0.0640545		0.492462		-0.418242		-0.44796		0.137095		-1.24509		-1.03374		1.75121		0		
-1.03882		0.465316		-0.887246		-0.250916		0.584365		-1.77066		-0.698741		-1.06153		-0.331959		-0.262993		-1.21013		-0.00419292		-0.364188		0.557143		-0.893916		0.689201		-1.18999		0.0860492		0.634849		0.196655		0.659145		0.0786048		0.534554		0.300004		0.284365		-0.532992		-1.06273		-1.14296		0.205026		-1.72425		-0.982866		-1.00167		0.0363541		1.88853		0.937695		-0.869347		1.24262		-0.166513		-0.209022		-1.24934		1.08985		0.259952		0.590627		-0.361351		-0.294666		-0.917699		0.707972		0.0849797		-1.27328		1.30975		0.775814		-1.44469		0.950035		0.143645		-0.82976		-1.31788		-1.19336		-0.894628		1.18271		0.492168		-0.148988		1.90773		0.849008		-0.620044		0.724029		-2.1155		0.760227		0.291243		0.347287		0.324109		0.751443		-0.578568		0.549403		-1.20939		-1.38062		-1.15211		-0.264275		-0.975915		1.56726		1.41273		-0.307668		0.254055		-0.316169		-0.419004		0.499113		0.189123		-0.96599		-0.141646		0.179792		0.534621		-0.61706		1.69619		-0.892571		-0.77159		1.07881		0.250274		0.21065		1.33207		-0.769788		0.274001		-1.71539		0.293696		0.660417		-1.8102		-1.28667		0.599173		-1.70788		-0.735024		-0.716008		-2.0961		-0.465435		0.654917		-0.570314		-0.7149		-0.185283		0.767282		-1.25326		-0.144267		-0.35241		1.13083		0.817778		-0.234037		-0.151089		0.236065		-0.731774		0.411552		-0.485162		-0.133102		1.53389		1.03625		0.335744		1.70079		0.788437		-0.403798		1.49419		1.18141		1.02552		0.418367		1.77484		0.489735		-1.14668		-1.12922		-2.01484		-0.757166		-0.0670985		-0.860364		0.365889		0.0423108		0.625906		0.91708		-0.5774		0.252464		-0.0961292		0.762754		-0.391722		-1.67119		-0.570146		0.598753		-0.576112		-0.418455		0.272477		1.95195		-0.97914		1.90062		0.20421		0.53199		-1.56745		-1.54413		-0.251127		0.507799		-0.288128		1.21402		-1.08767		0.213989		-0.237475		-0.93065		-1.73805		0.594062		0.931247		-0.855663		0.184766		0.437844		-1.74865		0.769215		-0.854605		-0.354281		-1.3995		-0.012465		-0.138362		-0.878733		-1.22954		-0.998346		0.781245		-0.328926		1.3807		0.902349		1.08133		0.145951		0.465256		-0.276987		-1.23266		0.397213		0.0759529		-1.20524		0.165834		-1.6974		-1.28851		0.407015		0.707373		-0.0538534		1.73308		-1.84617		-0.652822		-0.825356		-0.0210891		-0.239461		2.52094		-0.0862066		0.452175		-0.410556		-0.92561		1.01317		0.440722		0.652518		0.0136048		-0.114077		-0.679852		0.283009		1.50784		-0.357503		2.2088		-1.5928		1.15334		0.940894		1.00997		-1.61856		-0.342643		0.483844		-0.141886		-1.62384		0.279452		-0.834007		1.40882		1.67533		0.782623		-1.73044		0.0542447		0.716628		-0.747391		-0.452525		-0.0264997		0.567629		0.181259		-0.730138		-1.18968		0.738184		-0.256341		0.941552		-1.23245		-0.988821		0.877717		0.204997		1.33684		-0.0591869		-0.201203		0.0734501		0.172391		0.185437		0.716885		1.21134		0.248807		0.289723		1.259		-0.983767		-0.750049		0.945836		0.0722061		-0.501974		1.58682		1.89373		-0.0883728		-1.02315		-1.36828		-0.0659745		-0.401892		0.454052		1.30082		-1.11323		-0.607395		1.22649		-1.41543		1.25339		-1.54423		-0.896114		0.791368		-0.424024		1.02313		0.234967		-1.65123		-0.390054		0.945372		-0.130093		-0.315538		-1.18217		0.0491705		0.296892		-2.26267		0.178036		-1.62226		-0.717252		0.156117		-0.0990705		-1.39285		0.174814		0.339289		-2.34085		0.538879		0.511		0.694968		0.581869		-2.02018		-2.17866		-0.0849387		-1.12624		2.32671		2.83049		-1.20826		-0.602092		1.18968		0.654871		-1.44596		0.924524		0.445493		0.461994		0.985415		-0.506096		0.912202		-0.361688		1.66341		0.265629		0.00484623		1.24817		1.15965		0.586307		-0.987659		-0.0202034		-2.05016		1.04244		-2.05939		-0.712081		-0.684919		-1.4956		0.797788		2.2408		-0.911704		-1.54651		-1.12684		0.600043		1.19968		0.174926		-2.14003		1.29857		-0.77738		-0.339936		-1.73849		-0.315636		1.11319		0.716199		0.358508		0.559397		2.50138		-0.695956		-2.38789		-2.20805		0.602376		-0.265584		-1.05762		0.26091		-0.0252275		1.07923		-0.25845		-0.280879		-0.645404		-0.659473		-0.16534		-0.304292		0.191383		-0.206743		-0.869821		-1.55072		1.50272		0.567831		1.38637		-0.306256		-1.3204		0.658198		-0.476197		1.92312		-0.0769154		-0.561063		-0.729796		-0.557311		1.5748		0.626943		0.339899		1.54271		-1.68036		-0.0985168		-0.0865354		0.269236		0.773869		0.558266		-1.90813		-0.36753		-0.993436		0.847774		-0.856744		0.0162188		0.220289		0.321344		1.39226		0.825201		-1.13995		0.820661		-0.118499		0.266995		0.709373		1.17553		-1.23038		1.81863		-0.401169		0.319999		0.442608		0.0872935		-1.11311		0.799121		0.180108		-2.00375		-1.08776		0.856767		0.230132		0.0417048		-0.619303		-0.285566		-0.487958		0.408688		1.75735		-0.0197826		0.28875		1.67141		-0.464724		0.421287		0.236662		-2.22865		-1.15672		0.449045		0.990546		-0.624241		-1.08437		-0.144396		0.822727		0.742547		-0.955544		0.33894		-0.378304		1.43494		0.831003		-1.25072		-0.268952		-1.73184		0.00619007		1.07657		-0.420533		0.647141		0.184863		1.67969		-0.595101		0.589326		0.414904		-0.820251		0.36882		1.51503		-0.693835		1.34929		0.700287		-1.03436		-0.383079		-1.54221		0.639945		0.268288		0.684704		-0.124553		-2.11374		-0.0514638		-0.992235		0.151067		-1.6396		-1.22838		0.717668		-0.145297		0.362105		1.58005		-1.31234		0.538003		1.89022		0.863756		-0.940717		0.1572		-0.411409		1.54107		-1.09569		0.270485		-0.448009		0.466148		-0.917217		-1.04494		2.08847		2.26932		0.992052		-0.110512		0.497239		-0.122381		0.877785		0.822572		-1.57828		-0.857725		1.74021		0.352352		0.354145		0.441391		-0.197622		-0.18262		-0.0452503		-0.193575		0.34677		0.506981		-0.384714		-2.45677		-0.693585		-0.42776		-0.171666		-0.218427		-0.496658		0.0420594		-0.626338		-0.934231		0.686897		-2.10529		0.169382		-1.28923		0.82014		0.685216		-1.61818		-0.0282684		-0.178228		-0.639668		2.99019		0.842355		2.39696		-0.246662		-0.166446		-2.33526		-0.241717		-1.12446		0.496699		0.413883		-1.37415		0.826708		0.73669		1.86154		0.323931		2.44574		-0.189692		0.720908		0.298533		-1.07022		-0.274291		1.13851		-0.260762		-1.85931		-1.56168		-0.400953		-0.196619		-0.902623		1.55662		-1.64641		-0.0267867		-0.933753		1.46956		0.580328		-0.449917		-0.573763		1.23851		-0.785584		-1.14953		-0.455043		-0.843254		-1.04112		0.720204		1.3633		0.296021		0.379355		-1.89027		-0.226888		0.441061		-1.96153		-1.59526		0.475475		-0.872999		-0.48707		-0.63982		-0.437813		1.45966		0.133024		0.845529		0.354373		0.423377		0.3454		-0.074133		-0.207738		-1.27422		1.24349		0.481883		-0.330411		-0.638625		1.93941		0.955602		0.41904		-0.533507		-1.66203		0.526636		0.304477		-1.52407		0.131407		-1.91931		0.943181		0.108785		-0.499774		0.0717516		-0.500933		0.125597		0.516884		-0.955811		-0.630356		0.192284		-0.672501		-0.228393		0.507533		1.20848		0.259242		1.30936		1.29644		1.46713		-0.492938		0.21018		0.00367033		0.298769		1.41221		-0.105402		0.947312		1.42701		1.09233		0.20886		1.3803		-1.22335		0.397349		-1.06993		-0.42662		2.00505		1.97764		0.661022		-0.25572		-0.202681		0.0406026		3.13773		-0.151506		1.45088		1.45017		0.847331		0.779396		-0.282147		-0.185943		-0.198678		-0.0308515		-1.39864		0.887532		0.434815		-0.501834		-0.10656		-1.41291		-0.32501		0.133394		-0.0611113		0.138374		0.719877		-0.126789		-0.186995		1.02684		-1.01507		-0.923124		-0.442055		-0.437121		-1.96144		1.25094		0.231918		-0.477154		-0.0217596		0.135275		1.09543		0.93362		0.66775		0.939082		-0.283268		-0.414034		-1.51134		0.619105		-0.769992		0.841384		0.536607		0.91918		-0.839619		-1.4954		-1.4157		2.04399		-0.679637		0.865755		0.437264		-0.59139		-0.136989		0.586981		-0.298397		-0.363175		0.644008		-0.940945		0.135248		-0.090518		-1.63417		-0.29695		-0.0362162		1.04287		0.189097		0.87071		-0.196786		0.0540603		-1.51676		-0.27715		-0.662987		-0.449288		-3.17772		0.0805541		-1.27756		-0.00906783		1.00295		-1.47834		0.50322		1.23052		0.190232		-0.627833		1.21184		-0.356962		-0.00847773		0.942337		0.211742		1.35195		-1.58354		-0.0333813		-0.633998		-1.13585		-0.230006		1.17805		2.20733		0.466023		-1.89503		0.490227		0.349611		-0.372171		-0.283399		0.815437		0.976706		-1.10759		1.3806		0.106341		0.668448		0.547827		0		
-0.146727		-0.393488		-0.175084		-0.761473		1.70774		0.400022		-0.216404		-0.270144		-1.42902		0.155786		-0.784846		0.460865		1.49629		1.43508		0.0888098		-1.14422		-0.716004		-0.495385		-1.04419		0.366641		-0.89636		-1.82271		-0.23627		-0.895283		2.37564		1.48582		0.523387		-0.950094		-1.22895		-0.491909		-1.19341		0.0357067		-2.42823		-0.396441		-0.310656		0.9316		0.583536		-1.59289		0.397503		-0.291114		1.26856		0.467405		1.01592		-1.09999		0.410299		0.543107		-1.86789		-1.8672		0.398181		-0.584254		0.233016		0.00729849		-2.30121		-0.366447		-0.540745		-0.191312		0.129224		-0.94413		-0.148549		-0.821295		0.519995		-0.775303		0.366673		-0.268672		-0.0119946		1.96406		0.936137		1.41401		0.289397		0.389545		0.884544		-1.24758		-1.23049		1.72564		0.194449		-1.20834		1.66109		0.515274		0.695138		-0.647056		0.677149		1.66694		0.95151		-0.000308519		-0.345298		-0.807808		-0.456902		-1.44792		0.333855		1.42723		-0.153029		-1.39753		-0.30595		-0.0526922		0.889163		1.08045		1.10502		0.0053096		-0.743257		-0.35883		1.58822		-0.963694		-2.03788		0.822394		2.15194		-1.63066		0.0311213		-1.08262		-0.749804		0.0923093		2.01031		0.346117		-0.828975		2.36251		-0.480201		-0.416849		0.580916		0.132475		2.03092		0.125591		0.0603197		-0.362446		0.069281		0.349812		-0.329593		-0.0122629		-0.98616		1.10366		-0.0103543		-0.0154674		0.967022		-0.800996		-1.55692		0.407429		0.81098		0.469395		-1.77921		-0.196795		1.42693		-0.591898		0.884146		0.126361		0.121928		0.631311		0.389301		-1.09293		1.53529		-0.593363		0.315955		-1.14266		0.165063		0.586529		-0.464199		1.2504		0.0102955		0.759489		-1.00725		-0.699441		-0.181487		1.88662		-0.82336		0.97165		2.06648		-1.81932		-0.811069		-1.62033		0.143819		0.142131		-0.604654		0.919165		0.144427		1.10029		-0.257208		-0.959453		-0.209595		-1.6188		1.55463		2.26		-0.0534589		0.500541		1.84167		1.27386		-0.86788		1.38894		1.52504		0.858555		-0.836296		0.156892		-0.58301		-0.0860465		-1.0928		1.6307		1.48543		-0.178969		1.58951		1.65775		0.73875		0.244787		1.48425		1.20468		1.24217		0.389294		0.309385		0.445843		-1.14224		0.936925		-0.456213		-1.03635		1.26881		-1.67461		0.615526		2.49696		-0.427959		-0.429501		0.47775		0.903513		1.93806		-0.0788872		0.403218		0.316837		0.382129		0.799125		0.687887		0.50106		0.06385		0.0180293		0.53132		-0.355398		1.17074		1.37785		-1.06455		1.36954		0.746872		-0.494003		-0.429613		0.349163		1.12439		-1.2079		-1.22255		-1.10118		1.5126		1.5229		-0.410359		-0.285121		-1.43347		-2.221		-1.37661		-0.142292		0.0733162		-0.267019		1.2461		-0.17271		1.06958		1.04917		0.680586		1.13914		0.217313		-0.134206		0.773102		0.765086		0.129382		-2.25562		-1.55812		2.5522		1.13711		0.0809234		0.312842		-1.22424		-0.448152		0.622016		-1.91634		-0.992739		1.2026		0.539544		-0.481769		-0.146048		1.13075		0.920904		-0.373943		0.726258		-1.64349		0.671672		0.314367		-1.95558		-0.0217309		0.601093		0.0568305		-0.290502		0.616398		-1.38735		-0.663548		-1.60434		0.586713		0.575489		0.173924		-0.100351		-0.622659		1.07211		0.301533		-0.839174		0.0920813		-1.56094		0.16567		-0.508554		0.0847612		0.405181		-0.413617		-1.59345		2.05529		-0.233228		-0.705723		0.56316		0.181194		-0.0967182		-0.696733		1.08166		0.307374		-0.44829		-0.390435		0.151213		0.198647		1.65051		-0.299343		0.229418		-2.58335		-0.70938		1.47335		-0.880732		0.206404		-0.609438		1.13991		0.529062		0.189988		-0.913373		1.29906		0.542233		0.253433		0.566007		0.266203		-0.0873137		-0.570501		0.46731		-0.564326		0.26301		0.244275		-0.427691		1.12666		-1.26126		-0.924149		-0.897919		-1.17389		-0.53885		0.0597878		1.58009		0.239516		-1.06745		-1.11505		-1.44053		0.0782257		2.3921		-1.22314		0.206263		1.66015		-0.819921		0.582145		-0.570705		-0.861109		-1.0704		0.133097		-1.07468		0.99312		-2.07231		-1.47397		-0.417605		0.0794267		-0.331519		-0.550722		0.228505		-0.0683363		-0.949985		0.947511		-0.324042		-2.10061		-0.937082		1.92591		0.11324		-1.15899		-0.360459		0.853316		0.103338		1.4856		-0.669998		0.657286		-0.863573		-2.95784		1.27907		0.86908		1.00109		-0.771432		0.34282		-1.44689		0.20598		0.517944		0.2871		0.668725		0.276727		-0.788077		0.278323		-0.206307		-0.0626404		-1.05017		0.802971		0.134566		0.548305		0.270808		-1.90611		0.363894		-0.76193		-0.0478332		-1.58453		-0.995754		0.709373		0.626602		1.15425		-1.05227		0.180408		-0.897706		-2.24506		0.416557		0.0198985		0.780175		-1.04007		0.699106		-0.33467		-0.0283658		0.18876		-0.396293		0.1871		0.191772		0.226499		0.0751186		0.663727		3.28935		0.268494		-0.85636		-1.46832		-1.37718		-0.646858		-0.314354		0.617543		-0.172765		0.697773		0.209425		0.906048		1.0341		-1.21316		2.07299		0.547946		0.310418		-0.658874		0.966035		-0.175917		0.446331		0.603923		-0.379888		0.437806		-0.856488		1.99252		1.0641		0.692905		0.792319		1.72715		-0.230564		-1.00469		0.588811		-1.43585		-0.797232		-0.650016		0.0834106		1.84594		-0.170379		-0.291382		-0.788992		-0.671379		-0.684003		-1.39773		-0.817515		-0.295484		0.457292		0.0248016		-0.944909		-0.430495		0.309415		0.386208		0.917347		-0.128463		-0.177777		1.76931		0.654016		-0.584258		0.676016		0.476786		1.7612		-0.482352		1.37478		-0.133953		0.743748		-0.188849		0.710816		1.24922		1.87312		1.04008		-0.847111		-1.26377		-1.17032		-1.24335		0.100571		-0.858777		-2.06786		0.433633		-1.03504		0.18384		0.904356		-0.718818		0.0507897		0.0335025		-0.108682		1.2207		0.000983146		-0.994109		0.549055		0.63643		0.963046		0.950016		0.600065		0.0278716		-1.40214		0.721529		0.170951		-0.316852		1.19727		1.20567		0.157946		-0.459517		1.12876		-0.160713		-0.304969		-0.96008		-3.2797		0.110628		-0.341344		1.60973		1.74214		0.252747		-1.47782		-1.82188		1.27367		-1.1372		-1.12897		0.496699		0.215332		-0.862836		1.55561		0.507516		-0.343629		0.716879		1.67439		0.956563		-1.19738		0.837287		-1.04161		1.20827		-0.799695		-0.796643		-0.587017		-1.32953		0.228415		-0.165394		0.831331		0.3092		0.0360338		0.0790513		2.4292		-1.02158		0.532631		0.379321		-0.463443		0.266983		-1.37406		1.4023		1.0381		0.272126		-0.929291		-0.10688		-0.213664		-0.670914		-1.31518		0.663919		-1.18829		0.247		0.00809405		1.58545		-0.155945		2.62794		0.0612424		0.0010307		-0.672327		1.40778		-1.21439		-0.809403		1.52097		-1.07007		0.095539		0.272223		0.469359		0.308477		0.323704		1.40532		-1.34478		-0.133639		-0.309102		-1.31219		0.941554		-2.27326		0.989873		0.0174029		0.0141915		-2.75729		-0.168633		-1.01117		1.78507		-0.119184		-1.07289		0.781541		-0.841383		1.69412		-1.04506		1.34946		0.289625		0.70249		-0.0865772		0.213854		0.813323		1.8127		-0.408143		0.904717		-0.135407		0.0612049		-2.09069		-0.950627		-0.461613		-0.613581		-1.02632		-1.51995		0.130641		-0.577497		-0.449925		2.01597		1.65803		1.82672		-1.00816		0.360848		-0.791736		-0.455914		-0.980532		0.339502		0.444368		-1.99657		0.279862		0.847392		-2.1134		-0.4427		1.62382		-0.258577		-0.0526344		-0.741109		1.20529		1.46038		-0.738464		1.04384		-0.68002		-0.458159		0.596667		-0.753703		-0.577397		-1.61314		0.62739		-0.00926844		-0.987707		0.808165		1.79693		0.795298		0.323675		0.054323		-0.269912		1.31529		2.09588		1.60388		-0.758076		0.136333		0.118314		0.122412		0.0792406		1.01373		0.518351		-1.65117		0.835477		-0.186087		-0.352826		0.334457		1.05437		0.116494		0.136765		1.66098		-0.310187		-0.671733		-0.299832		-1.21631		1.77769		-0.864682		-2.60592		0.0977544		0.897681		-0.567027		0.626386		0.222828		0.120347		-1.09206		0.978197		1.12602		-1.0703		-0.195903		-0.0415842		0.0997622		0.361832		1.11309		0.235332		0.688215		0.16188		-0.238849		1.88653		-0.847148		-0.26206		1.05348		0.777894		0.162399		0.84619		-0.765419		1.06932		-0.187048		-0.627025		-0.428184		2.18739		-0.579587		-0.0956314		0.966617		1.14561		-0.827726		-1.71673		0.73674		-0.590189		-1.57386		0.748398		-2.02123		0.179598		-2.25964		1.57744		-0.321533		-0.812771		1.29692		-0.0633642		-0.0573708		0.635283		1.06996		0.0237902		0.712948		-0.232556		-0.93016		-0.648797		-0.538503		-1.18453		-0.595902		1.1886		-0.554316		0		
-0.878361		0.585034		-0.0463177		-1.66059		-0.815927		-0.992628		0.373915		-0.548838		-1.30568		0.378249		0.129558		-1.15092		-0.317136		0.690862		1.14087		0.093029		0.941022		-0.0277651		-0.13064		-0.421289		1.04781		0.518939		-0.469879		-0.891486		0.599507		1.12664		0.0200535		0.0217715		1.04294		-0.81363		1.07427		0.973898		0.938348		0.237814		-0.364966		1.21514		0.0185548		-2.35111		-0.486117		-0.380187		-0.858064		2.14454		0.844576		1.78476		0.745666		1.01844		0.202856		-0.40169		-0.499523		-1.44624		-1.01051		0.458054		-0.235261		0.721209		0.608197		-0.404873		-1.47166		0.358142		0.851341		0.577654		-0.000815942		-1.41845		-2.24071		-2.0009		0.0169366		0.679851		0.401735		-1.16348		-0.126102		-0.757422		0.239028		0.0997799		-0.0017432		-0.607622		-0.902888		0.2564		-1.59441		0.0831683		-0.527508		0.361821		-0.30296		0.909363		0.758362		0.926848		0.692558		0.571183		0.455128		0.399271		-1.15431		0.275393		-0.10999		1.00121		-0.558608		-0.24185		-0.459626		-1.97161		-0.61341		-0.159525		-1.08497		-0.797401		0.252071		0.948711		1.38618		-0.248655		-1.33411		0.285968		0.863867		-0.0297534		0.0848728		-0.253008		-0.8378		1.23975		-0.149692		0.604689		-0.76337		1.45271		1.40672		-0.62727		0.130821		-0.937149		-1.38526		-0.142961		0.53415		-0.295067		1.73542		1.28954		-0.406285		-0.64442		-0.000756352		-2.66033		1.2117		0.472541		1.66606		-0.050411		0.739084		0.109152		1.22182		-1.07292		0.707325		-1.0981		-0.184808		0.466861		-0.229836		1.36772		-1.10589		-0.43135		1.76827		1.4455		-0.373419		1.16055		0.672434		0.630626		-0.448317		-0.648513		-1.05307		-0.882362		-0.717135		-1.70176		0.479534		1.28144		0.147745		-1.53825		0.815791		1.32103		1.31808		0.473523		-0.726965		0.482948		0.22837		0.452676		-1.72059		0.11591		-0.702364		-0.0987478		0.988361		-0.953969		-0.42613		0.809733		1.7856		1.00253		1.50016		0.262497		-0.539254		0.170557		0.992713		0.865699		-0.727004		-1.73704		0.0754155		-0.935474		-0.0323892		1.69869		-1.23812		0.490945		0.124008		0.683204		-0.717832		0.447289		0.210492		1.60367		-0.0263967		-1.67297		-0.721487		0.992598		-0.365257		0.0613801		-0.379787		-0.405377		-0.853668		3.01341		0.158619		-2.29556		-0.564469		0.700428		-1.06966		-1.04738		1.01248		-0.397704		-1.34161		0.399769		0.548022		-0.653417		-0.790371		-0.265241		2.25666		-0.0553805		-0.0663203		1.62314		0.924643		-0.364348		-0.0446443		-0.597631		0.504941		-1.16261		0.113621		-0.0880063		-0.00200202		-0.11371		-0.0615515		0.962132		0.384096		1.61412		-2.12182		-0.26435		-0.891766		-1.45475		0.546427		-0.866559		-0.643971		0.130079		1.32531		-0.703799		-0.777834		0.578037		0.978664		1.15827		0.675941		-0.743985		0.520094		-0.460908		0.32573		-0.239901		0.175495		-0.687154		1.37332		-0.714269		-1.4879		0.0806483		-1.60704		-0.0859408		0.614737		0.273121		0.239459		1.69253		0.837056		-1.53989		-0.337387		2.20879		-1.45829		-0.33295		1.36215		-0.931423		0.583766		1.30427		-0.61049		0.342716		-0.480508		0.779871		-0.0097788		1.124		0.815867		-0.00398668		-2.05117		0.652546		2.07757		-0.187625		-0.48677		-1.0653		1.07906		-1.47265		-0.244997		-0.649869		-0.526203		-0.244356		-1.9044		0.145261		-1.57564		0.0790158		-2.83705		-0.9834		0.574839		-1.67105		-0.372789		-1.03726		0.399157		-1.11618		0.242762		-0.415411		-1.26354		0.789559		1.39709		-0.267573		-2.83202		-1.35556		1.1547		0.369843		0.175829		0.0054635		-0.0579665		-0.409391		-0.380792		-0.276806		-0.289626		0.559499		-0.494123		0.340076		0.626018		0.309391		-1.11741		-0.543198		1.47117		-1.27588		1.2098		-0.719891		-0.0889564		-0.0742097		0.57565		1.22401		0.913291		0.327018		0.117818		-0.232987		-0.480033		-0.729826		1.74087		-1.14849		-1.95394		-0.316541		0.802124		-0.400399		-0.3839		0.329294		0.244889		0.508533		1.49168		-0.471058		-2.11202		-0.553548		0.640553		-0.0893093		0.202678		0.787716		-0.376573		0.654012		0.734469		0.24079		0.53908		0.963531		0.0426713		-0.458779		1.05116		0.0688823		-0.622589		-0.257304		0.394475		0.719541		0.482668		0.814749		0.651094		0.284776		-0.640526		-0.676431		-0.315799		-0.272196		0.369336		0.111177		0.317192		0.928884		0.749744		1.81586		-1.66765		0.549614		0.096655		1.30633		-0.515006		0.418878		-0.00797478		-0.762259		-0.750777		0.100159		0.619166		-1.06986		-0.0554174		0.625713		1.45074		1.15072		-0.264596		1.22686		-0.880097		-0.385512		-1.25574		0.183867		0.164591		1.09956		-0.732439		0.764318		1.22618		2.01681		0.151067		-0.498753		0.34448		0.0144963		-0.499592		-0.475399		0.104001		-0.147541		-1.03853		-0.701426		-1.79901		0.36086		-0.35012		0.332781		-0.691411		0.249584		-0.629957		-0.290047		-0.075692		-0.141513		-1.69601		-0.493103		0.430123		1.77126		1.22072		-0.128782		-0.317798		-0.0894033		-0.777273		-0.205692		-1.35886		1.71673		-0.371124		-0.352578		0.655099		-0.688287		-0.0198498		0.27085		-1.40574		-0.151531		-0.643405		-0.66006		-0.414006		1.90086		0.109752		1.53222		1.47469		-0.39881		-0.124192		-0.142476		-0.475543		-0.516368		-0.0204801		-0.756736		-2.10433		-0.642027		0.625115		-0.000111131		-1.63441		0.350082		0.534142		-0.735803		-0.758077		-0.512623		1.9622		-0.533354		0.831319		-0.220694		-0.179078		-1.43237		-1.01079		0.88927		0.698895		-2.23441		0.843074		-0.728284		0.499401		-0.0798247		0.0977422		0.632095		1.10831		-0.754692		-1.11832		0.810929		-0.158815		-0.101017		-1.6629		-2.10371		0.0414925		0.559514		-1.46711		0.308996		-1.40537		-0.851427		0.68572		-1.48506		0.475275		-1.30122		-1.88759		-0.922437		0.604911		1.59656		0.78878		-0.0312193		0.568585		-0.227863		-1.13945		1.13079		2.28781		0.112104		-0.692738		-0.0141576		1.14554		-1.08816		0.356056		-0.289471		0.120035		-0.0078473		-0.750612		-1.09512		-1.0846		0.756653		-2.32472		-0.839566		-1.18703		0.576896		-0.576525		-0.548366		-0.930784		-1.34028		-0.708881		2.00915		1.06472		0.220843		-0.495666		1.404		-1.10015		-0.394223		-0.234223		-0.773892		0.796496		-1.52905		-1.70517		-0.0466742		-0.163529		-0.541015		-1.46446		-0.13795		0.708339		0.143406		1.86425		0.431586		-0.271993		-0.17506		0.21212		-1.57506		0.0146896		0.250811		1.16205		-0.93787		1.41321		-0.320303		-1.55878		1.12873		0.417291		0.677874		-0.795151		-0.496358		0.315251		-2.09082		0.641376		-0.0886734		1.69873		1.25262		0.0683113		0.836832		-1.56265		0.253813		0.0490383		1.97318		0.272598		-0.975396		-0.0441261		0.707391		-0.493904		-0.971992		0.0913286		-0.730347		0.348839		0.641904		-0.116465		-0.712584		0.783125		-1.80513		0.73703		0.673661		0.373763		1.88805		0.740144		-1.53851		0.770955		-0.363027		0.386524		0.211997		-0.325792		-0.218573		0.037807		-0.00194931		1.94538		0.602866		0.0771537		-0.92382		-1.48268		-0.740715		1.2993		-1.35297		0.251395		1.53321		-0.182457		-1.1626		0.292083		0.284263		1.67473		-0.138987		-0.441347		-1.45211		-0.279598		0.740602		2.03069		0.189849		0.164827		0.523628		0.557304		-0.45954		1.08279		0.139969		-0.354123		1.38879		0.319762		-1.60869		0.220406		0.358514		0.860548		-1.11592		-0.0945241		0.228487		-0.976034		-0.310927		0.513148		-0.767665		-0.0618934		-0.253862		-0.693751		0.352076		0.228372		-0.775852		1.49319		0.113571		1.02976		-0.671413		-0.487649		0.318797		0.72007		0.129593		-1.17251		0.945707		-0.499147		1.00691		0.266995		-1.73928		-0.157455		0.719338		-1.04089		-1.54876		1.25473		0.964094		-0.575311		-0.434893		-0.645657		-0.792656		-1.8359		1.43567		-1.00383		1.57285		-0.226353		-0.00380705		-0.583443		-1.72184		-1.22958		-0.417356		-0.884533		0.553108		0.705602		-0.86308		0.292547		0.743328		3.19279		-1.77805		0.102229		0.0138647		1.08843		0.925424		1.35313		0.296894		0.358826		-0.553465		-0.0721164		0.963204		-0.614219		0.853084		2.01591		0.102613		-0.610057		1.37069		-0.446302		2.00123		2.97933		0.0442245		-1.19411		1.59097		-1.12254		-0.924302		-0.0923837		0.0188442		0.363824		-0.00652938		-1.12163		-0.66724		0.980484		-2.14231		1.25363		-1.71723		1.07303		-1.30314		0.843625		-1.84852		-0.164278		-1.02947		-0.295947		-1.41785		0.429408		-0.318379		-1.40462		0.416943		0.518115		-0.548944		-0.870029		1.62898		-1.10168		-0.14624		-0.855146		0.607538		1.19247		-1.67704		3.05538		-0.399791		0		
-1.35451		-0.569419		-2.15642		-1.38687		-1.94207		0.404064		1.42649		0.36002		0.344129		-0.395564		2.0477		-0.707983		0.476296		0.00143633		1.66838		-0.078178		1.59167		-1.87677		-0.913153		1.57539		-2.11832		0.0805257		0.272844		-0.318647		0.317468		-1.61033		2.16083		0.191069		-0.619223		-0.295856		2.00033		1.7411		-1.02333		0.0744738		0.0882559		0.951957		0.667072		0.488669		0.732725		0.172456		0.34085		-1.71049		2.73886		2.36561		-1.26323		-0.350429		1.16204		-3.12103		-0.298084		0.833574		0.76725		0.213244		0.408954		-1.65171		0.184498		0.820432		1.53001		0.194855		0.197627		-0.0135437		1.32496		0.523758		0.661002		-0.279985		0.505393		-0.594689		-1.12507		0.327447		2.20447		-1.23484		1.30623		0.29141		0.855436		1.32748		1.94847		0.219312		0.494707		0.845227		-1.27719		1.00379		-0.631873		-0.290403		-0.377582		0.255438		-0.474287		1.69994		1.75739		0.608181		0.375491		-0.616225		-1.14879		0.0530237		0.306209		-0.973844		0.258449		0.190841		2.23349		0.447999		-1.08581		1.20066		1.03812		-0.0440389		-0.19787		-1.86773		0.74139		0.559442		-0.243737		0.188808		0.727707		0.2898		-0.41113		1.43995		-0.207449		0.327101		-0.65372		0.103123		-1.51286		0.376193		-0.889711		-0.478214		-0.0741362		-1.19711		1.28081		-1.20863		-0.160644		-0.662308		0.795095		-0.449521		0.652464		2.19963		-0.0345237		-0.494233		2.24917		-0.255052		-3.27355		-1.42818		0.0209295		-0.612717		0.245503		-1.20159		-0.133831		-0.621158		-0.65831		0.63124		1.0687		-0.814786		-0.264057		-1.27425		-0.24465		-1.79229		-0.888549		-0.811288		-2.641		0.784698		0.134701		-1.43482		1.15939		0.23214		-1.11994		0.0494288		-1.23068		0.798388		0.0372611		-0.576744		0.107787		-0.233849		-1.21737		0.392928		-0.162647		0.279859		-1.36805		-1.38019		-1.50638		1.4274		0.261506		-1.35265		0.020197		1.33335		-0.0461868		0.793041		-0.488703		0.349233		-0.930295		-0.25826		-0.0421638		0.32711		0.071931		-1.61237		1.38001		1.97426		0.942218		-1.60256		-0.678966		-1.88975		0.956089		-1.3022		-1.47045		-0.885543		-1.17453		-1.74061		0.979496		0.209496		-1.82316		-0.483618		-0.811431		0.636978		-0.498594		0.189236		-1.78268		0.87674		-1.36181		-0.132222		-0.806103		-0.0298177		0.707325		-1.29448		1.75089		1.33973		-1.10481		-1.77055		0.550155		-0.428213		0.259803		0.599341		0.501046		1.86975		-1.75616		1.08842		1.305		-0.255825		-0.535578		0.333256		-0.941799		1.73314		-0.416826		1.00295		1.44024		-1.52706		1.43808		0.514936		0.275042		-0.0632081		1.31085		-0.90293		0.38106		-2.07804		1.5949		1.76711		1.5663		-0.27741		-0.804643		0.782161		-2.39589		0.978787		0.030701		0.781263		-1.57571		0.136926		0.289596		-0.772473		-1.22418		-0.827863		-0.339772		0.743249		-1.63556		1.6948		-1.67796		-2.24334		-0.51335		1.6882		-1.77603		1.32395		1.00704		1.08874		-1.42544		0.138417		-0.405157		1.26086		-0.358827		0.127514		-0.828723		-0.0478134		-0.986851		1.2942		-0.810463		-0.107176		-0.0507605		0.583474		-0.845088		0.722056		-0.299743		0.725757		0.342474		-1.17145		1.80874		0.0520499		-0.704476		0.475737		0.460839		0.83635		-0.488245		-0.448178		0.323852		0.589826		0.449145		2.6471		0.727602		0.342328		0.898643		1.4271		-0.399526		0.438499		-0.68326		-0.62416		0.749995		0.162861		-1.61895		0.416527		0.558475		-2.60241		1.29885		-1.21759		-1.25843		0.0145615		1.10086		0.0878491		0.822907		0.448639		0.595354		-1.6317		-0.443265		0.339475		-0.305443		-0.405387		-0.19966		-2.72266		-0.223531		0.562184		0.61888		0.37138		1.00938		-0.686351		-0.880768		1.22839		0.547399		0.813647		-0.128769		-0.827846		-1.5914		-0.152245		-0.357449		-0.78021		-1.74103		-0.877134		-0.507271		-2.40556		-0.178543		0.917718		-1.179		1.06118		-2.14659		-0.949741		-0.297794		0.502715		-1.99033		-1.53302		-0.57951		-0.0443058		0.316034		-1.30338		-0.72599		-0.959405		1.58141		-0.92495		-0.320369		-0.693489		0.0815674		0.567142		0.355368		-0.249989		0.963247		0.850299		1.02948		3.0591		-0.439497		0.185321		-0.741882		-0.207484		-0.350036		1.94453		-1.89726		-0.15247		-0.986733		-0.0691627		1.9692		1.29838		0.770105		-0.995745		1.91586		0.0256758		-0.398384		-1.06753		0.405844		-0.852075		-0.112241		-0.858277		-0.898442		-1.26824		1.15787		-0.203226		0.455692		0.772857		0.483165		1.18404		0.291365		0.138361		-1.81439		-1.06228		-0.906226		-1.27986		1.34719		-0.640273		-0.322384		-1.62716		-0.454068		0.0881576		-0.19085		-1.27977		0.223127		0.652145		0.730628		0.768007		0.101822		-0.612309		-1.67556		1.11249		-1.42677		0.215996		-0.694486		1.01449		2.83239		-1.12934		0.143705		-0.0643432		1.46325		0.111284		-0.773483		-0.234265		0.307576		-0.213088		0.336209		0.0204722		1.32256		0.10531		-0.071046		-0.578741		-0.435469		0.880855		-1.07129		-0.840854		0.0346699		0.00774502		-0.258086		0.0407112		1.39142		1.35201		0.113191		0.9662		0.822364		-0.346311		-0.603047		-1.03619		-0.120958		-1.81043		0.395424		1.18076		-0.505315		0.319567		-1.61302		0.129712		0.712876		-1.14852		-0.642496		0.259738		-1.13349		0.627866		-2.15526		-0.395278		-0.330408		0.369889		0.15364		1.02267		-1.41686		0.735477		1.48507		-0.754386		-0.0523537		-0.427377		1.0766		-0.0378524		-0.0333339		0.485717		0.375218		0.614646		-0.483207		0.174476		-0.0564634		-1.05687		0.376278		0.961636		-0.281918		-0.91202		0.194113		0.527961		-0.43423		1.22842		-1.29839		1.39485		-0.156783		0.676121		1.4333		0.590453		-0.311092		-0.322447		0.552573		-1.41415		2.09902		0.212415		-0.94901		0.797519		-0.34111		0.720776		-0.0727209		-0.620095		-1.66492		1.56911		-0.0636404		0.530173		0.282958		-1.015		-1.10402		0.595545		-1.51145		-0.259402		-1.31623		0.572601		0.0789981		0.0766285		-1.26756		-1.29201		0.786736		0.767419		0.461477		0.13509		-1.0839		-0.247697		0.801651		-1.12536		-0.409808		-0.328701		0.228344		0.0278501		-0.547963		-0.05144		1.08819		-0.661888		0.834023		-0.0360045		1.24475		0.94776		-0.0551013		1.10387		-1.39282		0.000459516		-0.315229		0.26882		-2.40608		-1.4247		0.0410959		-1.25246		-0.541513		0.589798		-1.3465		0.78525		-0.716525		0.502416		0.692713		0.745903		-0.0472738		0.938391		1.21505		0.246153		-0.433984		0.165353		-0.819339		-0.975372		-0.839001		0.189346		0.200362		-0.573669		-0.437405		-0.415698		-2.17388		-0.26438		0.903355		-0.0733474		-1.08995		0.163904		-0.0847003		0.185022		-0.43288		2.16398		-1.66048		-0.254011		0.0308716		-0.501777		2.04267		1.10551		0.224821		2.33946		1.35993		0.480174		-0.565465		0.297858		0.867785		0.555294		0.452835		-0.574575		0.862803		0.548935		-0.50453		-0.984553		0.162947		1.27551		0.861398		-0.114842		0.258017		-0.381789		0.0899966		2.10019		-0.504651		-1.63281		0.301372		-1.54132		0.26562		0.561887		-0.78533		-0.197379		0.993909		0.297882		-0.116044		1.25118		-1.25481		1.32123		1.02411		-0.0207394		1.52962		-0.361757		-1.65049		1.87511		-0.340246		-1.42118		0.338013		0.866841		0.34292		1.20985		0.875224		-1.10173		-0.399946		0.582572		-0.507955		-0.0503178		-1.2565		0.616299		-0.131768		-0.359165		1.15431		-0.17535		2.04335		-0.460337		-0.88494		1.01983		0.471646		-1.11592		0.495249		-0.390275		0.450823		2.11814		-0.477591		-0.545976		-2.07994		1.53162		-0.975038		-1.95443		0.917734		-0.596954		0.135238		-1.80589		0.440733		-0.0917236		-1.58581		1.70061		-1.56024		0.510111		-1.21662		0.930156		1.09693		-0.723436		2.25252		-1.52736		0.211018		-2.28437		-1.33864		1.34137		-1.15397		-0.911157		0.0865602		0.017617		0.366841		-1.0054		1.3807		0.0100107		-1.51722		2.017		0.721575		0.348717		0.101546		0.242584		0.428352		0.00436241		-0.501211		0.101361		-0.697066		-1.40607		0.221819		0.485516		-0.317225		1.81507		-0.00686437		0.13898		0.18364		-1.17588		0.722761		0.00116196		-0.621701		0.0507237		-0.381813		-0.608454		-0.502008		0.123292		1.07734		-0.0203976		0.404877		-0.799228		-1.10412		-0.716258		1.10905		-0.785967		1.30192		-0.768949		-0.132408		-1.80106		0.573906		-1.40792		-0.330505		-0.380254		-0.361898		1.26074		-0.202159		-0.913916		-1.83194		0.102003		0.482446		2.86942		-0.0914227		2.2236		-0.687006		-0.501144		-2.53165		-2.20253		1.16381		0.27733		0.379506		0.45913		0		
-0.195806		0.630902		-0.0550982		0.465796		0.929095		1.50943		-0.271895		-0.467253		-0.243851		1.06043		-1.40941		-1.87851		-0.0336676		0.0829178		-0.993877		0.397626		-0.78217		-0.0167374		-0.0190655		0.130089		0.121932		0.137934		0.327459		0.376465		0.401376		0.326111		0.207961		1.51734		2.12549		0.11472		-1.43368		-0.223918		-1.12054		0.861772		0.736087		-0.168717		0.958961		0.599616		-0.100946		-0.0894232		0.898473		0.596214		1.10018		-1.10354		0.0648233		-0.178633		0.33758		1.08871		1.11853		-0.146201		0.339027		-0.260383		0.106648		1.15659		1.03064		0.331104		0.129996		1.26879		0.248887		1.12296		0		0		-0.636975		-0.115284		1.05691		0.977736		1.10835		-1.02947		0.997772		-1.30208		-0.224407		0.115527		1.09782		1.04628		1.43729		0.30759		-0.524465		0.968333		1.60858		1.45923		-1.10728		-0.915971		0.769272		-2.03275		0.0239553		-1.25392		1.17148		-0.1734		0.359493		2.3622		0.894644		-0.111436		1.66714		0.759344		-0.941687		-1.1442		0.0826625		-0.366089		0.868003		-0.432944		0.284993		0.666335		1.07885		-0.354388		-0.772901		-0.610231		1.49786		0.399203		0.146661		-1.22753		-0.347586		-2.37769		-0.357068		1.40484		-0.22031		-0.424563		0.313117		0.679127		-0.802858		1.03863		0.792592		-1.4094		0.657862		-0.770491		0.453077		-2.28105		1.48277		0.282431		-0.584971		0.982174		0.521184		0.0250685		0.336434		-2.05764		-2.29769		0.209599		1.12554		-0.272217		0.796877		-1.27594		0.992381		0.60801		-0.419893		-0.583486		0.25269		-2.10972		-0.0525677		0.956172		-0.10634		2.56217		-0.0626655		-1.29912		-0.664198		1.19631		1.04241		-0.336751		-0.00535823		-0.493765		-1.34508		-1.356		-0.524743		-1.02633		-0.061755		-0.467435		0.682958		-0.621604		1.86655		0.94375		-0.0682819		0.707709		0.277565		0.170734		-0.0127865		-0.706805		0.649775		0.201644		0.68118		-0.184133		0.150482		-0.0242046		-0.572727		0.0960256		-0.535096		0.890465		0.224793		0.104368		1.08849		-0.248842		-1.15195		0.0900004		1.51431		-0.940758		-0.636938		-0.789336		-1.0324		1.21134		-1.84312		0.807099		-0.772439		1.2746		0.344258		0.272268		-0.313119		0.400375		0.626616		0.931851		0.894835		-1.08262		-0.746632		-1.75539		0.178254		1.58838		0.506608		0.449262		-0.0719118		-0.0124265		0.222728		0.130142		1.38955		-0.312588		0.725785		-0.899759		-1.88569		-0.139451		-0.35034		-1.95002		-0.383684		0.19066		0.770389		0.337686		0.429856		0.870281		-0.432776		-1.19356		-0.307768		0.402053		-0.369884		-0.251439		0.0526047		0.600255		0.0736344		-0.808783		0.132333		-0.12086		-0.871825		-1.88086		0.372914		-0.321225		1.7788		-0.208012		-0.0869284		-0.204991		-1.23302		0.401777		-0.673972		1.45278		0.208383		-0.0294352		1.66381		0.0488163		-0.0891201		0.484781		-0.176086		0.34158		0.478642		1.55429		-0.350575		0.538146		0.697156		0.100134		-0.785253		-0.832214		-0.188961		1.65615		0.0100775		-0.372737		1.22471		-0.331284		-0.541055		-0.493015		-1.03004		-0.0468851		1.27796		-0.333552		0.238258		0.686207		-0.0268978		-0.140172		0.639462		0.872218		0.203665		-0.676163		-0.734749		-0.885393		1.29941		-1.21456		0.690419		1.50762		2.22883		0.870438		-0.12566		-1.00898		0.557961		0.443004		0.814845		-1.26564		0.353932		-2.59113		-0.840299		-1.3585		-2.6385		-1.16288		-0.0205488		-0.562895		1.03127		0.806937		0.339084		0.618334		-0.449355		1.83933		-2.12378		-0.171579		0.413361		-2.37508		1.27108		-0.718657		-0.855217		-0.615443		-0.789931		-0.795008		0.838548		-0.775612		0.00874473		1.88715		0.468458		0.890653		1.26603		0.648413		0.601795		0.141022		0.0449774		-0.191803		-2.70923		-0.556292		-0.0296796		-0.645762		-1.49095		-0.859264		1.16585		-0.366594		0.046153		-0.444565		0.0549991		0.730335		0.772453		-0.695609		2.42279		-1.0166		0.200052		-0.845999		-0.301108		0.107415		2.53567		-1.21459		0.0940139		-0.485306		1.73208		-0.336116		0.369257		-0.515469		0.790125		0.277528		-0.199599		-0.630978		-1.61168		1.42362		-1.51905		-1.32242		0.755582		0.699991		0.267965		-1.66496		-0.125939		-0.144245		-0.0801263		-0.652244		0.309431		-0.724484		0.115376		-0.623006		1.23397		-0.24987		0.951395		0.0805241		0.101253		0.43206		-1.18622		-0.173708		2.39878		1.03743		-0.159945		1.17026		1.85565		-0.83164		-0.930707		0.345256		1.23781		0.050782		-0.185465		0.282747		0.351249		-0.00668784		0.317506		0.324817		-0.116482		-1.33095		0.892939		-1.47856		-0.938194		0.476913		-0.782351		-2.6807		0.23492		0.00722252		0.0455025		-0.984736		2.40269		-1.67636		-0.912928		1.03809		0.26722		1.85836		-1.85863		0.796244		0.51909		1.3164		-0.798267		0.453913		-0.805592		-0.235125		-1.50654		0.386618		-0.309401		0.144634		-0.817745		-0.0993492		1.51864		-0.218574		0.0754978		-1.12257		1.28165		0.515479		0.326094		0.0396157		0.746682		1.10727		0.711242		0.68073		-1.4353		-0.0907712		2.45845		1.19998		-0.0788377		-0.412729		1.49039		0.776486		-0.162423		0.348366		1.58248		2.47352		0.305214		1.4323		1.84729		-0.395463		0.0783342		1.00061		-1.21783		-0.769101		-1.49939		-0.841409		-1.33159		-1.51794		0.168938		-1.45478		0.707946		1.46126		0.120423		0.121591		0.291519		-1.35668		1.06826		0.836975		0.0359192		0.277627		0.971326		1.74869		-1.5583		0.0251379		-0.982899		-0.652901		0.189746		0.311796		0.0111844		-0.200666		0.359132		-0.453891		0.807656		0.592263		-1.81581		0.787425		0.615613		0.185226		1.15486		0.875398		-1.44399		-0.158439		0.58528		-0.791497		0.893773		0.180214		-0.269336		0.156015		-0.154841		1.41818		1.31126		-0.380814		2.55958		-2.4068		1.87472		0.705922		-0.443708		0.579185		0.552114		1.82197		1.50656		-1.40271		-0.384947		-0.761687		-0.34002		-0.819272		-2.04651		0.372099		-0.708422		-0.0964259		1.42264		0.50246		-1.36353		0.0379187		0.760394		0.300401		-0.624493		0.240454		-2.36553		2.47164		0.131153		0.604266		0.998347		1.92066		1.33589		1.53957		0.773491		0.038976		1.69438		0.0598035		0.125385		1.28975		-0.735714		-1.24907		0.0500495		-0.516562		-0.0477363		-0.259737		1.89582		0.325027		-0.749672		0.845119		1.16841		-1.51572		0.42896		-1.26422		-0.727581		0.314369		1.17274		-0.980842		1.7167		0.270028		1.02644		-0.487581		1.41902		-1.003		0.156171		2.3516		-0.0461371		-0.519924		-0.134034		-0.880218		-0.833279		1.05964		0.220786		-0.825587		0.517857		0.666356		-1.52057		1.02898		-0.383364		-0.444867		-1.53272		-0.431973		-0.0278395		0.57995		0.695195		1.54642		0.852468		0.265504		0.0962216		0.177176		0.976079		-0.476312		-0.108915		-1.98556		-0.760812		2.78617		-2.00226		-0.0496552		-0.105657		0.918929		-0.891474		-0.193317		1.02067		0.433287		-1.16091		1.07146		0.105688		0.473297		1.3667		-0.243248		1.3222		-0.562358		0.983955		-1.00872		-0.951726		-1.37847		-0.866247		-0.131192		0.629107		-0.369856		0.519656		-0.0542169		-1.47679		0.113933		-0.669886		-1.62724		1.68939		0.983493		-0.725779		1.42392		1.55332		0.0811252		0.72176		-0.0565832		-0.455826		0.4011		-0.268333		1.25592		-0.163473		-1.05438		0.179691		-0.88443		1.25856		-0.858857		0.0448965		0.130935		-0.242429		-0.53529		0.211068		-1.37716		-0.717419		-0.71928		1.22402		-1.68348		-1.89818		2.04427		-1.92984		-0.647745		-0.307054		0.0658439		1.13893		1.35539		2.51245		0.47082		-0.436644		0.862599		-0.752047		1.94819		0.656234		0.434727		0.206098		0.582141		-0.0763858		-0.197389		-1.25779		-0.843553		-0.409573		-0.0346784		1.17546		-2.84301		-1.41248		-0.0353465		-0.268921		1.05262		-0.236707		-0.452695		0.188442		0.488116		0.626961		-2.14417		-0.307387		-0.930939		0.523215		-1.64325		0.526294		-0.202825		-0.604486		0.643164		-2.98803		0.82069		-1.14457		0.241425		-2.77833		0.953668		-1.11029		1.15985		1.40063		-2.49206		0.197363		-0.915954		-1.51054		-0.134955		-0.133213		0.893695		-0.850285		1.08255		-0.348809		0.242064		0.541794		1.33215		-0.181753		0.0921969		0.530378		-0.785209		-1.09369		-1.35309		0.38029		0.851917		-0.943052		-0.111718		0.84223		1.40411		0.438268		-0.233979		0.105848		-0.0904406		-1.02493		0.606588		0.00343381		0.0987152		-0.407693		-0.737068		0.356156		0.962322		0.673232		0.380951		0.662853		-0.446855		2.0927		-0.27723		0.304887		0.151428		0.0688882		0.765452		-0.206761		0.357521		0.570033		1.42458		0		
-2.08581		1.07762		-2.38318		-1.11977		0.433785		1.21896		1.01602		-1.10024		0.834989		-0.0415669		-0.512656		1.22723		-0.870973		-1.73263		0.547311		-1.57784		0.114763		1.67187		0.189817		-0.674226		-0.0218827		0.769267		0.398809		0.431347		-0.0341933		0.724249		-0.883942		-0.55914		1.10445		-0.728619		-1.10647		0.853851		-1.09819		-1.14107		-1.33304		-0.507449		-1.33799		1.30743		0.097823		0.293683		-0.886536		0.702898		-0.376283		-0.00024605		0.49711		1.15969		1.68465		-0.00736843		1.53139		0.053593		0.12204		0.364275		-1.87208		-0.339319		-0.197133		-0.351248		-0.556218		1.49298		0.964957		-1.55842		0.39015		0.950393		-0.121988		-0.407069		-0.0856063		1.89552		0.403951		0.291119		-2.61533		-0.466307		0.438715		0.172847		0.0541103		-0.291687		0.57244		0.988256		0.149511		-0.0133182		-0.10571		0.660462		-0.0344384		-0.531897		-0.820433		-1.14254		-0.636436		-0.0488173		0.533597		1.05314		-0.590414		0.56322		0.710181		-0.154064		-1.4161		1.25986		0.513328		-1.2178		-0.653474		0.476853		0.0803326		-2.13248		-0.294514		1.61238		-0.35491		-1.08694		0.28371		-1.26677		0.738412		1.99913		-1.20716		-1.40691		0.11459		-1.67517		1.14334		1.80744		0.0365094		0.601677		-1.83882		-0.841406		-1.42427		1.95622		0.813629		-1.19885		-0.451063		-1.21337		-0.317704		1.49165		0.389255		-1.1309		1.62722		-0.538792		1.18624		-1.04046		-0.955711		1.63833		0.377833		-0.0230918		-1.05772		0.517014		2.04556		-0.999312		-1.24373		0.971471		-0.102789		-1.56756		-0.195577		1.08043		0.50164		0.152252		1.00741		0.706371		1.54401		-0.394289		0.53846		-1.20185		0.27537		2.32774		-0.732385		0.352362		-0.078853		-1.09907		1.0989		0.216684		0.441518		1.34109		-0.198783		0.782694		0.562797		0.883014		0.37787		-1.5631		-2.00258		-1.88386		1.14542		2.03655		0.996094		-1.92525		-0.0397126		-0.120141		-0.832402		-1.13508		0.487031		0.641614		-0.814086		0.0986137		-1.87656		-0.834156		0.187415		-1.06439		0.253662		2.37634		0.422965		1.38053		1.60016		3.22813		-1.16113		0.807266		-0.0620478		-2.28096		-2.10414		0.219958		0.806806		0.923561		-2.2881		-0.3616		-0.634535		-1.32477		-0.603898		0.786303		-0.0730618		-2.50048		1.69985		-0.15501		-1.11038		0.903224		0.145122		-0.832558		-0.0553309		-0.257111		2.93782		0.0704863		1.04556		-1.03128		0.624286		0.664065		-1.22775		0.458663		2.88567		1.5569		0.860271		1.4769		0.128021		0.68288		-2.21186		-0.113294		0.418149		0.994943		1.57945		-0.959331		-0.173266		-0.562558		-0.0213395		0.319231		-1.10738		1.76333		0.750664		-1.94129		0.232947		0.504057		1.08926		-0.569775		1.49526		1.237		0.143975		1.02378		0.829965		-0.965587		-2.27922		-0.561703		-0.172605		-0.0232346		0.835966		-2.11647		-0.533522		-0.78437		-0.11629		-0.0421758		-0.442924		-1.40972		0.363504		-0.193732		1.2764		0.117294		1.13807		0.410731		0.987609		-1.12421		-1.67163		1.25757		1.66874		2.4962		0.500952		1.36187		-1.19069		0.128877		1.39835		-2.3162		-0.349342		0.434929		-0.505821		-0.66382		2.39349		-0.218356		-0.433391		0.530299		-1.38664		-0.784374		0.182891		-1.59247		0.331938		2.2827		-0.798288		-0.0786519		-0.436604		-0.072112		0.817495		1.62492		-0.295014		1.48976		-0.0133468		0.86641		0.46052		0.837587		0.15921		-0.529869		-0.719901		-1.95135		0.452285		-0.688586		-1.21502		-1.15786		-0.11693		-0.47435		0.167323		-0.0665784		-1.33909		0.0701693		0.173386		0.393601		0.0933874		-0.300995		2.018		0.157819		0.866065		1.22491		1.28		0.594354		0.556083		1.59719		0.259433		-1.1403		-0.141091		0.0631428		1.12203		-1.19978		1.1118		2.65258		-0.65025		2.3794		-0.597233		1.0395		-0.701425		-2.05337		0.318201		0.152957		-1.94118		-0.897072		0.48031		0.519714		1.38884		0.922262		0.115682		-0.715587		-0.476815		-0.555705		-1.49389		-0.710456		-0.0900896		-0.0476968		-0.894924		-0.953039		0.129435		-0.522665		-0.276515		0.0137068		0.670546		-1.14921		1.2419		1.15072		-0.0930794		0.302501		-1.31696		-1.10609		-1.18514		-1.04427		-1.38482		-0.0223587		1.07647		-0.730036		-0.0251634		0.347023		0.441722		-0.557338		-0.0806715		0.575104		-0.595035		-1.40088		-1.09513		-0.395435		-1.06521		-0.750965		0.902059		-0.406214		-0.891716		1.23844		0.238795		-0.216413		0.0667781		1.42418		1.2598		-0.27515		-0.589944		-1.04928		0.184814		-1.38789		-1.49166		0.436287		1.75892		1.47625		-0.295014		-0.431245		-0.207803		1.67826		-2.02377		-0.885106		-0.978818		1.04317		0.660179		-1.26818		-0.498878		-1.10064		0.766557		1.16194		0.507081		0.230858		-0.739016		-0.690078		0.387505		-1.18972		1.4861		-0.126403		-0.920603		0.31173		-0.892631		-0.337975		-0.496757		-0.109849		-0.877273		0.964823		-0.310521		-0.157905		0.549032		-0.565499		-0.861147		-0.635416		0.761619		-1.06288		-0.536809		2.4638		1.45894		-0.0523363		0.578952		-1.83338		-0.823448		0.711661		-2.0144		-1.58948		-0.789122		1.12381		-1.32109		-0.0925099		-0.155082		0.576019		-0.189081		-0.127736		0.081314		-0.110075		-0.141867		0.746209		-1.00927		1.26629		-0.120773		0.000500937		-0.540429		2.53934		0.622809		-0.695188		0.44272		0.404723		-0.330834		1.74947		-0.397405		-0.794878		0.373767		1.71427		0.533591		-1.22329		-0.733957		-0.660919		0.0452123		0.988124		-0.487695		1.67778		0.483636		-0.457868		1.10413		0.346402		0.186329		1.30837		1.31635		-0.251407		-2.14293		0.328049		-1.34478		1.0099		-0.202822		-1.31236		-0.638433		-0.257151		-0.255657		1.28291		-1.63914		1.5902		0.853621		0.34976		-1.08041		-0.928804		0.161886		0.409721		1.06757		0.190535		0.299681		-1.50787		0.9822		-1.13763		-0.197463		0.773338		0.423855		-1.17183		1.26329		-0.635024		-0.729878		-0.647274		-2.07086		-1.17376		-0.561058		-0.99393		-1.05762		-0.419412		0.453403		-0.212775		-0.262966		-0.676622		-1.24143		0.339381		0.107822		0.391906		0.0796088		-1.42922		-0.881553		0.660829		0.431325		0.297636		1.02694		-0.557823		-0.664226		-1.0876		0.205478		-0.33714		2.22374		-1.5331		0.733807		-0.788306		1.53104		-0.852213		-0.191316		-0.236085		-0.749324		-0.292372		-0.764745		0.0839633		-0.00055581		0.0632508		1.19002		-0.268625		-1.00695		1.29108		0.593487		-1.47639		0.648055		-0.200965		0.567011		-0.840313		0.96478		-0.265394		-1.17513		-1.74413		0.0221694		-0.0347679		-0.687459		-1.18193		0.149612		0.221255		0.241387		-1.16419		-0.285225		-0.645221		1.08065		-0.631563		-0.238091		1.02833		1.51839		0.928746		-0.383103		0.83737		-0.161923		0.801355		0.284041		0.249636		-1.63922		0.899819		1.53283		0.671222		0.0731196		0.684656		-0.529304		-2.35731		0.937508		-0.605129		0.400791		0.0257709		1.4896		-0.347358		0.408599		-1.75533		-0.560699		0.662843		-0.813681		-2.52402		-1.38733		-1.15027		-0.358326		-0.923501		2.02959		-1.92248		0.509668		-1.55595		-0.162722		-0.640078		-1.20578		-0.360165		-0.198594		0.125334		0.334764		-0.21453		0.986569		-0.376044		-0.0329759		0.441637		-0.925269		-0.664876		1.24236		0.66039		0.387636		-0.353512		-0.0162556		0.174658		-1.55097		0.0539933		0.668576		-0.420145		-1.43394		-0.882792		-0.000851638		-0.637694		1.11846		-2.19648		-0.972418		-0.207864		-0.116676		0.37629		2.06381		0.862826		-0.890936		0.5618		-0.433431		0.542482		2.24209		-0.241157		-0.210474		0.98409		-1.17938		0.148558		1.75449		0.00731297		-0.406558		-1.13623		1.61061		-1.50726		-0.260403		-0.394271		-1.72364		1.37091		0.6681		0.710208		-0.436338		-1.12473		0.0755604		0.337118		-1.41077		-1.10181		-0.00956722		0.126713		0.970204		-0.705555		-0.643377		-0.878058		0.47566		-0.988943		-0.881813		-2.7387		-0.825395		-0.80728		-0.613506		2.10883		-0.872729		1.5774		1.57396		-0.853891		0.621508		2.38724		0.737267		0.388516		0.0425005		-1.19963		0.595333		-0.724051		-0.878783		-0.795904		-0.785211		-0.287647		-0.475203		-2.46844		-0.355145		-0.559297		-1.46585		-0.560118		1.40566		1.29763		-0.155157		1.27505		-0.292565		-1.28839		0.851715		0.486386		0.611688		0.392793		-0.6463		-0.833327		-1.42758		-0.765266		1.17645		-0.786052		-1.40046		-0.615704		0.0426692		0.0636317		1.97207		-0.624919		0.425033		-0.000648747		-1.8855		1.3855		0.0888666		-0.138296		0.410778		0.314513		0.628517		0.600413		0.171193		0.314174		0.481217		0.687097		-0.166676		-0.391649		0		
