3		784		10		sigmoid		softmax

89
2.31706		0.553055		0.627168		0.893502		-0.792906		0.0149026		-0.845463		0.414539		-2.22759		-0.485042		0.912475		-2.60622		-0.543401		1.08971		-1.03891		0.262228		0.992529		0.128246		0.723187		-1.47904		-2.95137		0.999261		0.866704		-0.693844		-0.68226		1.01457		-0.402176		0.0564581		-0.665454		-0.210796		1.49092		0.797438		-1.04324		0.463058		0.253516		0.304242		-1.32706		1.2069		1.19319		0.4285		0.736387		-1.46627		0.555046		-2.72732		0.478747		0.83217		-0.621616		0.892234		0.408823		-0.664334		0.840684		-0.158528		0.128205		-0.609342		-0.172789		0.619126		0.345095		-1.14201		-1.32026		0.0418653		-0.874693		0.0627923		0.827143		0.100394		3.00598		-1.02417		-1.50692		-1.04333		-0.580982		0.281381		-1.05578		-0.302265		-0.44556		-0.863854		0.300322		1.20588		0.720645		0.318993		1.0061		1.49878		0.385727		-1.43606		-3.28889		1.29262		-0.942961		1.55371		-0.338759		0.10491		0.722358		-0.868366		-1.55573		0.0945727		-1.57132		-0.687512		-0.400035		-0.528194		-0.643795		-0.718635		-0.0561496		0.958615		0.693406		-0.716393		0.541639		-1.28878		-1.34544		0.946592		1.05713		-0.290585		0.742566		0.593225		1.09722		0.448021		0.286249		1.96252		-0.975937		-0.813138		0.386957		-0.965954		-0.891762		-1.27489		1.91672		-1.51911		-0.126018		2.35344		-0.329797		0.286988		0.576563		-1.06858		-0.361373		0.00727264		0.447553		-0.690713		0.0132168		-0.226023		-0.45925		-1.05624		-1.28071		0.159441		0.759517		1.07072		0.562107		0.852982		0.125591		-0.639634		-1.17294		-0.682553		0.303093		-0.606726		-0.665498		-0.458488		-1.58603		0.0411618		-1.93317		-1.14942		-0.796818		-0.525775		0.393291		1.35343		-1.90136		0.276924		-0.85034		1.08447		-0.622309		0.123416		0.70024		0.837337		-0.383498		-1.1602		1.80415		-1.47617		-1.19083		0.076023		0.669896		0.932526		-1.3482		1.73968		0.597244		0.127966		1.01011		0.313136		-1.24235		0.0184065		-0.212397		-0.943471		0.392003		2.0708		1.46747		-0.270845		1.15561		0.691726		-0.865915		-0.953574		-0.985824		1.30591		0.691251		-0.835426		-0.00501963		0.856472		1.42871		1.78343		0.283131		-1.20694		-1.61671		0.236064		1.80157		-2.03238		-0.156403		0.0720414		0.373586		0.907993		-0.15993		0.426827		-0.454456		-0.66872		0.211488		0.0525963		1.66923		1.5185		-0.19298		-0.174447		0.207957		0.254834		-1.92489		-2.31189		-0.272961		1.10891		-0.760455		0.732288		2.19714		2.01416		1.74065		-0.72613		1.00535		0.574762		-1.51937		-1.94033		-0.139263		3.17525		0.0949491		-0.920921		-0.668792		-0.467594		-0.667207		-0.037534		-0.516099		0.435937		1.89419		2.27107		0.210414		1.49091		-1.32323		0.635741		1.57273		-0.443669		-0.56594		0.533887		0.317421		-1.9166		-0.0986399		-0.97654		-1.01066		-1.24511		-0.423964		-0.256758		2.00524		0.501182		-0.148421		1.12104		0.651316		-2.08783		0.402536		0.0232585		-1.02123		-0.137858		2.0957		0.290753		-1.32911		-0.471522		0.688339		1.18747		1.62254		-0.13852		0.664871		0.0855344		0.548707		1.05133		0.0648912		-0.872379		0.406701		-0.010854		0.167082		-0.692497		-1.48872		-0.933757		2.11185		-0.234933		1.65558		0.645445		-0.976814		1.17338		0.252492		-0.760239		-0.196539		0.836822		-0.395776		-1.23695		-0.482601		0.903859		-1.66342		-0.19855		-1.43852		0.803082		1.06728		0.080456		-0.17265		0.304928		-0.0406918		-0.863553		-0.634388		0.945252		-1.08757		0.523721		0.196209		-0.147072		0.866729		1.8775		-0.00620728		1.32996		-1.08521		-0.840004		1.83599		2.18521		0.493558		-1.19178		-1.14874		0.640149		-2.08838		-0.976147		-1.0864		-0.0629393		-1.88714		-0.728259		0.896195		0.46729		1.99859		0.948969		2.12206		-2.86083		0.218099		-0.581422		0.199823		1.63275		-1.50543		-0.17981		-0.00774533		0.919033		-0.45721		0.90978		-1.73594		-0.385048		-0.0273146		-0.00768747		-0.971871		-0.231885		-0.982889		0.158922		1.04126		0.317053		-1.79359		0.97458		0.684161		-0.608897		-0.449944		-1.80919		0.469		-1.0895		0.265781		1.08265		-1.1604		0.224739		-0.64299		-0.349405		-0.790337		-0.316983		-2.49783		0.45538		1.05854		-1.6431		-1.01366		0.113931		1.12249		-0.53641		-1.09063		-0.0805817		1.56351		-0.100219		1.14819		-0.690337		-0.337786		0.865342		-0.0416071		-1.5135		-0.280739		1.69816		-1.88209		-0.9498		1.00891		-0.649729		-1.51387		-1.4594		-0.177922		0.652502		-0.468364		0.867462		0.0603345		1.58077		0.312571		0.0239772		-0.0242886		-1.58598		-1.96345		-0.700907		-0.841586		-0.981049		-0.765749		-0.276702		-0.0401371		0.220933		1.20524		0.693634		0.545728		0.625728		-0.531444		0.498997		1.06321		2.10739		-1.90902		0.26485		0.00309423		-0.662613		-0.657565		0.679337		-2.14512		-0.494312		0.133673		-0.443089		0.952737		-0.0708345		0.909424		-0.267432		0.141857		0.622057		-0.939532		-0.713264		-1.02952		-1.87141		-0.717014		-0.752903		0.0950808		-0.778442		-0.841044		-2.11696		-0.30819		-0.349919		-1.04508		1.1666		0.682425		-1.76941		-1.70185		-0.817094		-0.728598		-0.987123		-0.244849		0.280536		1.70673		0.673289		0.272178		-0.411878		-0.675589		-0.992387		0.737807		-1.24774		0.866267		-0.00312062		2.25138		0.716233		0.175721		-0.146405		0.0331656		0.586517		0.103438		-1.61109		-0.00367687		-0.15099		1.05137		-0.210696		0.132201		-0.0587337		-0.00125228		-0.216267		1.46151		1.75129		1.49229		-1.73128		0.369621		0.0358538		-1.08768		0.917342		-1.30899		-1.28142		1.60211		-1.0865		1.42106		0.809022		-1.58997		-0.241091		2.05806		-0.539369		-2.12224		-1.46504		-2.55957		-0.241591		-0.0885954		0.469412		-0.636264		-2.03999		1.17549		0.97651		0.331437		1.84832		-0.78989		-0.517504		-0.400698		0.0181199		0.459155		-0.886621		-0.593054		-1.54523		-1.63183		-1.11749		-0.953343		-0.0218789		0.285616		-0.538657		1.25433		0.2894		1.59741		-0.655967		0.738271		1.37278		0.341112		1.26878		-1.25563		1.672		-0.502701		0.899714		-1.2849		0.197149		1.1012		-1.24556		-0.0959738		-0.277507		-0.791193		-2.22457		-0.325734		-1.74848		0.287148		-0.739496		1.65898		0.308744		1.04037		1.19187		-0.325508		-8.3356e-05		1.54102		-0.751212		-1.58528		0.159037		-0.393129		-0.315923		0.758039		0.138896		1.32857		-0.965727		1.2293		-0.794187		0.590591		-0.0669513		-0.880297		-3.33847		0.13806		-1.12999		0.539869		-1.79616		0.795104		0.912391		1.39169		-0.561573		-0.265186		-0.0522747		-0.409049		1.92526		-0.542978		0.750409		0.420207		-0.501396		1.53752		1.22081		-0.549471		-0.679663		-1.10076		-1.38102		-0.268282		1.61051		-1.42003		-0.765881		0.599274		1.59161		-0.542918		-0.282971		0.877746		-0.863198		-1.31621		0.249815		1.05732		0.796851		-0.596018		0.196939		-1.54103		0.339629		-0.0702198		0.703732		-0.716173		0.199653		1.7578		-0.882688		-0.236231		-0.346126		-0.00321029		-0.705463		-1.12318		0.727602		0.970689		-0.186982		-0.479238		0.740672		-1.31772		-0.717299		0.212783		0.0752198		0.176114		-0.903973		0.195849		-0.379582		0.0540483		2.25397		-0.810374		1.13654		-0.264535		-2.3374		0.924373		-0.286786		0.95339		-0.160263		0.185417		-0.12668		-2.05231		1.75928		0.291346		0.863975		-0.33555		0.466427		-1.26068		-0.37618		0.871618		-1.01233		-1.13363		-0.895073		-0.0884157		-0.817487		-2.53103		1.88826		-0.640807		0.291157		0.213508		0.715752		-0.248823		-1.53892		0.675458		2.14486		1.89551		0.974126		1.37968		-2.06779		1.32776		-0.554922		1.0174		-0.741062		1.29143		-0.536541		-0.897725		0.438504		0.261544		-0.68298		0.574725		1.04638		1.36356		0.524755		0.03614		-1.38449		1.01709		1.70511		-2.12597		0.767229		1.97661		1.15786		0.222152		-2.5875		0.932251		0.876855		-0.410395		-0.570078		-1.25771		-0.25756		-2.26468		-0.600474		0.14664		-0.539745		2.16696		-0.584728		-1.39373		-0.120322		0.906158		0.469697		-0.493515		0.168283		-1.50577		0.253686		0.952408		1.78536		0.571362		-0.532289		1.26563		-0.990953		0.333937		1.29886		-0.672451		-0.795826		0.914839		-0.631345		-1.07463		0.855174		-0.32352		-2.54961		-0.367981		1.26923		-1.17482		-0.659968		1.14685		0.726565		-1.78628		0.263288		0.435839		1.86868		-0.696092		0.673998		-0.720952		-0.760254		-0.366671		1.32018		-0.826207		1.00988		-2.18816		-1.52081		2.04927		-0.641973		-0.616242		0.652271		0.149584		1.68684		-0.0874857		1.55981		1.39089		-0.333248		0		
-0.942081		0.612305		-0.324717		-0.820781		0.663802		-0.403883		0.141903		0.608698		-0.186		1.09876		-0.897366		1.06851		0.716934		0.603843		-0.925679		0.59643		-0.374601		-0.349832		0.516818		0.259		1.07263		-0.184067		-0.348444		-0.0999591		0.885542		-0.284412		-0.429732		-1.25159		0.221393		-0.901375		-0.12332		0.342811		-1.93504		-1.47018		0.458542		-1.83089		-2.6008		0.36128		-1.09595		0.863074		-0.853571		-0.187438		0.905357		0.952188		0.00974452		-0.823584		-0.241014		-0.883849		-0.101686		0.150277		-1.78034		-0.215643		-0.275985		-0.355411		0.247536		1.46039		0.69331		1.14442		0.684391		3.39941		2.04514		-0.263251		1.36993		-0.125093		-1.03795		-1.51649		0.407236		1.90725		2.29877		-0.831706		-2.80653		-0.0811013		-0.663398		-0.114602		-0.316938		-0.304748		-1.06118		0.124754		1.38399		0.0311473		0.0279413		1.46045		1.34795		-0.718142		1.36433		-0.755631		1.98429		0.0630688		1.97481		-0.737998		0.969213		-1.17865		1.215		0.447524		0.432728		0.13761		0.536092		0.745127		0.409471		1.09287		2.53246		0.258745		0.837554		1.22143		0.331912		-0.506338		-0.924221		-0.497138		-1.63752		1.969		0.161733		-1.32178		-0.868972		0.184073		0.115056		-0.712656		-0.195583		1.67123		-0.411796		-1.41978		0.568819		1.35272		-1.61185		0.530642		-0.179437		2.0011		0.638934		0.454758		-0.0272146		-0.647345		1.03712		-0.874294		-0.186978		-0.765279		-0.338429		-0.208065		-0.420818		0.729786		2.21838		0.386415		0.534783		0.101121		-1.46165		-1.69271		1.0574		0.354455		1.01281		0.117299		0.289351		-0.589041		0.0881022		-0.367432		1.18189		-0.372385		-1.38562		0.520173		-1.1123		0.0892408		0.414354		0.0680342		-0.418868		-0.261495		0.154017		0.383893		0.277985		-0.390429		0.0327133		-1.14738		1.38869		0.0647		-1.27797		-0.107856		-0.00398668		1.1774		-0.217506		-0.386678		1.48085		-0.501777		-1.28171		0.140608		0.102257		-0.94881		-0.943038		0.793795		-1.16371		0.0488737		0.288201		0.900644		-0.417396		-0.448089		-0.238989		2.09353		-0.446418		-0.979159		-0.468949		-0.464393		0.717268		-0.205265		0.103151		0.213843		2.10479		0.469196		-0.364237		0.523655		-2.76032		-0.218901		0.0448455		-0.741944		-0.215535		-1.02235		1.68231		-0.721939		3.00328		-0.202475		0.754756		-0.335922		-0.297606		-0.697343		-1.43604		-2.8001		1.72397		0.453628		-1.54462		0.134643		1.11957		-0.052177		-0.143178		0.552992		-1.54767		0.656682		-0.597837		-0.208364		0.127171		0.296752		1.01551		-0.226161		-1.11777		0.217656		-1.46915		-0.398773		-1.33358		-0.955986		1.29648		-0.4375		-0.0111816		-1.99516		1.04741		1.38138		0.0423376		1.05039		2.32204		-0.572463		0.649691		-1.37933		-1.1409		-0.35175		0.211762		-0.646591		0.0580879		1.38728		0.862088		0.979306		-0.221987		-1.10139		0.675152		2.35127		0.92303		-0.742319		0.555165		-0.238702		0.508759		-0.892597		1.32099		0.651368		-0.406696		0.416776		-0.580793		0.515044		-0.564514		-0.846358		-0.391092		0.903445		0.738023		1.44075		-0.645472		0.169532		0.624722		-0.0213235		0.0765414		0.592821		0.695983		1.07378		-1.57448		-0.432623		-0.835442		-1.42391		-0.18069		-0.915767		-0.400696		-2.1624		0.629124		0.281663		1.67028		1.03891		0.133894		1.17632		-0.446798		1.23092		0.768307		0.208352		-0.447062		0.36248		0.767688		-0.680305		-0.183872		1.18592		-0.000453373		-0.318054		-0.0870843		4.14493		-0.166491		1.4481		-0.344649		0.180597		-0.835839		-0.577368		0.629559		0.581842		0.689238		1.26459		-0.804576		0.647376		0.631334		1.5474		0.488794		-0.585664		-0.0822477		-1.65828		-0.515853		-0.332141		-1.01136		-0.824458		0.469235		0.387276		0.452199		0.666838		-0.339579		2.37692		-0.980042		-0.677788		1.62359		-0.76638		0.191225		-0.288727		-1.10296		0.0728764		-0.279936		-1.21097		-0.436571		0.685961		-0.463683		-0.244108		-0.411409		1.10227		-0.359477		0.714408		0.13048		0.583616		0.8052		0.589959		1.45567		0.694085		0.430539		-0.0520851		0.0634167		-0.346066		-0.653859		0.0430791		0.425733		-1.074		1.01213		0.558289		-1.22523		-2.16136		-0.12866		0.369139		1.14493		-0.561702		-0.610398		0.538628		0.166726		0.679433		-0.787391		-0.599558		2.06821		-1.43668		2.01735		-0.952229		0.732828		-2.33332		-0.751383		-0.986791		-0.0297239		1.25884		0.814696		-2.48853		2.66989		0.358228		2.00247		0.132504		-0.841797		-1.07416		1.56579		-0.316012		-0.990287		-0.752678		-0.0940111		0.742905		1.55896		1.09243		0.0128466		-0.0179508		-0.880399		1.0686		1.18588		-0.739795		0.217027		0.394397		-0.312999		-0.295279		1.11652		0.336002		-0.255151		0.552343		0.467931		0.492663		-1.12403		-0.250001		-1.7589		0.062124		0.0378379		-0.488146		0.694174		-0.174381		0.0313445		0.712609		-1.2537		-0.606797		1.34541		-0.373502		-0.0264262		-0.63172		-1.02361		0.025671		-1.18455		-0.929374		-0.382672		0.787597		-0.117458		-0.621356		0.415686		0.452517		-0.0318489		-1.07709		0.376993		-1.41736		1.19966		-0.697537		0.573018		-1.76417		0.151213		-1.28525		0.46981		0.296339		0.453012		1.57073		-0.542083		0.537576		2.12725		0.862822		-1.26007		-0.125614		1.30091		-1.98522		-0.637404		0.476086		1.01272		-2.01329		2.43939		0.621974		1.38647		-0.791059		0.579793		1.40397		0.22559		-0.259516		-1.48221		-0.408148		-0.956879		1.37622		0.144857		-1.65402		1.54077		0.683064		-1.14118		0.431403		-1.84037		-0.429819		0.575847		-0.37175		0.838662		-1.33963		-0.364919		-0.553962		1.68752		-1.26321		-0.97828		-0.858479		1.11556		0.71584		-0.655145		1.2799		0.61718		-1.74479		-0.625767		1.84016		0.0943305		-0.627535		0.332314		0.00524922		-1.10206		0.541067		-0.0417824		1.8989		-1.83666		-1.59101		0.92659		-1.41652		-0.0929529		-1.22607		-2.25523		0.373743		-1.094		0.025446		0.133149		0.677664		0.0933852		0.354502		-2.23592		0.0945811		0.742319		-0.940042		-1.2081		-1.28892		-0.28749		0.626556		0.793915		0.701203		1.91889		0.642256		0.46223		-1.27855		1.75318		-0.5724		1.34096		0.850996		0.149048		0.208353		-1.71882		1.96636		-0.584683		-0.21695		0.69897		0.791253		-1.46657		-1.41524		-1.16737		-1.05495		0.42399		-0.881848		-0.432523		-1.18018		2.11223		1.02083		1.09293		-0.485603		0.259938		0.630617		-0.122879		0.919675		1.55787		-0.614556		-0.432964		-0.47081		-0.0844424		0.142785		-0.0359793		-0.0701477		-1.3223		1.07353		-0.419004		-0.420651		0.611434		-1.85437		-2.638		0.58413		0.0516457		2.19675		0.585717		-0.0993944		1.2354		0.0262241		1.8038		1.02988		-1.39049		0.787785		-0.0441944		-1.07252		-1.21469		0.261479		-1.11434		-0.57811		-0.805634		2.14428		0.187851		1.26239		-0.248767		0.784883		-0.116221		-0.0309485		0.719125		-1.43072		-0.296593		1.86417		-0.324241		0.81292		0.233398		2.0113		-1.17545		-1.76863		-1.15462		-0.0810183		-1.19294		0.570569		0.0734141		0.480338		1.71168		0.145856		-0.0626132		0.915313		0.912571		-1.0727		0.278117		0.0767873		0.134102		-1.28604		0.392556		-0.183594		1.58661		-2.70403		-0.957748		-1.50858		-1.2161		0.800661		0.812675		-0.173078		-0.0306069		0.132004		0.275625		-1.10244		0.195332		0.781603		0.413807		-1.05296		-0.577752		0.3075		0.477888		0.0865335		-0.988248		-0.830403		-0.0796064		0.0188344		0.713691		1.16169		0.124367		-1.34343		0.713664		-1.95997		-1.43759		0.105905		1.33636		-0.412067		0.691697		-0.458152		0.0153246		0.820587		1.60377		0.240115		-0.239191		-0.386695		-1.10082		-1.34191		0.330291		-1.72903		-1.09525		0.406553		-0.164035		-1.1625		0.37085		0.160306		-1.807		1.53385		0.847299		1.42518		-1.9598		0.348219		0.65469		-0.853595		-0.157608		-0.416211		-1.15908		0.705238		-1.61128		-0.378901		-0.419322		0.268293		-0.108905		-0.334387		-0.44571		0.793966		-0.561083		0.661319		0.242219		0.036093		-0.156149		-0.703981		-0.0450624		0.0842696		-1.70352		-0.485988		-1.73184		0.362131		0.307271		-0.0198828		-0.642038		0.458182		-0.905808		1.09128		-0.352682		-0.944143		1.92321		0.647583		-0.0546813		-0.811501		-0.582209		-1.24519		0.949862		-1.24637		0.6896		0.959734		0.244999		-0.00651179		1.57082		-0.281509		1.40795		0.691223		1.04194		1.13859		-1.31686		1.11704		0.393639		-0.355967		-0.0247764		0.111019		-0.790762		0.454105		0.306989		0.643968		0.639996		0.294296		0.281346		1.98507		-0.0915781		-0.0108967		0		
-0.980002		-1.21855		0.536677		-2.0963		0.339316		-0.623221		-1.41735		0.707476		-1.20727		-0.463195		0.960439		-1.34637		1.85329		0.231169		-0.382246		-0.598374		-1.01533		1.88074		0.300234		0.126999		-2.10399		0.487965		0.444374		-1.11482		0.983293		0.524304		1.13428		0.409639		-0.289097		-0.0364309		1.45759		-0.360363		-2.11206		-0.327247		0.386593		-1.07342		1.35477		0.689908		-1.55682		0.180499		-1.74093		-0.758715		0.765098		-1.5997		-0.90275		0.270703		1.17669		0.716563		0.0976638		-1.08494		-0.506467		-0.826835		-1.06532		1.93153		-0.263939		0.824905		-0.64998		0.68261		0.751089		1.63821		-0.592067		0.0565959		-0.129184		0.54752		-0.324166		0.154843		0.640065		1.94573		0.551242		-0.29211		-1.90653		0.0604064		-1.08386		0.520121		-0.223649		-0.986082		-0.314908		1.01182		0.0632091		-0.988432		1.29753		0.148487		0.444416		-0.898107		-0.623906		1.21829		-1.69525		-0.614239		-0.247023		-0.804366		1.83225		0.0313534		-0.617845		-1.34434		-2.09037		-1.31136		-1.22412		0.277275		0.334637		-0.109704		0.802138		0.801188		2.05011		-0.11		1.80743		-1.61953		-0.351127		1.15224		-1.01043		-0.0975093		-1.25004		-0.658081		0.616779		-1.2699		-0.453229		1.14683		-2.18056		-0.202284		-1.23926		-1.2165		0.054776		-0.494395		-0.0693929		1.68403		0.867079		0.664551		-2.96069		-0.656461		2.49941		0.317917		-0.225414		-0.379895		0.470889		0.336012		1.8239		0.764989		0.294258		-1.7944		1.1621		-1.4495		0.953089		0.826849		0.210969		0.203583		0.993868		-1.79565		1.02178		1.5486		-0.999388		0.777186		-0.256904		0.151424		2.61479		-0.841414		-1.38782		-0.865695		1.29344		-1.55504		-1.80878		0.628003		0.674311		0.436662		-0.261372		-0.378759		-0.239186		-0.948718		-0.592682		0.0639841		1.99028		-2.22642		1.16183		-0.773923		-0.60262		0.653409		-0.13816		1.07396		0.0148782		-0.580071		0.0335021		0.548357		0.169801		0.178192		1.23153		0.440597		1.34333		0.885727		-0.165746		-1.43461		-0.932048		-0.181394		-0.242963		-0.403388		0.570154		0.268823		0.497448		0.300425		-1.03212		0.946124		-0.0197276		-0.69583		1.72725		-1.83164		0.283888		-0.418297		-1.2738		-0.488882		0.961613		-0.515593		0.232127		1.07919		-1.05737		2.24518		-0.287452		1.33473		1.02		1.78065		-0.698785		0.748058		-0.193546		0.638699		-1.39241		-1.03375		0.0334872		0.577305		-0.37242		-0.394099		-1.11833		-2.63251		0.181645		1.19558		-0.424847		2.03887		-0.326567		0.450126		0.664464		0.101484		-0.954236		-1.95468		-1.46807		0.146018		-0.0218559		1.20344		0.152611		-0.478306		-0.469843		-0.274218		-0.185701		1.11278		1.9459		-0.818		0.253901		-0.519773		0.107729		-0.92212		2.4811		-0.290972		0.388378		0.219309		0.968874		0.970098		0.614787		-2.5567		2.79749		1.14879		0.0659724		0.55877		-0.528361		-1.10741		-1.18036		0.0165471		-0.0230018		0.870766		1.16485		-0.668902		-1.11051		-2.27046		-1.10839		2.06419		0.237594		-0.163059		-0.491111		-0.961173		0.996724		0.160566		1.04603		2.09061		-1.35812		0.96478		1.10781		0.0986757		0.115429		-0.892522		-1.26993		0.968865		-0.812511		-0.379447		-0.33089		0.0609201		-0.468855		-1.43932		1.07504		-1.44247		-0.893572		1.60168		-1.58541		0.813337		0.584719		-0.107422		0.262745		-1.17243		-0.744063		1.98737		0.131736		0.910073		1.59913		-0.390336		-0.365329		0.0512208		-0.30236		-0.622106		-1.35721		-1.48614		0.46746		-0.965638		0.797405		0.268636		0.642445		-0.222626		-0.422205		0.41174		-0.109975		-1.10257		-0.0255479		0.492833		1.49323		-0.409965		-0.105529		0.353166		-0.631274		-1.35822		2.04076		-0.0212128		1.42279		0.0490437		0.0719267		0.890695		0.568127		-0.99588		-1.06192		0.506246		0.194984		0.894748		-0.349692		-0.222055		0.71071		-0.451237		-0.574118		1.50357		-0.911513		0.968202		1.121		-2.17914		-0.261598		-0.0847409		-0.898655		0.0454389		-0.551665		0.537744		-1.02517		-1.2127		-1.89231		-1.06928		0.239635		0.116991		-0.0105347		-1.64855		-0.786124		-0.706483		0.268727		-0.665644		-0.944811		0.696444		0.623491		-0.725558		-0.281906		1.10303		-0.645689		1.5318		0.499154		0.928588		-0.416372		1.02714		-0.382234		-0.710112		0.615457		-2.13891		1.53092		0.453911		0.619077		1.43379		-1.30147		0.0359744		-0.112058		-0.657187		-1.34271		-0.577785		-1.46344		0.32341		0.302501		-0.48837		-0.709219		-1.79067		-0.446292		-0.0233642		1.44549		0.875444		1.68833		0.653423		-0.226929		0.122446		-0.348717		1.19229		-0.128522		0.382537		0.263528		1.45525		1.45682		0.208981		0.0850856		0.121816		0.513133		-0.411167		-0.0992767		0.797494		0.780502		-0.748872		0.56263		-1.51289		-0.457016		-1.13714		0.0391684		0.635066		-1.22586		0.698035		-1.01738		0.761482		-0.15778		-0.112376		-0.623598		-1.3074		-0.514141		-2.35061		0.071536		-0.0688003		2.09967		-0.304148		0.335431		-0.506089		1.58347		-0.61322		-0.0912893		1.64783		0.2392		-0.243868		-0.604245		0.685905		-0.544608		0.0464734		-0.288454		-1.80122		-0.320885		-1.28739		-0.255192		-0.0288211		0.474372		1.03901		-0.74427		-0.734413		-0.566473		-1.33385		1.12755		1.3849		0.113902		-0.409384		-1.06666		0.392654		-1.33767		-1.07444		-0.0428314		-0.376031		0.490247		-1.50208		-1.56985		-0.677306		0.848782		-0.911945		0.540116		-0.105643		0.514568		-0.590781		0.442688		0.281298		-0.290589		0.935921		-0.75745		-0.464169		-1.46223		-0.0043508		-0.453878		0.434377		0.702874		0.447087		1.37879		-0.667834		0.25947		-0.726123		0.816139		0.283921		-0.018976		-1.18605		0.441408		-2.30394		1.00009		-0.433436		-0.353268		0.725236		-1.23403		1.1218		1.14786		0.782455		1.55295		-0.962865		1.13885		0.604489		-1.10681		-0.872836		1.1496		-0.940132		0.359083		-0.106503		-0.754664		0.458892		1.30872		0.704187		1.25748		-0.0275504		0.623044		-0.609641		-1.8407		-0.353985		0.419593		0.5815		1.57472		0.321424		0.342207		0.313711		-0.33332		0.962144		-1.90722		1.57693		1.51183		0.563701		1.48541		0.426506		-0.240512		0.701976		1.41842		0.0350642		0.79849		0.188316		-1.19387		-0.119654		1.67055		0.752763		-0.315432		-0.294319		0.385186		-1.22841		1.6609		0.12051		-0.479013		0.359555		-0.995267		0.988379		1.70488		-0.287301		1.16696		-0.370398		1.58228		1.53335		0.159914		-1.07516		-0.777482		-1.88691		-0.153182		0.856699		0.149792		1.34942		0.47395		-1.01781		-0.896855		0.700493		-0.376908		0.761181		2.04105		1.07131		0.0561401		-0.61		0.55866		0.319812		0.144458		-0.656814		1.90422		2.03761		-1.3113		-0.498447		-0.0864291		-0.727875		0.528313		-0.421763		0.789845		-0.673532		-0.324005		-1.14128		-0.564115		0.77672		2.02791		0.0228027		-0.440721		0.972487		-0.111853		0.222501		-0.217715		-2.142		0.0481793		-0.132352		1.88187		0.545814		0.224258		-0.484587		0.0973646		-0.929147		-2.6187		-0.0283776		0.187434		2.46269		1.79949		0.203776		0.755937		-1.2057		-0.854585		0.472834		-0.308271		-0.725917		0.54956		0.154474		0.00770104		-0.764532		0.224439		-0.816978		0.171099		0.361052		-0.755126		-0.413312		-0.0464274		-0.534983		-0.298384		-0.278706		-0.64205		-0.337178		0.0225023		-1.0476		-0.69148		-2.05202		1.57195		-1.9436		0.348782		-0.77701		-0.909917		-0.435581		-1.80181		0.13998		-0.302546		-0.503888		0.405257		-0.499429		-0.373896		1.24857		-0.33636		0.533506		-0.773774		0.825651		-0.50317		-0.415398		1.80289		0.336229		0.332884		-0.424562		-0.438137		0.690619		1.16093		-1.43772		0.729759		-2.20776		-1.23941		-0.841207		-1.71502		0.982903		-0.562691		-1.99698		-0.279679		0.44582		0.982999		-0.243062		0.638917		-0.0484467		-0.153807		1.05643		-0.184972		-0.730838		-0.134035		-0.648164		1.12862		2.22605		0.504492		1.26965		-0.165208		-0.477697		-0.688695		1.00711		0.444259		-0.46811		-1.03896		-0.0743312		-0.173899		0.805327		-2.63751		0.814858		-1.2845		1.29751		0.847495		-0.375203		-0.215675		1.19748		-0.371605		0.887751		-0.0209138		-0.466839		1.2582		0.336016		0.615659		-0.526226		-0.412878		1.15101		-0.356646		1.14913		2.38118		0.0520166		0.41282		-0.524933		0.37013		-1.21024		0.0758974		-0.0645302		-0.022069		-1.58372		-0.0792466		-1.17511		1.69965		0.256352		0.684124		-0.705957		-0.262371		-0.0781641		-0.314937		0.684065		-0.032134		1.64089		0.461279		0.719974		0.127729		-0.186687		-1.40041		-0.396191		0		
1.66342		-1.34421		1.11195		0.184665		-0.69563		-0.32961		-0.283494		0.0735652		-1.06024		-0.461023		1.47712		-0.797884		-0.588525		0.606994		-0.315243		-0.963136		-0.936406		3.20461		0.0750242		-0.383969		0.836401		0.913169		-0.132975		-0.465238		-0.245965		-0.410367		0.421194		-1.17073		0.677314		1.24199		-0.57017		2.45986		-0.692695		-0.00644527		-0.600559		0.328994		0.845814		1.31312		0.702552		-0.985503		-0.494038		-0.573713		-0.566668		-1.06508		0.193368		-0.319163		2.519		1.66286		0.1507		0.465741		0.843825		-0.644118		-1.75874		0.493663		0.158232		1.4282		1.44475		0.5315		-0.367704		2.33154		-0.18136		0.619352		0.868471		-0.520777		-0.0329075		-1.57621		0.44845		1.4474		0.300528		0.547733		0.116576		-0.837426		-1.00426		-0.531686		-1.20106		0.848855		0.970709		0.618653		0.474101		-0.393459		-0.551622		0.71934		0.0661278		-0.350683		-0.901996		0.129844		0.588165		-0.052344		-0.452413		0.480963		0.593977		0.478486		0.548396		0.585832		0.803751		0.291007		1.20187		0.737017		0.0994668		0.648018		-1.1139		1.48001		-2.98574		0.197203		-0.667244		-1.05908		-0.903266		0.559441		1.40527		0.598782		1.66578		-0.0611073		-0.87304		-0.246902		0.021249		1.71127		0.812198		-1.95856		-1.09854		0.108345		0.206125		-1.79808		-1.07623		-0.810535		-1.16893		1.15793		-1.01834		1.34734		-0.85257		0.984349		0.738248		-1.10891		-0.389123		-0.618517		1.35988		-2.7381		-1.73418		0.551806		0.256305		0.27032		-1.17091		-1.48391		-0.552418		0.8032		-0.83465		0.174193		0.903063		-0.997514		1.51525		-0.759414		0.255592		-1.60073		-0.973868		0.850272		-0.403147		-1.16791		-0.028391		-2.51221		0.000788436		-0.166389		-1.26923		-0.25641		0.850109		-1.33027		-0.294675		0.190637		2.45336		1.24046		0.516783		-0.786739		-0.13168		0.862963		0.0605806		0.428712		1.38845		-0.14394		-1.16339		-0.64728		-0.116071		1.88		0.0128782		1.61495		0.697914		-0.18083		0.379699		1.13285		0.0739107		0.999326		0.835548		-0.510021		-0.533594		-0.515234		-0.514714		0.590704		-0.0943684		1.12108		-1.55759		-0.293133		0.204119		-0.527659		0.0147881		0.737851		0.502027		-0.447045		0.880553		-1.3085		-0.805982		-0.230614		-0.98486		-0.895918		0.587647		0.833955		1.07735		0.899626		1.27165		-1.16793		-0.548104		-0.354756		-2.02233		-1.84724		-1.7015		-0.518497		0.0157144		1.50776		-0.343443		0.266446		1.08545		-1.56182		-0.244137		-1.12601		0.525732		-0.203038		0.67669		-1.53698		-0.330086		-1.0372		0.264988		-0.914729		-1.39839		-1.23453		1.48205		0.229279		-1.18515		-0.382422		0.764537		0.140287		-0.927692		0.540894		-1.17096		-1.80265		0.484272		0.439699		0.0491422		1.29343		1.76117		0.148855		0.196996		0.7627		1.31354		0.624816		-1.94151		0.914441		-0.377332		0.0704661		0.679272		-0.108007		-0.38482		-1.25214		-1.2248		0.529752		-0.444444		1.0874		1.1736		-0.228644		-0.104226		-0.996333		-0.329237		0.896874		-0.169192		0.122889		0.426459		0.78867		-2.57153		1.25092		-0.978885		-0.73381		2.02218		-1.41577		0.85422		0.235909		-0.689408		0.695769		0.918237		1.16754		2.43786		-0.00584128		1.32359		-1.44296		-1.15459		-0.217721		-0.378881		1.45075		-0.648696		1.8796		0.644942		0.137886		0.766881		0.619249		-0.629174		-0.856093		0.916643		1.4925		-1.39126		-2.01148		-1.81426		-1.24159		1.71224		0.315784		-0.199881		-0.153594		-0.833237		1.4329		0.794857		-0.643428		-1.06155		-1.31995		0.109173		-1.08377		-0.577565		1.05658		1.19995		1.43906		-2.15153		-1.4449		0.330958		0.263386		-0.820676		-0.266905		0.877144		-1.29035		0.237448		-1.46503		0.145151		0.656919		0.238092		0.205156		0.802678		0.409121		1.62102		-0.200939		1.75617		0.277166		-0.0902759		0.220455		1.01863		-1.8831		-0.0456985		-0.0693991		0.962107		0.16911		0.954854		0.319626		-0.172193		1.62714		0.0138567		-0.24181		1.26776		-0.453284		-0.448819		0.247086		-0.595393		0.0904886		-0.576572		-0.62351		-0.0569919		-0.190024		1.80434		-0.606642		-0.103892		-0.280764		1.14114		0.783805		0.161261		-0.930002		0.795404		0.199015		-1.36788		0.733956		0.978029		0.889798		1.57484		0.0940986		0.546478		0.259997		-0.459454		-2.27075		-0.141956		0.00387491		2.08993		0.25458		0.00862874		0.760445		-0.366789		4.20712		-0.939045		0.443318		0.456197		0.607306		0.330311		1.47709		0.478766		0.16919		-0.475		0.928899		1.53407		0.0785204		-0.0730002		-0.343754		0.800054		0.457877		1.2557		0.219069		1.25193		-2.01324		1.21942		0.584768		0.619397		0.982299		1.0166		0.341151		0.152414		1.14544		-0.63184		-1.32754		-1.33754		-1.79206		-1.8553		-1.62757		2.01677		2.3986		0.224428		-0.771412		-0.225754		-0.946029		-0.0404467		-0.530284		0.219297		-0.277171		1.18781		1.13025		-0.817087		2.43262		1.71148		-0.764184		1.24013		-1.21411		0.410839		2.04882		0.0293103		0.188445		0.548269		-0.206675		1.10964		-0.562825		-0.9166		1.23288		0.262053		-1.67057		2.04286		-0.460883		1.80461		0.134013		-0.502837		-0.505767		0.138417		-0.396275		-0.577352		-0.725826		0.589146		1.84508		-0.754214		-0.389729		0.0687182		0.454356		0.424785		-1.07752		-2.06863		0.018115		2.01254		-0.544586		2.09213		-0.586667		0.458535		-0.273233		-1.88409		-1.09953		-0.536762		-0.340002		-1.61841		-1.21498		1.47859		0.839326		-0.516028		-0.124022		0.426079		-2.40341		1.7864		-0.620239		-0.941062		0.502843		-1.01776		-0.886312		0.428192		1.26676		0.0204637		-1.6174		-1.3516		-1.81741		0.203194		0.393435		1.14094		0.0945366		-0.818693		-0.745272		-0.870462		-0.273413		0.662078		-0.150475		-0.502959		1.2171		0.68526		-0.810062		1.85423		1.70371		-0.175043		-0.985279		0.00337677		-0.559904		-1.73491		-0.835962		-0.529015		-1.56644		0.234201		-0.200921		1.10294		0.340644		0.0137978		0.881343		-1.53835		-0.517008		-0.256504		0.565241		-0.0390965		-0.759625		0.271731		-0.662501		-0.927817		0.580593		0.383192		0.0274078		1.35355		-0.899645		-0.968078		-0.380048		0.0835538		0.0161134		0.231714		-1.04922		-0.488464		0.0833641		-0.893647		1.09376		-0.469916		-0.930959		0.468467		-0.0691026		0.892051		0.599511		1.59661		0.402666		-0.840457		0.188179		0.853554		-0.351363		-0.077827		0.265179		-0.612054		-0.29214		-0.182283		1.01986		-0.0446918		-0.0790362		0.584201		0.579911		0.015079		-0.468186		-0.740656		-0.211344		-0.493187		0.539296		0.0512881		-0.770152		0.133185		-0.241735		-1.38786		0.249406		-0.30386		0.153167		0.00432167		1.29792		-0.820058		-0.729736		-0.487158		-1.37781		0.327951		1.11497		-0.499749		1.15556		-0.762202		-0.550806		-1.29346		0.0311181		-1.35148		0.928694		-0.082441		1.80182		1.5296		-0.38251		0.19266		0.56412		1.7913		0.89742		-1.86722		0.804711		-1.23204		-0.245325		0.462473		0.76252		-0.81088		0.762009		-0.640943		-1.48742		-0.827257		0.722684		1.13698		0.0358615		-1.86889		0.919164		-0.163371		-0.775325		-0.855379		0.25544		0.230822		-1.01239		-0.115662		-0.445887		0.506192		-1.27083		1.36443		-0.0805449		-0.446408		-0.624841		-1.33705		-0.433468		-0.470554		-0.0757309		1.03254		0.489354		0.483414		1.31747		-1.57984		0.19378		-1.36056		0.832431		-1.35109		-0.0174561		-0.748177		0.247633		1.41021		0.97034		-1.38677		0.672864		-0.167422		-0.0250515		-0.044097		1.34284		-1.16876		0.473059		1.01872		-0.395781		0.505194		-0.680903		0.857539		-0.408545		0.960084		-0.0863799		-0.940037		1.25868		0.663862		-0.121118		0.00167878		0.901807		0.678989		1.58327		-0.673209		1.61935		0.560975		-0.0846564		-0.183671		1.30796		-1.12484		-2.71929		-0.0218057		0.184784		0.958375		-1.88483		0.295307		-0.100073		1.58126		0.253853		-0.15702		0.677666		1.40353		-1.62425		-0.201948		0.504313		-1.05217		-0.363503		0.821142		0.696149		0.957424		0.936186		0.507318		0.194373		0.00129621		-0.564662		-1.58601		-1.25046		1.10545		1.41072		0.705729		-0.95107		-0.328446		2.09173		-1.06539		0.228886		0.258614		-0.784523		0.446709		0.401993		-0.336015		-0.1831		-0.617957		0.100667		1.07448		0.299002		0.549019		0.840219		-1.29811		-0.296985		1.0218		1.50812		1.12545		-0.719229		1.98796		-1.42871		-0.958797		0.683779		0.186249		0.0900412		-1.35398		1.35212		-0.350702		-0.516568		1.15198		-1.17205		-0.268366		0.106732		-0.441529		-1.67429		-0.681564		-0.560678		-1.10315		1.05608		0		
2.18647		0.0258553		1.11385		-0.0496767		-0.419108		0.724611		0.626909		-0.734635		1.44657		-1.79136		2.23844		1.53557		-0.389311		0.745567		-0.7683		0.562401		-1.40386		-0.214645		1.1502		0.668013		-0.118404		-0.616624		-0.311322		0.343106		0.0845341		-1.07069		-0.512949		-0.584237		-1.39535		-0.85828		1.44708		-0.0448974		1.23306		1.28673		0.0133126		0.314034		0.401367		-0.919071		1.20499		0.536004		-0.334297		0.208113		-1.0056		0.947593		1.06435		1.2456		0.614651		-1.33883		2.65778		-1.77013		1.06651		0.669205		0.100846		1.13191		1.20249		1.63749		0.172505		0.113571		-0.324353		0.484503		-0.277792		0.368028		-0.858552		0.904481		-0.422966		0.940889		-0.901261		1.52651		0.0300931		-0.521542		1.44106		0.816584		-0.0747566		1.85892		-1.22694		0.613528		-0.883606		-1.05648		1.75515		0.169092		-1.47236		1.77187		0.976008		1.24742		-0.403341		-0.482112		-0.542367		0.757122		-0.661403		0.170613		-1.44325		-0.847127		-1.00299		0.217954		-0.327306		-1.48951		0.189929		0.0931257		-1.29394		1.36695		-1.10246		0.91841		-0.180909		0.116151		-0.991003		-0.393042		-0.915591		0.44105		0.23435		0.289936		0.459225		-0.390905		0.286311		1.72679		0.0764739		-0.0611794		0.642045		0.198252		-0.256886		0.537107		0.758085		-0.208454		0.239306		-1.66778		0.750376		-1.79631		-0.587078		-0.662151		1.41591		0.579555		-1.49257		-0.244477		-0.359992		-2.71257		0.329101		-1.95126		-0.406282		2.62945		0.835096		-1.26845		0.952103		-0.0704561		0.541991		0.159376		-1.79892		1.58796		-0.395409		-1.50549		-0.515707		-1.1764		1.34147		-1.45402		0.338457		0.0555097		-0.872523		-1.62568		-0.0196242		-1.09914		-2.00254		-1.70369		0.109147		-1.19724		0.639812		-0.220144		0.522714		0.472491		-0.372548		-0.385817		0.233066		0.748827		0.015043		-0.453825		-1.24419		0.727406		-0.242053		0.297902		0.560175		0.79581		1.36703		-1.09654		-1.27726		-0.306997		-0.852888		-2.08683		2.1795		-0.944248		0.120094		2.09341		-1.66602		0.257355		0.477631		-1.19358		1.84189		0.462225		-0.373953		-0.434842		0.294934		-0.865256		-1.3264		0.446849		-1.05008		-0.611772		-1.67548		-0.602905		-0.677994		-0.125638		-0.166378		-0.29903		0.182325		1.42933		-0.59779		1.35276		-1.34787		0.757553		1.55386		-1.42899		1.42506		1.08003		-1.23537		1.83795		0.135268		-0.662393		0.372403		-0.254867		1.90516		1.91093		0.845623		-0.702356		-0.556134		0.529919		-0.626977		0.256506		-1.4181		0.239977		-0.781484		-0.673452		-1.82407		-2.12076		-0.281491		0.304997		-1.81019		0.992463		0.137982		-0.988894		0.354695		0.722369		1.18816		-1.52295		0.879604		-0.613301		0.239962		0.0373109		-0.817322		-0.700902		-0.867725		0.379918		1.09266		0.153563		-0.852287		0.254597		1.70572		2.47062		-0.625928		0.12434		0.475159		0.666009		-1.81492		-0.0866243		-0.342907		2.21056		1.95375		-1.17074		-0.677051		-0.987711		0.330636		0.538604		-0.13432		-1.23479		-1.14008		0.174633		1.18449		0.322874		0.270757		0.468395		-0.943706		-1.67654		-1.37295		0.10308		0.956065		0.722764		-0.883665		-0.97837		0.227451		0.0636872		0.95882		-1.13729		0.742913		0.108059		-1.25674		-0.719467		-1.08969		-0.0149832		0.181095		0.958244		0.245475		1.30203		0.161533		-0.581564		-0.604177		0.719302		-0.911786		0.648587		-0.55571		-0.847389		-1.38086		-0.698464		0.181033		0.89819		-1.35572		-1.0547		-0.915147		-1.01196		-0.77401		-0.284383		-2.56468		-0.158857		0.207362		0.281465		-1.46608		-0.0983752		-0.782085		-1.28045		-0.175662		0.925708		-1.93902		-0.211448		-1.45223		0.685679		1.20973		-1.00002		0.5694		-0.14155		-1.09664		0.0991905		0.617252		1.30944		-0.54828		0.0318161		-0.158271		0.292945		-2.05234		1.61853		0.920943		-0.499199		-0.178676		0.541502		-0.328706		0.347915		0.156757		0.415848		0.403985		0.82589		-0.899437		-0.403407		-1.18297		-1.06189		0.73442		-1.01727		-0.61257		-0.0408681		0.499138		-1.08485		0.680127		-0.798627		-0.815492		0.852323		2.04983		0.0305468		-0.181832		-1.0681		-0.614997		0.194767		1.32785		1.80826		-1.68644		-0.756986		-0.475128		-0.552412		0.196902		-0.00934535		1.29208		0.0303911		0.224971		1.54872		1.02592		0.682462		0.404908		0.141291		-1.22302		0.877455		1.66813		-0.0904011		0.0409809		0.656483		2.31518		-0.660671		1.17985		-0.548427		-0.857235		-1.46078		-0.411395		0.971772		-0.475032		-0.183736		0.969383		0.999642		-1.99483		0.0778074		-0.0300249		1.54845		1.7034		0.598942		-0.214609		-0.928161		0.931261		1.35351		0.527367		2.29837		-0.0216371		-0.488798		-0.459757		0.428853		-1.17894		0.890525		-0.659618		0.670721		0.273885		-0.678454		0.7994		-0.692224		-0.322326		0.261247		0.330559		-0.469564		0.646088		0.207348		-1.87256		0.023524		-0.427187		0.167892		0.28189		0.028248		-0.349535		0.917493		-2.36187		-0.54673		-1.27373		-0.649012		-0.0544058		1.10252		1.48011		0.929943		1.46766		0.454781		0.938167		-0.169059		1.63636		0.742105		-1.175		1.84771		-0.102747		-0.77074		-0.311817		-3.42691		-0.418793		0.369886		-0.827397		1.05918		0.106041		-0.268012		-1.53514		-2.10595		0.694147		1.13428		-0.54081		1.36663		-1.37537		2.20177		0.109254		0.201205		0.474698		0.311052		-0.502433		-1.77257		0.989021		0.607744		-1.41783		-0.339933		-0.580378		-1.30725		0.642281		0.31896		-0.210541		1.58908		0.109081		0.11199		-0.105506		-0.396284		-0.10549		0.415487		-0.444787		-0.00194044		2.19801		0.137109		-1.56857		-1.46472		-1.82848		-0.0930782		-0.213106		1.98398		1.51302		-1.53367		0.116203		-0.0970591		0.588816		0.697703		1.75726		-0.267021		-0.778187		-0.146574		-0.393262		-1.09344		-1.51725		0.298732		-0.249403		1.34985		1.71327		0.229052		0.252981		-0.602351		0.589617		0.378648		1.13881		-0.803117		-1.13847		0.83526		1.04833		-0.906549		0.268025		-0.234017		-2.49425		-0.111573		-0.579438		-0.471189		-1.31972		0.0134417		-0.153745		1.45083		0.228192		-0.118047		-0.674379		-0.814995		-0.510957		-0.32595		-0.839074		0.503957		1.85948		0.315075		-0.756623		-0.206427		-1.09381		0.903418		-0.973804		0.184074		-0.212157		0.0383036		-1.36049		-1.38611		0.130478		-0.357547		0.595854		1.91495		0.733637		-0.772209		1.60627		-0.807659		-0.957178		0.0877932		0.890499		0.856638		1.1972		0.60483		1.20068		0.610752		-0.0226538		0.641717		0.353953		0.597641		-0.743544		0.697553		0.64681		-0.723018		0.126902		2.07613		0.795799		-0.948719		-0.815242		0.683525		0.0992482		0.496546		0.628533		-3.51882		1.60156		-0.380521		2.29584		-0.84722		1.26299		1.46749		0.553669		0.297818		0.0360453		1.20893		-0.195479		-0.796162		0.276448		1.633		1.30752		-0.448511		0.1973		-0.268183		0.250575		0.381349		0.910078		-0.186942		-1.22569		-0.142404		0.751007		-1.16574		-1.45817		-0.118202		-0.739737		0.365487		0.0496857		-0.425372		-0.273479		0.116837		-1.83052		0.0225581		-0.0653433		0.768396		-1.13841		0.496192		0.0362067		-0.657381		1.02132		1.04533		0.339684		-0.522326		-1.0219		0.546536		-0.664891		0.95482		-0.323692		-0.25454		0.604167		-0.234344		1.79791		0.0731666		-1.48513		-1.13572		2.18999		-0.00299003		1.87344		-0.411867		0.377533		1.37218		-0.0489645		0.154446		2.03205		-1.08381		0.354863		-0.293697		0.965539		0.150429		2.17507		1.21904		0.38804		-1.21098		-1.36055		-0.465502		-1.0669		1.19341		-0.495123		1.33907		0.846264		0.18101		0.790152		0.914579		0.0646342		1.22158		0.163067		-0.797074		0.282627		-0.179893		0.277893		1.76622		0.0541395		-0.254813		-0.887768		-0.479734		1.76999		0.0223415		0.224316		0.767427		-0.278331		-1.00702		-1.20296		1.28013		-2.6604		-0.313138		1.77583		0.183217		0.263641		1.25575		0.124346		0.244828		-0.464104		0.268233		-0.965238		1.48582		1.59586		-0.0844742		0.245015		-0.519888		-0.309609		0.662426		1.53477		1.10851		-0.721115		0.770519		0.909384		0.835003		-0.828498		-0.89627		-0.779197		-0.723216		-2.37076		0.593162		0.699536		-0.389823		0.197622		0.536184		-2.09353		-0.522312		1.14869		0.974127		0.000158103		0.683662		0.5015		1.10353		-1.30273		1.30605		0.363786		1.85432		-0.379206		-0.395185		0.919928		1.00136		0.919448		0.2206		0.111576		0.0434403		0.659421		0.579208		1.28189		0.253369		-0.396566		-0.0255312		-0.912878		0.642649		-1.90215		1.18974		-2.22367		-0.979923		0		
-0.289892		-0.878128		-1.15941		0.273355		-0.538852		0.471446		-0.325974		0.189851		0.615946		0.790274		-0.781011		-1.02399		0.280045		0.88386		-0.770341		0.0413249		0.242841		0.476207		-0.531989		-0.579794		-0.192495		-0.846244		-0.391549		0.838733		-0.854451		-0.238058		0.438682		-0.0558071		1.27332		1.84564		-0.701579		2.07096		1.27982		0.819455		0.636389		-0.549351		-0.138791		-0.597778		1.7559		1.09756		-1.76361		-0.637152		-0.74209		0.228818		-0.181767		1.16093		-0.351863		0.951073		0.286477		0.0994731		1.31077		1.49125		-1.7213		0.650624		-3.16908		-1.2561		-0.149671		-0.399306		-0.441046		-0.0463922		-0.724067		2.84094		0.466905		-0.356417		-0.7187		0.832994		1.23751		-0.243753		-2.06277		0.140268		-1.22453		0.565306		0.988724		-0.489026		-1.1256		-0.655462		-2.37893		0.218823		0.411837		-0.403382		-1.82697		-0.0819629		-1.64708		-0.12096		0.383602		-0.173529		-0.494161		-2.43318		0.473484		-0.228125		1.25584		-0.177865		-0.440483		1.37903		-0.696834		1.25826		-1.1732		0.556623		-0.425034		0.890909		-0.409993		1.01497		-0.301912		0.38319		-0.78244		0.285154		1.64014		1.77537		-0.984548		1.15293		1.09345		-0.732955		-0.25435		0.756636		0.131523		-0.459606		-1.84411		-1.07904		2.06121		-1.20331		-1.20155		-1.88107		-0.213133		-0.995562		-0.299504		-0.0187631		-0.68997		0.673525		-0.458287		0.970722		0.174801		-0.25933		0.935541		-0.0455252		-0.742845		1.02266		2.45767		0.587066		-1.70938		0.448827		-0.641752		1.26546		0.287345		1.04076		-0.00872175		-0.0032371		-0.833514		-0.48492		0.478714		0.678164		-0.38102		0.913693		-1.64949		-0.972883		0.241895		1.82515		0.737325		1.31408		0.656608		1.40325		0.0116428		0.276904		0.259384		-0.252672		-0.347916		0.642945		-0.00457631		0.0975259		3.58805		0.454982		2.19307		1.18948		-0.236713		0.121775		-2.078		1.0133		-0.640877		-0.43664		-1.2254		0.649257		-1.28013		0.792166		0.0633388		0.103753		1.81561		-1.16819		-0.181264		-1.1995		0.363709		0.654633		1.19019		-0.172739		-1.63439		-1.48026		-0.904107		-0.273584		0.0409878		0.0264191		-0.118122		-0.201939		1.10205		-0.560203		0.960163		1.99667		0.484752		-1.0848		-0.0302571		-0.0641308		-0.0534639		0.064164		0.401671		-0.212123		0.0316042		-0.169803		0.32443		1.30576		-0.671876		-2.02555		-0.174142		-0.409001		-0.519683		1.20285		1.07146		-0.307702		-0.734675		-0.215961		-0.504513		1.02457		-2.0032		-0.411228		-0.990137		-1.02414		0.465343		-1.06205		1.02798		-0.356683		-0.573643		-0.126049		-0.627609		-0.403551		-1.3743		-2.06432		0.443392		0.159395		2.78674		0.478014		-0.741801		1.49546		0.523335		0.753064		-0.395112		0.583843		-0.408865		-0.631393		-1.28783		1.38823		-0.424281		-1.39373		0.175001		1.12902		0.679712		-0.332893		-1.33456		0.242168		0.312811		-0.287553		1.60297		0.811295		0.324785		1.59739		-1.51444		0.583869		-0.379154		0.389657		0.763509		1.18609		1.09566		0.703271		1.69188		-0.59903		1.30647		0.0441608		0.140494		2.22563		-1.85564		0.249547		1.4138		-0.0924456		0.808898		-0.750934		0.276588		1.17139		2.1612		-0.129358		0.881644		0.459824		-0.950547		-0.517911		0.622924		-2.28429		-0.61106		1.83337		-1.87591		-1.41448		0.00144573		1.32134		0.441646		1.41471		-2.61833		-0.122591		0.232028		-0.222063		0.298907		0.422561		-0.949962		-0.725356		-1.28475		-0.351426		-0.608535		0.484523		-0.394594		-1.18165		0.149309		0.306637		0.0881751		0.678273		0.494413		0.361345		1.06781		-1.13552		2.73192		-0.07409		0.423506		1.77745		-0.787229		-1.99138		-1.16325		-0.807092		1.79791		1.25543		-0.899743		-0.854659		-1.48802		-1.03238		-0.328634		1.1738		-0.419376		1.44596		-0.469021		-0.42621		-0.533619		1.23009		-0.199984		1.43379		0.467709		-0.948785		-0.079687		0.905726		-0.638827		-0.413		-0.675682		-0.899752		-1.16688		1.7592		-1.68665		-0.395198		0.977739		0.471609		0.64641		0.363086		0.481857		0.189582		0.117679		-0.17982		-0.177109		-1.23865		0.396341		-1.33391		-1.18626		1.38367		0.400355		0.515225		-0.988526		0.470253		1.38404		1.06054		-0.990337		0.218621		0.469371		1.39913		-0.761679		0.321045		-1.05763		1.6618		0.714882		-0.22918		0.381218		0.440092		1.61431		-0.39723		1.12308		-0.517003		-1.53413		-1.37188		0.169148		-0.257758		-0.642869		-0.798376		1.34069		0.284233		-0.0901678		0.211262		0.776279		-0.757009		0.787945		-0.649733		-0.503192		-0.936219		-0.0771481		0.0406309		0.969921		-0.638093		0.00843507		-0.568043		0.0332802		-0.346795		0.843234		-1.28431		2.16929		-0.0790236		-0.116052		-0.199393		2.42473		-0.123491		1.47806		-0.832423		-1.08374		-0.635917		1.65901		0.0703519		1.33503		0.938765		0.0469635		-0.92654		0.564755		0.755429		0.631432		0.797287		-0.585159		0.254586		-2.07098		1.58232		-0.012342		-0.322053		-0.194213		-0.365569		2.07166		0.987313		-1.01303		-0.983796		-0.609205		-0.860997		0.839727		1.35226		0.434924		0.258707		-1.8283		1.22368		0.90204		-0.696219		-1.72971		-0.640275		-1.3026		-1.18279		-1.45401		-0.484795		0.202557		-1.15912		0.128084		-0.870303		-0.792043		1.17156		-1.42652		-0.96162		0.391404		0.882511		0.247559		0.00192784		-0.38891		0.62657		1.99543		0.291422		-0.333418		-1.21991		1.00305		-1.03705		-0.284757		1.52232		0.223339		-1.17509		-0.61651		-1.43557		0.268346		-1.8407		0.231909		-0.802688		0.933943		0.189143		1.18031		0.68018		1.04374		0.992343		0.825645		0.741785		-0.386416		-0.142864		0.35298		-1.82455		-0.0693479		0.512501		-0.369469		0.174877		1.69285		2.08216		0.649254		-1.3709		0.665025		-1.20373		-0.159459		0.776335		-0.176588		-0.125287		-0.0353303		1.40196		-0.223238		-0.616764		0.525562		1.13562		-0.457937		0.97048		-0.805917		-0.941515		-1.87459		0.512356		-0.229872		-2.20346		-0.711611		-0.560411		-0.893206		-0.262013		-0.704276		-0.391882		0.0088032		0.318821		-1.03196		-0.208558		-1.72175		-1.68834		-0.98512		0.0111411		-0.492185		-1.25672		0.0546395		0.486163		-0.00836016		0.896042		0.316581		0.237406		0.321169		-0.241743		-0.164242		1.89655		0.0868207		-1.11778		0.333375		-1.61458		0.331677		-0.617414		-0.380064		1.03757		0.0974355		2.95849		0.775517		-1.03891		0.256029		-1.36147		1.64926		-0.484545		-0.104778		-1.60131		0.3155		-0.569553		0.602634		0.601747		0.458165		-0.575014		0.574451		0.0336594		0.0761711		1.05702		0.815287		-0.298124		-0.990849		-0.0737901		0.645328		-0.546064		-0.892188		-1.01288		-0.132371		-0.289303		-0.0523179		-0.119082		1.82553		0.356554		-0.788366		-0.829431		-0.994156		1.97377		0.762145		0.552678		-0.104376		1.39812		0.464237		2.01539		-0.60462		1.53248		-1.19945		0.205598		0.0420738		-0.439085		-0.713676		1.58685		-1.61519		2.22177		-0.330874		0.651132		-1.05956		-0.128473		1.07872		-0.162023		-0.871353		-0.916553		1.01389		-0.158699		-1.06272		-0.410601		0.596437		0.730907		0.891416		-0.555318		0.916981		0.854394		-0.902383		-0.833605		0.524471		-1.16174		1.09006		-0.988177		-1.15406		-2.73001		1.56725		0.350997		0.759915		0.154043		0.612683		0.858129		0.318369		1.17009		0.517285		0.516495		1.24356		0.314727		-0.252746		-0.497026		0.832821		-0.198941		-1.09349		1.62865		1.37179		0.714962		-0.929646		1.20956		1.40238		1.76991		0.74591		1.00944		-0.0397754		-1.12245		0.0323147		-0.164701		0.0469669		-0.138157		0.320487		-0.807803		-0.451373		-1.74212		-2.41117		-1.45972		-0.970618		0.87279		-0.050083		1.2857		-1.73974		-0.551791		-1.2346		0.319641		1.20442		-1.01925		-0.869178		0.0253778		-0.26431		-0.0568212		1.08208		-0.609065		-0.510279		-0.817542		2.07226		0.561769		0.132243		0.670467		0.929725		-0.179195		-1.9911		0.919124		0.0811026		0.185532		0.903112		-1.39567		1.51141		-0.488463		-0.0367922		-1.02886		1.03543		-0.386216		-0.302075		-0.310009		-1.76329		-1.93864		0.0315628		-1.33465		-0.444106		-0.718899		-0.524882		-0.52174		0.187079		-0.332456		1.44807		-1.26027		-0.0247324		-0.041993		-1.21156		-0.854156		-0.362783		-1.30718		-1.67589		-0.13735		1.04968		1.43031		-0.494989		0.398155		-1.98698		-0.185687		-0.318343		-1.20829		-1.15785		0.317803		1.37139		-0.428195		0.721348		-0.574001		0.659825		0.352071		0.540496		1.53287		-0.717265		0.857396		-0.664385		0.0600193		-1.68101		0.0322741		0.947625		0.337364		1.2046		0.455677		0		
1.39346		1.81458		-0.777953		-0.604127		-0.230338		-0.387995		-0.709774		-0.522928		0.0125078		0.896274		1.28207		-0.574118		-0.487428		-1.69549		0.340206		-0.881368		1.33528		0.166003		-1.03463		-1.28066		-0.797252		-0.0743198		-0.686751		0.675365		1.10054		1.47824		0.131351		-0.823249		0.431533		0.676382		-1.54033		-0.570889		-0.314193		0.81076		-0.581907		1.46095		2.16142		-0.816242		0.0883425		-0.0543092		0.116075		-0.26161		0.698435		0.0861015		-0.974259		0.296003		-1.1687		1.21238		-0.692482		0.082568		0.867465		-0.239509		-0.643362		0.594996		0.412688		0.838214		0.440381		-1.86294		0.796154		0.150717		-0.706526		-0.142292		-0.502507		-0.45765		-0.104677		-0.911436		1.20243		0.494897		-0.172914		0.804069		-1.22004		-0.232748		-0.894072		0.262688		-0.567497		0.892379		-2.15452		-1.01469		-1.04853		0.535054		0.493657		0.789917		-1.16803		-0.277214		-1.77508		1.39398		-0.35345		0.226004		0.836948		0.302093		0.0920978		0.83356		-1.56664		-0.223381		2.89476		-0.282282		-0.831354		-0.353827		-0.736724		1.17911		-1.34622		-0.54189		0.414474		-0.366684		-0.647941		0.510202		0.882451		0.735875		1.09779		1.01497		0.157962		1.71194		-0.4998		-0.194538		-0.178496		-1.71558		0.425516		-0.391192		0.300209		0.943106		0.451846		-0.370233		0.143256		-1.66539		0.31788		0.744072		0.591493		0.650154		1.37503		0.0535445		0.363677		-0.85639		-0.0649241		-0.40708		-2.05243		1.62461		0.937265		1.0558		0.176353		0.342211		-1.29982		1.50357		-1.32041		-0.175455		-2.05544		0.579174		2.05361		-1.01096		-0.700789		-1.33685		0.20114		0.116234		-0.283507		-0.504967		-0.383477		0.102469		0.439353		0.711115		-1.64243		0.0147389		-0.173902		0.768062		-1.17111		-1.64094		0.640758		0.729061		-0.336051		0.200196		-0.520787		-0.678059		0.918518		1.14707		-0.495587		1.97682		-1.37254		-0.743994		1.43798		-0.777479		0.30005		0.62928		-0.681106		-0.176311		0.554685		-0.670404		-1.71488		0.551234		0.956695		-0.0778765		-0.77492		-0.372523		-1.22931		0.294961		-0.923618		-0.0385176		-0.503541		-1.06508		-0.321597		0.770699		-0.576311		0.313869		0.305375		-0.433084		1.54971		0.492847		-1.052		-0.269749		1.06491		-0.0434888		0.324688		0.379649		-0.866575		2.85709		0.859454		-0.10884		-0.129221		0.50234		-0.511868		0.733167		-0.947826		-0.355501		-0.215784		-0.726436		1.34573		-0.120697		0.376362		0.18562		0.405934		1.04863		0.899138		0.891556		0.816748		-0.782934		0.226062		0.520178		1.79997		-2.52575		0.873613		-0.45406		-0.295884		1.12531		-0.395047		0.184357		1.38718		0.0184886		1.78689		0.863695		0.656841		-1.9909		-2.5458		0.874569		-1.07123		-1.63926		-1.84116		-0.124532		0.328312		-1.06857		1.48138		-0.755469		-0.636142		0.746652		-0.249994		-0.755532		-0.295615		0.533456		-0.824729		1.10085		0.21649		0.0951196		0.0392195		1.02467		-0.82294		-0.565347		-1.73989		-0.297356		0.601917		-0.929818		-0.458509		0.0397963		1.35665		-0.48965		0.291177		1.75966		2.24058		1.17237		-1.15233		-1.01843		-1.13009		-0.197115		-0.675787		-0.322053		2.13447		-0.331182		-2.20088		1.82644		0.214954		-0.540739		1.12249		-2.27817		-1.40582		-0.112079		0.12087		0.452111		0.503281		0.458911		-0.709809		0.0506881		1.73486		0.0262671		1.91086		0.908741		-1.0866		1.91384		-0.670983		-1.55791		0.0533887		-0.0393393		-1.56238		0.415031		-1.59226		-0.0706449		-0.229833		-2.33895		0.322222		0.473156		1.53482		0.419886		0.267854		-0.963518		-0.0706103		0.189413		-0.461763		0.242924		0.297526		0.264921		-0.98587		0.914553		-1.25943		0.972395		0.121796		-0.501951		1.53388		-0.764352		2.54502		1.30679		0.434515		0.0730458		0.379002		-0.311636		1.02433		0.600047		-1.34525		-0.0959921		0.624967		0.438203		0.847098		0.123437		-0.199498		-0.78503		1.22255		0.921105		-0.524773		0.681478		0.0740047		-1.18243		-1.01658		-1.08954		-0.00500162		0.752386		0.568721		-0.68135		-2.30637		-2.91023		0.4939		-1.21651		0.506817		0.335798		0.597574		0.495226		-2.39281		-0.751567		-0.0126696		0.895355		0.765134		0.180444		0.12562		0.243563		-1.25119		0.205801		-0.62495		-1.27359		0.752309		0.676848		0.361371		0.713391		-0.445106		1.21408		2.14448		-0.528537		-0.337052		2.12544		-0.226379		0.731107		-2.18456		0.296625		1.07221		-0.675295		-1.12381		-0.768612		0.259486		-0.995795		0.138973		0.400568		-0.502041		-0.491736		-1.66288		-1.44963		-1.32742		0.165208		-0.717158		0.371115		1.01934		3.00137		-0.25782		-1.29721		-0.668949		-0.317344		0.126499		1.73104		-0.43184		0.953191		-0.649997		0.046018		-0.167451		0.889481		0.682597		0.50806		-0.726039		0.0501504		-0.228374		-0.155256		1.05242		1.98253		0.512214		-1.23229		-0.236731		0.276631		0.384393		0.582587		-0.0156152		1.26662		0.0695474		0.161657		1.6354		-0.342211		-0.307992		1.72343		1.79586		0.595903		-1.71249		-2.37672		-0.137731		0.293668		1.39574		-0.083429		-0.304102		0.620341		0.193927		-0.381897		-0.104596		-0.329331		-0.075893		-0.987858		0.663412		0.978045		-0.306063		-0.200717		-0.740474		1.81532		-1.24043		-0.00449006		0.654307		0.555229		-0.311956		1.50025		0.720293		0.278005		0.697146		-0.192507		-1.44785		0.836683		0.717807		-0.523268		-0.185786		-2.46185		0.0129599		-0.250087		0.233399		1.94114		0.363118		-1.3785		0.23661		-1.27255		1.00901		1.03723		-0.93517		-1.28063		-0.0389227		-1.31443		-2.05043		1.20997		0.679588		-1.02458		-0.0322006		1.28521		-0.537131		0.0778634		2.17988		1.27163		0.475606		-0.290716		0.131049		0.302489		0.419355		0.183221		1.05883		1.25372		0.723535		-0.517111		1.07717		-1.15858		2.1534		0.410863		-0.708204		-0.921297		-0.113885		-0.634215		-0.113827		-0.957009		-0.345578		0.816846		1.04101		-0.0299678		0.857853		0.798927		0.214148		-0.669355		0.975552		-2.9165		0.0812715		-1.78569		-0.663872		0.96505		0.563996		-2.67505		-1.07075		-1.31304		0.683969		-1.9108		0.128765		0.637419		-0.933606		0.447452		-1.84106		0.170433		2.83474		-0.0198097		-0.521552		2.11881		0.385069		0.771888		-0.944361		0.0834925		-0.121391		-0.46039		-1.11996		0.0738535		0.751085		1.44991		-1.20068		-1.26948		0.207241		0.219173		2.19971		1.18127		-1.22682		-0.944878		0.257349		2.58052		-1.39293		1.11992		2.27871		0.364281		-0.971582		-1.24625		0.644734		0.284849		0.302314		-1.04537		0.207295		1.06149		-0.0275287		0.781901		0.342422		-0.0605337		0.104749		-0.784761		-0.479543		1.59155		0.566576		-0.214002		-0.850813		0.928762		0.679035		0.11966		1.35604		-0.414913		-0.752488		-0.202309		0.553731		-0.996121		-0.130654		0.0987471		0.0146194		-1.12078		-0.0931427		-0.936019		1.4227		-0.172513		0.612702		-0.410707		0.139862		-0.0775878		0.626783		-0.255184		-0.762031		0.565943		-0.0107567		-0.281216		2.04842		-0.630581		-0.931213		0.010037		-1.12007		1.75311		-0.782987		0.178864		-1.08046		-0.249564		0.74572		-0.320711		0.717673		0.0432984		-1.5546		0.187721		0.518245		-0.236266		1.26228		2.11142		-0.274272		1.28438		-0.465052		0.987943		0.147635		0.288549		-1.69887		0.828601		0.39797		1.07834		1.854		-0.146528		-0.517503		-0.492276		-0.852681		0.145818		0.871194		0.147635		-0.699858		0.507738		0.406503		-1.80658		0.174402		0.230854		-0.774633		-0.85039		0.504996		-0.906579		0.983115		1.11305		-0.216107		-0.611538		0.173691		0.598126		0.476494		-0.316298		0.0277685		-0.526904		-0.996188		0.515487		-0.41586		-0.0140122		1.80572		0.208949		-0.264684		1.76772		-0.26315		1.77193		-1.49305		0.551809		-0.96256		0.228733		-1.30177		0.476925		1.27511		-0.914844		-0.603536		-0.0847506		1.57749		0.210883		-0.216502		0.991414		1.61368		-0.645748		-1.09553		-1.43037		-0.00258874		0.641325		-1.17365		-1.15876		1.26211		0.246083		0.822226		-1.23206		-0.893104		-1.27615		-3.69357		-0.352417		0.23252		2.06726		2.11085		-0.430738		0.372434		-1.68442		-1.12039		2.05884		-0.182678		0.152198		-1.30464		1.38013		-0.433958		-0.783781		1.03097		-0.919479		0.205165		-0.14722		0.419663		0.124794		-0.208943		0.607689		-1.70829		-0.267786		-1.05833		-0.615303		-1.07165		-0.132709		1.2217		0.684977		0.726412		2.62018		0.910403		1.52139		0.0674854		1.23874		0.576018		-0.66001		-1.23449		0.419727		-0.315334		-0.0515294		-0.0844737		0.147756		1.91855		-1.59277		-1.43704		0.546542		0		
0.58454		2.07279		-2.13638		-1.25122		-0.266998		1.30379		-0.874316		-0.0950912		0.106764		-1.48858		-0.804169		1.62099		0.252331		-0.373739		0.777668		0.15113		-0.159813		1.76591		-0.0343096		-1.433		-0.708682		-0.125496		-0.67001		0.555527		0.774647		0.877431		1.00073		0.777244		-1.22069		1.34129		-0.00513833		-0.244273		1.05759		-0.187812		1.01683		0.372279		-0.259712		2.03428		-0.520839		-1.54018		-0.884046		0.224741		1.272		0.737739		0.48305		1.16202		-1.52249		-0.190331		0.506752		-1.16728		-2.54142		0.217682		0.856769		0.339141		-0.926019		0.0958477		-0.540713		0.174358		0.0418707		-0.958033		-0.572517		0.963008		1.53341		0.742909		0.0972457		-0.781222		-1.32101		-1.18614		0.521116		-0.569224		-0.415122		-1.42075		-1.2722		-0.582103		0.78622		-0.243365		-1.00541		0.0517591		0.958948		-1.46598		0.32176		0.105246		0.724529		0.751249		0.00130433		0.0508396		0.889072		-1.49472		0.0673354		-0.690092		-0.987539		-0.344949		-0.372446		-0.566364		0.753404		1.15631		0.302941		0.514643		-0.209578		0.514326		0.24542		-0.976741		0.840339		0.0883936		-1.52794		1.04702		0.790778		-1.59547		-0.370056		1.29358		-0.579546		-0.122194		0.319948		0.858655		0.14345		3.02729		1.09554		1.27547		-0.605744		-0.654098		-0.395753		0.0445024		0.237244		-0.484824		-1.35319		-0.801003		1.32036		-1.6055		0.750899		-0.844485		-1.87539		0.391085		0.626214		-1.5464		1.29189		-0.634023		-1.27542		0.182157		0.17419		-1.01706		1.11411		-1.49953		0.123009		-0.0989023		-0.0170021		-0.278041		0.9797		0.983943		-1.05027		0.135112		-0.176719		-0.401704		-0.951929		0.0641528		1.76178		-0.854717		0.651742		1.47001		0.870391		1.55221		0.748513		-1.33809		0.347983		0.796744		0.992991		-0.508356		-0.118348		0.981535		-0.94503		0.344493		-0.846983		-0.5044		0.506308		-0.109281		0.537589		-0.249951		0.327489		0.109565		1.16224		0.947098		-1.06577		0.992945		-0.788292		0.992408		-0.169658		0.141191		0.99937		1.08426		0.185449		1.39568		0.335211		0.758761		1.37631		-0.760108		0.358778		-0.145089		0.385798		1.71062		-0.534671		-2.31003		-0.720378		-2.65083		-1.31198		0.83984		0.897564		1.56586		0.237627		-0.970289		2.41466		1.1641		1.01043		-0.446869		-0.633761		-2.15643		0.187935		-0.609563		-1.05965		-1.0356		-0.70092		0.926116		0.500017		-1.17333		-0.435218		-0.494114		2.21959		0.663392		1.02074		0.429446		-0.585852		0.282786		0.629799		0.528583		-1.59714		0.321739		-0.300357		0.27839		-1.33181		-1.58159		-1.17727		-0.955587		-1.2547		-0.0784114		0.0402182		1.42665		1.34636		0.244237		0.550916		0.536599		0.281078		-0.133717		-0.682596		-1.34171		0.943366		-1.27121		-0.702738		0.849888		-0.47467		0.304833		1.04672		0.18738		1.37378		-1.12834		-1.2292		-0.32709		0.709005		0.0458385		0.416378		0.293378		1.27856		0.445402		0.950636		-0.170483		0.53895		-1.20729		0.248702		-1.63802		-2.00553		0.273471		1.95672		-0.00536575		-0.215802		-0.412148		-0.891785		-0.153165		-0.0440572		-0.441861		-0.644632		0.873413		-1.29728		-0.381281		0.473594		-1.35015		-0.15003		0.043953		-0.413429		1.07614		0.675178		0.335546		-1.30406		-1.97771		-1.01346		0.0184204		0.165731		0.752264		0.471949		-0.384436		0.256609		-0.265846		0.681965		-0.582382		1.81723		0.992245		0.0830625		-0.0329589		-0.74324		1.71192		-0.745842		0.985848		-0.803257		-0.202359		0.631071		-1.06709		0.584818		-1.35626		-0.734801		-1.37994		-0.200827		-1.59002		0.604474		-0.18604		0.769602		0.119305		0.769121		-1.41604		-0.99805		0.771388		-0.499725		1.10776		-0.0507257		-1.97307		-1.04242		0.726257		0.841589		0.573382		-1.30438		0.0872358		1.59221		0.944665		1.43654		-0.892987		-0.352252		0.144153		-0.3819		-0.478393		-1.27016		-0.0694642		-0.0848116		1.11602		0.28248		-0.97109		0.556611		0.65305		1.12912		1.09989		0.72963		0.991439		0.387814		-1.38174		0.894476		0.199034		-0.0668796		0.585499		-0.250012		0.78796		-0.0587722		0.677837		0.206704		-0.469222		-0.0322085		0.344339		1.12843		-0.870333		-0.381916		0.133503		0.677854		-0.0847904		-0.0982874		-0.155903		-1.62836		-1.97909		-0.387181		0.610711		0.808475		1.82345		1.29247		-1.38931		-0.722131		2.04509		2.36195		0.286175		0.322697		-0.82522		-1.32337		0.353505		-0.313242		-0.0766348		-0.206395		-0.810915		-0.623948		0.619922		0.0646478		0.0734927		-0.393978		-0.630225		1.41066		0.253688		0.44955		-1.1813		1.12778		0.139472		-1.86984		-1.78552		0.850683		-2.78147		-1.12806		-0.397344		-2.3159		0.81174		-0.824255		-0.594656		0.639063		-0.40982		-1.62817		-1.17787		-0.185576		0.642241		0.393211		0.334903		-1.08773		-1.10202		0.0943741		2.25989		0.248818		-0.710771		0.759324		-1.01698		1.73739		0.186385		-0.643602		-0.0968623		-0.833085		-0.108226		0.266408		-0.165295		-2.16506		-0.240222		-0.797217		0.0182147		-0.28533		0.617387		-0.170648		-0.223427		0.649723		-0.928824		0.427105		-0.495119		0.340694		-0.84373		-0.831726		-0.847774		-0.513565		-0.949185		-0.372506		-0.620406		1.64318		1.00107		-1.04754		0.535843		0.605609		0.204391		0.313854		-0.324062		2.85184		0.506262		1.25416		-0.127331		-0.886097		-1.24131		-0.941051		1.27054		-0.681223		0.476805		-1.38947		1.48113		0.774872		-0.688358		0.0124888		-0.12594		0.627738		-0.414305		2.08972		-0.292242		-0.163649		0.0844104		0.911101		-0.315302		1.12393		-1.94812		1.51747		1.56546		1.31555		-1.06401		-0.0751399		-0.813557		-0.44708		3.7256		-0.37076		0.125511		-0.384036		0.967329		-0.182941		-1.21275		0.829055		-0.183957		-0.963998		0.314506		1.13285		0.550464		-1.14873		-1.573		-1.07176		1.5572		-0.407422		0.210249		0.541577		-0.0223042		-0.345577		-1.46199		0.581375		0.255779		-0.146295		-0.533763		0.456839		0.596666		0.591775		-0.946465		-0.569754		-0.459707		-0.0458906		0.173209		0.403169		-0.136228		-1.08445		0.143597		0.237371		1.14891		-0.54279		-1.19948		2.97544		1.01995		-1.23813		-1.59646		2.06066		0.749704		0.915568		-0.18026		-0.393645		-0.242828		1.96237		0.473392		-2.15608		-0.860001		1.09773		-0.00931192		1.01373		1.63514		0.244508		-1.14169		1.07688		-0.788086		1.76238		-0.283602		-0.0261886		1.7371		0.148051		2.15918		-0.231803		0.740964		-0.597622		1.74825		-2.12637		0.0324046		-0.716071		-2.05782		-0.845909		0.356204		-0.382722		-0.0772261		-0.571275		0.0950194		-0.178706		-0.922325		1.76746		-1.34983		0.674483		0.320053		0.709927		-0.295551		-0.0613032		-0.875438		-0.224573		0.90026		-1.1163		-0.660045		1.17885		-0.0162248		0.172657		0.431727		1.77828		-0.920917		-0.17864		-0.568922		-0.739663		0.843106		1.25437		-0.0851908		1.49776		1.99033		0.725541		1.82738		-1.22693		-1.63999		-0.279148		-0.401126		-0.634971		0.0629432		-0.462923		2.41108		-0.565702		-0.0698602		-0.421544		-0.833129		-1.43908		-0.928836		-3.60158		0.0605311		-0.73029		0.572478		0.73059		-0.365263		1.12683		-0.918663		-0.571541		-0.136482		-1.93969		1.53932		-0.972032		0.391464		-1.29737		-0.352021		1.76919		-0.686293		-1.1167		-0.180491		-0.78079		1.35474		-0.0732359		-1.51879		1.07804		0.962888		0.696293		2.10009		0.702263		0.820547		1.12989		-0.206506		-0.0838071		-0.275383		0.281198		0.103532		-0.763747		-0.910424		0.709408		-0.842694		-0.401352		0.604948		-0.166449		0.656696		-2.65105		-1.02048		1.67608		1.15414		0.162517		0.789032		-0.702874		-0.990435		0.354413		-0.608259		-0.187801		-1.90992		-0.500517		0.514384		1.17812		1.11821		0.830253		2.988		-0.619761		-0.49833		-0.427518		1.28851		-0.103001		-1.16013		-0.703518		-0.809651		0.912014		-0.261741		0.230792		-1.12668		0.582904		-0.364245		0.235642		-0.451915		1.11623		0.869128		-0.0886053		0.567418		0.189145		0.879051		0.242237		1.25187		-0.223898		1.86008		-0.477028		-1.30684		0.172804		1.1297		0.658332		-1.22786		-0.628288		-0.228445		-2.50304		-0.773064		0.321712		0.108841		1.53826		0.736926		0.0280167		0.367515		0.639295		1.14587		-0.690869		0.440503		-1.36999		0.60809		-2.11139		0.0795301		-0.361763		-0.239834		1.20711		-1.44132		-1.04289		0.489668		-1.43115		1.05706		1.3908		0.521827		1.29421		-0.528036		0.272934		-0.229748		-0.622507		-0.683168		0.820334		0.355787		-2.76671		1.74932		0.441541		-0.641288		-1.17479		0.466963		0.125274		-0.824787		-0.718216		-0.839984		0		
2.14718		-0.794197		-1.55484		-1.39576		-0.52457		-1.30687		0.0274211		0.647449		-0.270545		-0.865479		0.634411		0.208819		-0.638578		-1.40295		-0.351712		1.32636		0.667439		-0.517125		-1.96477		2.3452		-2.37384		0.992435		0.375202		1.01124		-1.4881		0.0780094		-0.491466		0.15127		-1.18061		-0.900743		-0.229557		0.223549		1.05262		0.242937		0.916447		-0.134535		0.412059		1.14678		-0.41992		0.475901		0.770252		-0.438836		1.57294		0.159384		-0.443904		-1.10529		0.90217		-0.177465		-0.511567		-0.303765		-0.379486		0.16408		0.193804		1.4424		0.107177		0.910736		-0.011588		-0.738713		-0.730825		-0.407949		-0.417253		-1.11989		1.06062		1.11274		0.63119		0.409247		-0.202897		-0.228467		0.518996		-0.52154		-0.579205		-0.437124		-0.323477		-0.392003		1.59249		-1.71422		1.72114		0.286666		-0.907702		-1.50502		-1.1441		1.17859		0.654793		-2.15727		-0.985663		-0.590798		-0.802325		0.959472		0.207682		0.396356		-0.0943447		-1.60397		-1.95969		-1.17859		2.12297		0.0571715		-0.726436		-0.40262		-0.528016		-0.809804		0.780882		1.29357		0.840985		-1.39806		0.0145145		-1.16899		0.0765154		-0.776332		-1.07125		-0.68938		-1.36464		-1.54478		-0.207525		0.169059		-0.392187		0.903101		0.41339		-0.477399		0.119008		-0.786776		-0.0604162		1.00174		-0.409341		0.401011		0.62518		-0.322468		2.12552		1.03698		0.190763		1.88373		1.98082		0.952806		0.240306		-0.0481076		0.0153062		1.69871		-3.29387		-0.250471		-1.48662		0.973201		0.707735		-1.11688		-0.250042		0.651097		0.984226		0.908143		-0.00561802		-0.21071		0.5938		-1.28632		-0.230915		-1.0788		1.48027		-1.56913		2.21641		0.467886		0.441565		-0.0939362		0.536096		0.49136		-0.463585		-0.724654		-0.426852		-0.351886		-1.11029		0.530207		1.01367		-2.40144		0.607938		-1.55935		0.232598		1.15291		-1.85607		-0.640153		0.287668		0.492844		0.460179		0.847848		-0.432506		1.35299		0.622265		-0.263834		1.20412		1.11968		1.00312		-0.511361		-1.21139		-2.01139		-1.15652		-0.934791		-0.292525		1.11621		1.38621		-1.1097		2.05367		0.644969		-1.48943		-0.532941		-1.93951		1.7913		-0.0566656		-1.33215		-0.791295		0.568875		-0.64346		0.304172		0.321395		-0.844937		-1.25625		0.588197		-0.679078		0.329715		-1.08527		-1.49216		-0.313062		-3.01041		-0.203549		0.885277		0.475809		-0.357796		0.556669		0.485933		0.846246		-0.547425		-0.430695		-0.681027		-0.75062		-1.08554		-0.652279		-0.135239		0.4327		0.601861		0.101156		1.82521		-0.627596		-1.12122		-0.270613		-1.82828		-1.14926		-1.69618		0.229054		-0.50948		2.54702		-0.373938		0.66132		0.930046		-0.974438		-0.609804		-2.14155		-0.208683		-0.32692		-0.777391		-1.85333		0.145514		-0.393571		0.235892		-0.340093		-1.12985		0.644408		0.177908		-0.176475		1.07282		1.15541		1.08056		1.69075		-1.26259		-0.243731		-0.996486		-1.38573		2.13094		1.44489		0.310701		-1.34374		0.200081		0.416603		0.441778		-1.11133		1.21262		-0.0503094		0.493919		-0.413239		-0.60129		1.21088		-1.15816		-0.0215178		-1.47602		-0.966256		-1.32503		1.17286		1.43519		1.94429		0.160034		-0.820309		-0.337842		-0.737226		-0.387087		-0.307689		0.563077		1.61489		-1.25164		0.163881		0.916703		1.94674		-0.125083		-1.28265		1.28356		0.357421		-0.338492		0.118026		-0.145336		-0.104937		-2.14161		0.687548		0.255656		1.47246		-2.05775		0.618161		-0.212176		1.06167		1.53643		-2.16899		-0.955666		-0.877447		-1.89336		0.877015		-1.67978		-0.327795		-0.283312		-1.32587		-0.107688		0.667456		0.0550177		0.894474		0.275368		0.175177		-1.08123		-0.928592		-0.50283		-0.498886		0.435931		0.595651		1.5457		-0.253341		0.516129		1.60015		1.87046		0.287272		0.340721		-1.41887		0.0258651		-0.0105564		-1.61149		-0.614075		0.302267		-0.890776		-0.73621		-0.392611		0.462396		0.0938488		-1.29128		0.360939		-0.109451		-1.22433		-0.638184		-1.8695		-0.148531		0.832096		-0.400406		-0.371709		0.825041		0.969713		0.371		1.11198		-1.82094		-0.301493		0.781079		0.752934		0.035721		0.579118		-0.213379		-0.838269		1.09255		0.247648		-0.354274		0.172122		-0.87613		0.71816		0.371362		-0.259448		0.443325		-0.0326649		0.242047		-0.138371		-0.549255		0.0856781		-0.71137		-1.11545		-1.6972		2.74179		1.19948		3.61946		0.310906		-1.4414		-0.569133		-1.61275		-0.375247		0.186158		0.809111		1.66456		-1.20672		-1.37954		0.171997		-0.485693		-0.789477		0.521432		-1.24446		0.776451		-1.32849		-0.870803		-0.514691		-1.23453		0.259957		-0.0633268		-0.49014		-1.86668		0.524138		-0.961915		-3.11118		1.20382		1.01967		-0.0441898		-1.08934		-0.191783		0.23856		-1.56873		0.160933		-0.615846		1.5932		-0.746815		0.258833		0.893638		-0.93008		-1.60313		0.747316		0.46929		0.13352		-1.20633		-1.70956		0.756829		-1.30131		1.80511		0.20742		-0.852923		0.28719		-0.871958		-0.777765		-0.620387		-0.14468		-0.202755		0.201154		0.0356083		0.281789		-0.287804		-0.71522		-0.0672318		0.63316		0.632457		0.154336		-2.05693		1.03991		2.11354		0.609239		0.100934		-0.627607		-0.19387		0.671317		-0.242155		1.26672		0.578727		0.11866		-0.336015		1.92654		0.595583		0.166897		0.403513		0.329011		1.43425		0.754143		0.20835		0.534446		-1.72294		-0.160729		-0.170213		-0.192671		1.26217		-0.309996		0.353314		2.47057		1.60456		-0.680317		0.0582061		1.79634		1.25121		0.0472168		0.0909756		-0.799676		-1.27388		0.575319		1.03972		0.117533		-0.942308		-0.606642		-0.736699		-0.564586		1.23546		-0.028366		-0.121549		-0.782055		1.59492		0.295765		-1.30014		1.09044		-0.504457		0.0283971		-0.962119		-0.339343		-0.318226		-0.00389154		1.11321		0.509915		0.162335		0.801655		1.39355		-2.35809		0.326244		-0.975718		1.33439		-1.25007		0.469078		-0.302606		-1.51937		-0.543565		0.354497		-0.362419		1.71883		-0.679391		-0.304388		1.66705		-0.530473		-1.83214		-2.70234		0.157195		-1.44625		0.331712		-1.38381		-1.52041		0.160689		2.48794		2.07707		0.120221		-1.93268		0.84001		-0.785224		0.107533		-0.918106		0.911668		0.375809		0.346633		0.766945		-0.829876		-0.786553		0.246484		-0.266285		-0.18806		-0.0817518		0.777547		-0.980875		-0.861623		-0.0689221		-0.248384		-0.190287		0.887481		0.910613		-1.82081		0.386777		-0.449289		0.600653		-0.535462		-2.15896		0.141532		0.344563		-0.593258		0.120444		1.10737		-2.19565		0.282411		0.787008		0.442087		-0.938412		0.704208		0.486369		0.896169		1.62552		-0.373968		-0.203376		-0.00652741		-0.0884331		0.121037		0.913516		-0.599558		1.08183		-0.76942		-0.98141		1.88148		0.543116		-1.175		-1.30185		-1.87978		1.11459		0.176798		1.19587		-0.833405		0.476339		0.00167308		-0.762618		-0.174549		1.32758		0.947751		0.561913		-0.476292		0.530859		0.134974		-1.44283		-1.96881		-1.04264		-1.39045		-0.532748		-0.763894		-1.3716		-0.17489		1.52964		-0.742861		-0.336071		-1.31826		0.0151129		0.0377587		-1.05935		0.239913		0.642451		0.0373947		-2.06034		0.810557		0.536424		-0.215564		-0.530966		0.263163		1.19697		0.797724		-1.34834		-1.31582		-0.216808		1.12887		-0.456895		-0.382798		-1.39766		0.352952		-0.871278		1.9653		0.0984581		-0.806994		-0.720058		-0.9959		-1.69377		0.0605172		-1.07642		-1.01181		-0.188454		0.569508		0.16148		-3.81889		-0.534024		0.217804		-0.7273		-1.23079		-0.763605		0.0082026		-0.333216		-0.987319		0.150856		-1.70421		-0.106868		0.0432747		2.91085		0.0453312		1.6623		-0.144972		0.513925		-0.97466		-0.183835		-0.781448		0.291224		0.459753		-1.59728		1.23407		-2.00301		-0.404517		-0.835684		0.543159		-0.343166		-0.242728		0.136125		-0.0327959		0.462131		-2.65454		-0.730214		-0.775671		1.06511		-0.576454		1.2032		1.12125		0.65364		0.443374		1.40125		-1.15125		0.0479871		0.490085		-0.581121		0.916903		-0.00803813		-0.243515		0.295254		-0.432512		2.27745		0.438171		-0.531365		-0.638068		1.31701		1.11857		-0.831455		2.07725		1.84963		-1.95789		-1.10492		1.33444		0.21123		-0.164585		-0.311594		0.287532		-0.132896		-0.0453039		0.281097		0.600356		0.372711		1.10815		0.338033		1.34344		0.825317		-1.45424		-2.25441		1.45263		0.428731		-0.937306		-1.07779		0.218219		-0.349748		0.787875		-0.139584		-1.58475		-0.114381		1.11253		-0.754309		0.585539		0.922521		0.564739		-0.666479		-1.79284		-0.0266032		-1.01551		-1.95274		-0.673331		-0.210182		0.623378		-0.516623		0.469353		0		
-0.546504		-1.39454		-0.224179		0.0888523		1.68697		1.82743		1.16136		-0.581484		-0.08341		0.85953		-1.1925		-0.490299		0.756202		0.574308		-1.36861		0.502494		0.31806		0.0695013		1.66887		0.237011		-0.434144		-0.224995		-2.67525		-0.891093		0.421765		-0.393553		-0.331098		-0.022106		-1.66766		-0.270255		-0.939935		0.169867		0.255159		0.546965		1.63362		0.144869		-1.53945		-0.567316		-0.681345		-0.102699		1.46178		1.59573		0.334458		-0.399375		0.0762839		0.144192		0.926168		-1.11028		0.674169		-0.857559		-0.60824		2.16196		-0.306508		-0.913992		0.686263		-0.154501		-0.650304		0.81537		1.1571		-3.37813		1.50951		-0.989455		0.106618		-1.23973		0.755179		0.299355		2.2412		-0.413126		0.920944		0.0523477		-0.874986		0.0642945		-0.193527		-1.12256		0.527025		-0.666394		0.124341		0.14208		-1.98726		0.0245938		-0.240276		-0.560011		0.0731521		-0.332115		-0.152771		1.66677		0.453122		-1.22472		0.349017		-0.434305		-0.189973		-0.708246		-0.517784		0.26517		-0.453715		-1.76308		0.441567		0.00214577		-0.789463		-1.57144		-0.586198		-0.41319		0.526481		-0.857351		0.575517		-0.071299		0.435292		-0.45001		-0.853631		0.823272		-2.07454		-0.749917		-0.0892914		1.36879		1.67592		1.63866		0.159467		0.0720563		-0.190196		-1.65814		-0.267969		0.146888		-0.888272		-2.04674		1.3119		-1.1553		0.174267		0.0129413		-0.135153		-0.538692		0.235831		-0.0736317		0.639451		0.0559273		0.549629		-0.791909		-1.6242		0.162799		0.0475465		-0.709272		-0.252797		-1.52044		0.813272		1.9762		-1.51348		-0.303043		-0.375847		1.01219		0.279562		1.78342		-0.932895		-0.0750723		0.223159		0.880242		2.70965		-0.361813		-0.349221		-1.32612		-0.301222		2.46466		-0.733074		0.214784		-0.530061		-0.375153		0.676832		0.39968		0.365618		1.92083		-0.595491		0.26224		-0.265987		-0.0166253		-0.149164		0.809963		-1.73125		0.39802		1.64648		0.63828		0.89729		-0.814345		0.890183		-0.356681		1.65101		-0.0656392		-0.122865		0.998543		-3.00395		0.338535		1.28594		-1.03619		-0.938673		0.601618		-0.977215		-0.403725		-0.759917		1.06326		-1.78692		1.5327		-0.490028		-0.0130235		0.659132		2.68778		0.300991		0.054189		1.02827		-0.202552		1.83961		0.740052		0.308068		0.325292		-0.110633		0.980885		-0.0870975		0.391834		-0.144472		-0.0888056		-2.67582		0.227762		0.751597		-0.202123		1.22214		-0.458692		1.11646		0.544215		1.18203		-0.14168		-0.845071		-0.315574		-0.774242		0.361519		-0.412351		1.84956		-0.815143		-0.750298		1.18849		-0.706846		1.78419		-2.40782		0.952039		-0.463862		-0.103793		-0.609215		-1.22134		1.80484		-0.246696		0.842018		0.524808		-1.00413		0.56732		0.440796		-0.230862		0.648229		-1.48555		0.640177		0.103233		1.11321		-1.05696		0.890033		-0.539813		0.96151		1.23664		-2.46652		1.40077		0.833238		0.483292		0.785717		0.107556		-0.321889		-1.06297		-0.214979		-0.14985		0.791453		-1.95057		0.53864		1.85743		1.53212		-1.24941		0.77471		-0.389553		-1.17616		1.53094		-0.304644		0.476114		-0.305174		-0.780489		-0.546247		-0.0713958		0.685175		0.743969		1.01407		0.27272		-0.952859		1.10966		1.23052		0.157772		-0.987184		-1.60044		-2.7079		-0.525178		0.563082		0.508292		0.333244		-1.01884		0.229913		0.347427		-1.33741		0.0908448		-1.49928		0.423935		-1.01368		-0.103411		1.40082		-0.282416		0.312423		1.90381		-1.09559		0.418204		-0.323153		1.22191		-0.0880259		0.471737		0.496701		-1.29271		0.717103		-2.01541		-1.26952		1.94933		0.308608		-0.467106		-0.0246081		-0.814696		-0.131608		1.78087		0.613257		0.450638		1.21956		-0.00929639		-0.130695		-0.70589		0.582714		-0.0659444		-0.613068		-2.94614		1.03237		-1.46869		0.0691679		0.622763		-0.487705		1.01953		-1.70926		-0.27252		1.7976		0.408099		-0.775963		-1.30536		-0.07575		-0.0914249		0.778151		1.42104		0.0644504		1.08913		-0.667981		-1.10372		-1.31543		0.899901		1.06072		1.20217		-0.825794		-0.633855		0.831055		-0.576941		-0.847745		-1.13776		-0.990954		0.733083		-1.66943		0.25975		1.81695		0.421735		-1.58824		-0.300058		0.421154		2.08795		0.754601		-0.550911		-1.09153		0.101893		-0.924781		0.25302		0.0153518		-0.460612		1.59555		-0.308276		0.936595		1.67805		0.292044		-0.582212		1.93831		-1.80325		0.0147289		-0.252316		-0.25391		-0.518269		0.404615		0.129466		0.820007		-1.61266		-0.984662		0.0977294		0.04319		-1.78274		-0.950245		-0.838917		-0.416637		1.18435		-0.462899		-0.871905		0.651803		1.50917		0.286991		-1.57953		-0.0421036		1.48382		-0.493796		-0.464604		0.0346739		0.0859602		0.29689		-0.906227		-1.91558		-0.10455		0.808564		0.0145937		-1.6932		0.623638		0.494056		1.92578		1.03384		0.16223		0.27135		-0.0356778		-1.31185		-0.554024		0.804614		-0.869104		-0.702416		-0.46075		-0.722078		-0.506011		1.56487		1.2275		-2.2681		0.370921		0.895112		1.05015		0.348341		-1.06061		-0.461368		-1.71777		1.62337		-0.117931		-0.987891		-0.83549		0.427785		0.40066		-0.082045		-1.34262		-0.0281092		0.826404		-0.579005		-1.16382		-1.28109		0.968698		1.02703		0.0320511		-0.715246		0.128703		-1.68649		0.861639		0.515031		-0.525772		-0.803111		-0.378461		2.48999		0.804459		1.03683		1.59401		-0.331882		0.0202142		-0.388377		-0.808844		-0.892323		-1.67882		-1.37792		0.777104		-0.630735		0.900815		0.209274		0.851115		-1.55592		-1.56509		0.220099		0.467127		-0.0698699		1.06781		-0.292003		-0.422865		0.125375		0.716991		0.627768		2.34399		-0.385495		-0.77177		-1.13339		0.459641		-0.843068		0.475329		-0.258024		-1.65437		-1.73904		-0.539861		-0.542986		-0.95333		-1.1749		0.0215924		0.584182		2.54412		1.36499		-0.87891		0.105541		0.60077		1.81393		-0.51484		0.559361		-1.29884		2.54928		0.523476		0.704337		0.173947		-0.320761		0.117694		-1.59366		0.482534		0.572653		-0.627578		-0.442546		0.96365		-0.316051		0.503142		1.53903		0.291472		0.453698		0.260284		0.000794642		0.843599		0.463873		0.426454		-0.776272		1.29209		-0.601548		0.34051		0.723992		2.01689		0.0672267		0.406188		0.00440512		-0.914909		1.12359		-0.891316		-2.47667		0.666639		0.342898		-0.792999		-0.0367496		2.42407		1.11336		1.91817		0.734227		0.770114		0.733986		0.13803		0.721739		-0.632552		-0.542709		-2.5155		1.8117		-1.0537		1.20569		2.07805		-0.53675		-0.248738		1.42825		-0.250128		1.63569		0.711385		2.23774		0.784297		0.0412999		0.114522		2.62918		0.723522		-2.16052		0.560324		-0.999778		0.493026		-1.43888		0.569867		-0.543927		-0.185099		0.490752		-2.36596		-0.5287		-1.49405		0.340356		0.56131		-0.556608		0.436246		2.91472		-0.449089		-0.439179		0.432935		-1.0676		0.0105564		0.799516		-0.2675		0.292034		-0.351138		0.71965		-0.0407217		1.42559		0.72769		-0.483601		0.451163		-0.798401		-0.171675		-0.151085		-1.38509		-0.0288369		1.34341		-0.584271		-1.12073		-0.620702		-1.37346		0.000302528		0.0705366		0.982999		2.27798		1.18972		0.313654		0.247231		-0.831042		-0.76888		-0.00602977		0.855585		-1.51569		1.69876		-0.842416		-0.156022		1.0094		-0.819156		-1.3296		0.736138		-0.0959962		-1.09111		0.652454		0.548892		-0.110203		0.796574		0.846765		-0.0181085		0.30279		-1.12554		-1.3872		0.502392		0.287131		-1.15546		-1.06509		-1.40322		0.108688		-0.121815		1.19746		1.15822		-1.0343		-1.65151		-1.21541		-1.90673		1.36299		-0.571671		0.495177		0.744791		0.891552		0.18508		0.585746		-0.272132		-0.484442		1.67183		-1.17004		0.168623		0.326394		-0.427569		-1.20868		-0.556391		2.74528		0.804662		0.885576		-0.305357		0.854047		1.09686		1.44482		1.07708		0.545223		-0.65374		1.18684		1.86414		-1.81874		-0.124898		-0.307519		-0.694724		-0.0159552		-0.0544705		0.562841		-1.02756		0.632895		1.29061		-1.04596		-1.12081		-1.32649		0.795266		1.36236		0.210868		-0.21083		-1.12957		1.52921		1.19205		-0.396434		-2.58188		0.305745		-1.39819		-0.159204		0.633235		0.144175		-0.115623		-0.579149		1.15763		-1.01464		0.510843		-0.103513		0.816816		-0.54465		0.940099		-0.649419		-0.678656		-0.120769		1.37698		-0.392487		0.304066		0.462672		1.11909		-0.185427		0.629305		-0.335737		-0.744622		-0.195695		0.656647		-0.965803		-0.906366		0.387905		-0.216722		-0.149595		1.05774		0.101066		2.39682		0.331689		0.390767		-1.08466		0.581392		0.54328		1.46772		1.45809		-0.0953224		0.335569		1.25346		0.228988		0.713464		0		
0.00118469		-0.0415921		-0.180437		0.821997		-1.04224		0.377753		1.00932		0.281344		-1.18094		0.98317		-2.30054		1.94201		0.238984		-0.460057		0.19173		0.304232		0.924534		0.0166976		1.80635		0.225753		-1.0429		0.110004		0.0202398		-1.4018		1.55251		0.204856		-0.163983		0.929323		-0.600804		1.43813		1.501		0.0922862		-0.180965		-0.669689		0.479489		0.0611925		-1.21271		-1.04578		-1.16261		0.11682		0.251352		-1.2166		2.14336		0.281876		0.414939		-0.158829		1.71375		-0.466573		1.33033		0.731763		-0.108714		0.0453222		-1.42221		-2.13938		-0.73551		1.10842		-0.287435		1.51427		0.492802		-2.50795		0.49181		2.20109		0.230503		2.13758		0.916678		-1.13564		-0.432008		-0.568927		0.959587		-0.256076		0.659296		0.3446		0.354367		0.245091		-0.224916		0.0945541		-1.1452		-0.768374		0.952952		0.483385		-0.584048		-0.777743		-0.672439		-2.86105		0.114422		-0.8743		-0.1306		0.670309		-0.78966		3.02623		0.223544		-0.444949		1.25886		-1.84075		0.90238		-0.531101		-0.968912		-1.14073		-0.314907		0.0723545		-0.0958586		-1.09665		-1.10438		-0.17663		0.465036		-0.161133		0.667793		-1.28603		0.0983982		-0.257677		-0.77951		-0.19584		-0.454724		0.280386		3.00461		1.61409		0.395528		-0.252166		0.293573		-0.245645		0.698829		-0.131713		0.734343		-0.786977		-1.26744		0.661145		0.590684		0.137239		0.347658		0.753755		0.0779822		1.07066		-1.16192		-1.45473		-0.823589		-1.03284		-0.494776		0.29041		0.664648		-0.405919		0.648665		-0.582843		-0.306784		1.96505		0.273822		0.552189		-0.673011		-0.614361		1.36696		-0.0695876		0.844068		-0.437003		-0.358819		-0.928476		0.602214		0.290178		1.98803		1.07247		0.253216		-0.461052		1.21003		0.784893		-0.481098		1.05632		-2.40841		-0.588849		0.679642		1.23105		-0.786092		0.118369		-0.545306		-2.2489		-0.651791		-0.20756		0.721049		0.192165		-0.974123		-0.0830949		0.828012		0.619585		-1.10843		0.0907459		-0.434035		0.950722		1.2774		-1.23122		-0.948556		-0.039797		1.23132		-0.893208		1.42255		-0.583636		-0.322219		-0.38609		-1.74544		0.100377		-2.17568		0.128968		-0.17749		1.15728		-0.33404		-1.49771		0.222836		-0.654096		1.18742		-0.211212		1.92038		-0.273269		0.628233		0.188488		0.70922		0.411468		0.237165		1.58302		-1.53596		0.189279		-0.259162		-1.30046		-1.97732		1.35636		-1.06188		-0.844977		0.136132		0.395007		-0.828006		-0.965341		-1.04052		1.17012		0.217938		0.231235		-0.829637		-0.0723525		0.82479		0.316711		-0.617692		-0.961019		2.23098		-0.0605538		-0.0110676		-1.0091		0.19172		0.861409		-0.609277		1.11687		0.719251		1.47327		-1.52695		-0.560389		0.336728		-0.598004		-0.285985		0.54034		-0.600745		-1.53685		0.731102		1.18411		0.312484		0.757334		-0.226148		-0.525159		-1.30254		-0.285499		-0.59568		-1.11435		0.0911498		-0.367858		0.0457302		-0.337967		-0.713462		0.332462		1.06622		0.0780863		0.208301		0.247781		-1.07233		-0.44888		-0.795088		0.234896		0.956706		-0.489773		0.308853		0.388398		1.9423		0.00196278		-0.376182		-0.227088		0.455215		0.0818286		0.207829		-0.497199		-1.19766		0.764953		-1.60908		1.33358		0.582256		-2.06313		-1.18502		1.43894		-0.532912		-1.21837		-0.62081		-0.571179		2.66671		-1.0018		-0.351179		0.285251		-1.54092		-0.190061		-0.540209		-0.150781		-1.00227		0.693289		-0.584873		0.954269		-0.504849		0.367798		-0.425785		-0.519193		-0.366381		0.623188		-0.117064		0.392807		-1.37315		0.423377		-1.08507		1.46683		0.191324		-2.27781		1.36702		1.32818		-2.16266		-1.52218		-0.175213		1.31603		-0.769702		1.79251		-1.31774		-0.516157		-0.338366		-1.59879		1.5755		-0.0248236		0.140615		-1.03336		2.59242		-0.901109		0.326278		-0.231467		0.767559		1.15036		0.26396		0.30243		0.736121		2.85759		0.0857126		0.108977		0.819436		1.31085		1.88742		-0.629412		-1.46819		0.712802		-1.77901		0.481034		-0.998246		0.887626		0.559659		1.39144		0.296009		-0.0987009		-1.03807		-0.352902		1.11967		0.0238388		-0.199715		-1.45887		-0.572243		-1.38971		-0.0617796		0.170316		1.17442		-1.86251		-0.752876		-0.294162		0.107396		-0.615185		-1.04918		0.50837		-0.404549		-0.151159		0.986019		-0.180623		-0.522498		0.938946		-0.904604		1.76438		-0.639068		0.823283		0.298663		-0.721502		-0.224253		1.92137		-0.370129		0.37384		1.36539		-0.543815		-1.51805		0.163774		0.200876		0.677324		-0.602042		0.913903		0.921869		1.24308		-0.189307		-1.00007		0.495437		1.5206		0.37547		1.69209		0.574609		-2.91428		-0.618911		1.15126		1.45718		-0.352548		0.338892		-1.28141		-2.5986		0.537557		-1.46181		-1.25964		1.39194		0.318311		-0.438508		0.229959		0.205974		-2.30669		-2.00313		0.0322269		0.485699		0.142956		-0.645061		-1.05103		-1.71882		0.626766		0.774115		-0.272719		0.991313		-0.823513		0.321707		-2.30966		-1.41214		1.58971		-0.302213		-1.21325		0.337772		-0.431674		1.37067		-0.105632		-1.02279		-0.401912		-0.726775		0.711804		-0.787322		0.745745		-0.900747		-0.318508		1.0993		1.14		-1.50863		-0.0173521		0.0135334		-0.941575		2.09845		1.67885		1.04653		-0.598497		0.403339		0.224017		-0.844347		0.626252		0.698257		-0.19623		-0.20718		-0.0882871		1.24908		-0.0177102		0.606409		-0.0860104		0.742205		-0.13955		-0.0493597		-0.560539		-0.255948		-0.721097		-0.0298087		-0.893375		0.196567		2.38835		0.0198915		-0.681025		0.825303		-1.00332		-1.06109		1.17083		0.102154		1.5774		-0.00956302		0.0960772		0.830583		-0.393436		3.37769		0.523392		0.553818		1.44826		1.2019		-0.0361955		0.163414		-0.982812		-0.847537		-1.06336		-0.606407		-2.32495		0.756759		0.0809177		-0.958277		-1.32937		1.18432		-2.18448		0.195247		0.565758		-0.0877935		-1.76746		1.413		-0.91107		0.115809		-0.810924		-1.10039		0.0220198		0.0118608		0.310206		1.70514		-1.42685		-0.442422		0.787537		2.4936		-1.64602		-0.807011		0.741364		-0.00456231		0.0241691		-1.565		0.06065		-1.03941		-0.338082		-1.33747		0.204537		0.191252		1.16557		-0.178521		-0.980254		0.769676		-0.879131		0.0375494		-0.940247		0.157384		-1.08491		-0.56734		-0.495241		-0.570787		-0.590785		-1.43702		0.830541		0.772483		-0.056632		-1.39835		0.392347		-0.201173		2.76767		-1.08092		-1.08337		0.423335		-0.243616		-0.416152		1.17036		0.793029		0.573682		-0.0496755		-1.36394		-0.829661		0.81025		-1.38168		0.228011		1.07912		1.04616		-2.28673		0.936846		0.217445		-0.818152		0.192095		-0.00889249		-0.924618		2.70505		1.17218		0.101965		1.37222		-1.74966		-0.422512		-0.137234		-0.220866		1.2693		-0.442018		0.485616		2.13811		-1.65508		-1.40427		0.429587		2.20893		1.12369		0.18636		0.772066		0.549092		-1.17291		-2.28168		0.416933		0.678824		0.212044		0.328097		-1.08942		1.01306		-0.356604		1.33695		-0.0586619		-0.786428		0.227851		-0.27391		-0.136016		-0.14085		0.456033		0.294019		1.18256		1.32518		-1.40673		1.84496		1.83125		-2.58324		-1.16057		1.33296		-0.837262		0.340143		-1.09157		-0.434679		-0.871351		-0.269477		-0.92694		0.702927		-0.687026		0.651096		1.02771		1.66881		-0.159032		-2.0948		-1.059		-0.278209		-1.56835		-1.55051		1.34449		-0.264514		-0.422688		-1.01545		-0.483026		-0.58664		-1.93216		0.23168		0.380992		-1.47016		-1.02135		-0.88519		0.214792		-0.0511517		-0.0203985		-2.11288		-0.298714		-0.776373		-1.21965		0.450632		-1.32046		-0.459631		-0.352527		-0.0342133		-1.01264		1.07432		1.45357		1.98188		-0.669926		-1.08095		0.0698855		-1.02409		2.18992		-0.305324		-1.00604		-0.0927671		-0.575596		0.0889992		1.47374		-1.59266		-0.242717		0.871035		0.0415886		0.506123		-1.39434		0.804367		0.824884		-0.390145		0.534194		0.5095		-0.304433		-0.25769		-0.800643		1.77507		0.684956		0.740257		1.31888		-0.0212227		-1.13987		-0.152769		-0.577117		0.608143		2.39598		-0.754447		0.515341		1.90303		-0.500897		-0.344888		-0.35113		-0.0577383		0.479168		0.108092		-1.12228		0.396042		2.97742		-1.76512		-0.172818		0.184523		-0.349167		-0.0531314		-1.76607		0.881921		-0.0397092		0.021984		-1.04552		0.159249		0.0816195		1.48665		0.246727		-0.3963		-1.73639		0.57006		-0.404932		0.0164025		-0.475042		-0.278456		1.60274		1.60225		-0.150659		-1.00125		-1.47464		0.723009		1.19281		-0.834569		-0.094563		0.629897		0.754269		-0.288418		-0.369411		-0.315952		-0.371325		0.138859		1.33166		0.0534825		0.39476		0.620203		1.78153		0		
-0.706495		0.0504636		-0.753442		-0.426523		0.00311345		-1.8066		1.64635		0.875145		1.37405		-0.299107		-0.0321646		1.00723		0.625155		0.0287278		0.000187649		1.4631		-0.523524		-1.38169		-1.5549		-0.718419		-0.973256		0.182712		-0.21489		0.867551		-1.33144		0.593298		-0.0912956		0.993811		-0.206483		-0.452266		0.16152		0.995263		0.230094		-0.215595		-0.00585074		-0.943336		1.27739		1.78903		-0.0460782		-1.3252		0.735841		0.485339		0.502524		0.77321		0.655078		-0.855567		-0.47798		-1.23223		0.575982		1.19266		0.0154655		1.58675		0.620054		0.824786		1.21242		0.978691		-1.11151		-0.358177		-0.387763		0.413597		1.02116		-1.04954		0.195336		0.476287		0.0160111		-1.18742		0.903421		0.127488		-0.549094		-0.985036		-1.53821		0.48164		2.12067		-1.51642		1.35914		1.22923		-1.76347		-1.55938		-1.21348		1.24781		-0.16364		-1.73507		-0.946551		-0.594687		-0.2544		-0.354831		-0.888693		-1.14304		2.10043		0.219785		1.61638		-0.526384		-1.40921		2.17622		0.78217		-0.485548		1.42809		1.12028		-0.56954		0.80467		-0.0863697		0.451997		-2.50481		-1.57297		1.71635		-0.137632		0.575344		-2.03297		-0.46191		-1.47055		-0.41854		1.0593		-0.587112		-0.552819		-0.273906		-0.751196		-0.482803		0.776958		-0.875923		0.222634		-2.22692		0.298033		-0.194951		1.12918		-0.0654675		-0.11278		-0.401922		0.184228		-0.105172		0.178535		-0.00340669		0.340016		0.950882		1.63978		-1.51063		0.803526		-0.153448		-0.134987		-0.508718		0.627275		1.31193		0.326784		-1.19777		0.312019		1.28033		-0.808601		1.13635		-1.04422		1.48567		1.1391		0.985258		-0.245178		-0.881048		-0.0436133		0.213344		0.438583		-0.197265		1.34316		1.3377		-1.11572		-0.522628		0.073213		0.914559		-1.34399		-0.104147		0.7159		0.932731		-0.468249		0.708492		0.386457		1.6276		0.172339		0.707693		-0.137256		0.285694		-0.805595		-0.26405		0.494094		2.45331		1.59756		-2.08979		-0.739217		-0.175875		0.421225		0.710973		0.89034		-0.014695		0.0721825		0.377779		0.332511		0.933933		1.13626		0.238442		-0.972426		0.503465		-1.13028		-0.595492		0.8703		0.148947		-0.180503		0.126878		0.467208		0.892443		1.5371		-0.271807		-1.49242		1.20986		1.311		-0.195052		-1.25925		1.01898		0.491468		1.35259		0.0282426		-1.19823		-0.289876		-1.69457		0.179566		-0.48419		0.0322535		-0.463453		-0.287634		0.880922		0.303522		0.371685		0.738147		-0.7156		-1.7105		-1.09039		0.194251		-1.1822		1.64319		2.14364		-0.94536		-1.5564		0.834337		-0.865821		0.950148		-1.30018		0.846816		0.791962		-2.01952		0.94623		-1.50292		-1.26068		1.278		2.69886		-1.97365		-0.934801		-0.933932		1.27318		-1.6536		-0.51646		-0.202703		-0.287064		0.606924		2.10411		-0.149891		1.32403		0.682979		-0.78637		0.687788		-1.69989		-0.990978		1.24357		-0.888903		0.0142754		-0.208708		-0.0256621		-0.654036		-0.927352		-0.664684		-2.16969		-1.30094		-0.132571		-0.543936		1.60173		1.31626		0.252508		0.0365849		1.70028		-1.29612		0.00400994		0.812156		0.514973		-0.515816		-0.0616852		0.135435		-0.734473		0.567024		-0.730939		0.52282		0.885015		0.436659		-0.582849		2.38694		0.45537		0.642096		2.59021		0.402377		-0.609515		0.568834		-1.55699		1.00911		0.239059		-0.29051		0.445256		0.79976		0.315553		0.616597		0.466085		-0.357912		-1.1241		-0.105804		-0.233108		0.400379		2.44338		0.252102		-0.811015		-0.793416		0.649332		0.0552258		0.639161		-0.851116		-0.437914		0.441914		-0.671899		0.43437		1.32822		1.5447		-1.75557		0.664533		-0.755862		0.977915		1.97651		-0.377231		0.880022		-0.694182		-0.447623		-0.970918		0.54496		1.2766		0.707457		1.35652		0.0296667		-1.50963		-0.11472		0.644622		-1.11203		0.742453		0.360064		1.59078		-1.41148		0.583273		-0.109081		-1.98894		-2.49049		-0.0859172		-0.097861		-0.229037		0.415219		1.20725		-0.652784		0.711408		1.1875		-0.535512		-0.478267		1.5938		0.777008		0.0466671		0.333735		0.559431		0.839751		2.24514		1.12839		-0.463703		2.20013		-0.670905		-0.366562		0.0240795		-0.545498		1.07766		-0.380315		0.769581		0.0252276		0.138573		-1.27784		0.954024		0.620619		-1.22214		0.00961447		0.563717		-0.514348		0.447374		-1.06781		-1.18704		-1.11709		0.229168		0.448523		0.17491		0.55842		-0.919555		0.738167		-1.17881		0.170463		-0.173733		-1.28476		0.629653		-0.69862		0.972535		-1.07898		0.890616		0.0189141		-0.710554		-1.81225		0.477364		-0.726089		0.206761		-0.391509		0.431143		-0.968731		-1.7506		1.03645		-2.26161		0.0675534		-0.144887		1.34423		-0.394864		-0.328091		0.869076		1.69923		-0.393108		0.406542		0.66749		-0.71301		0.368077		-0.0229464		-0.809584		1.93444		-0.313416		-0.647156		-0.853733		-1.15091		-0.401298		-0.963133		-0.842698		0.552824		0.707736		1.22603		0.990981		-0.830884		-0.0401208		-0.643082		-0.846521		-1.74759		1.19358		-0.422339		0.196422		0.452359		-1.26247		0.375138		0.779433		-1.70349		0.242479		0.450916		1.38819		-1.69808		-0.254407		-2.46037		1.89455		-0.224368		-2.00962		1.56011		0.822027		-0.609033		0.624962		0.556421		-0.411574		1.43908		-0.862135		-0.625299		1.33566		-1.54999		-0.736384		-0.258151		1.39522		1.32905		-1.99009		-0.0376122		-1.36619		0.0466673		1.16301		0.160449		-0.654001		-1.05649		-0.0283301		1.04217		-1.297		0.268982		-0.467509		-1.1421		0.917473		0.105098		0.34488		2.45118		0.192175		-0.333736		-0.896171		0.654545		-1.71221		-1.05325		-0.352677		-0.557893		0.767864		1.10811		-0.0255202		-0.528723		0.16561		-1.94764		0.613335		-0.851578		0.445874		1.11204		0.0491834		-0.491478		0.516186		0.572316		-0.000543544		0.271488		-1.27697		0.891071		0.2913		1.91289		-1.16304		1.0337		-0.263949		1.7699		0.457059		-1.75158		0.725982		0.938817		0.864404		1.24662		0.540376		0.713015		-0.478898		0.669873		0.552221		1.92422		0.788938		-0.468061		-0.91212		-0.176497		-2.63913		0.278298		-0.363243		-0.199809		0.599699		0.424355		0.305983		3.33022		-0.944495		0.0233764		0.483156		-0.124288		-0.522936		-1.47994		1.7384		-0.212051		1.34955		1.34036		0.0179861		0.493727		0.853887		-0.387015		1.99461		-1.87807		-1.0123		0.706406		-0.149471		0.925277		0.540104		0.0253342		-0.178726		0.118637		-0.22096		1.03984		0.530816		0.616224		-0.421458		-0.7301		-0.416298		-0.76675		0.688879		-0.212786		-1.00033		-0.479345		0.583782		0.645255		0.477885		-1.50988		-1.49613		0.313997		-2.61305		-1.74491		-0.0417191		0.439965		-0.68635		0.902113		1.60723		0.257875		0.743345		-1.71534		-0.949196		-0.553431		-1.45415		1.07111		0.105121		0.328703		0.599999		-0.857506		-1.72153		-1.32418		-0.116764		-0.257091		1.71593		0.694536		-0.487442		-0.132045		-0.929641		0.237469		0.765457		-1.19625		0.780751		0.655367		0.464849		-0.433052		-0.465521		-2.45917		-1.0489		1.43064		0.578856		-0.0662623		0.208652		0.372975		0.0885603		-0.112703		-0.428264		0.554998		-1.43369		0.840519		0.0731436		-2.24929		-0.15693		0.763072		1.8364		-0.62206		0.0877567		0.12549		0.430327		-1.80068		-0.708377		0.696877		-0.123737		0.440021		0.605267		-0.807595		1.19673		-0.152131		0.407474		-1.53154		-0.50748		-1.86022		0.220433		-0.350041		-0.460568		0.749927		0.696528		-0.499789		-1.40682		1.6788		-0.160008		-1.88073		0.000758357		0.00391096		1.84505		-0.785935		1.33152		1.84081		0.158603		0.791037		0.542309		-0.870118		0.168957		0.0287504		-1.34305		0.251899		0.188599		0.628917		-0.259162		-0.347732		-1.09271		1.02428		0.833828		-0.224259		-0.346177		-1.66987		1.43031		0.815919		-0.337168		-1.5094		0.264629		-1.54715		-0.951389		-1.6608		0.976036		-0.496341		0.167159		-1.20619		-0.844776		-0.712424		0.808691		0.239369		-0.60437		-0.266463		-0.447709		-1.08768		-0.65006		-0.543868		1.75329		1.21228		-1.23812		-0.914142		-0.500906		0.748084		-0.606116		1.15456		0.468305		0.416186		-0.965035		-1.58164		-0.414009		1.14401		0.336102		0.736129		2.15289		-0.326425		-0.625728		0.284347		-1.97749		0.0965695		0.111704		-0.301372		1.85483		-0.502613		-0.981204		-0.814656		0.171305		-1.61257		-0.0909697		0.238883		-0.307412		-0.362608		1.01632		-0.952954		0.367652		-0.617887		0.182082		-1.09993		-1.75964		-0.965151		0.569716		0.787355		-0.120791		0.498798		-1.49206		-0.221271		0.854846		-0.254869		0.479074		0.284461		-0.377456		0.884558		-1.26306		0		
