4		784		10		relu		softmax

184
1.5306		-0.326896		0.435356		-0.874378		1.37895		0.793165		0.711027		0.200419		0.468167		-0.714512		0.374465		-1.41495		-0.610429		-0.602383		2.01817		1.88318		0.524456		-2.23086		1.58613		-1.75452		-0.108243		1.62963		1.07624		-1.44595		0.168536		0.17273		-0.194165		1.52899		-0.735083		1.15863		0.0322366		-1.03625		-0.0157973		-0.419161		-1.06719		-1.14834		1.1199		0.917167		-0.591162		-0.414151		-0.337713		-0.111854		-0.431267		-0.0904025		1.24001		0.114168		-1.19625		-1.48895		0.405198		-0.460937		2.10142		-0.14039		0.375321		0.137544		0.81534		0.6493		-0.790255		0.61736		-0.298721		-0.680684		-0.0123326		0.789333		0.0786806		0.834		-0.0209857		-0.674816		0.247729		0.00957011		-1.10908		-0.0573736		-1.15183		1.3598		-0.84722		-0.727699		-1.3667		0.75399		-0.595589		-0.614077		-1.94369		1.23137		0.908835		0.531892		0.263042		0.844555		0.743762		0.927188		0.470277		1.20117		-1.0181		1.19411		0.822988		-0.846159		-0.57898		-0.603626		-0.375762		-0.721221		1.6149		1.15906		-1.27636		0.715646		-1.58081		-1.59948		0.611619		-0.0429015		-0.0876359		2.28492		0.0368554		-1.28749		0.812078		-1.21203		1.14739		-1.34259		-1.29709		-0.353128		0.606398		-0.116675		-0.0859757		-1.26028		0.247862		0.835831		-0.755575		-1.20155		0.48022		-1.04912		0.240395		0.267663		0.171386		2.19804		1.65235		0.293802		-0.188883		0.600307		-1.57641		0.0632377		-0.670423		-0.804431		0.702852		-0.604096		0.272429		0.724619		0.694971		-1.07022		-2.11285		-1.5566		-0.771027		1.38719		-0.606659		0.284895		0.219701		-1.25872		-0.686514		-0.149809		-0.129243		-0.131495		1.7607		-1.21811		-0.85658		-0.409087		1.08096		-1.79525		-0.935483		-1.31327		-0.100742		0.171177		-0.204341		-2.00028		-1.42355		0.718746		0.127936		0.4327		-0.569115		0.480483		0.280573		0.596356		1.44367		-0.773388		-0.240683		0.0710021		-1.60169		1.27556		-0.964019		1.30618		1.39897		-0.896721		-1.76462		1.36519		0.459255		0.332184		-0.111472		-1.13832		-0.363499		0.973973		1.23566		-0.265208		-0.363679		0.749845		0.382794		-1.55414		-1.17935		0.83145		1.8262		-0.731968		1.10545		0.0153361		-1.44599		-0.436835		0.322366		-0.70836		-1.26121		-1.00479		-0.559365		-1.63154		-2.47064		-1.20926		-1.68598		1.17408		0.278756		-0.54875		-1.13261		0.95141		0.962575		0.830481		2.31762		0.166154		1.07278		-1.24099		0.585209		-0.289203		-0.103688		0.823317		-1.12625		-0.164953		0.12423		0.545051		-2.37402		0.358075		1.24659		2.03946		0.273026		0.698659		-0.597387		1.12788		0.0924741		1.71184		0.941458		-0.90442		-0.2857		0.0425471		-1.1859		-0.418914		-1.08654		0.624606		0.35868		-1.96774		-0.736259		0.794258		-2.2843		-0.962359		0.351507		0.927289		0.755019		0.378701		-0.932273		-2.47486		0.55681		-0.286256		-0.844768		-1.23967		1.35402		1.18845		-1.43769		-0.042542		0.572895		1.64532		-1.45302		0.22053		1.14068		0.69574		-0.0641827		-0.38503		-0.275557		-0.114959		0.36637		-1.79345		-0.189919		0.183681		2.0717		-0.99357		-0.27467		-0.147603		0.106985		0.699099		1.81766		-0.282664		-1.91019		-2.71516		-0.233944		0.375339		0.206403		0.844113		1.48714		-0.66514		1.15409		-0.259433		1.52929		-0.206106		-1.44077		0.891173		-0.341937		1.03698		-0.265423		-0.268228		0.20381		-1.27698		1.04268		1.04865		0.0529376		0.238242		1.01068		1.58192		1.55066		-0.751093		-0.334552		0.343163		-0.875844		1.75489		-0.31076		-0.351871		-0.0713992		1.13522		-0.274631		-1.04357		-1.22658		1.33654		-0.24235		1.39792		1.09647		-0.372276		-1.06353		0.907488		1.50141		-0.0131626		-0.589791		-1.25775		0.639173		0.533175		-0.440624		0.342047		0.961146		0.586283		0.813676		0.80508		0.664762		-0.562369		-0.488207		0.438424		-1.15452		-0.423985		1.97909		-1.03591		1.88718		0.268382		0.384982		1.11611		-0.348067		-2.28396		0.876733		1.03988		-0.89256		0.245684		-0.420806		-1.30573		0.191311		0.741996		-0.790666		-0.843582		1.05141		-0.594944		-0.194819		1.21068		1.16312		-0.345027		-0.673177		-0.531894		-0.991447		2.10137		1.06576		-0.922696		0.0868284		0.967663		0.262353		-0.380608		-0.357055		-1.04431		0.756671		0.565395		1.26007		-1.44889		-1.66556		0.82309		-0.68093		-0.872078		-0.0907616		0.783034		1.12354		-0.710336		-1.09277		-0.810406		-0.769046		1.32534		-0.0146753		0.134822		-0.876742		-0.130847		0.0466193		-0.242838		-0.286261		0.488507		0.790868		-1.16893		0.186908		-0.676452		1.55177		-2.01866		-0.7897		-0.0338879		0.443817		0.962915		-0.888235		-0.16645		0.60784		1.05926		-0.354601		0.650303		-0.854157		-1.52584		1.21657		-0.661664		-1.80495		-3.34835		2.40519		1.3266		0.00214139		0.874555		1.35637		0.44427		0.271489		0.479934		-1.84479		2.54485		-0.687207		-0.12113		-0.649018		0.455058		-2.02985		-0.637995		-0.268631		0.07576		-0.111965		0.974673		1.41185		1.31106		1.18134		-0.330183		-2.93137		0.138076		-0.80493		0.569395		-0.0341192		0.20609		0.124819		-1.56512		0.23349		0.000430777		-0.882283		-1.13517		-1.4457		-0.471463		0.41718		0.776271		-1.85584		-2.09134		-1.36855		-0.475567		0.120053		-0.188585		-0.944602		2.01987		1.91458		-0.128338		0.252877		-2.01177		1.53937		-0.627159		-0.880571		0.0134402		-1.53675		0.234839		0.498873		0.495287		0.481989		1.72163		-0.263221		-0.282668		0.255135		-0.434521		-1.4252		-0.805053		-0.304548		1.86708		-0.211129		-0.363074		-0.0767519		-0.0162983		-1.04443		-0.347511		-0.912619		0.430675		0.182217		0.690583		1.30473		-0.0512989		-2.59942		-0.66406		-0.554675		0.265098		-0.302508		-1.19691		-0.350093		0.286541		-0.552601		-0.716414		2.3206		-0.657385		0.0412043		0.963637		-0.896011		0.927036		-0.402934		1.42527		-0.125846		1.14838		0.491143		-1.51634		0.60847		0.201538		0.32048		0.0766218		0.666345		-0.541904		-1.33373		-0.434046		-1.08048		-0.354932		0.267509		0.342076		-1.13139		2.43021		0.718721		1.81509		0.376609		0.209417		1.08496		-0.703613		0.54522		1.55413		0.0564282		-0.576097		-0.816111		-0.195475		0.158592		-0.682537		-0.647467		-0.814303		-0.630674		-0.0161312		1.31861		0.683425		1.1559		-0.628525		-1.09857		1.17421		0.210511		0.410301		0.0144549		-0.509579		-0.373124		0.165726		0.147139		0.973547		0.383492		-1.65355		-0.584028		0.84293		0.216836		1.48099		0.94484		1.3113		0.590857		-0.852988		-0.966656		0.379514		1.86538		-0.765035		-0.5035		-0.311974		1.43681		0.0751357		0.230607		0.428517		0.40681		-0.759904		0.953856		-1.6702		-0.118521		-0.219485		0.775533		-0.19421		-1.27252		-0.686623		1.43379		-0.155024		0.394278		0.106281		-0.446873		-0.207143		-0.423736		1.26018		0.122001		-1.84085		-0.225892		-0.484726		0.542668		1.42196		0.582036		1.4722		0.00771097		-0.0612844		0.681112		0.879842		0.99757		-0.841539		0.352692		0.0891546		0.356258		0.991864		1.15617		-0.788485		0.36576		1.76786		0.339228		0.573846		2.0153		-0.495458		-1.6702		0.111715		-0.00864507		-0.820705		1.57795		0.643769		-1.35059		-1.00732		0.0680967		-2.42386		-0.0063617		1.64238		2.66021		0.112977		-0.244666		0.451084		1.29897		2.00154		1.25684		-1.47259		0.804782		-0.483017		1.35941		-2.03064		-0.258158		0.424311		0.969013		0.0518337		2.19615		0.210377		-0.359054		-2.63103		0.565238		-0.854017		0.96731		1.02475		1.58022		0.152388		2.7031		-0.0329407		0.524725		-1.15227		-1.0974		0.712071		0.730104		1.21373		-0.546139		-1.29869		-1.4154		-1.39975		1.41834		-2.55297		-1.60134		-0.94437		-0.268554		-0.163228		-0.457562		0.357787		1.11666		0.0766775		-0.714194		-0.352526		-0.931425		0.966411		0.569063		-0.29967		0.515466		0.70089		0.159264		0.789679		0.405925		1.21141		0.404499		0.457139		-0.158046		1.89983		2.00154		0.658742		-0.18816		1.46635		-1.25235		-0.637941		0.874029		-0.134676		-0.0721242		-0.328166		0.691896		-0.396487		-0.227643		-0.35071		0.2652		-0.291047		-0.619466		-0.00584798		0.599781		0.989281		-0.131265		-0.0736825		0.501772		1.77337		0.137507		-1.84516		-0.640461		1.67663		-0.208294		-0.774947		1.69292		-1.25072		1.05339		-0.116204		0.186815		-1.04822		-1.72075		-0.897974		0.583858		-1.42004		0.177971		1.12807		-1.36667		0.378586		0.322554		-1.10357		1.23904		-0.244104		-1.91269		0.357294		2.04464		-1.90548		-0.0934828		0.902466		0		
-0.974497		0.654952		-0.595649		-0.588701		0.0175658		-0.163012		-0.151581		0.843874		1.25348		-1.3424		-0.692573		0.396122		-0.76001		0.271348		-0.875155		0.493299		0.498784		-0.275347		0.73422		-0.00128647		0.693859		-1.45345		-0.435775		-0.0198009		-0.651813		-1.0189		-0.565396		-0.225479		-1.65987		0.430845		0.677151		0.54361		-1.16018		-0.198176		0.192249		-0.463431		-1.2847		1.0818		0.785956		-0.386039		0.17109		-0.675759		1.96471		2.19113		1.11449		0.96519		-0.0621943		0.807885		-0.601854		-0.107898		-1.22319		-1.2963		1.42093		-0.396894		-1.17022		-0.223498		0.841976		-0.3329		-2.83228		0.495635		-0.681916		-0.699919		1.72684		-0.144415		-0.0821476		-1.01636		-0.58486		-0.215225		-0.633988		-1.63806		0.72657		-1.42014		1.28373		0.569468		-0.589121		0.813259		0.453299		1.26884		0.669366		0.274826		-0.367564		-0.154767		-1.10248		-0.755241		-1.43877		0.585172		0.878017		-0.868492		-0.498963		1.078		-0.640989		1.3708		-1.3353		-0.808543		0.13401		1.10604		1.596		1.30995		-0.308459		0.339885		-0.256741		-0.912423		-1.31278		0.254047		1.1562		0.318171		1.53954		0.860597		-0.75656		0.421341		-1.55427		-0.710819		-0.701694		0.066028		-0.980108		-0.506544		-0.0806815		-1.75406		2.3676		-0.930791		-0.560415		0.0146864		0.845831		-0.1948		-0.392249		-0.091267		-1.45662		0.899969		-0.292315		-0.661698		-0.557728		-0.611098		0.393348		0.843802		-1.25789		0.531798		-1.22091		1.43017		2.11945		1.9011		0.511862		0.895005		0.611754		-0.366768		0.273114		0.0368088		-1.06716		-0.0374309		-1.29066		-0.464451		-2.12236		1.85499		0.508388		0.208474		0.304133		-0.157822		-0.169475		-0.413959		-0.80011		-1.08926		-1.53449		1.18697		1.15967		-1.45463		0.640826		-1.56967		-0.216136		-0.45008		0.718674		-0.245796		0.7701		0.384997		-0.358293		0.187462		0.128564		-0.682229		-0.773693		0.687022		1.53937		1.26994		0.317468		0.150371		1.07826		-1.63445		0.324303		-1.0756		-0.580898		0.0820761		-1.33549		-2.45824		-0.474389		0.587881		2.42195		0.87453		-0.628545		-0.543534		0.118477		0.4107		0.016317		0.262752		1.37982		-0.816971		0.532417		-1.62294		0.778804		-0.28661		-0.951564		0.10009		-1.58219		0.737187		-0.401188		-1.00877		-0.79114		-0.887904		-0.763673		0.161877		0.284065		0.776397		1.14352		2.10932		-1.03057		0.420746		-0.595944		-0.42253		0.657612		1.63104		0.0956609		-0.0327266		-0.495377		0.89766		-1.17031		-0.313727		-0.130096		1.93086		-0.0665365		-0.95234		0.613823		-0.362278		-0.622485		0.645361		0.579776		-2.21041		-1.15113		1.16743		0.399881		-0.457198		0.967287		0.188058		0.959492		0.687566		2.8261		-0.56985		0.156023		0.751724		-0.900109		0.958401		-0.989401		1.04214		-0.127847		-1.13776		-0.64209		0.089973		0.20707		0.74925		1.15399		0.0456973		-0.194528		0.41334		-1.76627		-0.0133148		0.659802		-1.28454		0.297718		1.03687		0.338901		0.0501485		-1.48983		-1.78054		-0.294944		-2.19775		-0.256885		1.30302		0.923351		-0.0284979		0.433748		0.84827		0.321324		1.12235		1.18948		-2.12867		-1.55921		0.360896		-0.4369		0.374508		1.04947		-0.45167		0.667138		-0.665318		-0.304094		-0.512864		0.327677		-0.346364		-1.09433		-1.08857		0.854534		-0.935083		-0.561417		0.256634		0.763855		-0.574302		-1.4265		1.15337		-0.046901		-0.594057		1.35931		1.53134		0.283335		-0.416123		0.356683		-0.844301		-0.259544		0.931589		-0.0702747		-0.289343		-0.375148		0.87961		0.249411		-0.204576		0.60717		0.587656		0.479638		-0.695883		-0.308553		0.729118		-0.423633		-0.277607		-0.534735		1.05197		-1.31011		-1.53002		-0.222477		0.103992		0.151482		-0.158835		0.654215		1.33379		0.159305		0.300257		-1.09794		-0.684761		1.97146		-0.780978		1.40483		-0.01657		-0.0840708		-0.871756		-0.839401		0.513061		-1.5957		-1.28476		-2.05275		-0.0460579		1.14048		1.44789		-1.08309		0.265281		-1.28947		-0.805716		-0.856389		-1.20304		-1.53958		0.192418		-0.466449		-1.41317		-0.433541		0.624189		0.43257		-1.10917		1.82481		0.135442		-0.37016		0.31871		-0.885509		0.558188		-0.22879		-0.382795		-0.820371		1.22799		-0.362663		-0.103394		-0.244135		1.26757		-0.937513		-0.676456		0.501176		0.17068		0.243497		0.412854		0.00681127		-0.624124		2.39885		-0.351969		1.58286		0.212812		0.940083		-1.02918		-0.947322		2.02547		-0.927565		1.51028		-0.421845		0.431166		-0.501272		0.454101		-0.0146963		-0.100543		-0.0450008		-0.203403		-1.05282		-0.463603		-0.588602		-0.00747865		1.04683		-0.335124		-0.531037		1.09308		-0.638886		-1.73893		0.242284		-0.220214		1.27702		-1.18576		-0.304834		-0.271144		0.144503		-1.16805		0.845777		0.853843		-0.111758		0.314279		-1.32837		-0.648677		-0.27932		-1.88726		-0.146414		-1.0915		0.0517714		-0.205695		-1.10134		-0.393675		-0.991967		1.04576		-0.840651		0.0141939		-0.536902		-0.00594724		-0.163349		0.895942		-0.484034		0.988735		-0.248847		-0.761134		-1.30008		1.59154		0.305392		1.44883		0.971604		0.0670502		-1.14538		-0.0240937		1.05252		-0.805413		-0.199623		-1.84419		0.861771		-1.74362		-0.474154		0.42874		-0.0359605		0.0204097		1.6865		2.19003		0.724421		0.232605		0.330901		0.312829		0.457167		-0.441728		1.6274		0.961616		-0.462036		0.78516		0.0268644		-2.12752		-1.5059		0.0598348		0.778974		1.25946		1.05223		0.431103		1.26371		-1.46581		-0.154292		0.276087		0.591598		-0.120173		-0.715889		-0.441732		-0.143487		-0.811465		-0.889534		0.260935		-0.839644		-0.455231		1.27197		-1.81338		-1.68825		0.972507		0.422828		0.471106		-0.146723		0.893817		0.326683		-1.15473		-0.410565		-0.0627981		-1.10968		0.154011		0.924731		0.748824		1.57128		0.615921		-0.0431104		0.8032		0.228727		-1.17793		0.0466063		0.398315		0.410294		0.477745		-0.353693		0.58834		-0.0317548		1.65828		1.51971		-0.633394		-0.169552		-0.730589		-0.258121		0.118975		-2.04248		0.319623		-0.447512		1.99388		2.8727		-1.10152		-0.0234539		0.0479867		0.0397655		1.742		0.218298		-1.05945		-1.05824		0.754921		0.742011		-1.34562		0.911416		-1.04002		-0.771978		-0.82697		-0.768793		0.0403007		-1.66034		-1.04282		1.50175		2.23051		3.15632		-0.317252		-0.342313		-0.121836		0.702606		-0.204146		-0.0660266		-1.92959		1.96386		1.09331		1.26581		-1.1006		-1.12132		-0.612128		0.0905503		0.931451		1.8994		-0.105613		0.468524		0.704204		0.652107		0.891927		-0.936529		0.837334		-0.36014		0.755019		-1.48687		1.2162		0.583234		-0.134192		1.62236		-0.0676402		1.42661		-0.554057		-0.0406053		-1.0198		-0.0451431		-0.650798		-0.804508		-0.258139		0.599799		1.60585		0.893665		0.275963		-0.566434		0.70238		0.812617		0.735913		0.305056		-0.527733		0.0160055		0.686412		0.644508		0.199031		1.23578		0.193917		0.50635		0.194009		0.572029		-0.216742		-0.432318		-1.79653		2.39924		-0.786225		1.11563		0.495271		0.476676		1.50803		-0.291247		0.174235		1.06149		-0.63343		0.76979		-0.794272		-0.633003		1.01627		-1.63575		-0.228571		0.814627		-0.437305		0.96891		-0.515934		2.33163		-1.02533		1.36525		0.191047		-1.67333		1.35401		0.981556		-1.30356		0.105683		-0.774109		1.06842		-0.0635985		0.0442638		1.24504		-1.5692		-1.79148		-0.985876		-0.318431		0.695638		1.29406		-0.157751		1.82323		-2.24703		-0.870466		-0.883984		-0.269777		-0.341388		-0.922289		1.21497		0.864144		-0.0857225		-0.631503		0.704488		0.355684		0.0865995		1.40842		-0.915143		0.503737		-0.771383		2.54234		0.00734534		-1.51966		0.979636		-0.622812		0.659122		-0.500767		0.0735462		-0.183987		-0.32053		0.298705		-1.63063		0.294239		0.517332		-0.0122805		0.330252		-0.351378		0.473511		-0.61511		0.117629		1.60398		-0.621527		-1.56273		-0.436822		0.554314		-0.0733364		-0.479877		1.23313		0.524126		0.478804		-1.65424		0.0335718		1.58661		-0.327482		-0.267042		-0.0956236		-0.459114		1.22438		-0.50792		-0.413668		-0.237589		-0.116985		0.857591		-0.05046		0.286974		-0.745272		1.87467		-0.108675		0.334107		0.430369		0.107385		-0.384829		-1.5216		-0.90234		1.7189		1.79647		0.804195		2.00781		0.797624		0.790082		1.3827		-1.15178		-0.126952		-3.25441		-1.54925		0.228063		-0.377581		-0.783955		0.623034		-1.10024		0.171313		-1.34035		-1.43287		0.0980946		0.192937		1.22757		-0.0973843		-1.54727		-0.955377		0.098252		-1.25835		-2.04845		-1.30189		1.23841		0.266486		-0.121427		0.949563		0		
-1.4973		-1.3701		-0.283639		0.0127781		-0.185098		1.08595		-1.79082		-1.71469		0.457448		-0.921566		-0.630681		-0.950617		-0.776534		0.710259		-0.713124		-0.150453		0.311272		0.438201		0.437542		-0.794636		1.896		1.05589		0.48483		0.48687		1.09888		-1.10977		0.0865026		0.737938		0.0572027		-0.191133		2.46681		-0.781504		0.888351		-0.912351		1.14965		-0.0230653		0.415375		-0.524859		0.0233001		1.16041		-1.91616		-2.0008		0.803963		0.283429		-1.27615		-2.22397		2.19263		0.398946		-0.121986		0.124505		0.311603		-1.06057		1.76663		0.927405		-0.166832		-1.08624		-0.103269		0.480493		2.02546		0.969133		-0.452988		-0.799459		0.415889		2.13149		-1.0707		-0.665232		0.215715		0.895106		0.0544024		-0.421635		0.103972		-1.66215		-0.335136		-0.448079		1.04307		-0.550313		0.673114		1.02699		-0.552501		1.90058		-0.463803		1.27499		0.827218		-0.179082		1.01265		0.636484		0.253085		2.06215		-0.770132		-1.48846		0.591447		0.0302268		1.08339		0.0276136		1.14375		-0.635012		-0.480296		0.133614		2.73553		0.337761		-0.33881		0.162864		0.3062		0.291123		0.408108		0.272106		-0.145747		0.25429		-1.32796		1.61182		-0.658647		-1.08561		-0.670924		0.654906		-0.977409		-0.443429		-1.13107		0.416415		0.854031		-0.265864		-0.628603		-0.316215		-0.0706317		0.561263		-0.367863		0.476351		-0.914041		-1.53274		1.1012		-0.270823		1.69443		0.552063		-0.0575454		-0.000195061		-1.9121		-1.56544		1.8857		-1.14172		0.264096		-0.80631		0.633552		1.03511		-0.469684		-1.99643		0.13178		1.94532		0.377599		-1.83083		0.164963		-0.505913		-1.28453		-0.133478		-0.206869		0.698669		0.929993		1.54607		-0.214857		-0.580071		-0.234278		0.242073		0.672598		-1.0873		0.90878		-1.06699		0.0609664		-0.67015		0.575491		0.506989		0.726053		-1.92383		-0.6096		-0.717116		-1.24564		-1.49786		0.324082		-0.267137		-0.152326		0.18818		-1.77148		0.059385		0.188938		-0.101326		-0.69913		-1.09907		0.537772		-0.780023		-0.515628		2.07903		0.0420211		-0.131052		-0.0815508		-0.834815		-0.441792		-0.968062		-0.364491		0.326726		0.0788957		1.9628		-0.388413		0.9564		-0.423053		0.124409		-0.381594		-0.855516		-0.301871		0.174073		0.887822		-0.933902		0.929675		-0.122545		0.802834		0.454398		-0.376205		0.369715		0.204652		1.11443		-1.60636		0.143261		0.539708		-0.5591		1.04596		-1.75116		0.0613225		0.277454		-0.0654749		1.18725		0.986041		-1.41464		0.104615		1.64267		-0.236398		0.71316		0.495377		0.385449		0.423694		0.12179		0.941496		0.673901		-0.49007		-1.12297		-0.138748		0.280978		0.217851		-1.31629		1.55042		0.301968		1.41197		0.756481		1.57122		-1.08749		-0.260839		-0.153426		-0.113915		-0.565343		-0.650699		-1.13781		-0.555737		0.0542222		-0.798464		0.0307915		0.227671		-2.03318		-0.125561		-0.570808		0.769776		0.732373		0.748503		0.683514		0.404828		-1.19662		0.634749		1.7271		0.17937		-0.516418		1.6233		-1.05566		-0.167704		0.281657		0.0031066		-0.808651		-3.12769		0.18508		-1.32277		1.90041		-0.961936		-0.0714463		1.27345		-0.443802		-1.2261		-1.38725		-0.902549		-0.435237		-1.19402		-1.57021		-0.261263		-1.13175		0.0757862		1.69403		-0.56797		1.18687		1.1553		-0.700132		0.166918		0.621991		0.93096		-0.0174232		0.21352		-0.0679446		0.408869		0.864522		1.13069		0.00138958		0.169204		-0.163934		-1.48654		0.752965		-0.0239263		1.37053		-0.840058		-1.27492		1.38662		-2.68523		0.715897		0.0888561		0.128854		1.40815		0.38144		0.412296		1.89492		-0.124766		0.802935		0.604468		-0.130647		0.31728		-1.56627		-0.219968		-1.10111		-1.94927		-0.374766		-0.540538		0.955254		0.128935		-2.21276		-1.69161		1.28454		0.106084		-0.824199		1.24516		0.307678		0.868075		0.849128		1.98364		-1.56534		-0.712714		-1.41599		0.445198		0.36613		-0.825025		0.0888094		-0.153906		-0.770353		0.636175		-0.316213		-2.07618		-0.076484		0.33601		-0.221265		1.42911		1.15197		1.09769		0.413736		0.0686191		1.34133		-0.698654		-0.732547		1.23979		0.591183		0.0885604		-1.87627		-0.549975		-0.810159		-0.661331		0.526716		-1.03093		-1.1054		-0.103386		-0.795605		-0.350552		-0.228287		1.74016		1.72782		1.08965		-0.545933		0.426947		0.440773		0.703695		-0.482389		1.60115		-0.175681		0.0439946		1.34875		0.738339		1.63007		1.29797		-1.4647		-2.31813		-1.43781		-0.514582		-1.31487		-0.914352		0.275123		-0.802301		0.601258		-0.222058		0.01146		0.587634		0.0395571		1.17363		-0.0236217		-0.11725		-2.1592		0.109143		0.291035		-0.466456		-1.15556		1.20226		1.67562		-1.31324		-1.11073		-0.0931941		0.237113		-0.295257		0.179767		1.38928		0.708497		-0.629165		-1.19002		-0.472986		1.19037		-0.957488		1.08378		-1.41019		0.622138		-1.49245		1.51312		1.31561		1.95725		-0.14918		2.26937		-0.0222579		-0.577861		1.08455		-1.34574		-0.911014		-0.298925		0.135113		-0.0619997		-0.253059		0.53664		0.607852		-1.34778		-0.257549		0.651425		0.349628		0.178983		0.55752		0.244893		-0.767969		-0.969249		0.995677		0.333884		0.2575		1.26121		0.769676		0.428387		-0.772494		-1.35495		0.818536		0.0613049		-0.221917		0.162598		1.95375		-0.252083		0.713228		-0.0641024		1.87098		1.93274		0.0282667		0.799019		0.113106		1.13796		0.62925		-0.0325602		1.25669		0.964446		-0.566035		-1.44202		0.502033		0.499402		0.28828		0.00827231		1.23179		-0.385		0.417366		-0.0247721		1.61482		-0.245993		-0.942945		0.386704		-1.32029		-0.746242		-0.31545		0.382502		-1.10888		-0.702347		0.169715		0.951251		-0.0632974		1.21226		-0.712038		0.0293888		1.53518		-0.182519		-1.2459		0.901168		0.849911		-1.68593		0.493653		-2.68293		0.670236		-0.108469		-0.340534		0.902763		-2.10407		0.0967957		-1.54643		1.56374		-0.455382		-2.47928		-0.741898		1.44988		0.506444		-0.00200581		0.249463		-1.46501		1.72288		0.472672		-1.048		0.132227		0.254605		-0.0514158		0.220244		-0.44432		-0.354937		-1.34611		0.0703357		-2.35252		-0.454065		0.281474		0.204068		0.833478		-0.707353		-0.0323018		-0.650682		-0.938559		-0.433102		-0.223095		-1.16347		0.500272		2.14736		0.33317		-0.924931		-0.667799		-1.0754		0.361608		0.920082		-0.000765587		-1.09919		-0.0839447		-2.51856		1.68913		-0.430943		0.558646		0.0670955		-0.756521		-0.399339		-2.11902		-0.85083		-0.847298		1.13582		-0.19121		1.02472		-1.87635		-0.670458		0.955662		-0.449632		-0.309765		1.56206		-0.921019		-0.435643		1.33411		2.20085		-0.131026		0.0208507		0.281845		-0.958426		1.40867		2.19152		0.303111		1.74453		-0.651833		-0.467671		0.468508		2.16493		1.07539		-0.555869		-0.672509		0.0204099		-0.21175		-0.992566		1.18297		0.343934		0.139929		0.560096		0.526898		-0.916519		-0.402906		0.56152		0.126718		-1.39061		-0.411983		-1.14119		1.35788		1.68602		1.43546		-0.880217		-1.26967		0.177823		1.38398		1.3395		-0.787154		0.114886		0.530787		-0.185022		-0.345277		-1.22174		0.509699		1.0906		-2.09836		-1.53043		1.30207		-1.50698		1.33928		0.165664		1.18767		0.85124		-2.44828		-1.25556		-1.92834		0.857256		-0.571951		-0.147431		-0.847138		-0.837881		0.303479		0.167122		0.495837		-0.136374		-0.151223		1.54313		-0.995971		0.500374		-0.576294		-0.44773		0.493807		-0.924178		-0.421239		1.32815		-0.190258		0.971156		-1.68795		0.500614		0.223126		0.107965		1.69497		0.841555		0.84575		1.18434		-0.588248		0.254217		1.20478		-0.483442		0.672401		0.737273		-1.63085		0.118745		1.14575		-0.496283		-0.84817		0.77814		-1.13721		-0.804559		2.13253		1.43727		-1.13978		-0.912581		-1.58969		1.7411		0.469034		2.12161		1.57556		0.273746		-0.629005		0.385414		-0.645192		0.406386		-0.145443		-0.19444		1.47602		2.2536		-0.113733		0.256052		0.178563		1.72853		-0.308578		-1.64653		-1.10002		0.194659		0.721955		-1.28359		0.224537		-1.31648		-1.22823		0.28076		-0.0428307		-0.313522		-0.246315		-1.98561		0.30665		1.24873		0.878329		-0.367049		-1.2258		-0.173673		0.618509		1.00924		1.41629		-0.913415		1.4959		-0.478929		-0.238578		-1.32063		-0.0750741		-1.32113		-0.16307		-0.201113		-1.1966		0.511914		-0.0985581		0.0133113		-1.44405		0.582734		0.330759		0.732707		0.370537		-1.38144		0.488004		0.967573		0.364606		1.12107		-1.23946		1.54066		-1.46002		2.8271		0.571011		-0.20816		0.282081		1.49682		0.18764		-0.796628		-1.58581		-0.713264		0.973563		-1.29988		0		
0.540602		1.07198		-0.699774		-0.226413		0.451199		0.265155		-0.488611		0.365372		0.0832796		-1.36844		0.148706		0.537111		-0.839994		1.42977		0.292522		0.557619		0.392543		-0.809021		1.05399		-1.09484		-1.0512		-1.08072		-0.806202		-0.1277		-0.201765		-0.112693		-1.46391		0.00498622		0.740721		-0.846469		-0.589742		0.530504		0.427258		0.202685		0.506663		1.70397		-0.668972		0.0835471		0.128323		-0.504534		-1.24131		-0.254112		2.44842		-0.780767		0.0972285		-0.529931		1.0347		-2.63045		2.44359		1.06646		1.00011		1.31452		-0.27142		0.359437		-1.02441		1.097		-0.468276		0.816787		1.29963		-1.3976		-0.736858		0.336844		-0.0930728		0.465459		0.230779		-0.712091		0.847308		0.245359		0.994398		0.358261		0.691508		-1.1242		0.366385		0.477867		1.50361		-1.15557		-0.913197		-2.16805		0.87711		-0.705367		1.17302		-0.572759		0.969823		-0.212686		0.0118815		-1.00202		-1.39906		-1.46433		0.366719		2.0158		-0.422253		-0.782889		0.13388		0.848214		0.702765		0.0569418		-1.28601		-1.47109		-0.558161		-0.26588		-2.32895		-0.317291		0.339795		1.05219		0.0424147		1.59956		-0.665742		1.09178		-0.259011		-0.458687		-0.628205		-0.0943233		-1.14966		-1.30825		-1.82152		-0.080773		0.403105		0.877998		-0.403833		-0.70677		0.556671		-1.30716		-0.79035		-0.316965		0.860862		-2.28114		-0.1383		0.69426		0.230851		0.550364		1.91831		0.442495		2.26991		0.830802		0.901771		-0.263039		0.639734		-0.144246		-0.0162893		2.15535		0.723221		-0.672418		0.697166		-0.101363		1.61041		1.05777		1.3036		-0.470783		-0.239414		0.0471076		0.532314		-0.605099		-1.96973		1.79908		-1.37685		-1.04635		-0.52879		-1.2357		-0.295706		0.58918		-0.683442		-0.358598		1.29925		2.78015		1.37169		1.92845		0.157949		0.137024		-0.62029		-0.224667		0.194643		-0.271606		-0.0147888		0.891073		-0.472593		0.748196		0.941901		1.05548		2.37623		-0.336728		0.605779		0.0444579		1.35402		-0.644813		-0.474745		-0.967152		-0.0716353		-0.851771		0.588805		-0.494285		-0.930425		-0.820869		-0.432399		2.11081		0.373169		-0.692195		0.514628		-0.243378		0.92989		-2.29185		-0.333272		1.55893		1.3933		1.37124		-0.166538		-0.940027		1.10556		0.841089		0.25594		0.756986		0.30119		-2.31302		0.222097		0.145568		0.518843		-0.499478		0.163421		0.33977		1.74389		-0.259969		-0.429501		0.131008		0.942641		1.29551		1.49984		0.20801		-0.166319		-1.70581		-1.42152		-0.0967169		2.2668		-0.0440998		1.16247		1.67235		-0.806959		-0.983772		1.27332		-0.0967311		0.448021		0.800059		-0.299169		-0.571688		-0.816123		0.239055		-1.12346		-0.444712		-0.659108		-0.220978		-0.0849683		0.659739		0.109374		-0.895349		1.29541		0.546406		-0.237655		0.338885		-0.593756		-0.651457		0.529118		0.258918		0.92699		-1.48705		0.0587808		0.594128		-1.00775		0.551625		0.227816		-0.408708		-0.681362		0.854985		-0.284919		0.517087		-0.113635		-0.292159		0.492851		-0.0774716		-0.57121		0.354822		-1.05103		0.0773676		-0.103173		0.400629		-0.987692		0.461531		0.617901		0.915811		1.51145		-0.448701		-0.531051		1.31591		3.51751		0.213466		-0.132433		1.75286		-1.08822		0.0113075		-0.0858359		1.59085		-0.552563		-0.408467		0.638436		-0.0483181		0.126495		-0.840875		-0.520234		-0.107542		-0.97667		-1.96516		-0.159147		0.455565		-1.41461		0.496798		-0.259207		-0.404199		-2.64531		-0.0888099		-1.60082		0.334988		-0.136683		0.340524		-0.173028		1.60199		0.304906		-0.858665		-1.69029		1.12781		0.808208		0.0857431		-1.30206		-0.805634		1.17597		0.643562		-0.546807		1.68637		-0.245066		1.11203		1.13537		-0.726544		-0.047012		-0.709385		0.134729		-1.20642		0.787832		1.79731		0.293836		-0.328542		-0.109513		1.11325		-0.643019		-0.199506		1.27008		0.337758		0.0240095		-0.244629		-0.565259		-0.762659		-0.333391		0.619044		0.170263		-0.340953		-0.431622		-0.644766		0.417055		0.270081		-0.849702		0.206757		0.139347		-0.645151		0.250356		0.881404		-0.690129		1.31231		-1.91973		0.998467		-0.49227		0.96937		0.642892		0.11449		-0.941705		0.781069		-0.208511		-0.880216		-0.756504		-1.08772		-1.96108		1.07477		-0.100327		-0.574185		0.0170488		0.127059		1.27968		0.158381		-0.525813		-0.00355652		0.730681		-1.36358		0.298328		1.10476		0.504998		-0.789841		-0.501703		0.764716		0.373505		-0.754285		1.12032		0.0888714		1.06525		-1.5028		1.19432		0.663404		0.800625		-0.0736347		1.32792		-0.202451		-1.00554		-0.637535		0.377114		-0.421863		-0.241028		0.629356		0.651618		-0.151802		-0.723063		0.0122412		1.64011		-1.5275		-0.547347		-1.08099		-0.446928		-0.923266		-0.840311		1.99261		-0.597642		1.2247		0.916232		-0.421109		0.355268		0.227755		-0.343676		0.180978		0.385537		0.390774		1.56187		-2.18433		-1.50256		1.39205		0.176171		0.161481		-0.0727088		0.198366		-0.751498		-2.44199		-1.09773		-1.40162		-0.0502977		0.322997		0.783003		-0.73584		-0.267874		-1.47867		0.669489		0.636531		-0.0995187		1.2718		-0.744555		-0.177871		0.522941		-0.461814		0.860797		1.67897		-0.510781		-0.207705		0.227384		2.76545		-0.588813		0.180041		-1.35721		-0.155091		-0.0543977		1.70716		-1.01327		0.523321		-0.245887		0.114636		0.17504		-0.185473		-0.427088		-0.239196		-0.141901		0.433168		-0.761426		-0.837093		0.160749		0.49708		-0.741832		-0.0751688		-0.0643806		0.939553		0.339186		-0.0332957		0.307996		1.2582		0.327896		-0.638804		-0.0862734		0.924419		0.531531		0.856942		-0.0463076		0.538661		0.0950333		0.175044		0.507542		-0.109357		-0.446076		-0.0958847		1.4946		-0.976629		0.823028		-0.816408		-0.54809		1.09391		-0.00742009		1.82163		-0.638664		-0.515753		1.48722		-0.893681		-0.451621		-0.599268		0.454943		0.70179		0.870973		0.84818		-2.50232		1.49268		1.40276		1.19038		1.20208		-0.285154		-2.41232		1.12113		0.035709		-0.942846		-0.170954		0.177745		-0.39808		0.589		0.423325		0.382306		-1.54719		-1.25245		1.27005		0.000253568		-0.268978		0.260741		-0.102174		-0.847723		-0.261038		-1.36052		-0.130751		-1.16123		0.820359		2.99399		-1.21527		-0.153888		0.109665		0.629326		-0.0532109		-0.440377		-0.418584		0.0521364		-0.938456		-0.940443		2.12		-1.68931		0.906954		0.863946		0.228396		-0.489892		0.766293		1.45737		-0.204304		1.05876		-1.69594		0.307717		0.0368958		-0.805323		-0.102062		-0.790009		-1.70896		-0.572713		-0.350027		-0.911477		-0.298847		0.414064		1.17329		0.646249		-1.79482		-0.023252		0.123		1.49012		-0.335441		1.72223		-2.95005		-1.40837		-0.990659		-0.919936		-0.00175285		-1.26705		-0.210974		-0.885966		-0.774312		-0.0868776		-3.23948		0.32949		-1.17602		0.175913		1.15479		0.445608		0.0805927		-0.713394		-0.0919455		0.0519235		0.415772		-0.685848		0.2067		0.782572		-0.61856		0.972313		0.115774		-1.97145		-0.398001		-1.38794		-0.809149		0.0464091		-1.70484		0.00206748		0.736604		0.593135		0.128221		-0.430721		0.276969		1.97424		1.2661		0.253894		-0.238579		-0.413469		-0.412056		0.739263		-0.0216463		-0.0755673		0.502016		-1.08637		0.369802		-0.893195		0.277705		-1.25287		-0.174055		0.491055		-0.106987		0.92669		1.01556		0.45377		2.80763		0.557628		1.66635		0.561924		-0.352006		-0.176642		0.619894		0.508574		0.697263		1.07815		-0.222291		-0.13577		-0.594786		0.236405		0.00738105		-1.20686		0.100505		0.742359		3.02337		-0.068166		-2.809		-1.36985		1.71187		-0.228881		-1.13917		0.468924		0.60735		0.130863		-0.035555		-0.675265		-0.0584322		0.20399		-0.562893		-0.433675		0.123743		-0.20438		-1.21007		2.46187		2.18586		0.740625		2.31675		-0.439671		1.45194		1.2645		0.633137		-0.574912		0.05256		0.54826		-0.36509		-0.910703		1.42311		-0.384657		0.530387		1.50788		-0.544398		-1.8869		2.42747		-0.0985532		-1.08335		0.45789		-0.401967		0.747498		0.780047		-0.359781		0.464322		0.819546		-2.11602		0.98282		1.79976		1.09631		-1.72857		-1.00087		-1.05671		-1.22572		0.895615		-0.393605		-1.5863		-0.501117		0.027868		0.00352942		-0.130002		-0.389868		-0.703027		1.62589		-0.984124		-0.541728		1.18764		0.319892		-1.41503		1.0482		-0.343644		1.2027		0.339423		-1.96638		-0.197435		-0.83184		-0.100047		-1.5355		-2.07547		-1.19505		-0.144106		-0.633097		0.2645		-1.22922		1.34051		2.01482		0.780699		-0.19771		0.579929		2.09485		1.61001		0.712844		-0.420989		-0.0655213		0.43638		0.422903		0.0208921		0.35015		1.01439		-1.91382		0		
0.328291		-0.142492		-0.532809		0.362843		-0.0576324		1.44838		-0.975173		-0.449514		0.752576		0.72356		-0.737916		0.210211		-0.268698		0.0159897		-0.24093		1.61163		-0.804333		-0.0577634		-0.880574		-1.13187		0.227705		-0.302257		-2.3712		0.807457		-0.327619		0.92437		0.225256		-1.37552		1.11586		0.924045		-0.171575		1.41265		-1.42899		1.12532		-1.34705		1.68802		1.43823		-1.53649		-0.533118		0.157018		0.520997		-0.828024		0.774018		1.20164		1.03943		2.2603		0.990712		1.10581		-0.769036		0.282147		0.842302		-0.268978		0.765959		0.316961		1.76638		-0.165244		0.136459		1.59146		-1.0442		-0.694119		-0.949892		-0.0185523		0.314955		1.68074		0.267699		-2.46351		-1.10216		0.925695		-0.921971		0.834786		-0.429704		-1.51396		-0.297937		0.447469		-0.442266		0.366368		-0.651341		-0.860534		2.05148		2.0357		-0.130047		-0.263713		0.752889		-1.45247		0.600466		-0.61452		-0.277126		0.7781		0.837721		0.438215		0.0511256		-0.400792		0.208359		0.428238		-0.378257		1.63028		0.372815		3.15372		-0.830841		-0.302588		-0.528142		-0.414258		0.173569		-1.85004		-1.69317		0.502552		-1.46859		-1.47688		-0.876644		1.10288		-0.182391		0.019035		0.871842		-0.806278		1.17811		1.05857		-0.0339998		-0.366978		0.565741		-0.868071		-0.917554		-1.02887		-0.103999		0.60696		-1.86398		-1.87596		-0.183149		-0.380749		1.93921		1.84816		-1.2221		-0.486086		1.03489		-1.33594		0.733956		-1.54575		1.56736		-0.27609		0.676393		0.81573		0.346627		-0.894772		0.517438		-0.699478		-0.590074		-0.252223		1.01023		-1.34265		-0.223487		-0.361928		1.06802		2.20037		1.19489		-0.253184		-1.66847		-0.533631		-0.243964		1.05202		0.153602		-1.89931		0.452427		-0.384791		0.0121816		-0.323955		-0.2363		0.498423		-0.608048		1.39517		2.13728		0.550185		-1.36654		-1.52408		0.796303		1.02898		0.983173		0.26519		0.938149		-0.15406		1.18835		0.158664		-0.580339		-0.961455		-0.901835		0.0607695		0.147819		0.593206		1.74911		1.07788		-1.18934		-1.30332		0.74512		0.568393		-2.21267		-1.88925		1.17006		-0.469734		0.208784		-0.47748		-1.20526		0.206306		1.41644		-0.41071		0.752253		-1.18476		-1.49731		0.646194		-0.114751		-1.05762		1.023		1.40195		0.909031		-1.70213		0.770515		0.55317		1.76054		-0.319536		-0.847218		-0.183417		-1.99753		-0.0297814		0.344981		-0.392033		0.538246		-0.902833		0.301006		-0.656425		-1.66053		1.28338		0.146532		0.509543		-0.72604		-0.239501		0.373711		-0.356962		0.571726		-0.735237		0.815703		-1.56146		-0.284905		-1.64821		0.192175		0.668274		-0.499044		-0.79924		-0.213654		0.254642		0.154209		0.288712		-0.467389		-0.46905		-0.765393		0.853962		1.13003		-1.56967		-0.703598		0.465423		1.06767		0.806126		-1.90124		1.10561		0.0663048		0.484931		0.510955		-0.191279		0.380181		-0.0683592		0.340574		1.81733		1.16515		-0.400865		-1.51186		1.24925		0.22935		0.368774		-1.69883		-1.26388		-0.832402		-0.787706		2.28784		-0.536396		0.374495		0.300006		-0.860501		1.59796		0.531149		1.02848		2.53619		-0.0777093		0.19534		1.49724		0.570449		0.676495		0.934035		-1.14999		0.357359		0.10733		0.481612		-2.26431		0.740126		-1.71042		-0.85302		0.696493		0.208488		1.05758		-1.44331		0.920491		-2.01689		0.558131		-0.434723		-0.446789		0.377225		-0.863818		0.146872		-0.37255		-1.24691		-1.75019		0.367334		-0.763931		-1.46517		-0.00393428		-0.508925		0.405198		-0.0273082		-0.59568		-0.660186		-0.245748		0.0254908		-0.623638		0.688913		-0.219565		0.111708		0.810706		0.186372		-0.0985358		-1.88797		-0.518062		1.01043		-0.38273		-1.21291		0.21692		0.626817		0.446903		1.02218		-0.127533		-0.167681		-1.957		0.51461		0.421672		0.993443		0.0707351		-0.316885		2.4434		-2.47542		0.109669		-1.18189		-1.27703		0.758216		0.287921		-1.41418		-0.0744757		0.650633		-0.65847		-1.62162		-0.688372		-0.00933092		-1.37849		-0.997561		0.505763		1.02606		-0.0124933		0.772277		0.113637		0.371577		0.26483		-0.0463985		0.404351		-0.963411		-0.919476		-0.4336		0.36199		-1.52702		0.22795		0.1096		-2.11938		-0.949715		-0.532438		-1.24705		0.914158		-1.39666		0.36727		1.31809		-0.266964		0.953768		0.384946		-0.192327		0.945308		0.522147		1.05863		0.625738		0.33539		-1.06863		-0.970472		-0.098667		-0.272234		0.913656		0.677093		-0.749256		0.388352		-1.05771		-1.34737		1.69018		-0.679255		0.76616		1.45398		-0.02524		-0.707792		0.203693		0.118518		-0.587351		-0.974942		0.72324		1.30375		-0.667304		1.72472		0.408666		0.773549		1.88121		-3.26599		-0.387271		0.179257		-0.801512		-0.135181		-1.19259		-0.682192		0.7054		1.39328		0.987555		1.09087		1.10305		0.534445		-0.389306		-0.458204		0.0900944		-0.238183		0.658814		0.694296		0.40133		0.606572		-0.196804		0.0909976		1.04649		-0.762061		-0.212382		-0.915461		0.284138		-1.03907		-1.5495		-0.1984		-0.121122		-0.970114		0.230062		-1.65988		-0.212738		-0.666287		-1.3268		1.45476		0.0590092		-0.864296		-1.20467		-0.616699		0.102398		0.801263		0.575338		0.637117		-0.103919		0.110007		0.577815		-1.19964		-0.990721		-0.551098		1.51643		0.814949		1.7334		1.35702		-0.14874		0.0102734		0.484575		-0.887837		-0.879601		0.718738		1.65957		-0.904377		0.99569		-0.898078		-1.33004		1.08181		-1.59846		-1.78532		-0.828376		-1.29644		0.882953		0.412319		0.637775		-0.258733		-1.62393		0.237963		-1.07461		0.0189691		0.156928		-0.556443		-0.694256		0.745548		-2.47632		0.466286		-0.403416		0.0867978		1.07411		-0.731142		1.35679		-0.160865		0.0314865		0.437382		-0.423251		0.700069		-0.797041		0.550018		-0.375436		-0.483188		-0.0603885		0.441761		-1.17363		1.03335		0.316587		-0.472023		0.838818		0.0365118		-1.22196		-0.234065		-0.458722		-1.33732		-1.22252		0.358073		-0.0748219		0.76702		0.0875086		-0.903039		0.655928		-2.45729		-0.282336		-0.25892		0.557443		2.31825		-0.124206		-0.441066		-1.03956		-2.04123		-0.859903		-1.80145		-0.398028		0.781666		-0.504895		-0.54019		-0.244757		0.502012		0.640057		1.09872		-0.045883		-0.434734		1.26594		1.19617		-2.99247		-0.139801		-0.339103		-0.451079		-1.10414		-0.930063		-1.63119		-0.786254		1.25479		0.501875		0.303532		-0.263044		-0.50929		-1.06399		-1.36244		-0.715886		1.26654		0.377836		1.42512		0.906186		-0.862904		-0.420409		-0.782336		-1.64228		-0.443006		2.46213		1.27535		0.212462		1.29461		0.00824266		1.38607		-0.0998278		0.0919365		1.70345		0.165195		-1.79771		-0.345068		0.080218		-0.811274		-0.516687		-0.668363		-0.0486669		-0.146622		0.775942		-0.166748		-0.604774		-1.14437		0.912334		0.900627		1.11941		-0.163317		-0.328409		-0.540346		0.51033		-0.192354		1.57892		-1.12604		1.98638		0.752313		0.799048		-0.137195		0.0478541		2.24097		-0.51996		0.904449		-0.866876		0.831442		1.54857		-0.69719		-1.01492		-0.532574		0.234188		0.312016		-0.208117		1.55069		-0.690068		2.29572		0.714227		1.03349		-2.99801		-0.674108		1.20652		0.751998		0.575662		0.476709		-0.726124		-1.39547		0.564139		-1.25724		0.732104		-1.20061		-1.19554		-1.52661		0.0951708		-0.202446		-1.48216		0.252684		0.0535773		-1.34095		1.06061		-0.508402		0.04122		-0.306367		-1.3586		0.848419		0.343684		1.19555		-0.260529		-0.802295		-0.854055		-1.15278		-2.92656		1.19447		0.134656		1.06059		0.393526		0.0573829		-0.187		-2.34865		1.45412		0.858465		0.643064		0.919313		-0.340523		-0.818925		-1.77318		0.360519		-0.379438		-0.365836		2.57006		1.17517		-0.192177		0.618341		1.15107		-1.76007		1.58161		-0.513173		-0.847585		-2.16522		-0.108437		-1.16333		1.23604		-0.599728		0.432696		1.58649		1.26926		-0.0406186		0.243081		0.241695		-0.140975		-0.819646		1.70666		0.368615		0.31193		0.306173		1.86106		0.345904		0.625268		0.0353888		0.204874		1.352		-2.1405		0.661423		-0.83245		0.182121		0.547649		-0.152446		-1.72382		2.03672		1.57415		-1.23187		-0.29482		-0.789523		-1.31794		0.137742		-1.18084		-0.0214385		-0.407255		-0.0502816		-2.0086		-0.554433		0.223301		0.250864		-1.80371		-0.386062		0.577214		-1.02079		0.916398		1.25929		0.968938		0.906145		1.18711		0.179739		0.0488521		1.02374		-0.775585		-0.465705		-0.595149		-1.38608		-0.344119		0.630283		1.16283		-1.71368		-1.33708		1.49007		-0.353417		-0.167275		0.838748		1.81581		-0.552188		1.38383		-0.864162		0.114218		0.272023		0		
-0.831146		-1.56664		0.763249		-1.61996		0.743145		-0.145715		-1.2112		0.410085		-0.533264		-0.642449		0.778104		-0.41037		-0.0516165		-0.63596		1.37324		-1.29398		0.811877		-1.24944		-0.192213		0.885625		0.56701		-0.691387		1.23837		-0.320901		-1.15448		-2.33167		-1.19322		-1.69563		0.505181		1.10308		-0.264161		0.464799		0.410549		-1.0756		-2.04792		-0.278778		0.307797		-0.563378		0.203095		1.48702		0.643817		0.160615		0.337524		1.31283		1.1794		1.14336		-0.327508		1.44694		-0.561996		-0.839099		0.804375		-0.234555		-0.482724		0.202307		-0.684493		0.955114		0.146795		-0.881974		-0.115934		-0.611295		0.636506		-0.188736		-0.796861		0.538179		0.91631		-2.01497		-1.07082		-0.887355		-0.237578		0.53514		-1.49329		0.843872		0.28658		0.924889		-0.553962		0.927364		0.0379725		0.0848054		0.490682		-0.444785		-0.728579		-1.2295		-0.00402622		-1.72292		0.199343		-1.83433		0.817775		1.05695		1.2775		-1.0537		1.03705		2.5773		-0.949319		-1.10278		0.383658		0.0982963		0.121617		-0.311622		-2.47808		1.25401		0.475649		0.943637		0.733099		1.66937		-0.687076		-0.863235		-0.700651		0.508325		0.158113		-1.49445		-1.93188		-0.371245		1.66818		-0.169809		2.18921		-1.08129		-1.46597		-0.104968		1.65524		-0.263529		-2.20832		0.317451		0.363272		0.848827		0.580305		-1.05242		0.853065		0.595349		0.991332		1.47661		-1.03293		-0.0957471		0.884942		0.540551		-0.210469		-2.01754		-1.5996		0.849045		-1.09569		1.04454		-0.203702		-0.090253		0.613154		3.21838		1.23856		-0.613334		-0.549635		0.880546		0.265212		1.61583		0.395839		0.865455		-0.645392		2.02552		-2.0332		0.413705		0.0754947		-0.289892		-0.0750734		-0.860172		-0.352717		0.0621652		-1.48253		-0.359591		1.49819		-0.213197		-1.32165		0.743729		0.722565		1.47699		-0.548482		1.67665		-0.243514		-0.26705		0.937174		-0.724685		-0.154456		-0.462432		-1.69673		0.736339		-1.09437		-0.740149		-0.53581		-1.91109		0.110832		0.921256		0.65742		0.0176994		1.64155		-0.0167515		-0.700459		-0.0790133		0.54874		-0.556216		-0.212918		1.16067		0.898996		-1.61514		0.0280028		0.741737		-0.528964		1.70668		0.617605		-1.11262		-1.05072		-0.186215		0.584345		0.328084		-0.891016		-0.0162989		-1.60652		-0.202893		-1.3852		-0.256654		-0.317098		0.672621		-0.141736		-1.42245		-1.32916		-1.12526		-0.164094		-0.413593		1.62519		0.197796		-1.68965		0.361214		-1.58761		1.72291		1.79295		0.998408		-0.987216		-1.14188		0.990286		0.0564822		-1.12553		0.590957		0.30905		-2.1716		-1.471		-2.7423		-1.1477		-0.212885		-2.26603		0.757692		0.160824		-2.35585		-0.424723		1.21212		0.13221		-0.278639		0.954842		0.178007		-0.378733		0.301953		-1.26918		0.0184597		-0.104358		-0.000571009		-2.04499		-0.0679501		-0.664083		-0.41178		1.0948		0.443201		-0.365429		-0.291219		0.15538		1.64457		-1.2388		0.177618		0.208673		0.341409		-0.123559		0.000257538		1.55693		-0.935181		-1.6467		-0.820184		-1.02679		-0.958312		0.365114		-1.14213		-0.423634		0.0849499		1.62837		0.771874		0.372531		-0.975468		0.688576		0.397172		-0.366033		0.456533		-1.59681		1.35848		-0.575555		-1.94947		0.204843		-0.275141		-1.16518		1.08477		0.582565		-0.922378		0.933602		-1.62369		-0.522861		0.217655		-0.310091		0.77132		1.77937		-0.592938		-0.508685		-0.357045		0.0370674		1.06049		-1.66982		0.441242		0.280902		0.622385		-0.9483		-0.897259		-1.74314		1.05943		0.402879		-1.20916		0.0557709		0.797723		-0.565032		1.61927		-1.12069		0.332693		-0.12253		-0.409469		1.2316		-0.834076		0.0315896		0.606387		-0.846871		-1.0104		1.16291		0.198703		-0.856305		0.0180685		0.352814		1.30912		0.0929406		1.4777		0.494753		-0.999268		-0.0104779		0.559569		-1.16892		-0.521545		-0.896545		0.169678		-1.40319		0.343817		0.0266979		0.591435		-1.76194		-0.336668		-0.0841496		-2.2249		1.88807		-0.142976		0.901673		-2.17691		-1.46557		-1.39047		1.01053		-0.211858		0.635514		1.28485		0.560052		1.7365		0.262262		-0.416757		1.46087		-2.00105		0.678586		0.460606		0.898197		0.83185		-0.35375		1.02826		-0.728754		-1.66244		-0.0194684		-1.36363		0.270071		0.49833		0.366968		0.1637		-0.760941		0.968574		0.457727		-0.761411		0.342326		-1.06962		2.32604		0.0866918		-0.892852		0.34796		-0.403537		0.269076		-0.585125		1.59154		-1.56658		1.15386		-0.186053		-0.231646		-0.1422		-0.853031		0.0450165		-0.423502		-1.01766		-1.5193		0.434155		-1.61313		0.8874		-0.306621		-0.169966		0.661477		0.0953351		-0.385028		0.485566		1.15018		0.119881		0.336657		-0.730555		0.211851		0.812884		0.0483317		-0.499418		-1.62179		0.261712		1.78898		1.12687		0.226313		-0.336281		-0.015335		-0.92685		-0.0591549		-1.42171		0.827393		-0.625979		0.152362		0.0682686		0.47451		1.00631		-0.295172		0.689117		-0.239488		0.508155		-1.27193		1.28547		0.13407		-1.29562		-0.4523		-1.51677		-2.31801		-1.28997		0.992807		0.305542		-1.33259		1.7302		-0.0875078		0.523874		-0.401145		-0.511959		-0.512263		1.18718		-0.142403		-0.0869586		1.06147		0.745647		0.298352		0.263111		-1.19193		-1.03132		0.220987		-0.34116		-0.0607382		-0.838784		1.38408		0.307311		-0.0842067		0.581864		1.76561		-0.382811		1.42182		-1.93653		0.407768		2.1067		-0.211122		-1.06808		0.101729		0.978893		0.0360233		-0.0351992		2.46015		-0.391748		1.01248		0.184942		0.594627		0.972829		-1.13007		0.154324		0.498065		-0.554372		0.962112		-1.48802		1.79278		1.06742		-0.411527		-0.65293		-0.706925		0.849891		-0.787502		0.617529		0.99245		0.740988		0.451011		-0.559317		0.525809		0.289951		-0.833897		-0.543775		-1.24217		1.18876		-0.601491		-0.258266		-0.16		-0.715422		0.411644		0.856625		-0.0808361		0.0499142		0.636757		-0.317019		-0.619424		0.501412		0.961592		-0.961093		-2.21741		-0.667704		-0.199637		-0.819758		1.26691		-1.5005		0.521852		-0.275599		-0.133613		-2.54885		0.713094		-0.0970811		-0.484395		2.21796		-0.0429446		-0.191355		-0.474477		-0.406492		1.48929		-1.89629		-0.950486		-0.0136133		-0.76421		-0.216652		0.306255		0.632522		1.33862		0.41858		-0.222623		-0.790027		0.184647		0.144372		0.585341		-1.09763		-0.617912		-0.652057		0.277022		-0.668463		0.373293		-0.0177039		1.68784		0.110257		0.230055		-1.39426		-0.926454		-0.849914		-0.439274		-1.3153		-0.54207		-0.0507127		-0.755864		1.03527		0.0297389		-0.91349		1.1558		0.978734		0.385348		-0.711742		0.842529		-0.185446		-1.12271		0.774592		-0.48275		1.31892		-0.264167		1.43068		0.376266		0.722251		1.49151		-0.282592		-0.430712		-1.13355		0.52374		-0.079957		0.395726		0.728345		-0.166563		0.871009		0.45007		2.18746		0.332164		1.76851		-1.34724		0.400527		1.19153		-1.83263		-0.880378		-0.0381991		-0.0346204		0.0710024		-1.21581		-0.799144		0.451994		-1.62107		1.76677		0.257661		0.66574		-0.322993		-1.49106		-2.99479		0.772176		0.236087		-1.14037		-0.0750908		-0.723127		1.69594		-2.00703		0.484459		-1.92539		0.136221		-1.87434		-1.86384		-0.269727		-0.761354		-0.97316		-1.48392		1.54231		0.96666		1.1065		-0.475846		1.33104		0.258393		-0.6684		-0.689303		0.424183		0.902394		0.341893		0.234995		-0.306521		-1.27284		0.280057		3.84576		-0.121239		-0.504404		-0.0903751		0.193918		-1.09953		0.361114		0.54567		-0.156179		-1.2298		0.506407		-0.851598		1.07761		0.398107		-0.408428		-1.06449		-0.162844		0.780303		0.392986		-0.693365		-0.797652		-2.24183		1.11741		-0.136678		-0.399945		-0.0585191		0.620353		-0.254782		1.25361		1.03949		0.67411		-0.340956		0.0401995		1.27879		-2.31059		-0.76077		-0.271928		-0.446002		0.323454		-0.602088		-1.31703		0.330629		-0.610942		-0.03696		1.36079		-0.98906		-0.25957		0.120743		-0.245099		0.151784		1.08036		0.905889		-1.22637		0.900688		-0.577815		0.616471		-0.0374163		0.537213		-1.22434		-1.63235		-0.0567018		-0.434379		-0.828458		-0.0484701		-0.904142		0.104472		0.770317		1.19674		0.293024		-2.03908		1.3374		-1.1611		0.146451		-0.270397		0.498406		-0.685662		-0.519606		0.414751		0.0425771		0.775778		-0.67641		1.64799		1.64087		0.242284		0.377345		-0.610678		1.08442		0.510119		-2.15451		1.36015		-1.55452		-1.5003		0.779286		0.50349		-1.46598		0.871278		-0.648944		-0.303299		-0.833392		-0.343562		-1.18848		-0.637241		-0.579071		-0.222546		0.426541		0.0819367		1.00157		-0.934298		-1.67115		-0.794189		0		
0.144303		0.779755		-1.40113		0.181067		2.46054		-0.755654		-0.861302		-0.661175		-0.244515		1.39737		0.00997332		-0.543516		-0.778195		1.46932		0.144117		-0.239541		-2.82514		-0.0878686		0.429271		0.323344		-0.205253		-1.36541		-0.650843		1.37335		0.541334		0.217188		0.182832		-0.526693		1.38971		-1.40063		1.82541		1.00635		0.292236		0.57482		-0.026185		1.35322		0.292531		0.86743		0.0740707		0.281545		-0.641767		-1.18794		1.10858		1.10449		-1.12758		0.17519		-1.55302		0.517444		-1.66629		1.07417		2.17221		0.231533		-1.99223		0.710635		0.496442		0.387798		-1.19108		0.225248		-2.48342		-0.38145		-0.794136		-0.510414		-1.77836		-2.13672		-0.00668025		-1.15771		-0.109611		-1.19561		0.981351		0.967808		-0.224497		-1.11994		-0.843485		0.83809		0.0731924		0.208317		-0.480943		-1.5854		-0.85779		-0.183295		0.685589		-0.190038		0.209651		0.575627		-0.928309		-1.05277		-0.792721		-0.818739		-0.255168		-0.566267		-0.152208		-0.334409		1.41778		1.08758		-0.058687		-0.767365		-1.86289		0.514108		-0.338707		-0.195701		1.82719		2.65717		0.454842		-0.615902		-1.10949		-0.242061		-1.26559		-1.29076		0.149011		1.48136		1.44503		0.852208		-0.092414		2.37689		-0.302638		0.465316		-0.111055		0.566894		0.102742		-0.706312		-1.80357		1.49186		0.640319		-1.52396		0.555243		1.29556		0.180782		0.175266		-1.43073		-0.396019		0.186191		0.464168		-0.27775		0.461458		0.67334		0.872967		2.15639		-0.387158		-0.894978		-0.370324		-1.50324		2.31767		0.284993		-1.17282		0.392521		1.87922		-2.43035		-1.42795		0.188691		-0.378143		0.20676		-2.09913		-0.646168		-3.29942		1.35717		-1.14852		0.674594		1.34645		-0.523331		-1.66008		2.39436		-0.816314		0.785418		1.01391		0.18982		-1.55789		0.945646		0.747854		0.734122		1.88002		-0.0336216		-1.57803		1.40446		-0.0312996		-0.371097		0.0511288		-1.4166		0.613747		-1.47038		-0.32311		-0.59691		-1.18462		-0.608978		-1.2291		-0.627952		1.31641		-2.65808		-0.437305		-1.24576		2.04223		0.690619		0.1339		-0.596669		-0.13728		2.47625		-1.81736		0.535586		0.0627067		-0.910544		1.54648		-0.747446		0.916797		-2.34455		0.577161		1.78317		0.105305		1.68746		-2.13942		0.810418		0.255879		-0.743382		0.15537		0.632106		-1.61487		-0.222287		-0.0749299		0.428041		-0.614427		1.17136		1.7881		0.414849		-1.09097		-0.257845		1.91782		-1.0694		-1.08518		0.876269		-0.171379		0.152779		0.775031		-0.884599		-1.55567		0.0471851		-0.866485		0.327856		-0.562294		0.920114		0.732843		-0.138525		-1.24421		2.28545		0.34916		-0.941619		-1.08313		0.114158		0.289824		-0.047718		1.15573		-0.249053		-0.215576		-1.02263		-1.80067		0.194148		-0.721183		0.0258311		-1.68594		-0.110509		0.0326898		0.239034		-1.09608		-0.242931		-0.811652		1.25515		-0.50524		0.0595024		0.797157		1.29777		-2.31666		-0.4986		0.633679		-0.0832823		-0.245789		0.831468		-1.24769		1.39748		0.0112628		-2.29625		0.576143		-1.38405		1.01858		1.13336		1.039		0.338716		-0.0740165		0.272356		0.0632288		-0.147617		0.039028		0.501031		0.727583		0.431962		-0.322269		-0.480032		2.0559		-0.702624		-1.10423		1.60325		-0.701203		0.345236		-1.38894		-0.814821		-0.301468		-1.14656		-0.506193		-0.661613		-0.244647		2.01639		-0.68681		-1.5929		-0.241316		1.05249		0.728459		-0.436899		-1.85329		-0.287161		1.20838		-0.0389644		1.24059		0.0480292		-0.559806		-0.451284		0.926722		1.23496		0.396627		1.66834		-1.13745		-1.04101		0.444658		0.38105		-0.627576		-1.77507		0.0828539		0.316261		0.877766		0.244658		-0.321585		0.664857		0.33138		-1.21548		0.407141		0.803751		0.257028		-0.28714		0.655033		1.26568		0.976547		0.170885		0.425323		-0.25458		0.033357		0.212172		1.54715		0.514698		-0.518398		0.418964		1.65481		-0.129855		-0.114022		-1.02136		0.328466		-0.478269		0.317139		0.162449		-0.368713		-0.00780396		0.0737519		-0.926006		1.03098		0.260889		-0.0502022		0.228543		1.08777		1.46781		-0.625791		-0.163662		-1.12987		1.21534		0.763936		-1.04125		0.279935		-0.424914		0.69807		1.39237		-1.78572		-0.254991		-0.617124		0.298363		-0.295817		0.141625		-0.0492653		0.532037		1.43991		-0.327404		-0.714999		-1.10879		1.30339		0.50528		0.979656		1.83586		0.310786		-1.31212		-0.589402		-0.423383		0.753248		-0.502022		-0.120813		-0.684207		-1.27183		0.104947		0.697299		-0.842775		-1.10558		0.12991		-1.05993		0.178674		-1.43244		0.679759		-0.855725		-2.48494		2.02328		-0.182785		-0.15136		1.29836		-1.98344		0.150578		-0.252298		-0.46929		-0.31312		0.583076		1.15885		0.231712		1.11384		0.452013		-0.617583		0.829058		-0.858432		0.325388		-1.03052		-0.0487559		0.139905		-0.746118		1.25128		-0.999105		-1.52333		0.923583		1.05342		0.751405		-0.983516		-1.17351		-0.539994		0.754253		0.015884		0.827017		-1.015		-0.519318		0.388357		1.15503		1.73023		1.35941		0.468751		-0.838594		0.591316		1.67355		1.34869		-0.169928		0.738896		-0.413042		0.641331		0.0288639		-1.71685		0.482258		-1.07005		0.428359		-0.256823		0.419471		-1.18021		0.0661637		-0.124831		-1.92873		-0.55399		0.484974		0.659898		0.532692		-1.24915		-1.12486		-2.08292		-0.407127		-0.244513		-1.24889		-1.62626		1.28261		-0.402985		0.657498		-0.190104		0.00968439		-0.512518		0.603934		-0.0698958		1.73683		1.39318		2.37347		-0.314499		2.21801		-0.899616		1.34798		-2.28387		0.30608		0.349857		0.85068		-0.0485313		2.08996		-0.364886		2.00851		2.17307		-0.309341		1.87295		-0.949542		0.463536		-0.738329		0.223899		0.299655		0.127042		-0.165409		-0.156538		-0.0633349		-1.47459		0.37034		0.821938		-1.53485		0.143821		-0.306712		0.274049		0.476931		0.439399		1.3216		-0.602944		-1.45809		-1.06689		0.0229372		-0.184185		0.391799		-0.33434		0.81845		-1.21709		1.60149		-0.450082		1.61346		0.0250226		0.79405		-0.417838		0.45705		-0.429952		0.686543		1.55473		-0.916311		-1.66823		0.384025		0.0970563		-0.564164		0.67149		-0.0910294		-1.14874		1.1518		-1.21796		0.545044		0.0498408		-0.232165		-1.27777		0.255019		0.619667		0.664141		-0.690223		0.624083		-0.232663		-0.646065		0.378036		0.62966		-2.1051		-0.296879		0.933774		0.648476		-1.13449		-1.00695		-1.94496		-0.349117		-0.727869		0.0356583		1.86041		0.8431		1.89424		-1.65122		1.67022		-0.418517		0.291003		-0.0397802		-1.54242		-0.0300613		0.331003		-1.28615		0.737092		0.972265		-0.760135		0.741684		1.68074		-1.93584		-1.53636		0.201103		-0.116665		-0.00434187		1.36825		0.941804		-0.043522		-1.15365		0.183309		-0.58579		-1.1555		-0.970925		-1.31011		3.48414		0.452982		-0.851197		0.583155		0.292616		-0.243509		1.53066		-0.422585		-2.37166		-0.116703		-0.73297		2.16477		-0.213697		-0.149406		-0.489744		0.77566		0.580152		-1.07548		-0.00590141		-1.98168		-1.67227		1.36314		-0.233611		-1.21555		-0.532176		1.41755		0.081908		-1.42919		2.20671		-0.145044		0.84942		1.48001		0.935585		0.358914		0.916715		-0.389483		0.868492		1.00565		-0.993804		0.473434		-0.326122		0.894136		0.484933		0.813664		0.752187		0.64007		0.262305		-0.208504		-0.571102		-0.306483		-1.22977		0.28019		-0.726016		0.220622		0.321614		-1.80339		-0.0812619		-1.0295		0.0635774		1.18951		0.00132993		0.373822		1.57192		1.25401		2.12043		-0.612395		-1.37313		0.559122		1.26724		-0.641454		1.43789		0.818139		-0.391248		0.80001		-0.063702		1.09823		0.63288		-1.17168		-0.699136		1.41585		-1.51858		-0.538934		1.7121		2.82185		0.83099		0.439289		0.0937117		-0.144745		0.583024		0.945913		0.640145		-0.182592		-1.36304		0.0164752		-0.377542		-0.747817		0.937044		-1.17142		0.774384		-0.454199		-1.67031		0.218127		0.971047		-0.76718		0.629495		-2.44418		0.532229		0.160363		0.356535		-1.27293		-0.84012		-0.606901		0.745503		-0.556776		-0.326756		0.903644		1.86933		-0.711113		1.46359		-0.681144		-0.664385		-0.520532		1.59123		1.39954		0.719016		-0.210849		0.610047		-0.540619		1.02087		-1.39643		0.356936		0.147217		0.0469801		0.285913		0.0113902		0.042342		-0.142983		-2.23311		-0.687505		-0.796528		-0.0405997		-1.60731		1.18364		0.315502		0.509248		1.07482		2.34349		1.77533		0.348905		-1.42824		-0.257815		-0.0468687		0.735196		1.20307		-0.695731		-0.694527		0.90784		-0.474426		-1.76805		-1.0536		1.15033		-0.142397		0.525875		-2.37207		-1.45269		-0.99244		0		
1.33561		-0.3851		0.534141		0.26298		-0.321737		1.98983		-1.41315		-0.0109493		-0.507007		0.3677		-1.1516		0.506364		0.975245		-0.551586		-1.85837		-0.430049		0.499179		-0.00509875		0.716899		-0.0202167		0.471284		-0.20858		-0.920245		0.384907		-0.580223		1.1184		-0.100945		0.82107		1.51157		-1.28466		-0.00627718		-0.696048		-0.383713		0.404541		0.939145		2.58342		-0.232811		-1.48794		-0.649038		-1.23253		-0.193409		0.248213		0.149824		1.346		-1.1665		1.08435		0.429317		1.57694		-0.624678		0.371036		-0.738748		-0.893148		-1.357		-0.672391		-0.233		0.686407		0.860695		-0.138219		-0.422792		-0.681176		1.83883		0.157856		0.604004		-0.226134		-0.307129		0.1366		-0.347486		0.0330447		0.736722		-1.33516		0.115211		-0.0414142		-2.1167		1.39755		-0.215656		0.587156		-0.86184		-0.676085		-0.577583		-0.650447		-1.5472		0.587522		0.21244		2.43468		-2.5427		0.715408		-0.377652		-1.07787		-1.92423		-1.08108		1.35082		-1.15058		-0.796368		0.90604		-0.626976		-0.403833		-1.33232		1.23402		-2.07391		-1.90416		0.282638		-0.643263		0.815392		0.906377		0.155053		-0.860352		1.74081		0.399111		0.791589		-0.239489		1.32855		-0.799401		-1.72658		-0.309126		-0.185539		-0.0303634		1.58118		-1.30116		-0.774761		0.713257		-2.02215		0.867632		0.224993		0.171962		-1.60916		-0.0604365		0.444128		0.61939		0.0926297		-0.144084		-0.398357		0.876138		-1.1851		1.43529		-0.0178963		0.47608		-0.131492		-1.64574		0.352906		-0.801054		-0.475862		-1.40419		1.35727		0.0028047		0.127126		-0.494012		0.464297		-2.134		-0.458292		-1.00119		0.905798		0.734021		-0.914246		0.9226		-0.232137		-0.627306		1.91201		-1.23313		1.12313		1.71699		0.771581		1.31089		-0.30481		0.257662		-0.499942		1.58591		0.451689		2.63719		-0.15969		-0.711971		-0.273557		0.707916		0.842848		0.53191		0.604207		1.12501		-1.17836		0.573689		0.15733		1.12228		0.190666		0.740456		-0.366636		1.27035		-0.79128		-1.09321		-1.65002		-1.45928		1.56583		1.51014		-0.083378		-0.769259		0.453631		-1.89877		-0.626787		0.797325		-0.919138		0.647078		0.396031		1.00899		-0.594911		0.0139925		0.437394		-0.808326		0.772581		0.421467		0.0601404		-0.168645		-0.252706		0.106861		-1.4185		0.796281		-1.8907		-0.202621		-0.198605		0.455698		1.16885		-0.0656957		-1.49647		-0.00926713		-0.889297		2.06491		-0.166744		0.18525		-2.4318		1.14632		-0.861483		-0.282847		0.0225354		-0.789543		2.73128		-0.679511		0.972345		0.863646		-0.589612		1.27507		-0.629904		1.07346		-1.91023		-1.36091		0.338707		0.436093		-1.39545		-0.556431		0.347356		-0.0627097		-0.0418689		-0.389579		0.863724		1.65738		0.704789		-0.443934		0.796056		-0.798493		-0.382303		-0.982385		1.39581		0.546679		0.659274		-2.69829		1.40486		-0.326612		-1.59486		1.1844		-0.10804		1.53261		-1.76502		-0.850363		-1.28202		-0.165615		-0.418561		-0.634144		-0.33916		1.4675		0.904962		1.22433		0.0921715		-0.568964		0.04334		-1.14657		1.43444		-1.32279		-0.164767		0.39574		0.635945		0.571414		0.210609		2.04713		-0.0693884		-0.106254		-1.62193		-0.717977		0.560368		0.141753		0.258216		-0.4139		1.16118		0.414942		-3.14133		-0.480573		-0.130608		0.79388		0.710169		0.354326		1.81877		0.129476		1.3457		-0.558475		0.188865		1.66584		0.435236		-0.668286		0.693621		0.0611074		0.335578		0.314823		-0.167695		-1.01619		0.451772		1.70383		0.00469323		-0.0195574		-1.33866		-1.52029		-0.982463		0.368149		-1.61871		-0.243328		0.271348		-0.981648		0.509847		-0.865557		0.440574		-1.62141		-0.45391		-0.410556		-0.367146		0.173668		0.513379		-0.719505		0.110191		-0.231314		0.477415		-0.0684483		-0.542586		-0.167132		0.275233		-0.00537925		0.437469		0.576408		-0.215656		-1.45069		-0.300059		0.897332		-0.585204		0.797775		1.34049		-0.977203		-0.978975		-1.50151		0.932169		1.68737		-1.76249		-1.30428		0.0257497		-0.348892		-1.94932		0.65782		0.162293		-0.591912		1.12171		-2.06861		-2.05874		-2.47231		0.0326866		-0.409122		-0.308861		-0.620924		0.124914		0.436859		-0.083771		-1.01745		0.637996		0.429721		-0.0296938		-0.663717		0.777945		-0.885468		1.34203		-0.483768		-1.30433		0.671507		-0.52066		0.26165		-2.4127		1.57827		0.662013		-1.1302		2.28121		0.640391		-1.29403		1.45136		1.05813		1.58833		-0.82189		-0.0885508		0.870947		0.41506		-0.219074		1.75845		-0.131926		0.0799356		0.81146		-0.290813		0.128326		-0.692431		1.39213		-0.304174		0.71209		0.172018		1.24504		-2.35595		0.0197521		-0.669677		-0.786376		0.606097		0.496635		-0.830998		-0.194414		-0.778901		-0.692356		0.0564751		-0.501437		0.59774		1.7962		-0.69109		0.118228		0.00423555		-1.51057		-0.384894		0.330669		0.916484		0.567444		-0.28716		0.300225		-0.558775		-1.06955		0.603221		0.201491		0.059322		1.20477		0.302803		-0.387751		0.112512		0.955824		1.17227		0.488838		1.88331		-2.48509		-0.832749		0.959861		-1.16822		0.575877		1.92064		-0.589789		0.772018		-0.914058		-1.18836		-0.583326		-1.32947		-1.51488		-1.44063		-0.336151		-0.64357		0.891218		0.376979		-0.244654		1.96432		-1.45488		0.724359		0.771726		1.0185		0.893835		-0.180374		0.774706		0.393261		0.00866383		0.161687		-1.14246		0.878627		-1.64597		-0.621757		0.684441		0.338753		0.76934		-0.012919		-0.0221882		2.87305		0.296216		-0.157153		-0.0255095		-0.208686		-2.08435		-1.03903		1.01793		0.680481		0.238921		0.161719		0.710917		-0.421618		-0.794129		-1.78375		0.15736		-0.286004		1.78667		0.199482		-1.38772		0.438482		0.643129		2.6503		-2.01513		-0.592202		-1.49876		-0.442115		-1.05979		0.435781		-1.42562		-0.405713		0.0362133		-0.898646		-0.691427		-1.577		1.27614		-1.00592		0.572731		-1.16783		-0.318127		0.555222		-0.944965		-1.1785		0.379623		-0.360788		0.451717		2.84208		-1.35212		-0.226176		0.835014		-0.557945		0.221626		1.09257		0.0915864		0.107637		-3.21212		-0.321249		-1.05674		-1.7909		1.44884		0.614115		-0.659035		-0.393898		-0.726169		-0.493826		-0.366377		-0.422884		-0.0667246		1.06078		0.0337651		0.783201		-0.849829		1.15287		-1.78045		0.448859		1.77483		0.547428		-0.0726796		-0.399207		-0.359061		0.345325		-0.984627		0.678593		0.909444		-0.504561		0.13976		-0.268548		-0.519128		0.745956		-1.19428		-0.710461		-0.787043		-1.45327		0.461154		0.38644		0.0954051		0.74405		-0.124643		0.520472		-0.224271		0.764224		0.123664		0.138035		1.68615		1.08079		0.780273		-0.26733		0.363816		-0.106559		-0.747595		1.06698		0.0637856		-0.411014		0.0457083		0.449771		-0.0400504		0.0551592		-0.714204		-0.0521833		0.233721		2.40098		-0.927751		0.102368		0.817595		1.06512		-1.06967		-0.264751		1.08068		-1.1425		-0.622128		-0.742164		0.283198		-0.502202		-0.316594		0.67002		-0.170895		-1.283		-0.234999		0.422986		0.838965		-0.71832		-0.396565		-1.04242		-2.32634		0.91059		0.811641		1.57638		-0.724153		-1.24161		-0.499062		0.0102325		-1.31101		0.706453		-0.494494		-0.847559		1.08749		0.389231		0.237806		-0.630905		1.42967		-1.4663		-0.542084		-2.3326		1.62138		-1.03578		-0.901406		0.000197357		0.179178		0.261114		1.45626		-1.01305		0.442625		-0.994625		2.13784		-1.16876		-0.0910715		0.0743677		-0.639504		-0.852341		0.215086		-0.834665		-1.4648		1.75323		0.569586		-1.18201		-0.556264		-0.763788		1.20156		-1.08033		0.117361		0.266041		1.43426		-0.61968		0.531191		-0.932189		-0.521879		-0.707688		0.189279		1.08352		-0.918743		-1.34356		0.189862		-1.90074		-0.341019		0.404211		-0.188472		-1.02434		1.2632		-1.0331		-0.446874		0.517987		-0.19834		0.583324		0.114703		-1.71705		0.427384		-0.035302		0.850213		0.651911		1.22314		1.19971		-1.10952		1.06315		-0.255837		0.395835		-2.86317		1.30796		0.716923		0.616586		0.147045		0.889824		0.128867		-0.230527		1.33047		-0.57324		-0.0953511		-1.08955		1.30217		1.58508		1.35148		1.30255		0.899272		1.83618		-0.885189		1.29771		-0.945528		2.06766		0.304255		-0.598326		-0.658248		0.432099		0.730366		-0.464681		1.20914		0.89686		-0.0431863		0.761025		-2.01923		-0.214366		-2.44318		0.396629		0.688062		0.417594		0.346019		-0.141903		-0.302541		-0.793373		0.0543592		-0.702688		-0.447584		0.734814		1.43735		-1.13953		0.321772		0.697524		-0.734145		0.342998		-0.0560569		0.339287		0.72158		0.608441		0.344018		1.46624		-0.284118		-0.300521		0.890675		0.133256		0		
-1.85133		0.0271982		-0.896891		1.7483		-2.01354		-1.70982		-1.0003		1.51896		-0.483326		1.0357		0.638746		-0.665008		-1.71203		0.0684366		0.425889		-0.299744		1.293		-0.316905		-1.26272		0.112779		-1.16719		-0.649255		-0.664659		0.516079		-0.490128		-1.17835		1.25677		0.365545		-0.104877		1.31796		-0.560058		-0.26575		1.27565		-0.433128		1.27589		0.308436		-0.0753809		0.816183		1.5771		-0.0318463		-0.958816		-0.974289		0.30357		1.37788		-0.566816		-0.186927		0.34608		-0.179863		0.133884		0.344237		-0.310116		-0.139287		-1.46699		-1.14664		0.21979		0.668721		-0.710995		0.627143		-0.495235		0.956842		0.392373		0.628675		0.593815		0.91995		-0.207162		-0.237012		1.26979		0.87252		0.492726		0.161916		-1.4293		-0.0599262		1.26693		-0.195232		-1.37914		0.49857		0.000183284		-0.358588		1.64769		-1.41892		-0.530649		-0.863891		0.14421		-0.120096		0.395272		0.883675		-2.01944		-1.33804		-1.20064		0.847375		-1.38608		-1.34528		-0.658287		-1.04536		-0.0902099		-0.63677		-0.236187		-1.80941		1.07033		0.638962		1.36656		0.811848		-1.02453		2.6442		-1.47064		-0.532854		0.309107		-0.201925		-0.795433		0.549872		0.829519		-0.0992808		0.182037		0.814139		-0.573734		0.108734		-1.04759		-0.609382		0.283758		0.415521		0.276507		0.791766		1.66824		0.294272		0.79235		0.821352		-0.133059		0.704521		-1.03486		-0.149023		0.195723		-1.14974		-0.395357		-1.94555		1.82444		0.117276		-1.29271		-0.130088		0.730378		0.941542		-0.403794		-1.5095		-0.968329		-1.52794		-1.37001		-0.0796058		1.1214		0.592507		0.349159		0.232569		0.462252		1.36329		2.58164		-1.86264		0.140122		0.188342		0.32791		-0.364642		-1.11062		1.88114		0.811204		1.93601		0.359817		-0.563318		-0.124733		0.00494226		1.34058		0.0113681		-1.7383		-0.519672		-0.0412602		-0.168799		0.590702		1.0036		1.15098		1.15427		1.28596		-1.34055		1.03035		0.153812		1.07098		0.602022		-2.00158		0.193955		-0.578036		-0.128565		-1.09022		-0.497516		0.285513		2.0871		-0.745015		-0.0872908		-0.468675		1.25603		0.938499		0.116558		-1.30678		-0.69613		-0.682749		0.57312		-0.896627		0.457513		2.53338		2.15863		1.71089		0.595382		-0.79652		-2.03396		-1.36054		-0.230652		0.385639		-0.0582324		0.954638		0.05811		-1.48021		-2.21608		-3.29838		-0.13572		0.204093		0.137622		1.67038		0.810953		1.14087		-0.907484		0.828818		-1.046		0.834945		1.61343		-1.0511		1.40358		0.805883		2.77859		0.637194		-1.30712		-0.328935		-0.539539		0.632754		0.516827		1.47731		0.437089		0.347474		0.360747		1.2784		-0.022493		-0.925707		2.01723		-2.20197		-0.22906		-1.41926		-0.104712		0.925068		-1.41686		-0.119518		-1.72078		-0.460159		1.23573		-1.38344		1.24915		-0.0563468		1.06356		0.572395		1.19506		0.135983		0.628237		-0.426913		-0.285676		-1.03106		0.533271		-0.445552		2.05768		0.841817		0.00935132		0.223357		0.722776		0.334614		1.27274		-0.0160856		1.24257		-0.787736		-0.451591		0.232065		1.22619		0.434736		-1.06736		-2.98823		1.26869		-0.0618391		-1.42141		1.62643		1.24137		1.38537		-0.0355786		0.249945		0.392577		0.879717		-0.960734		-1.7595		0.506602		-0.754028		0.0463055		-1.61108		-0.983162		-0.305805		-0.0377104		0.459083		0.715154		0.843514		0.0601557		0.840422		-1.56287		-0.556616		-0.611039		0.273124		1.35459		1.43168		-0.796381		0.941861		0.0692407		0.226263		0.00017269		-1.42913		-1.02965		0.654632		-0.393748		-0.965293		0.511622		2.07063		0.170574		1.07602		1.63809		0.178886		0.531139		-0.124557		-0.525002		-0.327902		-0.539895		-1.3928		0.71013		-0.824822		0.115046		0.172699		2.72667		-1.86969		-0.267858		0.825635		-0.790547		0.342241		0.144098		1.02183		-1.15229		-1.00395		0.294635		2.02457		-0.983351		0.60087		0.828376		1.31491		-1.42151		0.4832		0.252979		0.350083		-0.244927		-0.869444		-1.64333		1.27378		-0.324678		1.21738		1.12012		-0.063071		-0.12766		-1.16488		-1.0098		-0.265853		1.05565		-0.597697		-1.56489		-2.10269		-0.299501		0.63994		1.01964		0.0430999		1.19178		-0.777617		0.141602		0.435628		-0.820079		-0.316651		0.254645		-0.844762		0.317926		1.07127		-1.03432		0.158989		0.828733		0.0722985		-0.195384		0.343822		0.0594531		2.20559		-0.621874		1.79897		1.29829		-1.48984		-0.794444		-0.922044		-0.158399		-0.87617		-0.595397		0.431666		-1.8914		-0.511542		-0.0973457		0.719143		-1.52845		-0.450307		1.70404		-0.22165		0.440234		-0.780094		-0.605023		0.570024		-0.854616		0.324126		-0.955066		-1.0164		0.122531		-0.992681		0.153214		-1.45158		-0.726788		-0.0784023		-0.596824		1.16352		0.910913		0.481807		0.298392		1.47473		1.70236		-0.810647		0.483802		0.520125		0.0720702		1.30071		-1.10596		-0.301484		-0.0885891		0.623671		2.21333		0.144431		0.961669		-0.762301		-0.412377		2.06044		0.92808		0.152209		-1.04738		0.8068		0.795865		0.381611		-0.258156		0.227922		0.053261		0.328056		-1.50722		-0.129688		0.272231		0.688981		-0.36589		0.871769		-1.22979		-1.06835		3.51979		-1.10019		-0.457408		-1.40536		0.76473		-0.467201		1.18413		0.251786		-1.51768		-0.94974		-0.689647		-1.50807		0.558554		0.484577		-0.638784		-0.512833		0.774251		-0.038871		1.41763		-1.07298		-0.132624		-0.649901		-0.462981		-0.388311		1.00652		0.114798		-0.961492		0.0617259		-0.758791		0.589588		-0.0961864		0.103293		-1.17926		-2.04252		-1.02722		1.24487		-1.90221		-0.945966		-1.48638		0.904273		0.106378		-0.827481		-0.698207		0.0259677		0.091383		0.540867		-0.899929		-0.93102		0.0703529		-1.91666		0.152209		1.49908		-1.30726		-0.722862		-0.496541		0.0908363		-0.695559		1.47045		0.886989		-0.0808708		0.953159		0.781905		0.649277		-1.58934		-0.0686724		0.322911		0.224303		-1.65278		-2.1458		-1.10686		-0.540806		-0.360882		-0.73834		2.63643		-0.0365741		-2.34608		1.05426		-0.761154		2.00532		0.50717		0.368825		0.338751		0.652882		0.477288		0.937221		-0.587387		0.818489		1.99291		0.0530473		-0.37346		0.378676		-1.20888		-2.96785		1.06903		-0.195325		-0.269522		-0.263183		-1.45214		2.2664		-1.77859		-0.785586		2.35891		-1.36628		-0.578166		-0.721187		-0.338742		-0.532214		-0.622352		-0.734737		-0.0946155		1.17895		1.24796		0.587389		0.68814		-1.67795		1.31919		-0.230349		0.115492		1.84501		-0.813072		1.3398		0.328655		-0.312353		0.0912001		-0.207437		-0.930944		1.15742		-0.201853		0.00084076		-0.630533		-0.63887		-1.29285		1.3695		0.0580236		0.94408		0.00616992		-0.0929489		-0.503981		0.515137		1.18487		-0.531485		0.48018		-0.331621		0.0578018		1.73787		1.06329		-0.5879		-2.25284		0.775808		-0.62034		0.17539		-0.0304068		0.438166		-1.81903		1.30134		0.511917		0.514186		1.40094		0.17304		0.67324		0.102869		0.055488		-0.71805		1.6157		-0.404139		-1.28491		-0.740506		-1.56377		-0.0413913		-0.082571		0.529328		-0.139837		0.109039		-0.146623		-0.332749		1.15727		-1.01267		0.10581		-0.697174		0.169024		1.05468		-0.270359		1.27204		-0.499803		-1.06731		-0.0112771		-1.34957		0.0667742		-0.232326		-0.175107		3.17047		-0.409499		1.17416		-0.87117		-0.426245		0.592695		1.45526		0.236958		0.715265		-1.37054		1.86804		0.203955		0.180788		-0.423596		-1.70682		0.155205		-0.740162		-0.521966		0.409309		0.679912		0.837328		-0.632972		1.38082		-0.847839		0.26478		-0.24935		0.523968		-1.10921		-0.171958		1.55217		0.300579		-1.45737		-0.393154		-0.823089		1.37851		0.244702		0.963454		-0.258304		-0.423374		1.22356		0.598572		-0.409438		-0.945786		0.0112869		1.38915		0.133256		-1.76762		0.213882		-0.247176		-0.800844		0.677842		0.715148		-0.769823		0.589247		0.103889		-1.30487		0.33037		1.4976		-1.4856		0.312955		0.998657		0.698547		-1.59147		-0.394206		0.506813		1.25424		0.245691		0.869125		0.0469112		-0.701818		-0.899163		2.57636		2.5278		-0.406794		1.3001		1.72637		-0.846076		-1.48		-0.0832235		-0.594662		1.15382		-2.09443		-0.114465		-0.101354		-0.97566		-0.591224		0.436136		0.725218		-0.12791		-0.11658		1.06594		-2.04928		0.742081		-0.176268		0.582776		0.14163		-0.0498482		0.549994		-0.256855		1.42382		1.19506		-1.52141		-0.347442		1.00578		0.0226478		0.269256		-0.493175		0.303842		0.524207		0.311657		-0.0617761		-0.310898		-0.253055		-0.506485		0.51767		-0.22061		0.748464		0.996604		-0.276591		-0.711062		0.540556		-1.37952		0.951459		0		
0.307888		0.782145		0.538586		1.32285		1.24105		-2.15406		1.06408		-1.23761		0.774855		0.968831		-0.381091		1.25273		0.759915		-1.49568		0.878926		-0.872947		-0.540618		-0.235631		0.249688		0.149992		-0.225622		-0.723013		0.205648		-2.1928		-0.644302		0.459664		-0.568775		0.0744345		0.523362		0.73195		-1.72151		-0.203235		1.33341		0.506897		-0.623754		-1.22926		0.966653		-0.695551		-0.590226		-2.26259		0.517		-0.544388		1.3165		-0.533782		-1.28558		-0.165091		1.52645		-1.159		-1.32538		0.00280047		1.37255		-1.99394		0.424681		0.206465		2.034		-0.227891		0.93267		1.26082		0.346474		-0.764669		1.39766		-0.0764219		-0.156287		1.49178		-0.555489		-1.84634		-0.549501		-0.259592		-0.937119		1.15873		-0.211597		-0.0288557		0.874365		2.2089		-1.67668		-0.553559		0.0482433		-1.15935		1.34641		0.160903		0.686378		-0.812723		-1.29866		0.218675		0.265397		-0.669893		2.19399		-0.276132		1.25325		-0.071469		0.209312		-0.657461		-0.297162		-1.66186		0.876003		-1.31916		-0.10507		-0.814751		-0.350633		2.53265		0.976813		2.71969		1.46445		0.613682		1.94477		1.48488		0.552677		1.21782		-0.275157		-0.0773171		0.823117		0.0558778		-1.45953		-0.242129		-1.32772		0.168351		0.0984647		-2.15083		0.472636		0.874321		-0.840356		-0.630347		1.30531		-0.107438		0.116745		-0.427481		-2.16958		0.772986		-0.288363		-2.1102		0.34824		0.00911898		-0.146253		-0.251334		-1.47672		1.09919		0.125063		1.48102		0.711742		-0.356101		1.33961		-1.24497		1.04212		-0.132087		-0.547005		-0.447248		1.38611		-1.41524		0.499954		2.01526		-0.393085		0.198345		-1.15762		-0.490805		0.716361		-0.937394		-1.27211		-0.369417		-0.961455		-0.982215		0.00967743		-0.167773		-1.33237		0.805599		1.22101		0.0175588		-0.288182		-0.487609		-2.36326		-0.604578		-0.245186		0.501494		0.083486		0.782617		0.42539		-0.649844		2.01152		-1.1399		-2.81159		1.13368		-0.816978		1.46831		0.838227		-0.170705		0.035454		-0.278042		-0.824316		1.273		-1.31207		-2.46877		0.231615		0.821633		1.72475		0.226934		0.797091		0.0919082		-0.440582		-0.833132		0.159031		-0.151563		0.995269		0.581537		0.377968		2.39639		1.4749		1.70122		-1.11838		-0.807262		-0.149201		0.141025		0.124151		-0.325367		-1.52091		0.184653		0.857965		-0.230493		-1.13994		-0.681412		0.528546		-0.398116		1.85194		-1.51139		-0.370284		-0.215217		1.36224		0.204324		0.2556		1.7525		1.04868		-1.79522		1.27776		-1.94668		0.836159		0.945183		-1.05357		0.739272		1.63886		-0.641487		0.935133		-0.856123		1.07372		-0.673921		-0.981783		1.25889		1.85044		-0.85499		0.193552		0.284425		-0.782775		-0.810381		0.847503		0.664921		-0.252107		1.56188		-0.558951		1.44266		-0.24934		1.53429		-2.05762		-0.645468		-0.631673		1.58996		-0.615805		-0.215145		-0.899027		0.740016		0.946906		0.0490868		-0.531473		1.29671		0.193972		-0.97587		0.361317		0.393879		0.190718		0.59113		2.0665		0.470905		0.522688		-1.05251		0.849225		0.729735		-0.204338		1.04734		0.453464		1.27192		1.2173		-0.910132		-1.62405		-2.21105		-0.811831		1.00104		-0.519051		0.63843		-0.545515		1.74174		-0.203363		0.324732		1.15581		2.6998		-0.424281		-0.0108135		-0.610091		0.551384		0.269558		0.924442		-0.861009		0.969662		-0.686522		-0.178275		0.279661		-0.510309		0.062455		0.251956		0.331438		0.789832		0.254348		0.635339		0.706773		0.838419		0.124878		0.224991		0.045661		-1.42229		-0.503947		0.119541		1.50586		0.215613		-0.160488		1.20768		-2.53534		0.538251		0.407691		0.201269		-1.30273		-0.107566		-0.544593		-0.254618		1.7003		0.470466		-0.931056		1.67169		1.58026		1.56584		2.13858		-1.33146		0.37576		-1.03461		1.42027		0.468377		-0.175055		1.14279		0.745924		-0.305508		-1.47962		-0.71028		-0.249325		-0.930362		0.0527833		-1.87824		0.128545		-2.56342		0.326811		-0.179226		0.900536		0.479557		0.820477		0.108525		0.0797989		1.68799		-0.00625629		-0.0516968		1.14606		1.26587		1.51596		-0.30623		-0.314249		-1.83635		-0.389406		0.282041		-0.22904		-1.84234		-0.313997		0.844189		-1.05155		1.08278		-0.230396		-2.66314		-0.796281		0.13435		-1.06141		0.440342		-0.398701		1.22947		-0.986186		-1.28995		2.51828		-1.1793		0.967996		-1.76368		0.146322		0.548133		0.913079		-0.062937		-0.196854		-0.304511		1.74408		-0.590646		-1.42234		0.0037536		0.60421		0.873014		0.179219		0.21918		1.01371		1.21684		-0.4881		0.0633265		1.26798		0.407668		0.930158		-0.360188		-1.39477		-0.885364		-0.16019		0.479337		-1.60609		-1.94547		-0.844014		-0.16587		0.581806		0.747208		-0.0394866		-1.14908		-0.493015		1.07813		0.0463145		-0.960062		0.160873		-0.000269639		-0.124287		0.111648		-0.423937		0.126482		-0.923952		1.20764		1.9403		0.196774		-1.65454		-0.0538996		1.92237		-2.44624		0.629167		0.0410889		-0.486942		0.323845		-0.856828		0.0337516		1.08278		-0.657514		-0.751934		-1.71915		-0.318934		-1.06138		-0.029074		1.66187		-2.13275		1.30604		0.146363		0.345791		0.0992468		-0.277027		-0.121084		0.0976634		0.889271		-1.89559		0.0685961		1.71768		0.624543		0.943933		0.670638		-1.92781		-0.141308		0.559716		0.237632		-1.67941		-0.340229		0.0429221		-1.42379		1.00111		1.03084		-2.0424		0.544339		1.78841		-1.50449		-1.56813		0.635682		0.588005		-0.000690913		-0.706472		0.855929		0.555852		1.32172		0.249244		0.503529		-0.513154		0.460368		1.53677		-1.88709		0.271386		-0.88627		-0.0552555		-0.111915		-2.24158		0.568601		-1.12905		-0.0561446		1.88192		0.21227		2.14643		0.540112		0.24365		0.914138		-1.38898		0.992464		-0.365002		0.171011		0.523922		0.7668		0.0784422		-0.0107032		-0.645078		-0.651141		-0.994146		0.369899		-0.300775		1.11721		-1.49012		0.580327		-0.797089		1.26808		0.698761		0.101506		0.58197		0.671443		-0.399614		-0.417177		0.0792312		-1.43879		1.15113		1.06046		1.30212		0.168045		0.213961		-0.54466		1.87383		-0.190034		1.92411		0.822935		1.98276		-1.23525		-1.14328		-0.16953		0.176695		-0.314366		1.23733		0.743676		-0.703603		-0.351863		0.789991		1.20829		1.52563		-0.854768		-1.0292		1.10005		1.42023		-0.404651		-0.0128724		0.0262318		-0.123533		-0.0358927		1.30515		-0.859737		-0.162613		0.306423		-2.64287		0.251493		-0.825536		0.566047		-0.220601		-1.15817		0.0793658		-0.83319		1.5593		-2.29866		-0.253423		0.973382		0.764289		-0.0257624		1.42601		0.164195		-0.393501		1.43623		1.37232		-0.995975		2.78146		-0.432562		-0.537713		-1.026		-1.80885		-0.39003		0.0987961		-0.968099		0.362989		0.813853		-0.817508		-0.568954		1.57323		1.34443		0.450792		0.524167		1.51712		-0.414509		1.15309		1.16021		-0.358363		-1.24634		0.368682		1.73541		0.0289907		-0.729455		0.218573		0.766045		0.880996		0.336637		-0.797737		-1.46467		0.170934		-0.0526085		0.737935		0.409184		-1.34711		0.93368		0.612423		0.459669		0.665013		-0.781378		0.892478		-0.399519		-0.105644		-2.03463		-0.78875		-0.367774		-1.08353		1.86185		-1.08419		1.28962		0.380952		-0.208396		-1.75081		-2.12858		1.03376		1.12829		-0.462539		-0.804282		-0.808286		0.426938		-0.487679		-1.6673		1.80016		0.762714		2.39896		0.436132		-0.658739		1.59116		0.380613		-1.07415		0.551387		0.229031		-0.958133		-1.57892		0.762629		-0.00532737		-0.307015		0.293093		-0.633561		0.528497		0.282092		0.2772		-0.156268		0.818983		0.252213		0.205884		-0.779518		-0.842835		1.75838		0.809352		-0.685549		-0.657359		1.43208		0.283729		-1.98169		0.176095		-0.431496		0.678495		0.779738		-1.07391		0.751739		-0.169253		-2.37695		0.130881		-0.264211		0.368189		-0.599369		-0.368033		0.16967		-0.645706		0.253601		-1.10789		0.611427		0.623606		-1.47712		2.23077		0.529738		-0.445721		-0.873579		1.55003		-1.07519		-0.539682		-1.66249		-0.455793		-0.358691		0.253494		2.15003		-1.76948		0.210776		-1.78283		-0.506308		0.868526		-1.40386		0.821021		0.879143		1.01974		0.393108		0.0655634		0.737734		-1.43355		-1.56715		0.310945		0.326493		0.437016		2.2243		0.0479976		-0.0705271		-1.53286		0.181661		0.642793		1.44716		-0.055132		-0.253577		-2.56155		-1.07953		0.464019		1.09528		0.558282		2.21701		1.56712		-1.13667		0.144316		-0.354344		0.0833167		-0.314181		-1.04931		-0.671951		-0.568415		1.6128		1.02433		-2.07363		-0.8731		-0.381173		-0.212442		1.23594		-0.346426		0.000952384		0		
-1.49679		-0.431705		-0.332673		-0.313234		-1.16139		1.00817		0.383951		-0.566509		-0.117313		1.13332		-1.1152		-0.741413		-1.08971		-0.562356		-0.967214		1.01497		0.00949091		-0.148836		-0.72637		-0.385005		-0.903382		-1.70254		0.259969		0.18186		-1.65701		-0.549347		0.548088		0.320138		0.234242		-0.465852		-0.339617		1.10598		-0.985265		-0.63894		-0.532073		-0.919646		-1.18034		1.31523		-0.36913		-1.15026		-0.627644		0.0276689		0.990086		-1.71003		-0.571074		-0.0201768		1.08979		-0.818474		-1.5962		-0.529005		-1.31179		1.00275		-0.0693226		-0.454899		-1.01711		-0.431448		-1.64493		-1.57473		1.66642		0.179218		-0.968477		0.420222		1.04472		0.156092		-0.414846		0.190363		0.198116		-0.805356		-0.425189		1.30809		0.371142		-0.733646		0.843089		-1.28755		-0.882347		-0.0582442		0.856328		-0.20316		-0.626889		0.517765		-2.18748		-1.29244		0.00319134		0.794919		0.0901099		0.182433		2.03972		-0.0427122		1.83349		-0.802162		-1.57546		1.96352		-0.823945		-1.69995		0.268012		0.366093		-0.212718		2.08548		-0.424937		-1.34719		-0.111516		1.95732		0.397495		-0.121256		0.961573		-1.70547		1.40709		0.611498		-0.857342		-1.14082		-0.58163		0.273901		-1.22609		1.05652		1.36303		0.697198		0.600849		-1.08721		0.135012		0.402345		-1.13598		-1.02221		-2.30253		1.56889		-1.26253		0.289509		0.219526		0.414424		1.14841		0.669433		0.975092		0.282428		0.644253		0.232102		-0.261152		-0.472514		0.0424806		-0.259741		1.79408		-0.627338		-0.62453		0.30325		-1.31003		-0.941664		1.83881		-1.40454		-0.0241955		-0.121089		0.22204		-0.168463		0.788503		-0.719112		0.0820225		0.662024		1.55089		0.720673		1.02846		-2.05348		0.826495		-1.0825		0.494466		0.36062		-0.208909		0.829116		-0.841932		-0.353786		-1.50715		0.0935223		2.19416		0.806206		1.03473		-2.03133		0.100123		0.361561		0.267539		0.230635		-0.660821		-0.91287		0.80164		-0.775008		1.17413		-0.445329		0.925922		0.898714		-0.638299		-1.81921		0.696786		-0.34048		1.38702		-1.59086		-1.01707		-1.28856		-1.11687		1.3572		-0.703306		0.993166		-0.367787		1.01384		1.84178		0.255528		0.942864		1.46484		0.721823		-0.111785		-1.47836		-0.573594		0.906763		-1.52307		-1.79026		-0.927096		0.111159		0.111863		0.405502		-0.885661		-0.855194		-0.888782		1.02523		0.253713		1.79748		-1.2217		0.277852		1.06842		0.00224167		1.27702		1.33119		0.274042		-0.402898		1.78517		-0.203175		0.42744		0.547691		1.25059		0.124572		-0.836278		0.111239		-2.00279		-1.86735		0.0183982		0.430044		1.02506		0.734281		1.0885		0.887886		-0.538738		1.29986		0.381466		1.56335		-0.618068		-2.04853		-0.773522		-0.0805966		-0.905041		-0.119018		-1.32126		-0.415371		1.85734		-0.363393		-0.706727		-1.33558		0.917903		-2.334		0.205283		-0.380817		-0.00529998		1.00413		-1.63326		-0.313577		0.110011		-0.8717		-0.5806		0.810877		-0.607283		-0.769186		1.18346		-0.906966		-0.99412		-0.591861		0.398809		1.0485		-1.09821		1.36305		-1.2362		-0.223035		0.322024		0.369942		-1.08525		-0.276549		0.632472		-0.120288		-0.748192		1.30182		-0.0152711		2.04847		-0.152115		1.90184		-0.299599		-1.14026		-0.264244		0.635699		1.59555		0.701268		-1.62705		-1.19243		0.398318		-0.366776		-0.752116		0.647087		0.0824643		-0.0257796		-0.326584		-0.862303		-0.161536		1.63142		0.512694		-1.07669		0.199931		0.117414		-0.74975		0.94714		-2.3658		-0.154491		2.31908		-1.23178		-0.260675		-1.48494		-0.275092		0.546634		0.381554		-0.852394		-0.475524		0.439669		-1.35822		0.655306		1.42833		2.14351		-0.0217024		0.220805		1.22146		0.705463		-2.36661		0.423979		-0.754587		0.315356		0.304389		0.715986		0.0830788		-0.562999		-0.94513		0.727098		-0.0813701		0.610413		-0.835012		0.467264		0.294895		-0.14587		0.65687		-0.657457		1.13322		-0.206223		0.415652		0.75018		1.13295		-0.391737		0.276773		1.15963		-0.817363		-0.966727		-0.706164		0.901501		0.221554		-0.412799		2.26827		-0.473425		0.747102		-0.013837		2.32419		-0.209969		0.284681		-0.288668		0.55112		0.773691		-0.204899		-2.43035		0.730932		0.0515862		-1.30638		-0.559819		1.09648		0.175162		0.410736		1.67604		-0.386499		1.3223		-2.24323		0.40412		-1.09285		-0.686568		0.232959		0.392591		-1.11832		0.276798		0.563345		-1.11113		0.267774		0.873016		1.72627		-0.991468		-1.7172		-0.339389		1.3454		0.356158		-0.0557997		1.99096		0.621615		0.735755		1.32857		0.19944		-0.228216		-0.464628		0.999341		0.467442		0.290155		-0.903789		-0.526039		0.878282		-0.0144062		0.185505		1.05788		0.0932635		-1.24234		-0.337174		-0.379472		-0.904155		-0.188357		-0.00489663		1.07413		-1.75341		2.18712		0.345177		0.700478		1.7615		-0.0915352		0.207289		-0.630878		0.840339		-1.5399		-2.04961		-0.328325		0.156953		0.163822		0.853774		-0.823793		0.812606		-1.30391		0.78022		-0.998699		0.607748		-0.935891		0.116126		-1.03888		1.56608		0.575871		1.14374		1.92986		0.121955		-1.13683		1.5365		1.65109		-1.61661		1.97599		-0.892342		-0.682718		-0.889389		1.95183		0.0522759		0.673834		0.788136		-0.0664077		-1.68299		0.420846		1.32352		-0.828212		-0.587178		0.373903		-0.934455		0.49422		0.431047		0.204268		-0.313914		1.23761		-0.0791473		0.301824		0.726276		-1.56355		1.00782		1.50615		-0.614634		-0.510102		0.584699		0.0579618		-0.0811995		-0.566511		1.39228		-0.0430616		0.0701422		-0.169543		0.212565		-1.63437		1.64145		0.719905		-1.52807		0.303222		-0.354962		-1.1329		1.50144		-0.365459		-2.11848		0.0506639		0.130979		1.64507		-1.44844		-0.476297		-0.720632		-0.491331		0.265442		0.161477		0.90872		-1.15797		-0.60515		1.03092		0.0233833		0.487733		0.224882		-0.379353		0.538448		0.644689		0.304759		1.26316		0.0164339		-0.0821144		1.81494		0.769249		-0.526262		-0.425902		-0.302297		-0.82648		0.257557		0.325037		-0.122327		0.890924		0.401547		0.104639		-0.300964		0.444894		1.43496		0.900526		0.410559		0.530274		1.25812		0.6505		-0.877008		0.989297		0.599707		0.33872		2.4958		1.01112		-0.385061		-0.543323		-1.84266		1.28591		-0.287836		-0.572599		2.18824		-1.22705		-0.177795		-1.09822		-0.612599		0.269226		0.34311		0.157199		-0.858725		1.54949		1.20979		0.0736917		-1.78259		0.653393		-1.00223		-0.719674		-0.257059		0.989869		-1.40026		-1.73441		0.87396		0.34014		0.174026		0.366677		-0.92134		0.332687		0.237391		-0.289987		0.434421		-2.35234		-0.83024		-0.197031		-0.446313		3.72705		-0.461374		2.37121		1.93817		-1.19305		0.0674635		0.24579		-0.137832		-1.66991		0.0666941		-1.45756		0.634086		1.22544		-0.720158		1.33215		1.27013		-0.65943		0.301565		-0.489281		-0.728545		-1.73161		-0.446084		-0.797073		0.803376		0.0880169		-0.440575		0.0756455		-0.947448		0.334549		0.177829		-1.07596		0.166965		0.562117		0.439202		0.953987		0.322176		0.181245		-0.612918		0.997615		0.583728		0.727828		-0.248838		0.816525		2.56142		0.611891		-1.52097		-1.09279		-0.63703		0.487866		1.76152		-0.722963		0.259669		-1.29873		-1.26462		-1.46987		-1.13226		0.554055		-0.521783		-0.968106		0.742921		-1.0164		1.04404		2.05033		-1.01774		0.325672		-0.0304374		0.806892		-0.284644		0.14717		0.535996		-2.53835		0.829856		-1.44469		1.73336		1.08163		-1.31425		-0.756875		1.31639		2.15229		1.32623		0.0905238		0.964416		1.17407		1.13477		1.47374		-0.0888067		0.962101		0.556836		-1.64785		-0.205858		-1.12056		1.73954		0.141346		0.0322339		0.159854		0.539556		1.53564		-1.17499		-0.022148		2.55326		-0.942573		-0.206041		0.683469		-1.54914		1.32287		0.56312		-2.06723		1.96534		-1.38571		0.486369		-2.1003		0.415702		0.130574		-0.0465338		-1.61983		1.39266		0.158618		-1.67894		-0.584991		1.87001		1.14564		1.60977		0.265653		-0.83678		0.0386666		-0.717223		-1.58321		0.618099		-0.85278		0.726811		-1.31134		-1.13069		-0.136056		1.63445		0.0854008		0.287145		-0.430157		0.0455973		1.00897		-1.12927		1.14933		2.07688		2.75023		0.855481		0.286579		1.7459		-1.13727		0.432496		2.07698		0.795974		0.555782		-0.00298399		-0.181621		0.0278332		0.0254462		0.635713		-0.42745		0.634341		0.139501		0.21225		0.422159		0.304407		0.889263		-0.474168		-0.33968		-1.07111		0.591529		-0.875299		-0.0171253		-1.21339		0.170168		-0.329894		-0.242698		-0.0308447		-0.930019		-0.68469		1.65157		-1.31785		1.38623		0		
0.0612313		-1.83867		-0.386587		-2.22002		-0.699847		0.998899		0.978524		-1.86198		0.838846		0.496738		-0.139032		-1.7986		-0.862479		-0.0582419		0.643787		0.401122		0.202905		-0.957509		1.14715		-0.0584279		-1.56959		-0.286959		-1.64385		-1.40148		0.149162		-1.12149		-0.812579		0.606462		1.06592		0.743996		1.09848		1.18728		-0.386036		0.708129		0.807893		-1.67386		-0.611068		0.167711		0.847164		1.72481		0.76397		-0.326265		1.15067		0.565579		0.111753		-0.519457		0.527092		-0.745858		0.58998		-1.7107		0.0377899		0.827503		0.365749		-0.918649		-0.863639		0.070343		1.78121		0.789691		1.11442		-0.532936		0.51477		0.713831		0.491834		-0.0627055		0.305132		-0.406189		0.0764869		-0.0606598		1.71849		0.870665		-1.08065		-1.54364		1.27042		-0.941999		0.99281		0.316626		-0.0132779		0.0448809		0.758804		-1.02594		0.168038		-0.106492		0.260438		-1.32554		0.382893		-0.0962982		0.729295		-2.02052		-1.63188		-1.21136		0.194027		0.325567		-0.291558		-0.483714		0.227051		-1.28761		0.687116		-0.539488		0.114915		1.43978		0.356106		-0.649773		1.04181		0.228108		-1.03972		-1.66319		2.01687		0.100282		0.204002		-1.91353		-0.0411494		-0.848912		-0.568937		-0.850496		0.613304		-0.258108		-1.04403		0.353274		0.943091		1.66505		-0.511256		1.3915		-2.05098		-2.96992		0.0187201		1.04893		0.62342		-1.76769		-0.307601		0.531542		1.22671		-0.383803		-0.601423		0.160214		1.3906		-0.4149		0.196959		-0.136259		-1.47764		0.249259		-0.279096		1.08641		-0.0899054		1.37467		-0.371572		0.437247		0.0631302		1.58912		-0.560413		0.421939		-1.11537		-0.0950685		1.74725		0.855661		1.58459		0.326055		-2.14705		1.08385		1.31344		0.615519		0.594737		-1.10521		2.16697		1.50074		1.87471		0.784899		0.278044		-0.831134		0.271293		2.31816		1.11196		-0.175365		-1.12069		0.0167049		-1.51389		-0.597539		-0.708318		-0.536351		1.24883		-0.824523		0.965928		-0.567561		-0.321176		1.93429		-0.630886		1.60818		0.617699		-0.209137		0.228273		0.156335		0.627017		0.159101		0.119279		0.690092		0.0115792		-0.388993		-1.46233		0.387478		0.228551		1.05126		-0.316624		-0.395765		1.02278		0.491112		1.09773		0.154189		0.10782		-1.15529		0.0803212		0.297672		0.221443		-2.20925		0.234746		1.36255		-0.557696		-0.641823		-1.32452		-0.195154		0.195556		0.353896		1.58594		0.0651454		1.04642		-1.15151		0.883005		-0.463626		-1.64647		1.12064		-0.0328847		0.256178		0.36988		-0.227019		1.33923		-0.503994		0.289762		1.23568		-0.2134		1.05739		1.6692		-1.33752		-0.0335623		0.127632		0.207093		1.02123		-0.639258		1.0641		0.152561		-1.00891		0.812052		0.0641486		1.43723		1.5807		1.31311		0.612042		-0.248236		-1.8158		-0.472467		-0.753726		-0.328396		-1.48533		1.42332		-1.37388		-0.835165		1.24306		-0.0543353		-0.0226546		-0.0353435		0.0689842		-0.188825		1.1384		0.827137		1.31968		-0.912581		0.844793		-0.151318		1.03165		-0.0870461		-0.475075		-0.426686		-1.51588		-0.829872		1.22957		-0.352259		0.364488		0.0572991		1.23362		2.23149		-0.414768		0.990281		-0.588205		0.710398		-1.08253		-1.38501		1.37558		-0.44013		0.680039		-0.628145		0.579713		-1.00014		-0.97412		0.20882		0.223533		0.106702		-0.366221		-0.902028		-1.31491		0.0667382		0.857791		-0.459662		-0.786668		-0.970609		-0.110429		-0.0814986		0.981603		1.66152		0.186269		-0.643045		1.48384		1.38011		1.73343		-0.640217		0.818485		0.0752039		0.451836		-2.27323		-0.749279		1.40658		0.085409		-0.167216		-0.717054		-0.15126		0.235496		-0.939248		-1.92632		-2.3952		-2.7852		-0.0180853		0.112369		-0.103789		-1.49507		0.923978		1.8179		0.252658		-0.43632		-0.355395		0.326679		-2.12775		0.521453		-1.12494		-0.462986		-0.450429		-0.583232		0.314904		-1.0947		0.93939		-0.0856866		-0.598163		-0.112669		1.1337		-0.28181		0.529921		0.640803		0.00373607		-0.273909		0.0482055		-1.93113		-0.591625		0.355451		-1.11374		1.07347		-0.0595019		0.483582		-0.773186		-0.735389		2.33056		-0.29135		-0.29805		-0.214748		-1.15755		1.18716		-0.983415		2.22501		-0.071105		0.518023		0.0644965		0.81954		0.214744		-1.52079		-1.07579		-3.05855		0.618072		-0.500733		-0.369784		1.39729		0.406689		0.856432		-2.09971		-0.671677		2.48044		-0.683876		0.787264		1.04502		0.0995128		-1.81488		-1.10095		-0.705064		-0.548876		-0.543078		-2.68375		0.591453		-1.24043		1.3157		-0.790519		1.04315		0.031312		-0.980937		-0.899626		-0.748621		-0.680847		-1.20738		0.284377		0.146956		-1.28853		-0.156595		0.703781		0.0776571		0.096533		0.48417		-2.18324		-0.728729		-0.222281		-1.41079		-0.589033		1.05552		-1.57135		1.80157		0.167246		-1.10719		-1.67042		-0.751082		2.4903		-0.318217		0.650895		-0.48155		-0.312745		-0.646683		1.76928		1.05117		0.417523		1.14717		-0.405758		-0.731808		-0.433787		1.70478		1.21652		-1.64858		0.0113386		-0.200481		0.598337		-1.82815		0.137789		-0.604153		1.46773		1.59633		1.03869		0.657553		-0.0645858		0.665945		1.26677		1.11456		0.770034		-0.576557		-1.07595		-1.4939		0.426194		0.915131		0.948924		0.765492		-1.0497		-2.71546		-1.67962		-1.32427		-0.944494		0.0909994		-1.36367		-0.182182		-0.128651		0.843359		0.17315		0.399503		-0.0325008		-0.877461		1.69705		0.447429		-0.456232		-0.648726		-0.382498		-0.105265		1.48662		1.7174		0.497102		0.130272		-1.16946		0.615983		-0.634703		-0.297707		-0.613642		-2.41963		-0.831171		0.756872		1.46051		1.07345		-0.911415		0.0246507		0.771669		-1.50554		-1.90132		-2.11942		-1.17522		0.813857		1.41324		1.48951		-1.1071		0.602505		0.111955		0.374021		0.0929302		0.161631		-1.4525		0.805864		-0.281441		0.702797		1.53871		0.654613		0.828354		-0.332447		0.316608		-1.13128		0.6969		-2.6511		2.19411		0.384615		-1.268		1.04573		-1.04834		0.686605		0.287839		0.713252		-0.348478		-0.764412		-0.146121		0.965126		-2.05088		-1.22375		-1.72921		-2.1022		-0.499065		1.68994		-1.00972		-0.855238		-0.253203		0.551054		0.489289		1.10469		-0.69536		-0.0447474		1.18241		-0.43184		-0.489149		0.988842		0.993072		0.549527		-1.39495		-1.67999		-0.157656		0.71206		-0.836486		0.557073		-1.90386		0.403565		-1.18797		1.00387		-1.06727		-1.34357		1.19794		-0.224847		-0.813423		0.588041		0.213007		-0.434858		-0.0344541		1.02392		0.437181		-0.80435		0.0258923		-1.36088		0.763884		1.27661		-0.481371		1.24674		-0.565384		0.554917		0.553979		-0.515955		-0.295027		1.51044		1.10081		0.257182		2.01807		0.267765		-1.18621		-0.46206		0.279589		-0.00167614		-1.32083		-0.0988228		-1.46036		-3.96382		-0.755913		-0.0800006		0.703675		0.190262		-0.412959		-0.224421		0.214076		0.760243		0.358518		2.03749		-0.346613		-0.0643403		-1.55868		-0.108256		0.865721		0.322993		-1.12245		-0.776595		0.753722		-1.0211		-0.993194		-2.16678		0.597737		0.540679		-0.744774		-0.37555		2.03169		-0.0975455		0.727025		-0.838248		-1.17399		-0.956944		-0.213101		1.75186		1.54396		0.871845		-0.14109		0.35788		0.0232985		0.0458493		-0.388554		0.0632699		0.777134		0.29188		-1.50004		0.656411		-0.663404		0.547241		-0.720321		-1.15897		0.32174		-1.49894		0.952838		0.318039		1.0162		0.0222658		-2.12419		1.62358		0.116352		0.396335		-0.396005		0.247794		-0.9361		-0.457246		-0.991767		0.503963		0.18083		0.630305		-0.627023		0.768116		-0.129664		1.44118		-0.0549047		0.767101		-1.67662		-0.817693		1.15526		-1.29248		-1.11845		1.52737		-0.721319		-0.383723		0.314875		-0.0520567		-0.0916546		-0.245926		0.539169		0.0843708		0.770897		0.161156		0.14681		0.899451		-0.720849		0.506342		-2.24939		0.264675		-0.369071		1.21488		0.142104		-0.680068		-1.91483		-0.11669		2.69479		0.701582		-1.07348		-0.89392		-0.156527		-0.684243		-0.516562		0.325344		-1.41899		-0.305009		0.0317922		-1.15289		-0.892907		2.44721		1.3096		1.34089		-0.91914		0.279934		0.279952		-0.727358		1.84511		0.050674		1.08158		-0.214235		0.883143		-0.191974		0.372468		1.56735		0.998365		0.693048		-0.956617		-1.84964		1.12628		2.41771		-0.770494		-0.796569		-0.148276		0.484803		0.244884		0.64937		-0.267464		-1.57426		1.68474		-0.725384		-1.24539		0.233122		-1.0844		1.55909		-0.667617		0.943238		0.556787		-0.887266		0.893454		-0.0593306		1.14993		0.210194		-0.0442116		0.924669		-0.15674		0.00113397		1.36217		0.0233383		0.914019		0.528367		0		
